tree
version=v4
num_class=1
num_tree_per_iteration=1
label_index=0
max_feature_idx=74
objective=tweedie
feature_names=block lag_63 lag_70 lag_77 lag_91 lag_182 lag_364 lag_rate_63 lag_rate_70 lag_rate_77 lag_rate_91 lag_rate_182 lag_rate_364 roll_mean_7 roll_mean_14 roll_mean_28 roll_mean_56 roll_mean_91 roll_std_7 roll_std_14 roll_std_28 roll_min_7 roll_min_28 roll_max_7 roll_max_28 delta_7_28 delta_28_91 lag_diff dow day week_of_year month quarter day_of_year is_weekend is_halloween dow_sin dow_cos doy_sin doy_cos month_sin month_cos days_since_epoch year_frac is_us_holiday days_to_nearest_holiday days_since_xmas days_until_thanksgiving days_since_july4 school_in_session days_since_school_start days_until_school_start event_count is_covid_era site_month_block_mean site_dow_mean xblock_b3_total_63 xblock_b3_total_91 xblock_b3_roll_mean_7 xblock_b3_roll_mean_28 holiday_x_block weekend_x_block teacher_pred_total teacher_pred_rate teacher_pred_admitted teacher_residual_roll_7 teacher_residual_roll_14 teacher_residual_roll_28 abc_month_block_mean_total abc_dow_mean_total abc_month_block_admit_rate factor_0_pred factor_1_pred factor_0_momentum factor_1_momentum
feature_infos=[0:3] [0:52] [0:52] [0:52] [0:52] [0:52] [0:52] [0:1] [0:1] [0:1] [0:1] [0:1] [0:1] [4:35.714285714285715] [4.7142857142857144:32.714285714285715] [4.9642857142857144:30.75] [5.5178571428571432:30.375] [5.7032967032967035:29.406593406593405] [0.53452248382496037:13.060299712159313] [1.0271051820261772:10.801912732535792] [1.6471074533748196:9.2555574610794977] [0:32] [0:23] [6:52] [9:52] [-6.5:7.9642857142857117] [-5.8598901098901095:4.2637362637362646] [-26:24] [0:6] [1:31] [1:53] [1:12] [1:4] [1:366] [0:1] none [-0.97492791218182362:0.97492791218182362] [-0.90096886790241903:1] [-0.9999994220246925:0.99998555065071859] [-0.99997919295908233:0.9999907524084426] [-1:1] [-1:1] [364:2615] [2018.996577686516:2025.1587953456537] [0:1] [0:52] [0:365] [0:370] [0:365] [0:1] [0:385] [0:385] [0:1] [0:1] [6.8755760368663594:27.677419354838708] [17.498663101604279:18.811497326203209] [6:46] [6:46] [12.857142857142858:35.571428571428569] [14.178571428571429:30.214285714285715] [0:3] [0:3] [9.6176960876358155:31.266395961574066] [0.28243852975038686:0.36825359016450343] [3.1523132087212207:11.127173840348322] [-9.0067122120070664:9.8486291985278456] [-7.5502017063337208:7.3612737072196115] [-6.7806935679394371:5.1316566444223088] [14.420890937019969:43.712698412698415] [30.711452762923351:33.600044563279859] [0.24239536479377907:0.32371051579368254] [-0.28343954166561314:0.32418998067817517] [-0.11363785176067041:0.19952053047303911] [-0.35296246701309941:0.42973792673142502] [-0.25257279448684733:0.21730965772110505]
tree_sizes=1744 1645 1743 1747 1845 1748 1752 1756 1764 1751 1851 1864 1752 1751 1746 1760 1741 1749 1750 1853 1852 1645 1762 1746 1749 1640 1636 1641 1854 1864 1650 1756 1752 1646 1649

Tree=0
num_leaves=16
num_cat=0
split_feature=62 0 62 62 62 49 28 62 19 26 59 11 12 3 50
split_gain=36930.5 12267.6 852.395 372.198 322.041 156.335 97.5476 77.9936 45.3588 39.8587 35.6122 24.3661 15.8911 16.1861 13.6729
threshold=17.211455878545028 1.5000000000000002 27.51235262541022 20.607794817005196 24.906123201227256 1.0000000180025095e-35 1.5000000000000002 28.783189271669556 3.7151309266562476 -0.72664835164835206 25.589285714285719 0.21320346320346323 0.18065268065268067 6.5000000000000009 14.500000000000002
decision_type=2 2 2 2 2 2 2 2 2 2 8 2 2 2 2
left_child=5 3 4 9 -3 8 -5 -4 10 -2 -1 -10 14 -14 -7
right_child=1 2 7 6 -6 12 -8 -9 11 -11 -12 -13 13 -15 -16
leaf_value=3.0714441071912622 3.082405675367164 3.0898635813941771 3.0929671605251317 3.086587190444559 3.0917821927811917 3.0720070949091616 3.0852135492485817 3.093971726444114 3.0731000306078373 3.0838148606830713 3.0747905133001243 3.0776301596736224 3.0690265165632953 3.0711984470074922 3.0686618867926279
leaf_weight=20364.1897072047 10687.37687933445 49859.3043820858 79481.706575870514 31759.718394517899 117987.77625989914 958.24268442392349 59904.446184873581 51883.896943092346 1494.5050512552261 35651.533567726612 1692.2558763027191 951.4203188419342 3490.0371940881014 5835.2807538658381 10350.828867837787
leaf_count=1044 308 743 560 383 1064 41 796 336 69 726 61 38 193 273 572
internal_value=3.0881 3.08988 3.09216 3.08495 3.09121 3.07088 3.08569 3.09336 3.072 3.08349 3.07169 3.0748 3.06957 3.07036 3.06893
internal_weight=482353 437216 299213 138003 167847 45136.8 91664.2 131366 24502.4 46338.9 22056.4 2445.93 20634.4 9325.32 11309.1
internal_count=7207 4916 2703 2213 1807 2291 1179 896 1212 1034 1105 107 1079 466 613
is_linear=0
shrinkage=1


Tree=1
num_leaves=14
num_cat=0
split_feature=62 0 62 62 62 49 48 28 62 6 59 48 43
split_gain=35593.2 11784.4 819.525 357.737 309.437 153.074 94.8761 93.7102 75.0974 51.1082 39.9794 13.0704 12.0928
threshold=17.211455878545028 1.5000000000000002 27.51235262541022 20.607794817005196 24.906123201227256 1.0000000180025095e-35 2.5000000000000004 1.5000000000000002 28.848529086821767 17.500000000000004 26.553571428571434 54.500000000000007 2021.9267624914444
decision_type=2 2 2 2 2 2 2 2 2 2 8 2 2
left_child=5 3 4 9 -3 6 -1 -5 -4 -2 -8 -7 -13
right_child=1 2 8 7 -6 11 10 -9 -10 -11 -12 12 -14
leaf_value=-0.008569604175962477 -0.0049755504473508166 0.0017243514668596898 0.0047917148693928649 -0.0014866378519878746 0.0036051328064003506 -0.014732675674625901 -0.016231074765772471 -0.0028330594582517067 0.0057933724066836605 -0.0035294390227925999 -0.011501898165644979 -0.017465323258966197 -0.018860949370661257
leaf_weight=745.62213373184204 31845.639720678329 49857.393380641937 83506.049857139587 31758.813475847244 117968.02119207382 719.96889543533325 22794.87040220201 59898.250677347183 47814.177382469177 14480.850321173668 882.65194988250732 7200.8180197477341 12625.574532270432
leaf_count=18 692 743 588 383 1064 24 1137 796 308 342 57 467 588
internal_value=-7.31825e-08 0.00174303 0.00397326 -0.00309186 0.00304665 -0.0169411 -0.0158363 -0.00236696 0.00515699 -0.00452481 -0.0160606 -0.0182451 -0.0183641
internal_weight=482099 437129 299146 137984 167825 44969.5 24423.1 91657.1 131320 46326.5 23677.5 20546.4 19826.4
internal_count=7207 4916 2703 2213 1807 2291 1212 1179 896 1034 1194 1079 1055
is_linear=0
shrinkage=0.02


Tree=2
num_leaves=15
num_cat=0
split_feature=17 0 64 64 54 67 28 28 48 47 54 54 18 18
split_gain=34243.3 11353.5 687.193 319.758 260.502 143.38 135.848 88.6567 53.6014 51.6663 30.9106 29.6873 25.8248 2.9618
threshold=11.851648351648354 1.5000000000000002 9.1129123090424802 7.011492085885668 22.106451612903228 -0.11380234003350063 4.5000000000000009 1.0000000180025095e-35 6.5000000000000009 186.50000000000003 7.4850230414746557 6.9630316871253219 1.7043362064927345 2.0586634591634705
decision_type=2 2 2 2 2 2 2 2 2 2 2 2 2 2
left_child=6 3 4 9 -3 -4 8 -5 -1 -2 -10 13 -13 -8
right_child=1 2 5 7 -6 -7 11 -9 10 -11 -12 12 -14 -15
leaf_value=-0.012138730047092733 -0.0036722927600770501 0.0010879149838123347 0.0043154489363095771 -0.0012391401612860781 0.0032558356941170571 0.0055623216935336084 -0.015245940838027803 -0.0027355704960014375 -0.018249263167916675 -0.005177266333718851 -0.016750214793673675 -0.018112706740210566 -0.01431089937962988 -0.01858026607980549
leaf_weight=856.62394636869431 15442.851690888405 29272.196278095245 125008.00748968124 19879.239401102066 91951.483775615692 52849.545112133026 661.68903315067291 79424.531188964844 16653.87416523695 23333.8102632761 12651.793572425842 969.08888792991638 11589.530942186713 1309.8844098895788
leaf_count=30 373 298 919 246 1117 369 30 1064 958 561 628 50 484 80
internal_value=-1.64146e-07 0.00170466 0.00389466 -0.00303865 0.00273264 0.00468636 -0.0166731 -0.00243636 -0.0174581 -0.00457953 -0.0176087 -0.0150313 -0.01462 -0.0175539
internal_weight=481854 437162 299081 138080 121224 177858 44692.5 99303.8 30162.3 38776.7 29305.7 14530.2 12558.6 1971.57
internal_count=7207 4947 2703 2244 1415 1288 2260 1310 1616 934 1586 644 534 110
is_linear=0
shrinkage=0.02


Tree=3
num_leaves=15
num_cat=0
split_feature=62 0 62 62 39 28 28 62 48 62 33 4 33 59
split_gain=33052.6 10873.6 767.161 332.863 305.108 131.693 87.6336 71.7808 51.9412 37.7769 25.3352 28.7087 20.5508 6.21914
threshold=17.211455878545028 1.5000000000000002 27.51235262541022 20.607794817005196 -0.73865259438682551 4.5000000000000009 1.5000000000000002 28.848529086821767 6.5000000000000009 19.276524795409525 96.500000000000014 7.5000000000000009 146.50000000000003 18.839285714285719
decision_type=2 2 2 2 2 2 2 2 2 2 2 2 2 8
left_child=5 3 4 9 -3 8 -5 -4 -1 -2 13 -12 -10 -7
right_child=1 2 7 6 -6 10 -8 -9 12 -11 11 -13 -14 -15
leaf_value=-0.011920760249450314 -0.0053187527542865902 0.0045835129468296291 0.0046061649379366375 -0.0014195272479039474 0.0024826051749214546 -0.018591101162517165 -0.0027216622952714693 0.0055856802790870434 -0.018111621599126711 -0.0040060709381799084 -0.015623895944687039 -0.013305171025274455 -0.016800498045825868 -0.015630711890499464
leaf_weight=855.04049479961395 12175.968242049217 34983.72948217392 83459.722946643829 31756.740875244141 132798.27646708488 874.12513157725334 59886.595627784729 47777.958610534668 11233.607776358724 34127.421958088875 4282.6934219002724 6698.0478302240372 18033.586209729314 2675.8343555927277
leaf_count=30 418 360 588 383 1447 68 796 308 694 616 212 258 911 118
internal_value=-2.63018e-07 0.0016747 0.00381758 -0.00297008 0.00292103 -0.0163884 -0.00227086 0.00496331 -0.0171621 -0.00435276 -0.0147722 -0.0142247 -0.0173104 -0.0164155
internal_weight=481619 436966 299020 137947 167782 44652.9 91643.3 131238 30122.2 46303.4 14530.7 10980.7 29267.2 3549.96
internal_count=7207 4916 2703 2213 1807 2291 1179 896 1635 1034 656 470 1605 186
is_linear=0
shrinkage=0.02


Tree=4
num_leaves=16
num_cat=0
split_feature=62 0 62 62 54 28 28 43 54 6 54 45 18 74 43
split_gain=31845.2 10445.1 737.485 319.903 301.724 128.501 84.1829 71.4831 50.8942 48.6324 28.7383 26.9995 25.8681 20.6109 17.6337
threshold=17.211455878545028 1.5000000000000002 27.51235262541022 20.607794817005196 22.106451612903228 4.5000000000000009 1.5000000000000002 2021.7624914442165 7.8309523809523816 17.500000000000004 6.9630316871253219 1.5000000000000002 1.7043362064927345 0.034820517134328044 2021.9267624914444
decision_type=2 2 2 2 2 2 2 2 2 2 2 2 2 2 2
left_child=5 3 4 9 -3 8 -5 -4 14 -2 13 -10 -12 -7 -1
right_child=1 2 7 6 -6 10 -8 -9 11 -11 12 -13 -14 -15 -16
leaf_value=-0.016485368486076665 -0.004706561663122436 0.0010165784508965946 0.0055911096521550742 -0.0013911807145048274 0.0032529393282941061 -0.018714082792348371 -0.0026674851879300481 0.004560402694378702 -0.011364017408802196 -0.0032959850437681848 -0.017601426571835079 -0.01582141096173189 -0.013808320437999771 -0.013604917403008895 -0.017949585873555846
leaf_weight=7893.4547698944807 31819.000541210175 29270.820418119431 38774.838580608368 31755.948021650314 138491.95615053177 1267.5829659104347 59881.105141878128 92422.47297668457 754.70207750797272 14473.341494321823 961.99969458580017 7533.2757219970226 11572.219945058227 689.31593599915504 13830.59974193573
leaf_count=568 692 298 256 383 1509 81 796 640 25 342 50 394 496 29 648
internal_value=-3.54819e-07 0.0016415 0.00374199 -0.00291108 0.00286295 -0.0161157 -0.00222561 0.00486558 -0.0168816 -0.00426678 -0.0145177 -0.0154321 -0.0141148 -0.0170029 -0.0174263
internal_weight=481393 436889 298960 137929 167763 44503.2 91637.1 131197 30012 46292.3 14491.1 8287.98 12534.2 1956.9 21724.1
internal_count=7207 4916 2703 2213 1807 2291 1179 896 1635 1034 656 419 546 110 1216
is_linear=0
shrinkage=0.02


Tree=5
num_leaves=15
num_cat=0
split_feature=17 0 54 54 49 28 67 6 48 12 12 12 51 3
split_gain=30629.7 10062.8 626.884 239.179 139.822 128.976 127.656 113.701 51.6235 31.4314 30.6385 17.7654 24.0633 17.8491
threshold=11.851648351648354 1.5000000000000002 25.42290349768226 22.106451612903228 1.0000000180025095e-35 1.0000000180025095e-35 -0.11380234003350063 17.500000000000004 4.5000000000000009 0.47493734335839605 0.267948717948718 0.18065268065268067 352.50000000000006 6.5000000000000009
decision_type=2 2 2 2 2 2 2 2 2 2 2 2 2 2
left_child=4 5 3 -3 8 10 -4 -7 -1 -10 -2 12 -6 -13
right_child=1 2 6 -5 11 7 -8 -9 9 -11 -12 13 -14 -15
leaf_value=-0.010001144601877518 -0.0010490421998180879 0.00099626673538229021 0.0040354961026955365 0.0030669185045689709 -0.01811141073211088 -0.0036715943425165939 0.0051678320044179346 -0.0024022000987432984 -0.015165811231483303 -0.011359253298174896 -0.0028110924631420077 -0.017661798000377663 -0.014426986701232478 -0.015455447122210492
leaf_weight=971.90341520309448 17023.378113985062 29270.445638179779 112966.37178087234 94471.54879617691 9982.6851265281439 66254.307250022888 62194.415325641632 49578.539891839027 21944.044253662229 1108.2109658718109 5171.4373149871826 3418.3245537281036 1093.2510185241699 5725.17184060812
leaf_count=30 236 298 999 903 574 1175 503 749 1106 46 84 193 39 272
internal_value=-4.50526e-07 0.00160536 0.00366788 0.0025774 -0.0158559 -0.0028609 0.00443794 -0.0031287 -0.014792 -0.0149887 -0.00146159 -0.0171111 -0.0177629 -0.0163009
internal_weight=481174 436930 298903 123742 44243.6 138028 175161 115833 24024.2 23052.3 22194.8 20219.4 11075.9 9143.5
internal_count=7207 4947 2703 1201 2260 2244 1502 1924 1182 1152 320 1078 613 465
is_linear=0
shrinkage=0.02


Tree=6
num_leaves=15
num_cat=0
split_feature=0 0 64 64 39 28 42 28 48 47 30 18 30 18
split_gain=29502.2 9672.45 607.542 284.216 254.83 124.57 119.663 77.0524 48.9282 48.0791 25.2018 27.7586 21.4858 8.86608
threshold=1.0000000180025095e-35 1.5000000000000002 9.1129123090424802 7.011492085885668 -0.78324956448884031 4.5000000000000009 1832.5000000000002 1.0000000180025095e-35 6.5000000000000009 186.50000000000003 13.500000000000002 2.2886885410853357 21.500000000000004 2.0586634591634705
decision_type=2 2 2 2 2 2 2 2 2 2 2 2 2 2
left_child=5 3 4 9 -3 8 -4 -5 -1 -2 13 -12 -10 -7
right_child=1 2 6 7 -6 10 -8 -9 12 -11 11 -13 -14 -15
leaf_value=-0.011263871907191709 -0.0033845769453379991 0.0043439823806715487 0.004846162767458217 -0.0011212510606937705 0.0020447415370235039 -0.013516459617156003 0.0038038178727048634 -0.0025164985023120446 -0.017304197898361299 -0.0048353226412335441 -0.015335837513410517 -0.012817704755657584 -0.015981581139052622 -0.016566006469918834
leaf_weight=850.40796390175819 15472.852696299553 24097.964224815369 91355.086505889893 19877.153985023499 97073.559719085693 1011.1824469566345 86321.483444213867 79394.974820137024 11146.748633474112 23307.891785025597 2860.5172608345747 8137.9447616040707 17706.35168479383 2350.7813258618116
leaf_count=30 381 252 658 246 1163 44 630 1064 675 561 152 318 905 128
internal_value=-5.31005e-07 0.00157263 0.0035952 -0.00280549 0.00250249 -0.015596 0.00434011 -0.00223747 -0.0163537 -0.00425804 -0.0140171 -0.0134878 -0.0164991 -0.0156975
internal_weight=480965 436901 298848 138053 121172 44063.9 177677 99272.1 29703.5 38780.7 14360.4 10998.5 28853.1 3361.96
internal_count=7207 4955 2703 2252 1415 2252 1288 1310 1610 942 642 470 1580 172
is_linear=0
shrinkage=0.02


Tree=7
num_leaves=15
num_cat=0
split_feature=17 0 68 33 28 28 63 18 39 9 68 30 18 74
split_gain=28419.1 9284.89 472.329 264.691 121.853 119.162 97.3419 94.7093 41.6393 37.7593 25.8488 24.9275 27.4302 8.70537
threshold=11.851648351648354 1.5000000000000002 39.256272401433698 140.50000000000003 4.5000000000000009 1.0000000180025095e-35 0.35257413440480573 3.0783421635988462 -0.99628250747696534 0.27681992337164757 15.543164362519203 13.500000000000002 2.2886885410853357 0.039883743704314044
decision_type=2 2 2 2 2 2 2 2 2 2 2 2 2 2
left_child=4 5 7 -4 8 9 -7 -3 -1 -2 -10 13 -13 -6
right_child=1 2 3 -5 11 6 -8 -9 10 -11 -12 12 -14 -15
leaf_value=-0.011949443381453755 -0.0010406122489809465 0.0035647652588764746 0.0028927186966921591 0.0042129136599364653 -0.016290767379097026 -0.0033418546056252448 -0.0020010623189242486 0.00038429089238371339 -0.016938546807225164 -0.0032945988516519691 -0.015555987010220779 -0.015074533266362378 -0.012573113762790274 -0.013270222292545771
leaf_weight=1117.0538954734802 18645.640397787094 4536.4058303833008 91778.841552019119 181090.86251425743 2346.7440875470638 86739.255860209465 29064.377756595612 21389.316323518753 13803.647802323103 3547.5888333320618 14711.635707810521 2852.1585453599691 8134.3786538243294 1004.885316491127
leaf_count=44 260 35 919 1517 130 1565 359 232 824 60 748 152 320 42
internal_value=-6.08017e-07 0.00154229 0.00352394 0.00376907 -0.0153247 -0.00274825 -0.00300572 0.000942732 -0.016075 -0.00140313 -0.0162317 -0.0137625 -0.0132374 -0.0154333
internal_weight=480763 436792 298795 272870 43970.5 137997 115804 25925.7 29632.3 22193.2 28515.3 14338.2 10986.5 3351.63
internal_count=7207 4947 2703 2436 2260 2244 1924 267 1616 320 1572 644 472 172
is_linear=0
shrinkage=0.02


Tree=8
num_leaves=15
num_cat=0
split_feature=17 68 64 64 50 49 67 28 47 48 12 12 3 50
split_gain=27370.3 8918.72 573.787 268.567 209.369 130.834 125.227 75.7693 55.2326 49.1466 31.3337 18.5169 18.4061 14.6701
threshold=11.851648351648354 34.085714285714296 9.1129123090424802 7.0802304388768791 259.50000000000006 1.0000000180025095e-35 -0.11380234003350063 1.0000000180025095e-35 186.50000000000003 4.5000000000000009 0.47493734335839605 0.18065268065268067 6.5000000000000009 22.500000000000004
decision_type=2 2 2 2 2 2 2 2 2 2 2 2 2 2
left_child=5 3 4 8 -3 9 -4 -5 -2 -1 -11 13 -13 -7
right_child=1 2 6 7 -6 11 -8 -9 -10 10 -12 12 -14 -15
leaf_value=-0.0093598574402212129 -0.0031350292912772828 0.0018788043706536343 0.0038314641172413123 -0.00097259295080111567 0.0037417174272277947 -0.014523455548714474 0.0049975806472470161 -0.0023821809362090203 -0.0045991713959480512 -0.014400815432663151 -0.010619507395945485 -0.016835346326349584 -0.014625474053428901 -0.017279825152596236
leaf_weight=967.7771155834198 17699.095365285873 87796.522626399994 124849.11607027054 19201.56831240654 33351.049487113953 1413.4214153885841 52748.699775695801 75567.218594551086 25514.819931089878 21763.724050045013 1101.8011424541473 3380.8602328300476 5673.0872837305069 9540.7478345483541
leaf_count=30 411 1048 919 231 367 63 369 1002 600 1106 46 193 272 550
internal_value=-6.81759e-07 0.00151167 0.00345406 -0.00269359 0.00239208 -0.0150634 0.00417819 -0.00209692 -0.00400083 -0.0140315 -0.0142242 -0.0162839 -0.0154705 -0.0169396
internal_weight=480570 436728 298745 137983 121148 43841.4 177598 94768.8 43213.9 23833.3 22865.5 20008.1 9053.95 10954.2
internal_count=7207 4947 2703 2244 1415 2260 1288 1233 1011 1182 1152 1078 465 613
is_linear=0
shrinkage=0.02


Tree=9
num_leaves=15
num_cat=0
split_feature=62 0 62 39 62 49 48 28 42 6 59 12 48 20
split_gain=26407.4 8540.05 656.318 300.718 281.892 128.001 86.0791 71.7976 66.0937 44.1422 37.8151 18.4739 13.7194 12.059
threshold=17.211455878545028 1.5000000000000002 27.769134023056605 -0.73865259438682551 20.607794817005196 1.0000000180025095e-35 2.5000000000000004 1.5000000000000002 1324.5000000000002 17.500000000000004 25.589285714285719 0.18065268065268067 62.500000000000007 3.1901800114301957
decision_type=2 2 2 2 2 2 2 2 2 2 8 2 2 2
left_child=5 4 3 -3 9 6 -1 -6 -4 -2 -8 12 -7 -13
right_child=1 2 8 -5 7 11 10 -9 -10 -11 -12 13 -14 -15
leaf_value=-0.0068676256676160731 -0.004324755248511592 0.0042153755258192514 0.0055047358054995214 0.00224366041422961 -0.0012181645623383856 -0.013696488754111377 -0.014269731096569671 -0.0023970206266215582 0.0043318492595101439 -0.0029807690571853852 -0.011270015856370082 -0.0157491477432317 -0.016921165377323993 -0.013679527608709342
leaf_weight=739.16676926612854 31783.895735502243 39224.698701858521 25134.574952125549 147380.37117576599 31750.659062862396 929.14557504653931 20990.697392746806 59855.001801729202 86957.133945465088 14463.954439222813 2152.7258226275444 6551.0134040862322 9986.0083418041468 2483.021832972765
leaf_count=18 692 388 162 1559 383 35 1089 796 594 342 105 358 578 108
internal_value=-7.49582e-07 0.00148519 0.00338555 0.00265843 -0.00263225 -0.0147976 -0.0137797 -0.00198882 0.00459549 -0.00390559 -0.0139966 -0.0160077 -0.0166613 -0.0151983
internal_weight=480382 436550 298697 186605 137854 43831.8 23882.6 91605.7 112092 46247.9 23143.4 19949.2 10915.2 9034.04
internal_count=7207 4916 2703 1947 2213 2291 1212 1179 756 1034 1194 1079 613 466
is_linear=0
shrinkage=0.02


Tree=10
num_leaves=16
num_cat=0
split_feature=62 0 62 62 62 49 69 42 19 26 59 15 12 51 3
split_gain=25428.3 8203.22 630.835 280.442 270.878 124.7 67.3599 63.5663 41.9685 36.876 35.4711 33.2876 18.0704 23.6616 18.8208
threshold=17.211455878545028 1.5000000000000002 27.769134023056605 24.906123201227256 20.607794817005196 1.0000000180025095e-35 33.006903425518395 1324.5000000000002 3.7151309266562476 -0.72664835164835206 25.589285714285719 7.6250000000000009 0.18065268065268067 352.50000000000006 6.5000000000000009
decision_type=2 2 2 2 2 2 2 2 2 2 8 2 2 2 2
left_child=5 4 3 -3 9 8 -6 -4 10 -2 -1 -10 13 -7 -14
right_child=1 2 7 -5 6 12 -8 -9 11 -11 -12 -13 14 -15 -16
leaf_value=-0.014078960528124533 -0.0048689018096663792 0.0013199800163928 0.005396729546459973 0.0030736962304404834 -0.0022200272888040261 -0.016729921909735136 -0.00086007754875765856 0.0042462184310410349 -0.0076265841527654527 -0.003514748373004359 -0.010787294958177969 -0.012747198667543353 -0.016307667126540824 -0.01311601371549726 -0.014093311662233758
leaf_weight=19774.455845400691 10657.0984634161 49833.236575603485 25125.14471578598 136754.02223682404 73333.466177225113 9798.5044923722744 18267.353163957596 86936.937465667725 907.98823535442352 35581.799571692944 1656.4466390907764 1486.934766292572 3358.4181030392647 1079.0418429374695 5649.697169020772
leaf_count=1044 308 743 162 1204 962 574 217 594 27 726 61 80 193 39 273
internal_value=-8.11087e-07 0.00145569 0.00331838 0.00260552 -0.00257989 -0.0145425 -0.00194916 0.00450481 -0.0135369 -0.00382827 -0.0138306 -0.0108539 -0.0157388 -0.0163856 -0.0149383
internal_weight=480201 436489 298649 186587 137840 43711.5 91600.8 112062 23825.8 46238.9 21430.9 2394.92 19885.7 10877.5 9008.12
internal_count=7207 4916 2703 1947 2213 2291 1179 756 1212 1034 1105 107 1079 613 466
is_linear=0
shrinkage=0.02


Tree=11
num_leaves=16
num_cat=0
split_feature=62 0 62 62 62 49 37 42 6 36 54 25 54 74 20
split_gain=24483.6 7879.62 606.324 269.421 260.291 121.423 64.6993 61.1317 42.4037 28.1279 37.9473 21.3533 15.9087 25.2398 12.4566
threshold=17.211455878545028 1.5000000000000002 27.769134023056605 24.906123201227256 20.607794817005196 1.0000000180025095e-35 0.81174490092936691 1324.5000000000002 17.500000000000004 1.0000000180025095e-35 6.9630316871253219 0.14285714285714282 7.4850230414746557 -0.0081764977264265331 2.7705461421759137
decision_type=2 2 2 2 2 2 2 2 2 2 2 2 2 2 2
left_child=5 4 3 -3 8 9 -6 -4 -2 10 -1 -11 13 -7 -14
right_child=1 2 7 -5 6 12 -8 -9 -10 11 -12 -13 14 -15 -16
leaf_value=-0.0155976929532911 -0.0041633338336550824 0.0012936139119902905 0.0052907646369983038 0.0030125826478538537 -0.0021757668605326061 -0.014893155136639117 -0.00084289322429310475 0.0041622421167940987 -0.002846093771232685 -0.013480325423122854 -0.012527127020818889 -0.016428524407709217 -0.012890000410234078 -0.01683532301718766 -0.015257093692709028
leaf_weight=2064.4130705446005 31769.983850598335 49832.161701440811 25116.084107875824 136738.03176403046 73328.992378473282 6824.4783967733383 18267.185769557953 86917.536350250244 14460.34154933691 3257.1255702525377 16306.9930254668 2142.6807680726051 2175.6030023097992 7227.9748100489378 3596.3002841770649
leaf_count=126 692 743 162 1204 962 371 217 594 342 188 749 149 99 433 176
internal_value=-8.77116e-07 0.00142677 0.00325253 0.00255365 -0.00252857 -0.0142904 -0.00191029 0.00441587 -0.00375245 -0.0132974 -0.0128816 -0.0146821 -0.0154729 -0.0159048 -0.0143922
internal_weight=480026 436430 298604 186570 137827 43595.6 91596.2 112034 46230.3 23771.2 18371.4 5399.81 19824.4 14052.5 5771.9
internal_count=7207 4916 2703 1947 2213 2291 1179 756 1034 1212 875 337 1079 804 275
is_linear=0
shrinkage=0.02


Tree=12
num_leaves=15
num_cat=0
split_feature=62 0 62 51 62 49 48 28 43 59 26 12 51 20
split_gain=23572.2 7568.74 582.747 261.066 250.111 118.167 83.3505 65.3381 58.787 36.322 35.4344 18.1031 23.0845 12.6324
threshold=17.211455878545028 1.5000000000000002 27.769134023056605 90.500000000000014 20.607794817005196 1.0000000180025095e-35 2.5000000000000004 1.5000000000000002 2021.6255989048598 26.553571428571434 -0.72664835164835206 0.18065268065268067 352.50000000000006 3.1901800114301957
decision_type=2 2 2 2 2 2 2 2 2 8 2 2 2 2
left_child=5 4 3 -3 10 6 -1 -6 -4 -8 -2 12 -7 -13
right_child=1 2 8 -5 7 11 9 -9 -10 -11 -12 13 -14 -15
leaf_value=-0.0062645043938064976 -0.0046982984928390448 0.0039255027667197493 0.0051868068329238518 0.002108610098729508 -0.0011369754561826829 -0.016193829633658573 -0.013439062462688946 -0.0022616479442946731 0.0040798904978276091 -0.0089739211954601283 -0.0033708167661098253 -0.014967203933236868 -0.012631950796228577 -0.012894064813699884
leaf_weight=737.12313532829285 10651.516461968422 40444.987048625946 25107.379174232483 146108.81486320496 31748.560062408447 9733.3529237210751 22114.458846315742 59843.16055727005 86898.899398803711 867.14468693733215 35570.539734899998 6493.027383133769 1074.2506322860718 2464.6802057176828
leaf_count=18 308 399 162 1548 383 574 1137 796 594 57 726 358 39 108
internal_value=-9.44798e-07 0.00139842 0.00318797 0.00250281 -0.00247825 -0.0140415 -0.0130611 -0.00187219 0.00432864 -0.0132754 -0.00367811 -0.0152098 -0.0158536 -0.014414
internal_weight=479858 436374 298560 186554 137814 43484 23718.7 91591.7 112006 22981.6 46222.1 19765.3 10807.6 8957.71
internal_count=7207 4916 2703 1947 2213 2291 1212 1179 756 1194 1034 1079 613 466
is_linear=0
shrinkage=0.02


Tree=13
num_leaves=15
num_cat=0
split_feature=62 0 62 39 62 49 48 62 28 64 59 12 48 16
split_gain=22692.5 7270.1 561.851 243.029 240.325 114.962 80.5632 64.9693 62.7591 35.3256 35.2812 17.6713 12.6424 10.5023
threshold=17.211455878545028 1.5000000000000002 27.51235262541022 -0.73865259438682551 20.607794817005196 1.0000000180025095e-35 2.5000000000000004 28.848529086821767 1.5000000000000002 7.2012241117065621 25.589285714285719 0.18065268065268067 62.500000000000007 7.9732142857142865
decision_type=2 2 2 2 2 2 2 2 2 2 8 2 2 2
left_child=5 4 3 -3 9 6 -1 -4 -6 -2 -8 12 -7 -13
right_child=1 2 7 -5 8 11 10 -9 -10 -11 -12 13 -14 -15
leaf_value=-0.0061439189833055749 -0.0037179098625343739 0.0038426540948062029 0.0037671192215158887 0.0019660893160831174 -0.001114261127857399 -0.01274887058223732 -0.013303554411329679 0.0046990179386296304 -0.002216564313325055 -0.00086890785323658429 -0.010407749325181164 -0.01478865493327714 -0.015836227358128389 -0.012970083459715943
leaf_weight=736.75868129730225 44375.595626354218 34913.762969970703 83271.291237354279 132694.40182471275 31748.051461935043 920.77115631103516 20792.319435700774 47638.601683616638 59839.371130228043 1838.543155670166 2138.9548865258694 5776.5681033432484 9853.0640174895525 3158.0126069784164
leaf_count=18 1010 360 588 1447 383 35 1089 308 796 24 105 335 578 131
internal_value=-9.95015e-07 0.00137063 0.00312467 0.00235731 -0.00242893 -0.0137956 -0.0128279 0.00410673 -0.00183484 -0.00360521 -0.013039 -0.0149497 -0.0155863 -0.0141633
internal_weight=479696 436320 298518 167608 137802 43376.4 23668 130910 91587.4 46214.1 22931.3 19708.4 10773.8 8934.58
internal_count=7207 4916 2703 1807 2213 2291 1212 896 1179 1034 1194 1079 613 466
is_linear=0
shrinkage=0.02


Tree=14
num_leaves=15
num_cat=0
split_feature=62 54 62 39 62 62 5 28 39 6 59 68 36 12
split_gain=21843.9 6983.19 539.947 233.522 230.914 109.632 62.4815 60.2815 49.8576 40.6996 25.2739 25.238 19.4396 14.8903
threshold=17.211455878545028 18.778801843317975 27.51235262541022 -0.73865259438682551 20.607794817005196 12.219382365125851 29.500000000000004 1.5000000000000002 -0.99465740988130902 17.500000000000004 26.553571428571434 15.543164362519203 1.0000000180025095e-35 0.18065268065268067
decision_type=2 2 2 2 2 2 2 2 2 2 8 2 2 2
left_child=5 4 3 -3 9 11 -4 -6 -7 -2 -10 13 -13 -1
right_child=1 2 6 -5 7 8 -8 -9 10 -11 -12 12 -14 -15
leaf_value=-0.01604674806693334 -0.0039362789475202789 0.0037665183963751926 0.0042960379940612118 0.0019268636090084984 -0.0010919998610403425 -0.0086555403052665739 0.0033114599745887869 -0.0021723738554441296 -0.012950295292927858 -0.0026460096856257467 -0.009656700135921556 -0.012542071778297198 -0.014586783809425017 -0.014339704555207935
leaf_weight=6324.107631623745 31751.324489116669 34907.380703926086 94857.907301425934 132688.05330443382 31747.563392877579 1389.8024319410324 36024.337202072144 59835.73170042038 18599.291305631399 14455.203351616859 1191.8433821201324 4322.9226296842098 5575.0738127082586 5869.8552588820457
leaf_count=444 692 360 636 1447 383 51 260 796 836 342 70 219 318 353
internal_value=-1.04195e-06 0.00134338 0.00306261 0.00231035 -0.00238058 -0.0135529 0.00402547 -0.00179824 -0.0124939 -0.00353373 -0.0127579 -0.0145611 -0.0137093 -0.0152391
internal_weight=479540 436268 298478 167595 137790 43272.9 130882 91583.3 21180.9 46206.5 19791.1 22092 9898 12194
internal_count=7207 4916 2703 1807 2213 2291 896 1179 957 1034 906 1334 537 797
is_linear=0
shrinkage=0.02


Tree=15
num_leaves=15
num_cat=0
split_feature=17 16 68 68 49 6 28 42 15 48 12 12 3 50
split_gain=20988.6 6735.97 306.292 168.386 109.363 101.239 94.8128 82.4629 55.3888 41.2954 32.9063 16.7387 19.4166 13.3774
threshold=11.851648351648354 19.723214285714288 42.802995391705075 38.783410138248854 1.0000000180025095e-35 17.500000000000004 1.0000000180025095e-35 2030.5000000000002 19.410714285714288 4.5000000000000009 0.47493734335839605 0.18065268065268067 6.5000000000000009 22.500000000000004
decision_type=2 2 2 2 2 2 2 2 2 2 2 2 2 2
left_child=4 5 3 -3 9 6 -2 -4 -7 -1 -11 13 -13 -6
right_child=1 2 7 -5 11 8 -8 -9 -10 10 -12 12 -14 -15
leaf_value=-0.0080851163184825978 -0.00093590528718890569 0.00057783842277498321 0.004116432072941989 0.0026820782745717898 -0.012793256664319153 -0.0018567989156060003 -0.0030064496030124416 0.0030726826689726123 6.4365318675648788e-05 -0.012730596730433013 -0.0089130885679772655 -0.015051356031402601 -0.012839758499057751 -0.015392518506259818
leaf_weight=959.90791797637939 10243.592734098434 17083.159062862396 87830.051372051239 141191.97202682495 1389.4542226791382 59724.262054383755 66788.245050191879 46819.318111419678 6650.3994078636169 21415.45993463695 1089.3139415383339 3309.4503734707832 5574.4892598241568 9321.6075543165207
leaf_count=30 150 185 734 1363 63 904 1181 344 86 1106 46 193 272 550
internal_value=-1.08872e-06 0.00131361 0.00305232 0.00245514 -0.0133209 -0.00223773 -0.00273153 0.00375391 -0.00166403 -0.0123724 -0.0125507 -0.0144487 -0.0136819 -0.0150695
internal_weight=479391 436331 292925 158275 43059.7 143406 77031.8 134649 66374.7 23464.7 22504.8 19595 8883.94 10711.1
internal_count=7207 4947 2626 1548 2260 2321 1331 1078 990 1182 1152 1078 465 613
is_linear=0
shrinkage=0.02


Tree=16
num_leaves=15
num_cat=0
split_feature=62 16 62 39 62 62 63 42 11 39 28 54 66 42
split_gain=20237.8 6450.31 469.95 240.74 186.733 104.906 92.3005 73.0857 57.4789 47.3699 27.012 21.1602 20.5662 16.5957
threshold=17.211455878545028 19.723214285714288 27.769134023056605 -0.73865259438682551 20.607794817005196 12.219382365125851 0.28966209218471778 1294.5000000000002 0.29099462365591405 -0.99628250747696534 4.5000000000000009 7.4850230414746557 -3.7552933138987878 807.50000000000011
decision_type=2 2 2 2 2 2 2 2 2 2 2 2 2 2
left_child=5 4 3 -3 6 11 -2 -6 -4 -7 -11 13 -13 -1
right_child=1 2 8 -5 7 9 -8 -9 -10 10 -12 12 -14 -15
leaf_value=-0.01336069408190114 9.5685220150083469e-05 0.003756867823033039 0.003838395030101617 0.0019792789766340541 0.0003224724383101973 -0.0080032116376271851 -0.0033984396463088524 -0.0018152633942600486 0.005221739341275065 -0.013318750462301894 -0.01165779749504469 -0.012654785278036386 -0.01577973000721292 -0.015148565953738072
leaf_weight=4223.1194829940796 3220.4656677246094 38859.229928016663 97996.331089019775 142130.69193053246 6888.7980437278748 1201.5505414009094 46793.507999479771 86380.006563186646 13901.714248657227 7351.8487610965967 12545.166268050671 7027.5910985469818 1256.1208569407463 9472.1203873753548
leaf_count=200 32 362 671 1509 143 43 1041 1074 84 366 548 358 84 692
internal_value=-1.12972e-06 0.00129054 0.00299167 0.00236123 -0.00218661 -0.0130773 -0.00317307 -0.00165714 0.00401089 -0.0120403 -0.0122789 -0.014066 -0.0131495 -0.0146089
internal_weight=479248 436171 292888 180990 143283 43077.5 50014 93268.8 111898 21098.6 19897 21979 8283.71 13695.2
internal_count=7207 4916 2626 1871 2290 2291 1073 1217 755 957 914 1334 442 892
is_linear=0
shrinkage=0.02


Tree=17
num_leaves=15
num_cat=0
split_feature=17 54 15 38 30 28 28 11 48 25 54 74 54 10
split_gain=19442 6226.65 404.3 258.482 133.406 102.731 84.5587 75.3852 36.891 36.3846 29.0822 24.7948 23.4454 23.393
threshold=11.851648351648354 20.707066052227347 20.946428571428573 0.074116354202380205 29.500000000000004 4.5000000000000009 1.0000000180025095e-35 0.1126984126984127 6.5000000000000009 0.71428571428571497 6.9630316871253219 0.034820517134328044 7.4850230414746557 0.29289215686274517
decision_type=2 2 2 2 2 2 2 2 2 2 2 2 2 2
left_child=5 2 6 4 -3 8 -2 -5 -1 -4 11 -7 -10 -12
right_child=1 3 9 7 -6 10 -8 -9 12 -11 13 -13 -14 -15
leaf_value=-0.0091124843188442033 -0.0011114088752914911 0.0048574118784287237 0.00031650144958818852 0.0014636895247992286 0.0033432780691545717 -0.015684868852461661 -0.002439828883092094 0.0026598608446462557 -0.014239638533267271 0.0022273808187772016 -0.011392856421688713 -0.010365748950704938 -0.01293026325431895 -0.0086809322804453654
leaf_weight=837.05436879396439 22917.624934315681 28763.716210842133 11097.279216766357 27251.456439733505 125185.0526266098 1216.8313711583614 119817.85248464346 94964.562878847122 15854.708078071475 6240.1032104492188 10417.263874828815 670.43660947680473 12137.559934705496 1737.9034780263901
leaf_count=30 328 204 106 277 1044 81 1970 966 958 52 463 29 628 71
internal_value=-1.16631e-06 0.00126191 -0.00187643 0.00308105 0.00362661 -0.0128512 -0.00222677 0.00239345 -0.0135488 0.00100631 -0.0114091 -0.0138704 -0.0136774 -0.0110142
internal_weight=479109 436238 160073 276165 153949 42871.8 142735 122216 28829.3 17337.4 14042.4 1887.27 27992.3 12155.2
internal_count=7207 4947 2456 2491 1248 2260 2298 1243 1616 158 644 110 1586 534
is_linear=0
shrinkage=0.02


Tree=18
num_leaves=15
num_cat=0
split_feature=0 54 15 33 64 49 64 64 55 19 59 54 20 73
split_gain=18708 5984.49 388.629 251.998 161.408 99.5315 84.4338 83.9705 66.5718 37.6253 33.7633 14.1408 14.2139 11.8199
threshold=1.0000000180025095e-35 20.707066052227347 20.946428571428573 140.50000000000003 7.0802304388768791 1.0000000180025095e-35 9.0748543818106935 9.7516669339772086 18.010426373815431 3.7151309266562476 25.589285714285719 7.4850230414746557 2.7705461421759137 -0.045870030226773072
decision_type=2 2 2 2 2 2 2 2 2 2 10 2 2 2
left_child=5 2 4 7 -2 9 -5 -3 -4 10 -1 13 -13 -7
right_child=1 3 8 6 -6 11 -8 -9 -10 -11 -12 12 -14 -15
leaf_value=-0.012232103470250189 -0.0031227724425043814 0.0019193079089977613 0.00011866150487992511 0.0027386597489577318 -0.0017009619815630816 -0.015204347432164278 0.003732691966361949 0.0033888557661342846 0.0027596274490673846 -0.009110088452600874 -0.0090248981831700641 -0.011169261979503532 -0.013583292730622691 -0.013622613120466856
leaf_weight=19437.432356417179 48422.270791172981 79310.732476711273 11656.26123046875 46766.143889188766 94344.282697916031 4162.2702752202749 130618.12661600113 19435.026387214661 5680.7229766845703 2242.0541677474976 1614.5404799878597 2144.3147172927856 3525.8659410774708 9616.1718026101589
leaf_count=1044 1077 867 113 560 1229 285 926 138 45 75 55 99 175 519
internal_value=-1.1971e-06 0.00123612 -0.00184012 0.00301983 -0.00218352 -0.0126271 0.0034709 0.00220906 0.000986259 -0.011719 -0.0119915 -0.0137071 -0.0126952 -0.0141126
internal_weight=478976 436234 160104 276130 142767 42742.6 177384 98745.8 17337 23294 21052 19448.6 5670.18 13778.4
internal_count=7207 4955 2464 2491 2306 2252 1486 1005 158 1174 1099 1078 274 804
is_linear=0
shrinkage=0.02


Tree=19
num_leaves=16
num_cat=0
split_feature=17 54 15 33 64 28 42 64 49 54 54 18 16 42 18
split_gain=18003.6 5744.64 373.003 242.136 154.41 97.7197 84.075 80.6782 40.8763 34.5478 28.3102 29.3434 17.5167 10.545 7.14863
threshold=11.851648351648354 20.707066052227347 20.946428571428573 140.50000000000003 7.0802304388768791 4.5000000000000009 2093.5000000000005 9.7516669339772086 1.0000000180025095e-35 7.4850230414746557 6.9630316871253219 1.7043362064927345 6.7589285714285721 1434.5000000000002 2.0586634591634705
decision_type=2 2 2 2 2 2 2 2 2 2 2 2 2 2 2
left_child=5 2 4 7 -2 9 -5 -3 -4 13 14 -12 -11 -1 -7
right_child=1 3 8 6 -6 10 -8 -9 -10 12 11 -13 -14 -15 -16
leaf_value=-0.012834954354578669 -0.0030581239607943705 0.0018810132373913704 0.0021710962219462808 0.0036501416879837017 -0.0016670066419380201 -0.011030313455567523 0.0026328215382408373 0.0033215905598193412 0.0001816104782880516 -0.0099180660116958159 -0.014211756460239658 -0.010284966550271564 -0.012533940102348403 -0.014204370322559003 -0.014518535839993707
leaf_weight=5375.4297385066748 48376.180140078068 79307.11580324173 6823.5835227966309 134051.7695555687 94340.903639316559 635.21870172023773 43305.634338378906 19432.261919021606 10512.861705780029 1474.7129717469215 923.17274451255798 11194.671279728413 11449.382017731667 10401.393305063248 1243.4904172569513
leaf_count=439 1069 867 57 1163 1229 30 323 138 101 106 50 484 552 519 80
internal_value=-1.22739e-06 0.0012122 -0.00180233 0.00295981 -0.00213887 -0.0123942 0.00340202 0.00216503 0.00096662 -0.0130761 -0.0109861 -0.0105972 -0.0122449 -0.0137475 -0.0134144
internal_weight=478848 436150 160054 276097 142717 42697.5 177357 98739.4 17336.4 28700.9 13996.6 12117.8 12924.1 15776.8 1878.71
internal_count=7207 4947 2456 2491 2298 2260 1486 1005 158 1616 644 534 658 958 110
is_linear=0
shrinkage=0.02


Tree=20
num_leaves=16
num_cat=0
split_feature=0 15 54 54 64 42 64 28 73 54 54 18 55 12 18
split_gain=17322.1 5523.76 291.531 247.628 148.958 113.199 109.019 94.2205 39.6746 33.0358 27.2716 28.3181 17.7206 13.9345 6.93714
threshold=1.0000000180025095e-35 20.946428571428573 25.42290349768226 20.707066052227347 7.0802304388768791 1414.5000000000002 9.7516669339772086 4.5000000000000009 0.0062010990736608438 7.4850230414746557 6.9630316871253219 1.7043362064927345 17.954796347005782 0.18065268065268067 2.0586634591634705
decision_type=2 2 2 2 2 2 2 2 2 2 2 2 2 2 2
left_child=7 3 6 4 -2 -4 -3 9 -5 13 14 -12 -11 -1 -9
right_child=1 2 5 8 -6 -7 -8 10 -10 12 11 -13 -14 -15 -16
leaf_value=-0.014157986314820075 -0.0029997606698807413 0.0017527862669154599 0.0039913882784484659 -0.00014626136708412684 -0.0016337268204120231 0.0029386383181962622 0.0034754627868413645 -0.010829647692694851 0.0025407350145762548 -0.012751362050351128 -0.013965888005030319 -0.010102406122860039 -0.011063603861734 -0.012735438834719066 -0.01426812522150417
leaf_weight=8405.1030228435993 48410.787190854549 92991.59090089798 66415.157976388931 3938.0243544578552 94337.658776283264 107632.36108779907 17499.920770645142 634.24432027339935 4923.8182616233826 7302.4507951140404 920.83652305603027 11167.035855695605 5570.3100567758083 7334.7382491827011 1240.2167612612247
leaf_count=538 1077 950 668 70 1229 781 122 30 58 391 50 482 261 420 80
internal_value=-1.26368e-06 0.00118743 0.00283036 -0.00189586 -0.00209731 0.00334068 0.0020261 -0.0121764 0.00134561 -0.0128472 -0.010792 -0.0104097 -0.0120317 -0.0135049 -0.0131789
internal_weight=478724 436149 284539 151610 142748 174048 110492 42574.9 8861.84 28612.6 13962.3 12087.9 12872.8 15739.8 1874.46
internal_count=7207 4955 2521 2434 2306 1449 1072 2252 128 1610 642 532 652 958 110
is_linear=0
shrinkage=0.02


Tree=21
num_leaves=14
num_cat=0
split_feature=0 0 64 64 39 28 43 28 47 39 18 30 68
split_gain=16666.5 5307.77 391.361 180.295 175.225 91.2488 91.242 51.5648 42.409 31.0463 26.0012 26.5572 17.863
threshold=1.0000000180025095e-35 1.5000000000000002 9.1129123090424802 7.011492085885668 -0.8142754349318998 4.5000000000000009 2023.0177960301166 1.0000000180025095e-35 186.50000000000003 -0.99628250747696534 1.7043362064927345 13.500000000000002 15.543164362519203
decision_type=2 2 2 2 2 2 2 2 2 2 2 2 2
left_child=5 3 4 8 -3 9 -4 -5 -2 -1 -7 -12 -11
right_child=1 2 6 7 -6 10 -8 -9 -10 12 11 -13 -14
leaf_value=-0.0090546307446145915 -0.0024207580406694329 0.0033959714289220778 0.0037054460716932454 -0.00071553167348260534 0.0014261840984107536 -0.01361758701341576 0.002794538173003572 -0.0018571112724344375 -0.0037818209228208974 -0.013350479638563804 -0.012055177607830368 -0.0097554579208129332 -0.012187499368817278
leaf_weight=1092.8163286447525 15444.883608937263 22130.094469070435 91065.102997779846 19871.560555934906 98902.376352071762 1177.3494054079056 86134.890857696533 79320.730535984039 23240.01982229948 13262.6860807091 2972.9382497668266 9791.5848556309938 14198.303512468934
leaf_count=44 381 232 658 246 1183 64 630 1064 561 824 157 421 742
internal_value=-1.29961e-06 0.00116379 0.00266402 -0.00208106 0.00178676 -0.0119559 0.00326296 -0.00162871 -0.0032397 -0.0126169 -0.0105927 -0.0103017 -0.0127546
internal_weight=478605 436110 298232 137877 121032 42495.7 177200 99192.3 38684.9 28553.8 13941.9 12764.5 27461
internal_count=7207 4955 2703 2252 1415 2252 1288 1310 942 1610 642 578 1566
is_linear=0
shrinkage=0.02


Tree=22
num_leaves=15
num_cat=0
split_feature=0 54 15 33 48 49 28 55 11 48 12 12 74 20
split_gain=16034.3 5109.85 325.659 219.067 106.099 88.7455 75.975 63.4078 59.1501 38.8665 33.7901 17.8578 15.5957 13.5337
threshold=1.0000000180025095e-35 20.707066052227347 20.946428571428573 140.50000000000003 4.5000000000000009 1.0000000180025095e-35 1.0000000180025095e-35 18.010426373815431 0.1126984126984127 4.5000000000000009 0.47493734335839605 0.18065268065268067 0.0011032066044544266 3.1901800114301957
decision_type=2 2 2 2 2 2 2 2 2 2 2 2 2 2
left_child=5 2 6 8 -5 9 -2 -4 -3 -1 -11 12 -7 -13
right_child=1 3 7 4 -6 11 -8 -9 -10 10 -12 13 -14 -15
leaf_value=-0.0067410299744476874 -0.00095959400494600186 0.0011202680544839683 3.8571248362490344e-05 0.0059530278923374423 0.0031220444674792433 -0.012456091495374426 -0.0022185594281688083 0.0026160571194607206 0.0022968174711529609 -0.011234690908076432 -0.0074080685236229613 -0.01254299447067805 -0.014258459802473778 -0.01049764008913376
leaf_weight=953.35089468955994 22924.912123441696 22139.104135036469 11656.122829437256 5484.529501914978 171799.59734845161 5172.1546901464462 119806.39627015591 5679.2821960449219 76581.512360334396 21108.279121860862 1080.1107153892517 6340.0509736090899 5355.8673758208752 2409.7022910416126
leaf_count=30 330 221 113 35 1451 288 1976 45 784 1098 46 358 325 107
internal_value=-1.32441e-06 0.00114062 -0.00170215 0.00278933 0.00321007 -0.0117384 -0.00201657 0.00088516 0.00203331 -0.010879 -0.0110527 -0.0127629 -0.0133876 -0.0119946
internal_weight=478491 436071 160067 276005 177284 42419.5 142731 17335.4 98720.6 23141.7 22188.4 19277.8 10528 8749.75
internal_count=7207 4955 2464 2491 1486 2252 2306 158 1005 1174 1144 1078 613 465
is_linear=0
shrinkage=0.02


Tree=23
num_leaves=15
num_cat=0
split_feature=62 68 62 63 62 39 62 65 62 42 39 68 66 12
split_gain=15464 4825.42 299.919 282.92 175.761 155.526 117.371 83.8142 63.43 52.9287 44.4363 21.2954 17.0263 15.4462
threshold=17.903924156499084 38.783410138248854 27.769134023056605 0.28966209218471778 20.607794817005196 -0.73865259438682551 12.219382365125851 -1.918137559181974 17.211455878545028 1324.5000000000002 -0.99628250747696534 15.543164362519203 -3.7728521074435948 0.18065268065268067
decision_type=2 2 2 2 2 2 2 2 2 2 2 2 2 2
left_child=6 3 5 7 -5 -3 11 -2 10 -4 -8 13 -13 -1
right_child=1 2 9 4 -6 -7 8 -9 -10 -11 -12 12 -14 -15
leaf_value=-0.013856763884178206 -0.0013362690004763286 0.0032907946788978282 0.0043482813458358052 -0.0029761927335791223 -0.0014619616767890212 0.0018446367385212435 -0.0066571624178575406 0.0013951453754705329 -0.0051418834238300352 0.0032981286769889328 -0.01078335461793367 -0.011211783070915216 -0.01370238123358301 -0.012178189285012143
leaf_weight=6174.4811996221542 6545.5743522644043 39137.018303394318 25042.855232715607 46048.217461466789 92173.995507240295 124992.62851214409 1193.5256447792053 14252.159504652023 949.68762898445129 86739.433654785156 19660.715304926038 8046.3643325120211 1672.4673681259155 5751.925008431077
leaf_count=444 72 388 162 987 1185 1324 43 146 58 594 914 432 105 353
internal_value=-1.3433e-06 0.00113525 0.00273453 -0.0016395 -0.00196675 0.00218978 -0.0113769 0.00053431 -0.0103192 0.00353394 -0.0105515 -0.0124361 -0.0116561 -0.0130598
internal_weight=478381 434932 275912 159020 138222 164130 43449.2 20797.7 21803.9 111782 20854.2 21645.2 9718.83 11926.4
internal_count=7207 4858 2468 2390 2172 1712 2349 218 1015 756 957 1334 537 797
is_linear=0
shrinkage=0.02


Tree=24
num_leaves=15
num_cat=0
split_feature=62 54 15 62 62 62 54 59 55 42 16 58 4 3
split_gain=14875.3 4648.07 293.646 286.488 139.243 113.661 100.596 72.6964 60.8347 50.8743 37.9053 18.3431 18.1535 15.1441
threshold=17.903924156499084 20.707066052227347 20.946428571428573 27.769134023056605 20.607794817005196 12.219382365125851 25.510522273425504 26.553571428571434 18.010426373815431 1324.5000000000002 6.7232142857142865 25.357142857142858 13.500000000000002 12.500000000000002
decision_type=2 2 2 2 2 2 2 8 2 2 2 10 2 2
left_child=5 2 4 6 -2 12 -3 10 -4 -5 -7 -9 13 -1
right_child=1 3 8 9 -6 7 -8 11 -10 -11 -12 -13 -14 -15
leaf_value=-0.012467409980379552 -0.0027722609204095124 0.0017322367443977865 1.6159068797372369e-05 0.0042623581296356971 -0.001453673328847052 -0.0080315963605108176 0.002738882235001358 -0.0050906814524503494 0.0025409011257767461 0.0032326133368218708 -0.010848056438286234 -0.009156605624808618 -0.0088012148923881615 -0.0096308037341350603
leaf_weight=19797.90162268281 49128.395086586475 96047.133609771729 11656.054103851318 25036.992283821106 92559.520777463913 2385.3277851641178 68061.534432649612 1396.4885040521622 5678.4674682617188 86727.755229949951 17261.981470435858 730.84511184692383 759.1308308839798 1046.4799874424934
leaf_count=1241 1020 988 113 162 1191 153 745 104 45 594 734 24 38 55
internal_value=-1.36337e-06 0.00111264 -0.00161054 0.00268245 -0.00191118 -0.0111682 0.00214999 -0.0101268 0.000845359 0.00346383 -0.0105114 -0.00653319 -0.0122117 -0.0123306
internal_weight=478274 434896 159022 275873 141688 43378.2 164109 21774.6 17334.5 111765 19647.3 2127.33 21603.5 20844.4
internal_count=7207 4858 2369 2489 2211 2349 1733 1015 158 756 887 128 1334 1296
is_linear=0
shrinkage=0.02


Tree=25
num_leaves=14
num_cat=0
split_feature=62 68 62 68 62 39 20 62 10 42 39 68 45
split_gain=14308.1 4454.09 276.615 250.52 161.281 147.016 117.903 78.7595 56.883 52.2965 44.1507 20.8669 10.6044
threshold=17.903924156499084 38.783410138248854 27.769134023056605 34.085714285714296 20.607794817005196 -0.73865259438682551 4.1537896256272395 12.219382365125851 0.23904761904761906 419.50000000000006 -0.99465740988130902 15.543164362519203 21.500000000000004
decision_type=2 2 2 2 2 2 2 2 2 2 2 2 2
left_child=6 3 5 4 -2 -3 7 11 -4 -5 -9 -1 -8
right_child=1 2 8 9 -6 -7 12 10 -10 -11 -12 -13 -14
leaf_value=-0.012606488328111792 -0.0028720106080032987 0.0031746425318290167 0.0031240255726006135 -0.0014150267221638363 -0.0014115404809609754 0.0017684606403129716 -0.0019043529122137542 -0.0066243815231445706 0.0041552724889222462 0.00091566062486332449 -0.010469460571240197 -0.011220174868166859 -0.0061085406845563005
leaf_weight=11877.8832475245 45272.823484659195 39127.685409545898 82432.011348247528 4943.0928611755371 91545.603047609329 124981.46260356903 487.9902184009552 1375.2049218416214 29315.886466026306 17243.000630378723 19353.86681291461 9685.5698862820864 529.28712153434753
leaf_count=797 978 388 567 55 1179 1324 31 51 189 178 883 537 50
internal_value=-1.3757e-06 0.00109048 0.0026272 -0.00157544 -0.00189513 0.00210402 -0.0109626 -0.011125 0.00339509 0.000395076 -0.0102187 -0.0119902 -0.00414942
internal_weight=478171 434862 275857 159005 136818 164109 43309.8 42292.5 111748 22186.1 20729.1 21563.5 1017.28
internal_count=7207 4858 2468 2390 2157 1712 2349 2268 756 233 934 1334 81
is_linear=0
shrinkage=0.02


Tree=26
num_leaves=14
num_cat=0
split_feature=62 54 62 62 39 20 62 42 62 10 17 68 45
split_gain=13761.7 4290.76 264.168 254.715 140.216 113.656 97.6371 82.5848 76.2267 54.6707 43.0806 20.2224 10.1953
threshold=17.903924156499084 20.707066052227347 27.769134023056605 22.020980133433461 -0.73865259438682551 4.1537896256272395 19.88871732565136 1334.5000000000002 12.219382365125851 0.23904761904761906 6.5989010989010994 15.543164362519203 21.500000000000004
decision_type=2 2 2 2 2 2 2 2 2 2 2 2 2
left_child=5 3 4 6 -3 8 -2 -5 11 -4 -10 -1 -7
right_child=1 2 9 7 -6 12 -8 -9 10 -11 -12 -13 -14
leaf_value=-0.012379168937963581 -0.0029885649507092478 0.0031115580174113687 0.0030619262705667994 0.0011719157506850728 0.0017381615067299458 -0.0018671170491202887 -0.001662499898317894 -0.00081554062254639574 -0.0063403023186055013 0.0040730747349158446 -0.010266169109799829 -0.011013339557735551 -0.0059914479707500381
leaf_weight=11854.500111207366 29125.481663405895 39122.803333759308 82422.053653240204 13613.694667100906 124966.31515550613 487.96740174293518 94623.515155673027 21644.954685211182 1279.5440597385168 29309.619373321533 19422.505433171988 9670.4619447588921 529.03652501106262
leaf_count=797 692 388 567 124 1345 31 1302 251 119 189 815 537 50
internal_value=-1.38262e-06 0.00106876 0.00257721 -0.00154773 0.0020659 -0.0107602 -0.00197498 -4.74833e-05 -0.0109198 0.00332769 -0.0100277 -0.0117719 -0.00406948
internal_weight=478072 434828 275821 159008 164089 43244 123749 35258.6 42227 111732 20702 21525 1017
internal_count=7207 4858 2489 2369 1733 2349 1994 375 2268 756 934 1334 81
is_linear=0
shrinkage=0.02


Tree=27
num_leaves=14
num_cat=0
split_feature=17 15 54 67 43 55 28 54 48 4 4 18 54
split_gain=13205.6 4180.35 230.309 183.979 106.072 91.1564 82.0186 76.5037 31.0703 28.3266 38.0456 22.6343 17.6066
threshold=11.851648351648354 20.946428571428573 25.42290349768226 -0.71497740263180265 2022.9678302532513 17.954796347005782 4.5000000000000009 16.944313037804335 6.5000000000000009 9.5000000000000018 10.500000000000002 1.7320508075688974 7.4850230414746557
decision_type=2 2 2 2 2 2 2 2 2 2 2 2 2
left_child=6 3 5 7 -4 -3 8 -2 -1 11 -11 -8 -10
right_child=1 2 4 -5 -6 -7 9 -9 12 10 -12 -13 -14
leaf_value=-0.0072693858769614971 -0.0023086925448207712 0.0012228244011088783 0.0033111577356273471 0.0015578884339913122 0.0022960122932513803 0.0023785165219361872 -0.013630633129614298 -0.0013832669161032833 -0.011933510395340938 -0.0059691258206869616 -0.0096331461220173845 -0.0097565688954535101 -0.010791093422391613
leaf_weight=828.29645875096321 65479.950208425522 60396.215391397476 106107.61592268944 6811.4345474243164 67787.44367980957 50052.931898117065 753.25339204072952 79222.059147357941 15521.224613234401 2073.6099128425121 2856.6139539480209 8159.7051343917847 11926.992479503155
leaf_count=30 1150 612 948 58 501 460 49 1218 958 70 127 398 628
internal_value=-1.38805e-06 0.00103208 0.00246185 -0.00165102 0.00291571 0.00174691 -0.010694 -0.00180231 -0.011323 -0.00940028 -0.00811134 -0.0101011 -0.0114419
internal_weight=477977 435858 284344 151513 173895 110449 42119.7 144702 28276.5 13843.2 4930.22 8912.96 27448.2
internal_count=7207 4947 2521 2426 1449 1072 2260 2368 1616 644 197 447 1586
is_linear=0
shrinkage=0.02


Tree=28
num_leaves=16
num_cat=0
split_feature=62 54 62 15 62 51 62 59 55 11 17 68 55 26 10
split_gain=12733.1 3965.08 249.718 247.219 123.614 113.822 99.798 64.1226 56.9878 53.7502 43.9049 19.2348 20.8513 16.303 11.9482
threshold=17.903924156499084 20.707066052227347 27.769134023056605 20.946428571428573 20.607794817005196 90.500000000000014 12.219382365125851 26.553571428571434 18.010426373815431 0.29099462365591405 6.5989010989010994 15.543164362519203 17.934408646471024 0.059065934065934307 0.29679679679679688
decision_type=2 2 2 2 2 2 2 8 2 2 2 2 2 2 2
left_child=6 3 5 4 -2 -3 11 10 -5 -4 -8 14 -13 -9 -1
right_child=1 2 9 8 -6 -7 7 13 -10 -11 -12 12 -14 -15 -16
leaf_value=-0.012321406657309408 -0.002575919771607232 0.0029030563473178591 0.0030402412387840298 -3.419764782284162e-05 -0.0013333559025312893 0.0016783762614930929 -0.0060423906476375355 -0.0077659174230674654 0.0024062335461903402 0.0043774984549586858 -0.010006155078767738 -0.011488722568628687 -0.009449732299405272 -0.0041191585364264201 -0.010489487399829855
leaf_weight=9287.6772679537535 49111.651113569736 40353.317256450653 97837.844370365143 11656.077198028564 92549.48636674881 123716.02459526062 1277.8570533841848 1078.8343944549561 5677.0965843200684 13865.402000427246 18267.102924257517 5418.565128237009 4223.3083809614182 1043.2453274726868 2523.2810911536217
leaf_count=648 1020 399 672 113 1191 1334 119 83 45 84 768 318 219 45 149
internal_value=-1.40191e-06 0.00102677 0.00247701 -0.00148853 -0.00176443 0.00197987 -0.0103665 -0.00938871 0.000764885 0.00320679 -0.00975125 -0.0113482 -0.0106084 -0.00601023 -0.0119409
internal_weight=477887 434767 275773 158994 141661 164069 43119.9 21667 17333.2 111703 19545 21452.8 9641.87 2122.08 11811
internal_count=7207 4858 2489 2369 2211 1733 2349 1015 158 756 887 1334 537 128 797
is_linear=0
shrinkage=0.02


Tree=29
num_leaves=16
num_cat=0
split_feature=17 54 14 38 64 38 18 28 11 4 4 29 54 36 74
split_gain=12215.3 3863.37 247.475 183.358 125.783 114.704 80.2931 77.7147 64.8506 27.4104 36.736 31.0907 26.5556 18.046 16.9031
threshold=11.851648351648354 20.707066052227347 20.107142857142861 0.074116354202380205 7.011492085885668 -0.13398594226331254 3.3094381626464568 4.5000000000000009 0.1126984126984127 9.5000000000000018 10.500000000000002 19.500000000000004 7.4850230414746557 1.0000000180025095e-35 -0.0064668110869568049
decision_type=2 2 2 2 2 2 2 2 2 2 2 2 2 2 2
left_child=7 2 4 5 -2 -3 -4 12 -5 11 -11 -9 14 -14 -1
right_child=1 3 6 8 -6 -7 -8 9 -10 10 -12 -13 13 -15 -16
leaf_value=-0.010722588422128074 -0.0027348589471371219 0.002660943650197381 0.0027784860223812346 0.00098415492075834641 -0.0014117510547498073 0.0042222992553560754 -0.00018427753553962228 -0.01070827688290398 0.0020933839434014619 -0.0056707578261515146 -0.0092703347894477414 -0.0081579828918035141 -0.0092312864359527444 -0.010895055257514033 -0.012209535497415124
leaf_weight=7394.0837746560574 41705.253298342228 131643.94068002701 4426.4039840698242 27240.585052490234 93021.781114578247 22060.951882362366 20820.266181945801 5437.417420566082 94878.695244550705 2071.1002335250378 2850.0411896109581 3453.4093635231256 5514.570666372776 7206.0966861248016 8073.9443871676922
leaf_count=437 970 1085 36 277 1239 163 211 288 966 70 127 159 264 394 521
internal_value=-1.41609e-06 0.000991391 -0.00148112 0.00242548 -0.00182165 0.00288543 0.000335275 -0.010301 0.00184622 -0.00904081 -0.00777405 -0.00973021 -0.0109144 -0.0101832 -0.0115074
internal_weight=477799 435798 159974 275824 134727 153705 25246.7 42000.7 122119 13812 4921.14 8890.83 28188.7 12720.7 15468
internal_count=7207 4947 2456 2491 2209 1248 247 2260 1243 644 197 447 1616 658 958
is_linear=0
shrinkage=0.02


Tree=30
num_leaves=14
num_cat=0
split_feature=62 54 62 62 39 20 62 70 62 10 39 68 26
split_gain=11779.2 3657.36 235.89 227.029 127.093 98.1467 86.6749 72.8897 67.4032 52.5098 41.845 18.2225 9.68179
threshold=17.903924156499084 20.707066052227347 27.769134023056605 22.020980133433461 -0.73865259438682551 4.1537896256272395 19.88871732565136 0.29604900423718727 12.219382365125851 0.23904761904761906 -0.99465740988130902 15.543164362519203 0.34478021978022039
decision_type=2 2 2 2 2 2 2 2 2 2 2 2 2
left_child=5 3 4 6 -3 8 -2 -5 11 -4 -10 -1 -7
right_child=1 2 9 7 -6 12 -8 -9 10 -11 -12 -13 -14
leaf_value=-0.011515930823362832 -0.0027880208754899505 0.0028919373588383998 0.002828374085533561 0.0010095363685229015 0.0015841719413481788 -0.0056892330637087971 -0.0015383777295750912 -0.00082138539062839931 -0.0058028001956672076 0.0038192740713137415 -0.0095384123305623045 -0.010218113069174009 -0.0016807119303044505
leaf_weight=11770.477377980947 29114.665006577969 39105.791781425476 82385.620356082916 15554.757511138916 124945.53049564362 514.00171232223511 94610.553309679031 19701.41746544838 1370.3252202272415 29290.745643615723 19232.356043636799 9615.3431162685156 502.13919806480408
leaf_count=797 692 388 567 143 1345 55 1302 232 51 189 883 537 26
internal_value=-1.4325e-06 0.000986395 0.00237938 -0.00142938 0.00189619 -0.00998519 -0.0018328 -1.29722e-05 -0.0101343 0.00308877 -0.00929386 -0.0109384 -0.00376354
internal_weight=477714 434709 275728 158981 164051 43004.6 123725 35256.2 41988.5 111676 20602.7 21385.8 1016.14
internal_count=7207 4858 2489 2369 1733 2349 1994 375 2268 756 934 1334 81
is_linear=0
shrinkage=0.02


Tree=31
num_leaves=15
num_cat=0
split_feature=62 16 62 39 62 62 64 59 28 10 39 4 74 26
split_gain=11326.7 3511.16 293.8 156.236 113.378 90.5744 61.7291 58.0592 53.4712 50.9207 42.8398 18.1421 15.7908 15.0037
threshold=17.903924156499084 19.723214285714288 27.769134023056605 -0.73865259438682551 20.607794817005196 12.219382365125851 5.7816070790957008 26.553571428571434 1.5000000000000002 0.1126984126984127 -0.99465740988130902 13.500000000000002 0.13391204490801936 0.059065934065934307
decision_type=2 2 2 2 2 2 2 8 2 2 2 2 2 2
left_child=5 4 3 -3 6 11 -2 10 -6 -4 -7 12 -1 -9
right_child=1 2 9 -5 8 7 -8 13 -10 -11 -12 -13 -14 -15
leaf_value=-0.010964884505635583 0.00051720749040511582 0.0028474793054634696 0.002146240567187574 0.0014141623729271877 -0.00053910127479833345 -0.0056899864575815761 -0.002561100438084335 -0.0073341103442075978 -0.0015476945578224827 0.0032363797829918291 -0.0094733826180981792 -0.0073882474819902304 -0.0075722081406301616 -0.0038353238860293014
leaf_weight=19897.43964728713 2746.4204216003418 38783.586819171906 21421.232144355774 141953.93378853798 32210.562447309494 1369.7485560178757 46322.888094186783 1076.417961359024 61014.720234155655 90228.424416065216 18107.846921995282 753.17009028792381 703.43489940464497 1042.3350024223328
leaf_count=1263 27 362 154 1507 393 51 990 83 824 601 836 38 33 45
internal_value=-1.43303e-06 0.000966733 0.0022207 0.00172198 -0.00160975 -0.00979822 -0.00238833 -0.00886554 -0.00119952 0.00302761 -0.0092114 -0.010736 -0.0108537 -0.00564836
internal_weight=477632 434682 292387 180738 142295 42950.4 49069.3 21596.3 93225.3 111650 19477.6 21354 20600.9 2118.75
internal_count=7207 4858 2624 1869 2234 2349 1017 1015 1217 755 887 1334 1296 128
is_linear=0
shrinkage=0.02


Tree=32
num_leaves=15
num_cat=0
split_feature=17 54 14 38 30 64 18 28 55 48 54 18 74 33
split_gain=10863.1 3432.67 221.176 168.197 118.958 112.847 76.535 72.5598 54.6871 28.049 27.4095 28.2666 27.7389 15.7378
threshold=11.851648351648354 20.707066052227347 20.107142857142861 0.074116354202380205 27.500000000000004 7.011492085885668 3.3094381626464568 4.5000000000000009 17.619986631016047 6.5000000000000009 6.9630316871253219 1.7043362064927345 0.026588628416651262 54.500000000000007
decision_type=2 2 2 2 2 2 2 2 2 2 2 2 2 2
left_child=7 2 5 4 -3 -2 -4 9 -5 -1 12 -12 -9 -11
right_child=1 3 6 8 -6 -7 -8 10 -10 13 11 -13 -14 -15
leaf_value=-0.0064830238572599142 -0.0025844847599690362 0.004380328698409687 0.0027053473245109046 0.00063959377538905769 0.002537782435996002 -0.0013310869986191717 -0.00018743069311384186 -0.013006465900734315 0.0018951775904732832 -0.011638962123655608 -0.011662093164494933 -0.0078409840353150604 -0.0076957590150354693 -0.010199004078437336
leaf_weight=825.17846271395683 41694.218745589256 15656.942519187927 4425.7340507507324 16037.189527511597 138001.89823579788 93014.662922620773 20820.01456451416 1080.7841924726963 106064.59027838707 4498.5558597147465 901.54499220848083 11029.164861902595 757.51730570197105 22745.898980289698
leaf_count=30 970 106 36 177 1142 1239 211 75 1066 270 50 484 35 1316
internal_value=-1.43779e-06 0.000933323 -0.00139738 0.00228532 0.00272593 -0.00171934 0.000319769 -0.00973459 0.0017305 -0.0103284 -0.00851602 -0.00814093 -0.0108824 -0.0104417
internal_weight=477554 435715 159955 275761 153659 134709 25245.7 41838.6 122102 28069.6 13769 11930.7 1838.3 27244.5
internal_count=7207 4947 2456 2491 1248 2209 247 2260 1243 1616 644 534 110 1586
is_linear=0
shrinkage=0.02


Tree=33
num_leaves=14
num_cat=0
split_feature=17 68 63 48 68 37 34 65 48 4 4 7 33
split_gain=10445.4 3300.59 198.462 118.039 91.8116 71.7105 70.02 66.2584 27.0387 26.6465 35.6394 31.7087 15.2351
threshold=11.851648351648354 38.783410138248854 0.28966209218471778 4.5000000000000009 42.802995391705075 0.81174490092936691 1.0000000180025095e-35 -1.8272629438203165 6.5000000000000009 9.5000000000000018 10.500000000000002 0.2834821428571429 54.500000000000007
decision_type=2 2 2 2 2 2 2 2 2 2 2 2 2
left_child=6 2 7 -3 -5 -4 8 -2 -1 11 -11 -8 -10
right_child=1 3 5 4 -6 -7 9 -9 12 10 -12 -13 -14
leaf_value=-0.0063582695860405552 -0.0011284830454483085 0.0051514034069152573 -0.0018419571945757418 0.0018255363651902105 0.0025646810976710965 -0.00060577868735329024 -0.0096650465711682031 0.0012529114641142108 -0.011426057353860175 -0.005044073046302968 -0.0085834689850908946 -0.0065974016146222603 -0.010008129491839466
leaf_weight=824.74240383505821 7041.8115081787109 5468.7406373023987 116704.97158193588 140039.04631066322 130168.91447424889 22444.21023774147 6996.89240193367 13822.139050245285 4490.9946823716164 2066.2402081787586 2838.3937478065491 1854.6952528357506 22716.603792831302
leaf_count=30 77 35 1938 1358 1075 322 364 142 270 70 127 83 1316
internal_value=-1.4477e-06 0.000914716 -0.00137001 0.00224093 0.00218176 -0.00164277 -0.00955183 0.000448051 -0.0101356 -0.00835421 -0.00710975 -0.0090327 -0.010247
internal_weight=477478 435690 160013 275677 270208 139149 41788.6 20864 28032.3 13756.2 4904.63 8851.59 27207.6
internal_count=7207 4947 2479 2468 2433 2260 2260 219 1616 644 197 447 1586
is_linear=0
shrinkage=0.02


Tree=34
num_leaves=14
num_cat=0
split_feature=62 54 62 62 39 20 62 62 43 10 17 4 26
split_gain=10075.2 3123.06 209.121 199.743 115.634 84.7407 77.5359 59.4514 58.4089 49.5066 39.141 17.7302 8.33393
threshold=17.903924156499084 20.707066052227347 27.769134023056605 22.020980133433461 -0.73865259438682551 4.165237850256136 19.88871732565136 12.219382365125851 2021.6529774127312 0.23904761904761906 6.5989010989010994 13.500000000000002 0.20054945054945164
decision_type=2 2 2 2 2 2 2 2 2 2 2 2 2
left_child=5 3 4 6 -3 7 -2 11 -5 -4 -9 -1 -7
right_child=1 2 9 8 -6 12 -8 10 -10 -11 -12 -13 -14
leaf_value=-0.010271379778198579 -0.0026041872144685375 0.0026928274719283567 0.0026131207332697631 0.0010320381687163001 0.0014452361298080189 -0.0052798770929525186 -0.0014220728763178784 -0.0051044691782185852 -0.00063954543959003575 0.0035752889599796789 -0.0088350179724839759 -0.006862769343792814 -0.0015468564463781717
leaf_weight=20515.449155837297 29105.306282520294 39091.534518718719 82354.729571819305 13611.319719314575 124928.32634949684 502.92437732219696 94599.068304896355 1273.0538637787104 21642.981609344482 29273.727279663086 19249.722985863686 751.29390090703964 507.17174816131592
leaf_count=1296 692 388 567 124 1345 52 1302 119 251 189 816 38 28
internal_value=-1.45355e-06 0.000910348 0.00219781 -0.0013221 0.00174285 -0.00925883 -0.00170055 -0.00939768 5.37814e-06 0.00286592 -0.00860718 -0.0101552 -0.00345866
internal_weight=477407 434607 275648 158959 164020 42799.6 123704 41789.5 35254.3 111628 20522.8 21266.7 1010.1
internal_count=7207 4858 2489 2369 1733 2349 1994 2269 375 756 935 1334 80
is_linear=0
shrinkage=0.02


end of trees

feature_importances:
teacher_pred_total=80
site_month_block_mean=38
dow=31
doy_cos=21
days_since_july4=20
block=19
teacher_pred_admitted=19
lag_rate_364=17
abc_month_block_mean_total=17
roll_std_7=16
roll_mean_91=14
days_since_epoch=14
school_in_session=13
xblock_b3_roll_mean_28=12
lag_91=10
roll_mean_28=10
roll_std_28=9
day_of_year=8
site_dow_mean=8
factor_1_momentum=8
lag_364=7
lag_rate_91=7
delta_28_91=7
year_frac=7
lag_77=6
lag_rate_182=6
roll_mean_56=6
week_of_year=6
days_until_school_start=5
doy_sin=4
days_until_thanksgiving=4
days_since_school_start=4
teacher_pred_rate=4
teacher_residual_roll_28=4
roll_std_14=3
dow_sin=3
days_to_nearest_holiday=3
roll_mean_14=2
delta_7_28=2
dow_cos=2
teacher_residual_roll_7=2
teacher_residual_roll_14=2
factor_0_momentum=2
lag_182=1
lag_rate_63=1
lag_rate_77=1
day=1
is_weekend=1
xblock_b3_roll_mean_7=1
abc_dow_mean_total=1
abc_month_block_admit_rate=1

parameters:
[boosting: gbdt]
[objective: tweedie]
[metric: tweedie]
[tree_learner: serial]
[device_type: cpu]
[data_sample_strategy: bagging]
[data: ]
[valid: ]
[num_iterations: 800]
[learning_rate: 0.02]
[num_leaves: 20]
[num_threads: 12]
[seed: 0]
[deterministic: 0]
[force_col_wise: 0]
[force_row_wise: 0]
[histogram_pool_size: -1]
[max_depth: 4]
[min_data_in_leaf: 40]
[min_sum_hessian_in_leaf: 0.001]
[bagging_fraction: 0.7]
[pos_bagging_fraction: 1]
[neg_bagging_fraction: 1]
[bagging_freq: 0]
[bagging_seed: 3]
[bagging_by_query: 0]
[feature_fraction: 0.6]
[feature_fraction_bynode: 1]
[feature_fraction_seed: 2]
[extra_trees: 0]
[extra_seed: 6]
[early_stopping_round: 0]
[early_stopping_min_delta: 0]
[first_metric_only: 0]
[max_delta_step: 0]
[lambda_l1: 1]
[lambda_l2: 10]
[linear_lambda: 0]
[min_gain_to_split: 0.1]
[drop_rate: 0.1]
[max_drop: 50]
[skip_drop: 0.5]
[xgboost_dart_mode: 0]
[uniform_drop: 0]
[drop_seed: 4]
[top_rate: 0.2]
[other_rate: 0.1]
[min_data_per_group: 100]
[max_cat_threshold: 32]
[cat_l2: 10]
[cat_smooth: 10]
[max_cat_to_onehot: 4]
[top_k: 20]
[monotone_constraints: ]
[monotone_constraints_method: basic]
[monotone_penalty: 0]
[feature_contri: ]
[forcedsplits_filename: ]
[refit_decay_rate: 0.9]
[cegb_tradeoff: 1]
[cegb_penalty_split: 0]
[cegb_penalty_feature_lazy: ]
[cegb_penalty_feature_coupled: ]
[path_smooth: 0]
[interaction_constraints: ]
[verbosity: -1]
[saved_feature_importance_type: 0]
[use_quantized_grad: 0]
[num_grad_quant_bins: 4]
[quant_train_renew_leaf: 0]
[stochastic_rounding: 1]
[linear_tree: 0]
[max_bin: 255]
[max_bin_by_feature: ]
[min_data_in_bin: 3]
[bin_construct_sample_cnt: 200000]
[data_random_seed: 1]
[is_enable_sparse: 1]
[enable_bundle: 1]
[use_missing: 1]
[zero_as_missing: 0]
[feature_pre_filter: 1]
[pre_partition: 0]
[two_round: 0]
[header: 0]
[label_column: ]
[weight_column: ]
[group_column: ]
[ignore_column: ]
[categorical_feature: ]
[forcedbins_filename: ]
[precise_float_parser: 0]
[parser_config_file: ]
[objective_seed: 5]
[num_class: 1]
[is_unbalance: 0]
[scale_pos_weight: 1]
[sigmoid: 1]
[boost_from_average: 1]
[reg_sqrt: 0]
[alpha: 0.9]
[fair_c: 1]
[poisson_max_delta_step: 0.7]
[tweedie_variance_power: 1.5]
[lambdarank_truncation_level: 30]
[lambdarank_norm: 1]
[label_gain: ]
[lambdarank_position_bias_regularization: 0]
[eval_at: ]
[multi_error_top_k: 1]
[auc_mu_weights: ]
[num_machines: 1]
[local_listen_port: 12400]
[time_out: 120]
[machine_list_filename: ]
[machines: ]
[gpu_platform_id: -1]
[gpu_device_id: -1]
[gpu_use_dp: 0]
[num_gpu: 1]

end of parameters

pandas_categorical:[]
