tree
version=v4
num_class=1
num_tree_per_iteration=1
label_index=0
max_feature_idx=79
objective=regression
feature_names=aqi block cdc_ili_rate day day_of_year days_ahead days_since_epoch days_since_july4 days_since_school_start days_since_xmas days_to_nearest_holiday days_until_school_start days_until_thanksgiving delta_28_91 delta_7_28 dow dow_cos dow_sin doy_cos doy_sin event_count holiday_x_block is_covid_era is_halloween is_us_holiday is_weekend lag_diff lag_rate_182 lag_rate_31 lag_rate_35 lag_rate_364 lag_rate_42 lag_rate_56 lag_rate_91 lag_total_182 lag_total_31 lag_total_35 lag_total_364 lag_total_42 lag_total_56 lag_total_91 month month_cos month_sin precip quarter roll_max_14 roll_max_28 roll_max_56 roll_max_7 roll_max_91 roll_mean_14 roll_mean_28 roll_mean_56 roll_mean_7 roll_mean_91 roll_min_14 roll_min_28 roll_min_56 roll_min_7 roll_min_91 roll_std_14 roll_std_28 roll_std_56 roll_std_7 roll_std_91 school_in_session site_dow_mean site_enc site_month_block_mean site_x_dow site_x_month snowfall temp_max temp_min temp_range week_of_year weekend_x_block year year_frac
feature_infos=[5:211] -1:0:1:2:3 [0.48795699999999997:7.7503399999999996] [1:31] [1:366] [16:28] [380:2585] [0:365] [0:385] [0:365] [0:52] [0:385] [0:370] [-12.947802197802197:8.9010989010988979] [-11.892857142857146:10.357142857142854] [0:6] [-0.90096886790241903:1] [-0.97492791218182362:0.97492791218182362] [-0.99997919295908233:0.9999907524084426] [-0.9999994220246925:0.99998555065071859] [0:1] [0:3] [0:1] [0:1] [0:1] [0:1] [-48:41] [0:1] [0:1] [0:1] [0:1] [0:1] [0:1] [0:1] [0:87] [0:87] [0:87] [0:87] [0:87] [0:87] [0:87] [1:12] [-1:1] [-1:1] [0:2.5390000000000001] [1:4] [7:87] [9:87] [11:87] [6:87] [12:87] [4.7142857142857144:65.428571428571431] [4.9642857142857144:63.535714285714285] [5.5178571428571432:61.803571428571431] [4:70.571428571428569] [5.7032967032967035:61.098901098901102] [0:56] [0:52] [0:49] [0:63] [0:48] [1.0271051820261772:13.403501264738468] [1.6471074533748196:11.396358371294912] [2.1121171750258032:11.952815785194982] [0.53452248382496037:16.905902040693519] [2.2659555014506254:11.91310623314085] [0:1] [17.498663101604279:43.390750670241289] -1:0:1:2:3 [6.8755760368663594:57.631336405529957] [0:27] [1:48] [0:2.7448818897637794] [-22:102.59999999999999] [-39.299999999999997:80.5] [1.7000000000000028:49.5] [1:53] [0:3] [2019:2025] [2019.041067761807:2025.0766598220398]
tree_sizes=941 1023 1009 996 1023 1010 1011 998 1010 1023 1022 1056 998 1011 1026 1001 1054 1002 987 1011 1013 1011 1011 989 1013 988 1042 1002 1013 1003 1038 1016 1014 1032 1035 1015 1017 1033 1000 1015 1016 1029 1031 1013 1016 1016 1003 1017 1045 1018 1003 1020 1045 1050 1019 1019 1004 1018 1022 1017 1004 1043 1003 1031 1004 1028 1005 1019 1007 1019 994 1019 1044 1014 1040 1035 1028

Tree=0
num_leaves=8
num_cat=4
split_feature=68 1 67 1 55 1 6
split_gain=1280.25 314.711 291.032 251.729 35.8006 35.237 14.2952
threshold=0 1 35.971925133689844 2 13.082417582417584 3 1771.5000000000002
decision_type=1 1 2 1 2 1 2
left_child=1 6 5 -4 -3 -2 -1
right_child=2 4 3 -5 -6 -7 -8
leaf_value=0.30515954542659479 0.30163325171729571 0.30605573669014946 0.30333657446547169 0.30541959051091383 0.30742725956568695 0.30311989154556196 0.30583817322890183
leaf_weight=68080.400010347366 22393.400010824203 21318.800016872585 84436.400000810623 220941.60000798106 335604.00001979619 68673.200028061867 62868
leaf_count=11088 8800 9824 8800 26400 42976 26400 6512
internal_value=0.305733 0.306846 0.304363 0.304844 0.307345 0.302753 0.305485
internal_weight=884316 487871 396445 305378 356923 91066.6 130948
internal_count=140800 70400 70400 35200 52800 35200 17600
cat_boundaries=0 1 2 3 4
cat_threshold=5 8 8 8
is_linear=0
shrinkage=1


Tree=1
num_leaves=8
num_cat=3
split_feature=67 67 1 1 1 77 4
split_gain=801.402 669.605 294.618 235.659 32.9908 10.3411 2.67345
threshold=20.829879679144387 35.971925133689844 0 1 2 1.5000000000000002 281.50000000000006
decision_type=2 2 1 1 1 2 2
left_child=4 2 -2 -3 6 -6 -1
right_child=1 3 -4 -5 5 -7 -8
leaf_value=-0.0041727722869656569 -0.0002396648704572287 -0.0023187350554502661 0.0015599214247856363 -0.00030330051641045243 -0.0023812221827474306 -0.0036092217398268401 -0.0033323225026929385
leaf_weight=16925.800009042025 130948.40001034737 84436.400000810623 356922.80003666878 220941.60000798106 60441.600024849176 8231.6000032126904 5467.6000017821789
leaf_count=6776 17600 8800 52800 26400 23887 2513 2024
internal_value=-5.41999e-09 0.000331001 0.00107693 -0.000860689 -0.0028831 -0.00252839 -0.00396687
internal_weight=884316 793249 487871 305378 91066.6 68673.2 22393.4
internal_count=140800 105600 70400 35200 35200 26400 8800
cat_boundaries=0 1 2 3
cat_threshold=8 8 8
is_linear=0
shrinkage=0.0324511


Tree=2
num_leaves=8
num_cat=4
split_feature=68 1 67 1 15 1 67
split_gain=1122.01 275.808 255.071 220.616 48.3948 30.8868 14.0439
threshold=0 1 35.971925133689844 2 4.5000000000000009 3 27.186908610629242
decision_type=1 1 2 1 2 1 2
left_child=1 6 5 -4 -3 -2 -1
right_child=2 4 3 -5 -6 -7 -8
leaf_value=-0.0006216899129467085 -0.0038382117163483415 0.0017315303278544534 -0.0022435044275041301 -0.00029345877830083981 0.00086658923635916962 -0.0024463616769672984 5.7823236336475677e-05
leaf_weight=55830.200006902218 22393.400010824203 265228.20002448559 84436.400000810623 220941.60000798106 91694.600012183189 68673.200028061867 75118.200003445148
leaf_count=8800 8800 37722 8800 26400 15078 26400 8800
internal_value=-9.38865e-09 0.00104196 -0.00128227 -0.000832763 0.0015093 -0.00278957 -0.000231888
internal_weight=884316 487871 396445 305378 356923 91066.6 130948
internal_count=140800 70400 70400 35200 52800 35200 17600
cat_boundaries=0 1 2 3 4
cat_threshold=5 8 8 8
is_linear=0
shrinkage=0.0324511


Tree=3
num_leaves=8
num_cat=4
split_feature=68 1 67 1 15 1 6
split_gain=1050.38 258.198 238.793 206.533 45.3048 28.9179 13.391
threshold=0 1 35.971925133689844 2 4.5000000000000009 3 1771.5000000000002
decision_type=1 1 2 1 2 1 2
left_child=1 6 5 -4 -3 -2 -1
right_child=2 4 3 -5 -6 -7 -8
leaf_value=-0.00053970673344778269 -0.0037137508348527035 0.0016753417198435156 -0.002170714728876214 -0.00028393647029422645 0.00083846951890689705 -0.0023669940211397652 0.00011710874749162321
leaf_weight=68080.400010347366 22393.400010824203 265228.20002448559 84436.400000810623 220941.60000798106 91694.600012183189 68673.200028061867 62868
leaf_count=11088 8800 37722 8800 26400 15078 26400 6512
internal_value=-1.40212e-08 0.00100815 -0.00124067 -0.000805744 0.00146033 -0.00269908 -0.000224364
internal_weight=884316 487871 396445 305378 356923 91066.6 130948
internal_count=140800 70400 70400 35200 52800 35200 17600
cat_boundaries=0 1 2 3 4
cat_threshold=5 8 8 8
is_linear=0
shrinkage=0.0324511


Tree=4
num_leaves=8
num_cat=3
split_feature=68 1 70 1 67 15 67
split_gain=983.326 241.713 226.528 166.595 51.6558 42.412 13.1555
threshold=0 1 11.500000000000002 2 41.149964695846663 4.5000000000000009 27.186908610629242
decision_type=1 1 2 1 2 2 2
left_child=1 6 3 -2 -4 -3 -1
right_child=2 5 4 -5 -6 -7 -8
leaf_value=-0.00059435524274261298 -0.0019809849271117141 0.0016209764260980539 -0.0026115310756311965 2.2691571995680327e-05 -0.0014912706410547005 0.00081126227500549698 6.3314847607210978e-05
leaf_weight=55830.200006902218 59704.000000715256 265228.20002448559 91066.60003888607 162886.40000680089 82787.600001275539 91694.600012183189 75118.200003445148
leaf_count=8800 6287 37722 35200 18861 10052 15078 8800
internal_value=-1.83087e-08 0.000975435 -0.00120042 -0.000514874 -0.00207815 0.00141294 -0.000217084
internal_weight=884316 487871 396445 222590 173854 356923 130948
internal_count=140800 70400 70400 25148 45252 52800 17600
cat_boundaries=0 1 2 3
cat_threshold=5 8 8
is_linear=0
shrinkage=0.0324511


Tree=5
num_leaves=8
num_cat=3
split_feature=68 1 70 1 67 17 6
split_gain=920.546 226.281 212.064 155.961 48.3578 39.704 12.5441
threshold=0 1 11.500000000000002 2 41.149964695846663 -0.60785761079279388 1771.5000000000002
decision_type=1 1 2 1 2 2 2
left_child=1 6 3 -2 -4 -3 -1
right_child=2 5 4 -5 -6 -7 -8
leaf_value=-0.00051524704553623313 -0.0019167178568043229 0.00078493790909008683 -0.0025267902911616292 2.1955318843702216e-05 -0.0014428812582907558 0.0015683752648445854 0.00012045731080982131
leaf_weight=68080.400010347366 59704.000000715256 91694.600012183189 91066.60003888607 162886.40000680089 82787.600001275539 265228.20002448559 62868
leaf_count=11088 6287 15078 35200 18861 10052 37722 6512
internal_value=-1.94668e-08 0.000943782 -0.00116147 -0.00049817 -0.00201072 0.00136709 -0.00021004
internal_weight=884316 487871 396445 222590 173854 356923 130948
internal_count=140800 70400 70400 25148 45252 52800 17600
cat_boundaries=0 1 2 3
cat_threshold=5 8 8
is_linear=0
shrinkage=0.0324511


Tree=6
num_leaves=8
num_cat=4
split_feature=68 1 70 1 1 17 67
split_gain=861.775 211.833 198.524 146.006 48.2068 37.1689 12.3234
threshold=0 1 11.500000000000002 2 3 -0.60785761079279388 27.186908610629242
decision_type=1 1 2 1 1 2 2
left_child=1 6 3 -2 -4 -3 -1
right_child=2 5 4 -5 -6 -7 -8
leaf_value=-0.00056836846130122224 -0.0018545357291856375 0.00075946769265704598 -0.0028320067661843692 2.1242909478437579e-05 -0.0016153207104720557 0.0015174810635534672 6.81606101543527e-05
leaf_weight=55830.200006902218 59704.000000715256 91694.600012183189 47125.800010919571 162886.40000680089 126728.40002924204 265228.20002448559 75118.200003445148
leaf_count=8800 6287 15078 11313 18861 33939 37722 8800
internal_value=-2.05039e-08 0.000913156 -0.00112378 -0.000482009 -0.00194548 0.00132273 -0.000203225
internal_weight=884316 487871 396445 222590 173854 356923 130948
internal_count=140800 70400 70400 25148 45252 52800 17600
cat_boundaries=0 1 2 3 4
cat_threshold=5 8 8 8
is_linear=0
shrinkage=0.0324511


Tree=7
num_leaves=8
num_cat=4
split_feature=68 1 67 1 69 1 6
split_gain=806.759 198.309 188.381 162.969 35.3935 25.4831 11.7507
threshold=0 1 35.971925133689844 2 12.624423963133642 3 1771.5000000000002
decision_type=1 1 2 1 2 1 2
left_child=1 6 5 -4 -3 -2 -1
right_child=2 4 3 -5 -6 -7 -8
leaf_value=-0.00049202759831447709 -0.0033348736136884359 -1.2255060930763987e-05 -0.0019135250801519069 -0.00023750921026497343 0.0013606567261180856 -0.0020710916476285412 0.00012324412438281801
leaf_weight=68080.400010347366 22393.400010824203 21010.800010889769 84436.400000810623 220941.60000798106 335912.00002577901 68673.200028061867 62868
leaf_count=11088 8800 8800 8800 26400 44000 26400 6512
internal_value=-2.32431e-08 0.000883524 -0.00108732 -0.000701027 0.0012798 -0.00238268 -0.000196631
internal_weight=884316 487871 396445 305378 356923 91066.6 130948
internal_count=140800 70400 70400 35200 52800 35200 17600
cat_boundaries=0 1 2 3 4
cat_threshold=5 8 8 8
is_linear=0
shrinkage=0.0324511


Tree=8
num_leaves=8
num_cat=4
split_feature=68 1 67 1 15 1 67
split_gain=755.257 185.647 176.359 152.566 34.7298 23.8585 11.5438
threshold=0 1 35.971925133689844 2 4.5000000000000009 3 27.186908610629242
decision_type=1 1 2 1 2 1 2
left_child=1 6 5 -4 -3 -2 -1
right_child=2 4 3 -5 -6 -7 -8
leaf_value=-0.00054365637498078254 -0.003226734303100204 0.0014265279515096264 -0.0018514414063257056 -0.0002298023595072698 0.00069381375443722953 -0.0020038989250577084 7.2411284626626692e-05
leaf_weight=55830.200006902218 22393.400010824203 265228.20002448559 84436.400000810623 220941.60000798106 91694.600012183189 68673.200028061867 75118.200003445148
leaf_count=8800 8800 37722 8800 26400 15078 26400 8800
internal_value=-2.69141e-08 0.000854853 -0.00105205 -0.000678282 0.00123827 -0.00230539 -0.000190251
internal_weight=884316 487871 396445 305378 356923 91066.6 130948
internal_count=140800 70400 70400 35200 52800 35200 17600
cat_boundaries=0 1 2 3 4
cat_threshold=5 8 8 8
is_linear=0
shrinkage=0.0324511


Tree=9
num_leaves=8
num_cat=3
split_feature=67 67 1 1 1 15 4
split_gain=479.698 392.465 173.794 142.827 22.3376 8.01761 2.53052
threshold=20.829879679144387 35.971925133689844 0 1 2 4.5000000000000009 281.50000000000006
decision_type=2 2 1 1 1 2 2
left_child=4 2 -2 -3 6 -6 -1
right_child=1 3 -4 -5 5 -7 -8
leaf_value=-0.0033210558455764416 -0.00018407774445346531 -0.0017913720153355179 0.0011980913827246487 -0.0002223456078950334 -0.0017346822204075717 -0.0025424855842164271 -0.0025085600827157543
leaf_weight=16925.800009042025 130948.40001034737 84436.400000810623 356922.80003666878 220941.60000798106 51309.000020861626 17364.200007200241 5467.6000017821789
leaf_count=6776 17600 8800 52800 26400 18861 7539 2024
internal_value=-3.01327e-08 0.000256061 0.00082713 -0.000656274 -0.00223061 -0.00193889 -0.0031221
internal_weight=884316 793249 487871 305378 91066.6 68673.2 22393.4
internal_count=140800 105600 70400 35200 35200 26400 8800
cat_boundaries=0 1 2 3
cat_threshold=8 8 8
is_linear=0
shrinkage=0.0324511


Tree=10
num_leaves=8
num_cat=3
split_feature=67 67 1 1 1 77 69
split_gain=449.078 367.409 162.698 133.709 20.9129 9.3442 2.38957
threshold=20.829879679144387 35.971925133689844 0 1 2 1.5000000000000002 22.752380952380957
decision_type=2 2 1 1 1 2 2
left_child=4 2 -2 -3 6 -6 -1
right_child=1 3 -4 -5 5 -7 -8
leaf_value=-0.0027264187076730881 -0.00017810500421367223 -0.0017332516190090245 0.001159213823076811 -0.00021513079452576363 -0.001736168362422029 -0.002902574557330092 -0.003411525242252654
leaf_weight=12756.600005835295 130948.40001034737 84436.400000810623 356922.80003666878 220941.60000798106 60441.600024849176 8231.6000032126904 9636.8000049889088
leaf_count=5128 17600 8800 52800 26400 23887 2513 3672
internal_value=-3.22969e-08 0.000247751 0.00080029 -0.000634981 -0.00215825 -0.00187598 -0.00302084
internal_weight=884316 793249 487871 305378 91066.6 68673.2 22393.4
internal_count=140800 105600 70400 35200 35200 26400 8800
cat_boundaries=0 1 2 3
cat_threshold=8 8 8
is_linear=0
shrinkage=0.0324511


Tree=11
num_leaves=8
num_cat=1
split_feature=1 32 69 55 15 33 4
split_gain=288.17 109.512 90.0428 110.405 67.3885 32.4627 2.29437
threshold=0 0.20483682983682985 27.258755760368668 41.895604395604401 4.5000000000000009 0.21380952380952384 281.50000000000006
decision_type=1 2 2 2 2 2 2
left_child=2 5 6 -4 -3 -2 -1
right_child=1 4 3 -5 -6 -7 -8
leaf_value=-0.0031122341176606579 -0.0012296344547320093 0.00076855504472111969 -0.00017235979953991062 -0.0016772815075736939 -7.179951304399098e-05 -0.0001185461340717474 -0.0023388897539948672
leaf_weight=16925.800009042025 44658.000012204051 394129.40003192425 130953.90001028776 84430.900000870228 134876.30001368374 72873.900014899671 5467.6000017821789
leaf_count=6776 14234 54217 17604 8796 21440 15709 2024
internal_value=-3.4517e-08 0.000355221 -0.000965959 -0.000762324 0.000554298 -0.000540767 -0.00292418
internal_weight=884316 646538 237778 215385 529006 117532 22393.4
internal_count=140800 105600 35200 26400 75657 29943 8800
cat_boundaries=0 1
cat_threshold=8
is_linear=0
shrinkage=0.0324511


Tree=12
num_leaves=8
num_cat=4
split_feature=68 70 1 1 1 55 6
split_gain=604.505 151.65 147.486 97.7712 32.2621 30.3465 11.0075
threshold=0 11.500000000000002 1 2 3 13.082417582417584 1771.5000000000002
decision_type=1 2 1 1 1 2 2
left_child=2 3 6 -2 -3 -4 -1
right_child=1 4 5 -5 -6 -7 -8
leaf_value=-0.00045263481903586679 -0.0015034717629736453 -0.0010894893082203103 -8.0628816713754095e-05 3.1503940425542811e-05 -0.0020028651525404138 0.0011819759161835442 0.00014286088182313949
leaf_weight=68080.400010347366 59704.000000715256 65422.600019901991 21318.800016872585 162886.40000680089 108431.60002025962 335604.00001979619 62868
leaf_count=11088 6287 22626 9824 18861 22626 42976 6512
internal_value=-3.5381e-08 -0.000941225 0.000764782 -0.000380312 -0.00165939 0.00110653 -0.000166733
internal_weight=884316 396445 487871 222590 173854 356923 130948
internal_count=140800 70400 70400 25148 45252 52800 17600
cat_boundaries=0 1 2 3 4
cat_threshold=5 8 8 3
is_linear=0
shrinkage=0.0324511


Tree=13
num_leaves=8
num_cat=4
split_feature=68 70 1 1 69 1 67
split_gain=565.913 141.969 138.069 91.5303 30.4726 30.2022 10.8137
threshold=0 11.500000000000002 1 2 12.624423963133642 3 27.186908610629242
decision_type=1 2 1 1 2 1 2
left_child=2 3 6 -2 -4 -3 -1
right_child=1 5 4 -5 -6 -7 -8
leaf_value=-0.00050336829456355413 -0.0014546961398981789 -0.0010541432744142869 -0.00012822322946267305 3.048167574727302e-05 0.0011456416980948514 -0.001937880043283053 9.2896242110976964e-05
leaf_weight=55830.200006902218 59704.000000715256 65422.600019901991 21010.800010889769 162886.40000680089 335912.00002577901 108431.60002025962 75118.200003445148
leaf_count=8800 6287 22626 8800 18861 44000 22626 8800
internal_value=-3.68489e-08 -0.000910688 0.000739965 -0.000367974 0.00107062 -0.00160555 -0.000161323
internal_weight=884316 396445 487871 222590 356923 173854 130948
internal_count=140800 70400 70400 25148 52800 45252 17600
cat_boundaries=0 1 2 3 4
cat_threshold=5 8 8 3
is_linear=0
shrinkage=0.0324511


Tree=14
num_leaves=8
num_cat=3
split_feature=67 67 1 1 1 77 69
split_gain=367.362 291.187 129.254 101.207 15.7291 8.09514 2.1718
threshold=20.829879679144387 35.971925133689844 0 1 2 1.5000000000000002 22.752380952380957
decision_type=2 2 1 1 1 2 2
left_child=4 2 -2 -3 6 -6 -1
right_child=1 3 -4 -5 5 -7 -8
leaf_value=-0.0024199857489404612 -0.00015608889536310937 -0.0015172866792431848 0.0010358804700080903 -0.00019650603684426185 -0.0015770347043300222 -0.0026626298145882151 -0.0030721794157020075
leaf_weight=12756.600005835295 130948.40001034737 84436.400000810623 356922.80003666878 220941.60000798106 60441.600024849176 8231.6000032126904 9636.8000049889088
leaf_count=5128 17600 8800 52800 26400 23887 2513 3672
internal_value=-3.82109e-08 0.00022407 0.000715967 -0.000561781 -0.00195204 -0.00170716 -0.00270029
internal_weight=884316 793249 487871 305378 91066.6 68673.2 22393.4
internal_count=140800 105600 70400 35200 35200 26400 8800
cat_boundaries=0 1 2 3
cat_threshold=8 8 8
is_linear=0
shrinkage=0.0324511


Tree=15
num_leaves=8
num_cat=4
split_feature=68 70 1 1 17 1 6
split_gain=495.963 127.538 121.001 80.6541 30.1642 26.9975 10.3113
threshold=0 11.500000000000002 1 2 -0.60785761079279388 3 1771.5000000000002
decision_type=1 2 1 1 2 1 2
left_child=2 3 6 -2 -4 -3 -1
right_child=1 5 4 -5 -6 -7 -8
leaf_value=-0.00042773600230194006 -0.0013582791182632497 -0.00098982794724948781 0.00049487197372931487 3.5868831963496226e-05 0.001177703539374503 -0.0018253560125451043 0.00014861944056857089
leaf_weight=68080.400010347366 59704.000000715256 65422.600019901991 91694.600012183189 162886.40000680089 265228.20002448559 108431.60002025962 62868
leaf_count=11088 6287 22626 15078 18861 37722 22626 6512
internal_value=-3.98991e-08 -0.000852555 0.00069272 -0.000338164 0.00100227 -0.00151115 -0.000151024
internal_weight=884316 396445 487871 222590 356923 173854 130948
internal_count=140800 70400 70400 25148 52800 45252 17600
cat_boundaries=0 1 2 3 4
cat_threshold=5 8 8 3
is_linear=0
shrinkage=0.0324511


Tree=16
num_leaves=8
num_cat=1
split_feature=68 71 77 77 55 50 77
split_gain=464.3 115.644 45.4924 42.8907 33.8892 9.68675 9.25051
threshold=0 36.500000000000007 1.5000000000000002 1.5000000000000002 40.741758241758248 49.500000000000007 1.5000000000000002
decision_type=1 2 2 2 2 2 2
left_child=3 2 -2 4 -1 -5 -3
right_child=1 6 -4 5 -6 -7 -8
leaf_value=0.00067588867092161495 -0.00034268700405124691 -0.0016961122441683009 -0.0013960345675879291 -0.00055506904673589613 0.0014758829545716196 0.00022026564766013432 -0.0025864327988561852
leaf_weight=338362.70004209876 253334.60001072288 76386.800032615662 52043.39999806881 23826.300003498793 66769.100002110004 58913.099999308586 14679.800006270409
leaf_count=55913 30174 30174 5026 4076 4435 5976 5026
internal_value=-4.08175e-08 -0.000824894 -0.000522229 0.000670241 0.000807757 -3.03313e-06 -0.00183981
internal_weight=884316 396445 305378 487871 405132 82739.4 91066.6
internal_count=140800 70400 35200 70400 60348 10052 35200
cat_boundaries=0 1
cat_threshold=5
is_linear=0
shrinkage=0.0324511


Tree=17
num_leaves=8
num_cat=4
split_feature=68 1 67 1 6 1 67
split_gain=434.658 111.244 108.262 88.4264 29.4114 14.1718 9.91176
threshold=0 1 35.971925133689844 2 1807.5000000000002 3 27.186908610629242
decision_type=1 1 2 1 2 1 2
left_child=1 6 5 -4 -3 -2 -1
right_child=2 4 3 -5 -6 -7 -8
leaf_value=-0.00048798643050546373 -0.0024902146328912153 0.00066425960628355846 -0.0013984223686818297 -0.00016385213208729941 0.0012541155425489035 -0.0015477553766858932 8.2871189202014055e-05
leaf_weight=55830.200006902218 22393.400010824203 186862.80003666878 84436.400000810623 220941.60000798106 170060 68673.200028061867 75118.200003445148
leaf_count=8800 8800 34128 8800 26400 18672 26400 8800
internal_value=-4.05483e-08 0.000648492 -0.000798129 -0.000505283 0.000945295 -0.00178012 -0.000160516
internal_weight=884316 487871 396445 305378 356923 91066.6 130948
internal_count=140800 70400 70400 35200 52800 35200 17600
cat_boundaries=0 1 2 3 4
cat_threshold=5 8 8 8
is_linear=0
shrinkage=0.0324511


Tree=18
num_leaves=8
num_cat=4
split_feature=68 70 1 1 6 1 6
split_gain=406.91 107.486 104.142 71.0891 27.5336 23.1414 9.66011
threshold=0 11.500000000000002 1 2 1807.5000000000002 3 1771.5000000000002
decision_type=1 2 1 1 2 1 2
left_child=2 3 6 -2 -4 -3 -1
right_child=1 5 4 -5 -6 -7 -8
leaf_value=-0.00042314002169720568 -0.0012577288285199038 -0.00089420818667014968 0.00064270444189963832 5.1141001014885892e-05 0.0012134197680810244 -0.0016677414527843863 0.0001347203961978013
leaf_weight=68080.400010347366 59704.000000715256 65422.600019901991 186862.80003666878 162886.40000680089 170060 108431.60002025962 62868
leaf_count=11088 6287 22626 34128 18861 18672 22626 6512
internal_value=-4.22945e-08 -0.000772236 0.000627448 -0.000300011 0.000914621 -0.00137685 -0.000155308
internal_weight=884316 396445 487871 222590 356923 173854 130948
internal_count=140800 70400 70400 25148 52800 45252 17600
cat_boundaries=0 1 2 3 4
cat_threshold=5 8 8 3
is_linear=0
shrinkage=0.0324511


Tree=19
num_leaves=8
num_cat=3
split_feature=67 67 1 1 1 15 6
split_gain=271.395 206.782 97.4926 77.9749 12.9047 6.46891 2.13435
threshold=20.829879679144387 35.971925133689844 0 1 2 4.5000000000000009 2041.5000000000002
decision_type=2 2 1 1 1 2 2
left_child=4 2 -2 -3 6 -6 -1
right_child=1 3 -4 -5 5 -7 -8
leaf_value=-0.0025742751051462823 -0.00015026824104606519 -0.0013083479776847689 0.00088494132446759774 -0.00014903181083515029 -0.0012727527593578919 -0.0019980263555839694 -0.0018890612314991886
leaf_weight=15253.400010824203 130948.40001034737 84436.400000810623 356922.80003666878 220941.60000798106 51309.000020861626 17364.200007200241 7140
leaf_count=6624 17600 8800 52800 26400 18861 7539 2176
internal_value=-4.28578e-08 0.000192582 0.0006071 -0.00046965 -0.00167782 -0.00145611 -0.00235539
internal_weight=884316 793249 487871 305378 91066.6 68673.2 22393.4
internal_count=140800 105600 70400 35200 35200 26400 8800
cat_boundaries=0 1 2 3
cat_threshold=8 8 8
is_linear=0
shrinkage=0.0324511


Tree=20
num_leaves=8
num_cat=4
split_feature=68 70 1 1 69 1 67
split_gain=356.614 96.5634 91.2681 62.6573 28.3177 20.8631 9.28485
threshold=0 11.500000000000002 1 2 12.624423963133642 3 27.186908610629242
decision_type=1 2 1 1 2 1 2
left_child=2 3 6 -2 -4 -3 -1
right_child=1 5 4 -5 -6 -7 -8
leaf_value=-0.00046233731749231499 -0.001174480228156867 -0.00083775349014320261 -0.00029941409571180178 5.4317357466283403e-05 0.00092853897993276603 -0.0015722101713386491 9.0171949380938828e-05
leaf_weight=55830.200006902218 59704.000000715256 65422.600019901991 21010.800010889769 162886.40000680089 335912.00002577901 108431.60002025962 75118.200003445148
leaf_count=8800 6287 22626 8800 18861 44000 22626 8800
internal_value=-4.383e-08 -0.000722941 0.000587388 -0.000275351 0.000856225 -0.00129601 -0.000145392
internal_weight=884316 396445 487871 222590 356923 173854 130948
internal_count=140800 70400 70400 25148 52800 45252 17600
cat_boundaries=0 1 2 3 4
cat_threshold=5 8 8 3
is_linear=0
shrinkage=0.0324511


Tree=21
num_leaves=8
num_cat=3
split_feature=68 70 1 1 15 71 6
split_gain=333.847 90.3988 85.4409 58.6578 26.8224 20.127 9.04906
threshold=0 11.500000000000002 1 2 4.5000000000000009 23.500000000000004 1771.5000000000002
decision_type=1 2 1 1 2 2 2
left_child=2 3 6 -2 -4 -3 -1
right_child=1 5 4 -5 -6 -7 -8
leaf_value=-0.00039989758718723804 -0.001136377748827095 -0.00085535039042918329 0.00099386882399040647 5.2554847046216864e-05 0.0003499876703113519 -0.0015599259410617901 0.0001400303415650161
leaf_weight=68080.400010347366 59704.000000715256 75508.000001072884 265228.20002448559 162886.40000680089 91694.600012183189 98346.200039088726 62868
leaf_count=11088 6287 9204 37722 18861 15078 36048 6512
internal_value=-4.45234e-08 -0.000699485 0.000568326 -0.000266419 0.00082844 -0.00125396 -0.000140675
internal_weight=884316 396445 487871 222590 356923 173854 130948
internal_count=140800 70400 70400 25148 52800 45252 17600
cat_boundaries=0 1 2 3
cat_threshold=5 8 8
is_linear=0
shrinkage=0.0324511


Tree=22
num_leaves=8
num_cat=4
split_feature=68 67 1 1 69 1 67
split_gain=312.533 81.888 79.9858 65.2412 26.4594 11.7568 8.69759
threshold=0 35.971925133689844 1 2 12.624423963133642 3 27.186908610629242
decision_type=1 2 1 1 2 1 2
left_child=2 5 6 -3 -4 -2 -1
right_child=1 3 4 -5 -6 -7 -8
leaf_value=-0.00044286779671097259 -0.0021774292863992011 -0.0011892649923435886 -0.00031551466617550953 -0.00012882767407964134 0.0008714573540255803 -0.0013192817251714032 9.1882679223049087e-05
leaf_weight=55830.200006902218 22393.400010824203 84436.400000810623 21010.800010889769 220941.60000798106 335912.00002577901 68673.200028061867 75118.200003445148
leaf_count=8800 8800 8800 8800 26400 44000 26400 8800
internal_value=-4.40704e-08 -0.000676789 0.000549884 -0.0004221 0.000801557 -0.00153083 -0.00013611
internal_weight=884316 396445 487871 305378 356923 91066.6 130948
internal_count=140800 70400 70400 35200 52800 35200 17600
cat_boundaries=0 1 2 3 4
cat_threshold=5 8 8 8
is_linear=0
shrinkage=0.0324511


Tree=23
num_leaves=8
num_cat=4
split_feature=68 70 1 1 79 1 79
split_gain=292.582 81.2104 74.8789 51.6783 25.7284 18.8266 8.47665
threshold=0 11.500000000000002 1 2 2022.9486652977414 3 2022.8501026694048
decision_type=1 2 1 1 2 1 2
left_child=2 3 6 -2 -4 -3 -1
right_child=1 5 4 -5 -6 -7 -8
leaf_value=-0.00038258381702252253 -0.0010609293213942332 -0.00074510101140217756 0.00051270014926133966 5.5029774060256069e-05 0.0010643765500837413 -0.0014427338887827001 0.0001399881435895183
leaf_weight=68080.400010347366 59704.000000715256 65422.600019901991 186862.80003666878 162886.40000680089 170060 108431.60002025962 62868
leaf_count=11088 6287 22626 34128 18861 18672 22626 6512
internal_value=-4.55517e-08 -0.000654833 0.00053204 -0.000244365 0.000775546 -0.00118037 -0.000131694
internal_weight=884316 396445 487871 222590 356923 173854 130948
internal_count=140800 70400 70400 25148 52800 45252 17600
cat_boundaries=0 1 2 3 4
cat_threshold=5 8 8 3
is_linear=0
shrinkage=0.0324511


Tree=24
num_leaves=8
num_cat=4
split_feature=68 70 1 1 77 70 1
split_gain=273.903 76.0259 70.2393 48.3796 26.5914 21.3763 17.6246
threshold=0 11.500000000000002 1 2 1.5000000000000002 13.500000000000002 3
decision_type=1 2 1 1 2 2 1
left_child=2 3 4 -2 -1 -4 -3
right_child=1 6 5 -5 -6 -7 -8
leaf_value=0.00094532789430095397 -0.0010265106513834231 -0.00072092788446796144 0.00031055825668158539 5.3244175235940112e-05 9.4916425992320802e-05 -0.0003986001504640145 -0.0013959228316620278
leaf_weight=258280.80001419783 59704.000000715256 65422.600019901991 107198.6000148952 162886.40000680089 45550.80000013113 76841.000017791986 108431.60002025962
leaf_count=30174 6287 22626 17600 18861 5026 17600 22626
internal_value=-4.57116e-08 -0.000633588 0.000514775 -0.000236438 0.000817811 1.44628e-05 -0.00114208
internal_weight=884316 396445 487871 222590 303832 184040 173854
internal_count=140800 70400 70400 25148 35200 35200 45252
cat_boundaries=0 1 2 3 4
cat_threshold=5 6 8 3
is_linear=0
shrinkage=0.0324511


Tree=25
num_leaves=8
num_cat=4
split_feature=68 67 1 1 6 1 6
split_gain=256.417 70.5997 66.5556 54.204 24.0388 10.4229 7.94229
threshold=0 35.971925133689844 1 2 1807.5000000000002 3 1771.5000000000002
decision_type=1 2 1 1 2 1 2
left_child=2 5 6 -3 -4 -2 -1
right_child=1 3 4 -5 -6 -7 -8
leaf_value=-0.00037054021211928084 -0.0020147736873362349 -0.0010758143432611517 0.00047357647026821469 -0.00010923211959137629 0.0010068289268071178 -0.0012068728838522576 0.00013529234791998117
leaf_weight=68080.400010347366 22393.400010824203 84436.400000810623 186862.80003666878 220941.60000798106 170060 68673.200028061867 62868
leaf_count=11088 8800 8800 34128 26400 18672 26400 6512
internal_value=-4.58985e-08 -0.000613031 0.000498071 -0.000376547 0.000727645 -0.00140603 -0.000127687
internal_weight=884316 396445 487871 305378 356923 91066.6 130948
internal_count=140800 70400 70400 35200 52800 35200 17600
cat_boundaries=0 1 2 3 4
cat_threshold=5 8 8 8
is_linear=0
shrinkage=0.0324511


Tree=26
num_leaves=8
num_cat=2
split_feature=71 1 51 15 1 15 4
split_gain=178.422 114.78 41.0972 39.8211 9.75837 6.09453 2.08401
threshold=36.500000000000007 0 43.750000000000007 4.5000000000000009 1 4.5000000000000009 281.50000000000006
decision_type=2 1 2 2 1 2 2
left_child=1 2 -1 -3 6 -6 -2
right_child=4 3 -4 -5 5 -7 -8
leaf_value=-0.00012437865439853226 -0.0021287117738579991 0.00055377563353461361 -0.0010431523286844951 -6.1023161763021125e-05 -0.00098979642582854867 -0.0016935344876425511 -0.0013960920675335879
leaf_weight=131260.80000931025 16925.800009042025 428114.60003128648 84124.000001847744 149749.80001336336 51309.000020861626 17364.200007200241 5467.6000017821789
leaf_count=17872 6776 56583 8528 22617 18861 7539 2024
internal_value=-4.68178e-08 0.000156137 -0.000483228 0.000394449 -0.00136042 -0.00116772 -0.00194944
internal_weight=884316 793249 215385 577864 91066.6 68673.2 22393.4
internal_count=140800 105600 26400 79200 35200 26400 8800
cat_boundaries=0 1 2
cat_threshold=8 8
is_linear=0
shrinkage=0.0324511


Tree=27
num_leaves=8
num_cat=4
split_feature=68 70 1 1 79 67 1
split_gain=231.837 63.1645 60.4014 38.3766 22.2661 19.9499 15.3032
threshold=0 11.500000000000002 1 2 2022.9486652977414 27.186908610629242 3
decision_type=1 2 1 1 2 2 1
left_child=2 3 4 -2 -1 -4 -3
right_child=1 6 5 -5 -6 -7 -8
leaf_value=0.0004871733812523522 -0.00092458177445976352 -0.00065398036151150885 -0.00038940279775141436 3.7092075289466268e-05 0.0010432130936026984 0.00029568742060609156 -0.0012829344856665433
leaf_weight=157695.60001432896 59704.000000715256 65422.600019901991 76841.000017791986 162886.40000680089 146136 107198.6000148952 108431.60002025962
leaf_count=22752 6287 22626 17600 18861 12448 17600 22626
internal_value=-4.69986e-08 -0.000582913 0.000473594 -0.000220912 0.000754608 9.64129e-06 -0.0010464
internal_weight=884316 396445 487871 222590 303832 184040 173854
internal_count=140800 70400 70400 25148 35200 35200 45252
cat_boundaries=0 1 2 3 4
cat_threshold=5 6 8 3
is_linear=0
shrinkage=0.0324511


Tree=28
num_leaves=8
num_cat=0
split_feature=70 55 6 15 74 2 17
split_gain=158.551 79.4757 24.8987 20.379 6.12986 3.06609 3.02892
threshold=20.500000000000004 47.225274725274737 1807.5000000000002 4.5000000000000009 45.500000000000007 6.6637435714285722 -0.8783796973249266
decision_type=2 2 2 2 2 2 2
left_child=1 2 -1 -3 5 -2 -6
right_child=4 3 -4 -5 6 -7 -8
leaf_value=0.00013426081047502119 -0.0010141010556311339 -0.00022510397815613309 0.00055260476480594324 -0.00097941655458697909 -0.0023866622523631906 -0.0022852831461309267 -0.0014941109902425382
leaf_weight=319337.70005819201 52208.200024813414 140066.49999922514 282232 51612.999998390675 4594.4000023007393 2076 32188.000011771917
leaf_count=58080 20608 11717 31120 4683 1952 736 11904
internal_value=-4.68607e-08 0.000147183 0.000330535 -0.000428243 -0.00128243 -0.00106299 -0.00160602
internal_weight=884316 793249 601570 191679 91066.6 54284.2 36782.4
internal_count=140800 105600 89200 16400 35200 21344 13856
is_linear=0
shrinkage=0.0324511


Tree=29
num_leaves=8
num_cat=4
split_feature=68 1 70 1 17 1 6
split_gain=206.963 56.7217 54.9659 35.2438 22.2212 13.4619 7.05211
threshold=0 1 11.500000000000002 2 -0.60785761079279388 3 1771.5000000000002
decision_type=1 1 2 1 2 1 2
left_child=1 6 3 -2 -3 -4 -1
right_child=2 4 5 -5 -6 -7 -8
leaf_value=-0.00035905494174643928 -0.0008874040932890108 0.00022392232483895916 -0.0014515708456386263 3.4183337850170774e-05 0.00080996887247676184 -0.00080867369952745429 0.00011758873501458195
leaf_weight=68080.400010347366 59704.000000715256 91694.600012183189 47125.800010919571 162886.40000680089 265228.20002448559 126728.40002924204 62868
leaf_count=11088 6287 15078 11313 18861 37722 33939 6512
internal_value=-4.72595e-08 0.000447464 -0.000550758 -0.000213066 0.0006594 -0.00098312 -0.000130215
internal_weight=884316 487871 396445 222590 356923 173854 130948
internal_count=140800 70400 70400 25148 52800 45252 17600
cat_boundaries=0 1 2 3 4
cat_threshold=5 8 8 8
is_linear=0
shrinkage=0.0324511


Tree=30
num_leaves=8
num_cat=1
split_feature=68 70 77 55 69 71 6
split_gain=193.75 51.457 29.4136 21.671 16.6234 13.0278 6.7084
threshold=0 11.500000000000002 1.5000000000000002 40.741758241758248 54.913824884792632 23.500000000000004 1771.5000000000002
decision_type=1 2 2 2 2 2 2
left_child=2 4 3 -1 -2 -3 -4
right_child=1 5 6 -5 -6 -7 -8
leaf_value=0.00044137387062354191 -9.3106117525792794e-05 -0.00063053740120751862 -0.00040788247171080018 0.0010810914210027829 -0.00090183684019948653 -0.0011973798971707977 0.00017675613294130307
leaf_weight=338362.70004209876 191482.40000835061 75508.000001072884 42647.400002807379 66769.100002110004 31107.999999165535 98346.200039088726 40092
leaf_count=55913 21996 9204 6340 4435 3152 36048 3712
internal_value=-4.7444e-08 -0.000532889 0.000432944 0.000546821 -0.000206154 -0.000951224 -0.0001246
internal_weight=884316 396445 487871 405132 222590 173854 82739.4
internal_count=140800 70400 70400 60348 25148 45252 10052
cat_boundaries=0 1
cat_threshold=5
is_linear=0
shrinkage=0.0324511


Tree=31
num_leaves=8
num_cat=4
split_feature=68 1 70 1 77 70 1
split_gain=181.38 52.7758 48.1717 31.9903 21.4656 18.6286 13.0106
threshold=0 1 11.500000000000002 2 1.5000000000000002 13.500000000000002 3
decision_type=1 1 2 1 2 2 1
left_child=1 4 3 -2 -1 -3 -4
right_child=2 5 6 -5 -6 -7 -8
leaf_value=0.00079613842146985701 -0.00084192405401254799 0.00026162972326400195 -0.00055856143778112662 3.6095259016887256e-05 3.2082318722642004e-05 -0.00040038343356664274 -0.0011384446304296264
leaf_weight=258280.80001419783 59704.000000715256 107198.6000148952 65422.600019901991 162886.40000680089 45550.80000013113 76841.000017791986 108431.60002025962
leaf_count=30174 6287 17600 22626 18861 5026 17600 22626
internal_value=-4.62819e-08 0.000418895 -0.000515598 -0.000199465 0.000681571 -1.47806e-05 -0.000920358
internal_weight=884316 487871 396445 222590 303832 184040 173854
internal_count=140800 70400 70400 25148 35200 35200 45252
cat_boundaries=0 1 2 3 4
cat_threshold=5 6 8 3
is_linear=0
shrinkage=0.0324511


Tree=32
num_leaves=8
num_cat=4
split_feature=68 1 67 1 69 1 6
split_gain=169.801 49.5091 46.2677 35.9579 20.1741 8.1733 6.52434
threshold=0 1 35.971925133689844 2 12.624423963133642 3 790.50000000000011
decision_type=1 1 2 1 2 1 2
left_child=1 6 5 -4 -3 -2 -1
right_child=2 4 3 -5 -6 -7 -8
leaf_value=-0.00057263436460668049 -0.001679719470386943 -0.00037208892905688239 -0.00087696776482835428 -8.9703061572999295e-05 0.00066433882744247174 -0.00096457186623733198 -1.4686421240628934e-05
leaf_weight=28093.200000286102 22393.400010824203 21010.800010889769 84436.400000810623 220941.60000798106 335912.00002577901 68673.200028061867 102855.20001006126
leaf_count=3240 8800 8800 8800 26400 44000 26400 14360
internal_value=-4.61548e-08 0.000405302 -0.00049887 -0.000307426 0.000603305 -0.00114083 -0.0001344
internal_weight=884316 487871 396445 305378 356923 91066.6 130948
internal_count=140800 70400 70400 35200 52800 35200 17600
cat_boundaries=0 1 2 3 4
cat_threshold=5 8 8 8
is_linear=0
shrinkage=0.0324511


Tree=33
num_leaves=8
num_cat=1
split_feature=68 67 77 6 77 77 6
split_gain=158.961 43.3151 25.8544 19.6378 17.3653 6.24226 6.20034
threshold=0 35.971925133689844 1.5000000000000002 1807.5000000000002 1.5000000000000002 1.5000000000000002 1771.5000000000002
decision_type=1 2 2 2 2 2 2
left_child=2 5 3 -1 -3 -2 -4
right_child=1 4 6 -5 -6 -7 -8
leaf_value=0.0002846774101304738 -0.00098587517173662469 -0.00018652580908010404 -0.00040291832303116746 0.00073719238885580965 -0.00083731819421842605 -0.0017168394149576782 0.00015914641920253535
leaf_weight=213335.80004420877 76386.800032615662 253334.60001072288 42647.400002807379 191796 52043.39999806881 14679.800006270409 40092
leaf_count=39004 30174 30174 6340 21344 5026 5026 3712
internal_value=-4.69506e-08 -0.000482686 0.000392149 0.000498914 -0.000297452 -0.00110382 -0.000130575
internal_weight=884316 396445 487871 405132 305378 91066.6 82739.4
internal_count=140800 70400 70400 60348 35200 35200 10052
cat_boundaries=0 1
cat_threshold=5
is_linear=0
shrinkage=0.0324511


Tree=34
num_leaves=8
num_cat=1
split_feature=68 67 78 69 55 17 73
split_gain=148.812 40.5501 23.4139 14.8291 14.3084 11.6258 5.46567
threshold=0 35.971925133689844 2022.5000000000002 54.913824884792632 34.060439560439569 -0.60785761079279388 59.250000000000007
decision_type=1 2 2 2 2 2 2
left_child=2 6 5 -3 -4 -1 -2
right_child=1 3 4 -5 -6 -7 -8
leaf_value=-0.00018630147473753795 -0.00084017057519280354 -0.00019464003467138368 0.00035695504455195685 -0.0008367444977801842 0.00087415307368228859 0.00030159544045658092 -0.0013457638327009111
leaf_weight=70219.200014859438 50043.400021135807 261080.00000974536 109964 44297.999999046326 115516 192172.00003215671 41023.200017750263
leaf_count=13160 19376 30784 15644 4416 8676 32920 15824
internal_value=-4.61583e-08 -0.000467024 0.000379424 -0.0002878 0.00062194 0.000171027 -0.00106801
internal_weight=884316 396445 487871 305378 225480 262391 91066.6
internal_count=140800 70400 70400 35200 24320 46080 35200
cat_boundaries=0 1
cat_threshold=5
is_linear=0
shrinkage=0.0324511


Tree=35
num_leaves=8
num_cat=4
split_feature=68 1 70 1 69 1 50
split_gain=139.312 45.838 38.8549 27.4376 18.7997 11.0896 6.36227
threshold=0 1 11.500000000000002 2 12.624423963133642 3 45.500000000000007
decision_type=1 1 2 1 2 1 2
left_child=1 6 3 -2 -3 -4 -1
right_child=2 4 5 -5 -6 -7 -8
leaf_value=-0.0005248209917132578 -0.00076294024779965616 -0.00038394591868263144 -0.00048139327708829962 5.0202691560535899e-05 0.0006165499294725627 -0.0010167228708583354 -1.4897392277082999e-05
leaf_weight=35254.90000462532 59704.000000715256 21010.800010889769 65422.600019901991 162886.40000680089 335912.00002577901 108431.60002025962 95693.500005722046
leaf_count=5976 6287 8800 22626 18861 44000 22626 11624
internal_value=-4.51292e-08 0.000367112 -0.000451871 -0.00016795 0.000557632 -0.000815387 -0.000152191
internal_weight=884316 487871 396445 222590 356923 173854 130948
internal_count=140800 70400 70400 25148 52800 45252 17600
cat_boundaries=0 1 2 3 4
cat_threshold=5 8 8 3
is_linear=0
shrinkage=0.0324511


Tree=36
num_leaves=8
num_cat=4
split_feature=68 1 67 1 17 1 50
split_gain=130.418 42.9114 36.4472 30.5042 17.4433 7.597 5.95613
threshold=0 1 35.971925133689844 2 -0.60785761079279388 3 45.500000000000007
decision_type=1 1 2 1 2 1 2
left_child=1 6 5 -4 -3 -2 -1
right_child=2 4 3 -5 -6 -7 -8
leaf_value=-0.00050779325743449026 -0.00078286119211281745 0.00015370933952522052 -0.00079186859945022886 -6.6762891839160175e-05 0.00067293791234513799 -0.001400367716754055 -1.4413986582007225e-05
leaf_weight=35254.90000462532 58062.800022721291 91694.600012183189 84436.400000810623 220941.60000798106 265228.20002448559 33003.80001616478 95693.500005722046
leaf_count=5976 17600 15078 8800 26400 37722 17600 11624
internal_value=-4.51027e-08 0.000355198 -0.00043721 -0.000267294 0.000539537 -0.00100698 -0.000147253
internal_weight=884316 487871 396445 305378 356923 91066.6 130948
internal_count=140800 70400 70400 35200 52800 35200 17600
cat_boundaries=0 1 2 3 4
cat_threshold=5 8 8 6
is_linear=0
shrinkage=0.0324511


Tree=37
num_leaves=8
num_cat=1
split_feature=68 67 77 6 77 77 6
split_gain=122.092 34.1212 22.4459 17.3719 14.5162 5.68593 5.18767
threshold=0 35.971925133689844 1.5000000000000002 1807.5000000000002 1.5000000000000002 1.5000000000000002 1771.5000000000002
decision_type=1 2 2 2 2 2 2
left_child=2 5 3 -1 -3 -2 -4
right_child=1 4 6 -5 -6 -7 -8
leaf_value=0.00024165344505456393 -0.00086176217186642774 -0.00015720348414391969 -0.00039248860145365259 0.00066725987682160297 -0.00075221753765179148 -0.0015593303877301048 0.00012163389957772299
leaf_weight=213335.80004420877 76386.800032615662 253334.60001072288 42647.400002807379 191796 52043.39999806881 14679.800006270409 40092
leaf_count=39004 30174 30174 6340 21344 5026 5026 3712
internal_value=-4.54357e-08 -0.000423026 0.000343672 0.00044315 -0.000258622 -0.000974317 -0.000143377
internal_weight=884316 396445 487871 405132 305378 91066.6 82739.4
internal_count=140800 70400 70400 60348 35200 35200 10052
cat_boundaries=0 1
cat_threshold=5
is_linear=0
shrinkage=0.0324511


Tree=38
num_leaves=8
num_cat=3
split_feature=68 1 1 70 6 67 6
split_gain=114.297 40.3278 33.2856 28.6167 16.2078 15.3438 9.92097
threshold=0 1 2 11.500000000000002 1807.5000000000002 27.186908610629242 2081.5000000000005
decision_type=1 1 1 2 2 2 2
left_child=1 4 6 -4 -1 -3 -2
right_child=2 5 3 -5 -6 -7 -8
leaf_value=0.00033397088930066669 -0.0011087089192281755 -0.0003965321276619072 5.584434691744463e-05 -0.00059437859908558876 0.00080836260503897668 0.00020428605902483499 -0.00043261589590909519
leaf_weight=157695.60001432896 73677.800011634827 76841.000017791986 162886.40000680089 126728.40002924204 146136 107198.6000148952 33152
leaf_count=22752 13568 17600 18861 33939 12448 17600 4032
internal_value=-4.46344e-08 0.00033252 -0.0004093 -0.000228677 0.000562137 -4.6573e-05 -0.000898857
internal_weight=884316 487871 396445 289615 303832 184040 106830
internal_count=140800 70400 70400 52800 35200 35200 17600
cat_boundaries=0 1 2 3
cat_threshold=5 6 8
is_linear=0
shrinkage=0.0324511


Tree=39
num_leaves=8
num_cat=3
split_feature=68 1 1 70 17 6 6
split_gain=107 37.7608 31.1606 26.7897 15.6579 9.28754 5.48266
threshold=0 1 2 11.500000000000002 -0.60785761079279388 2081.5000000000005 790.50000000000011
decision_type=1 1 1 2 2 2 2
left_child=1 6 5 -4 -3 -2 -1
right_child=2 4 3 -5 -6 -7 -8
leaf_value=-0.00055133539667530471 -0.0010727334343590407 0.00012910314361085678 5.403223698502137e-05 -0.00057509139709636969 0.00062104090029721775 -0.00041857989623799975 -3.9862036216026474e-05
leaf_weight=28093.200000286102 73677.800011634827 91694.600012183189 162886.40000680089 126728.40002924204 265228.20002448559 33152 102855.20001006126
leaf_count=3240 13568 15078 18861 33939 37722 4032 14360
internal_value=-4.3467e-08 0.000321729 -0.000396019 -0.000221256 0.000494652 -0.000869691 -0.000149603
internal_weight=884316 487871 396445 289615 356923 106830 130948
internal_count=140800 70400 70400 52800 52800 17600 17600
cat_boundaries=0 1 2 3
cat_threshold=5 8 8
is_linear=0
shrinkage=0.0324511


Tree=40
num_leaves=8
num_cat=4
split_feature=68 1 67 1 77 67 1
split_gain=100.168 35.8355 29.965 24.3971 16.3193 14.341 6.76466
threshold=0 1 35.971925133689844 2 1.5000000000000002 27.186908610629242 3
decision_type=1 1 2 1 2 2 1
left_child=1 4 6 -4 -1 -3 -2
right_child=2 5 3 -5 -6 -7 -8
leaf_value=0.00062763186235391454 -0.00068835884874136563 -0.00038439630667477586 -0.00069823588371424085 -4.9766140034888075e-05 -3.8558568288246951e-05 0.00019645731933793097 -0.0012709551448777494
leaf_weight=258280.80001419783 58062.800022721291 76841.000017791986 84436.400000810623 220941.60000798106 45550.80000013113 107198.6000148952 33003.80001616478
leaf_count=30174 17600 17600 8800 26400 5026 17600 17600
internal_value=-4.25209e-08 0.000311289 -0.000383169 -0.000229103 0.00052774 -4.60659e-05 -0.000899794
internal_weight=884316 487871 396445 305378 303832 184040 91066.6
internal_count=140800 70400 70400 35200 35200 35200 35200
cat_boundaries=0 1 2 3 4
cat_threshold=5 6 8 6
is_linear=0
shrinkage=0.0324511


Tree=41
num_leaves=8
num_cat=2
split_feature=67 1 67 70 1 79 9
split_gain=73.0692 57.3099 34.0177 15.2527 6.50644 4.87613 4.61734
threshold=20.829879679144387 0 35.971925133689844 6.5000000000000009 1 2023.7214236824095 148.50000000000003
decision_type=2 1 2 2 1 2 2
left_child=4 3 -3 -2 6 -6 -1
right_child=1 2 -4 -5 5 -7 -8
leaf_value=0.00012840510530515037 2.1272836443044512e-05 0.00046419620845513201 -4.8153486395189863e-05 -0.00055172799044444858 -0.0012133312665915707 -0.00060462973895741682 -0.00078580436131333068
leaf_weight=9832.8000046908855 75118.200003445148 356922.80003666878 220941.60000798106 140266.60000771284 47378.600027531385 19620 14235.200006663799
leaf_count=3608 8800 52800 26400 17600 20448 5952 5192
internal_value=-4.27079e-08 9.99063e-05 0.000268301 -0.000351876 -0.000870606 -0.001035 -0.000412209
internal_weight=884316 793249 577864 215385 91066.6 66998.6 24068
internal_count=140800 105600 79200 26400 35200 26400 8800
cat_boundaries=0 1 2
cat_threshold=8 2
is_linear=0
shrinkage=0.0324511


Tree=42
num_leaves=8
num_cat=0
split_feature=67 67 79 77 74 69 17
split_gain=68.4047 45.9731 19.546 11.7571 5.2584 3.01208 2.66498
threshold=20.829879679144387 35.971925133689844 2022.9486652977414 1.5000000000000002 45.500000000000007 16.944313037804335 -0.8783796973249266
decision_type=2 2 2 2 2 2 2
left_child=4 2 -2 -3 5 -1 -6
right_child=1 3 -4 -5 6 -7 -8
leaf_value=-0.00028710409248018052 9.7966896235444085e-05 -0.00012431642516913739 0.00050942471553242527 -0.00065980486536376106 -0.0018734256244581416 -0.00080523489571132536 -0.0010371838348559666
leaf_weight=17397.600008398294 257671.20004701614 253334.60001072288 230200 52043.39999806881 4594.4000023007393 36886.600016415119 32188.000011771917
leaf_count=9368 45504 30174 24896 5026 1952 11976 11904
internal_value=-4.19652e-08 9.66642e-05 0.000292116 -0.000215589 -0.00084236 -0.000639235 -0.00114196
internal_weight=884316 793249 487871 305378 91066.6 54284.2 36782.4
internal_count=140800 105600 70400 35200 35200 21344 13856
is_linear=0
shrinkage=0.0324511


Tree=43
num_leaves=8
num_cat=3
split_feature=68 1 1 70 77 67 6
split_gain=82.5756 31.6196 25.9347 21.734 15.2679 12.7765 8.74255
threshold=0 1 2 11.500000000000002 1.5000000000000002 27.186908610629242 1816.5000000000002
decision_type=1 1 1 2 2 2 2
left_child=1 4 6 -4 -1 -3 -2
right_child=2 5 3 -5 -6 -7 -8
leaf_value=0.00058257075742617237 -0.0010530869546134182 -0.00037238832986822629 5.9490408783578935e-05 -0.00050716832116010026 -6.179851793943275e-05 0.00017586853869994894 -0.00046431448574124932
leaf_weight=258280.80001419783 57289.800011634827 76841.000017791986 162886.40000680089 126728.40002924204 45550.80000013113 107198.6000148952 49540
leaf_count=30174 11448 17600 18861 33939 5026 17600 6152
internal_value=-4.16385e-08 0.000282631 -0.0003479 -0.000188465 0.000485951 -5.30444e-05 -0.00078003
internal_weight=884316 487871 396445 289615 303832 184040 106830
internal_count=140800 70400 70400 52800 35200 35200 17600
cat_boundaries=0 1 2 3
cat_threshold=5 6 8
is_linear=0
shrinkage=0.0324511


Tree=44
num_leaves=8
num_cat=3
split_feature=68 1 1 70 77 67 79
split_gain=77.3035 29.6008 24.2791 20.3941 14.2931 11.9608 8.1844
threshold=0 1 2 12.500000000000002 1.5000000000000002 27.186908610629242 2022.9733059548257
decision_type=1 1 1 2 2 2 2
left_child=1 4 6 -4 -1 -3 -2
right_child=2 5 3 -5 -6 -7 -8
leaf_value=0.00056366617112385987 -0.0010189171619986992 -0.00036030498117604177 1.2961631065413627e-05 -0.00056201176155999807 -5.979335862105355e-05 0.00017016178626831787 -0.00044924903338148029
leaf_weight=258280.80001419783 57289.800011634827 76841.000017791986 191237.40000501275 98377.400031030178 45550.80000013113 107198.6000148952 49540
leaf_count=30174 11448 17600 22629 30171 5026 17600 6152
internal_value=-4.07023e-08 0.000273459 -0.000336612 -0.00018235 0.000470182 -5.13233e-05 -0.000754721
internal_weight=884316 487871 396445 289615 303832 184040 106830
internal_count=140800 70400 70400 52800 35200 35200 17600
cat_boundaries=0 1 2 3
cat_threshold=5 6 8
is_linear=0
shrinkage=0.0324511


Tree=45
num_leaves=8
num_cat=3
split_feature=68 1 70 1 6 70 6
split_gain=72.3681 28.0255 22.9751 20.1046 14.7484 8.06255 5.00027
threshold=0 1 11.500000000000002 2 2201.5000000000005 25.500000000000004 790.50000000000011
decision_type=1 1 2 1 2 2 2
left_child=1 6 3 -2 -3 -4 -1
right_child=2 4 5 -5 -6 -7 -8
leaf_value=-0.00052511864495949671 0.00029831517408791396 0.00029625910138726517 -0.00051713863694370513 -0.0003417853373434411 0.00078453038617780834 -0.0011599142017760123 -3.6664520528099519e-05
leaf_weight=28093.200000286102 81517.999997377396 271178.80003666878 150041.80002990365 141072.40001013875 85744 23812.400010257959 102855.20001006126
leaf_count=3240 6287 43584 35200 18861 9216 10052 14360
internal_value=-3.98009e-08 0.000264585 -0.000325689 -0.000107365 0.000413558 -0.00060522 -0.000141467
internal_weight=884316 487871 396445 222590 356923 173854 130948
internal_count=140800 70400 70400 25148 52800 45252 17600
cat_boundaries=0 1 2 3
cat_threshold=5 8 4
is_linear=0
shrinkage=0.0324511


Tree=46
num_leaves=8
num_cat=3
split_feature=68 1 1 70 6 67 6
split_gain=67.7477 26.3102 22.2496 17.9411 13.7517 11.1849 7.77343
threshold=0 1 2 11.500000000000002 1807.5000000000002 27.186908610629242 2081.5000000000005
decision_type=1 1 1 2 2 2 2
left_child=1 4 6 -4 -1 -3 -2
right_child=2 5 3 -5 -6 -7 -8
leaf_value=0.00023130029084531198 -0.00090111816714632251 -0.00034899026655118415 5.7835095885495701e-05 -0.00045700936451083973 0.00066826418084885045 0.00016398127817511635 -0.00030268724618593871
leaf_weight=157695.60001432896 73677.800011634827 76841.000017791986 162886.40000680089 126728.40002924204 146136 107198.6000148952 33152
leaf_count=22752 13568 17600 18861 33939 12448 17600 4032
internal_value=-3.88291e-08 0.000256 -0.000315121 -0.000167448 0.000441466 -5.0199e-05 -0.000715374
internal_weight=884316 487871 396445 289615 303832 184040 106830
internal_count=140800 70400 70400 52800 35200 35200 17600
cat_boundaries=0 1 2 3
cat_threshold=5 6 8
is_linear=0
shrinkage=0.0324511


Tree=47
num_leaves=8
num_cat=1
split_feature=68 67 6 55 77 6 74
split_gain=63.4224 20.9828 16.7001 12.5604 9.6484 9.34557 4.90749
threshold=0 35.971925133689844 1807.5000000000002 34.060439560439569 1.5000000000000002 2249.5000000000005 45.500000000000007
decision_type=1 2 2 2 2 2 2
left_child=2 6 4 -4 -1 -3 -2
right_child=1 5 3 -5 -6 -7 -8
leaf_value=0.0001587650368183005 -0.00054100028144262336 -0.00026852720378324474 0.00020247440765425764 0.00068206174046499333 -0.00036731853175424068 0.00017220905575632519 -0.0010266264479444299
leaf_weight=213335.80004420877 54284.200024813414 241250.00000879169 112084 118116 44335.400002807379 64128 36782.400014072657
leaf_count=39004 21344 29824 16007 8889 6500 5376 13856
internal_value=-3.7792e-08 -0.000304896 0.000247692 0.000448564 6.82388e-05 -0.000175973 -0.00073721
internal_weight=884316 396445 487871 230200 257671 305378 91066.6
internal_count=140800 70400 70400 24896 45504 35200 35200
cat_boundaries=0 1
cat_threshold=5
is_linear=0
shrinkage=0.0324511


Tree=48
num_leaves=8
num_cat=1
split_feature=68 67 77 65 77 77 6
split_gain=59.3732 19.6433 15.9474 14.1382 9.06042 4.62369 3.61521
threshold=0 35.971925133689844 1.5000000000000002 7.0465571907960394 1.5000000000000002 1.5000000000000002 1771.5000000000002
decision_type=1 2 2 2 2 2 2
left_child=2 5 3 -1 -3 -2 -4
right_child=1 4 6 -5 -6 -7 -8
leaf_value=0.00025238986207802312 -0.00061182319308416579 -9.0139198193386967e-05 -0.00037883232174439123 0.00084031565602861436 -0.00056021986321170615 -0.0012407509474831029 5.0360953767535279e-05
leaf_weight=356136.60004261136 76386.800032615662 253334.60001072288 42647.400002807379 48995.200001597404 52043.39999806881 14679.800006270409 40092
leaf_count=55910 30174 30174 6340 4438 5026 5026 3712
internal_value=-3.68072e-08 -0.000295003 0.000239655 0.000323504 -0.000170262 -0.00071329 -0.000170876
internal_weight=884316 396445 487871 405132 305378 91066.6 82739.4
internal_count=140800 70400 70400 60348 35200 35200 10052
cat_boundaries=0 1
cat_threshold=5
is_linear=0
shrinkage=0.0324511


Tree=49
num_leaves=8
num_cat=3
split_feature=68 1 1 71 69 6 6
split_gain=55.5826 24.3545 20.6905 15.7905 12.8856 7.13554 4.4957
threshold=0 1 2 23.500000000000004 12.624423963133642 1816.5000000000002 790.50000000000011
decision_type=1 1 1 2 2 2 2
left_child=1 6 5 -4 -3 -2 -1
right_child=2 4 3 -5 -6 -7 -8
leaf_value=-0.00051042693645194487 -0.00091808511335203567 -0.0004087646960701877 1.6099757486256801e-05 -0.00050382975091427164 0.00041952763846760425 -0.00038618150585057213 -4.7271163979893922e-05
leaf_weight=28093.200000286102 57289.800011634827 21010.800010889769 200978.40000686049 88636.400029182434 335912.00002577901 49540 102855.20001006126
leaf_count=3240 11448 8800 24168 28632 44000 6152 14360
internal_value=-3.60455e-08 0.000231878 -0.000285431 -0.000143027 0.000370752 -0.000671404 -0.000146645
internal_weight=884316 487871 396445 289615 356923 106830 130948
internal_count=140800 70400 70400 52800 52800 17600 17600
cat_boundaries=0 1 2 3
cat_threshold=5 8 8
is_linear=0
shrinkage=0.0324511


Tree=50
num_leaves=8
num_cat=3
split_feature=68 1 1 71 6 6 6
split_gain=52.0339 22.7996 19.3696 14.7823 12.6404 6.73273 4.20873
threshold=0 1 2 23.500000000000004 2201.5000000000005 2081.5000000000005 790.50000000000011
decision_type=1 1 1 2 2 2 2
left_child=1 6 5 -4 -3 -2 -1
right_child=2 4 3 -5 -6 -7 -8
leaf_value=-0.00049386704014176507 -0.00082248042181874291 0.00025012740781654052 1.5577316683010578e-05 -0.00048748117037066707 0.00070215773874155016 -0.00026555259236493175 -4.5737260919924575e-05
leaf_weight=28093.200000286102 73677.800011634827 271178.80003666878 200978.40000686049 88636.400029182434 85744 33152 102855.20001006126
leaf_count=3240 13568 43584 24168 28632 9216 4032 14360
internal_value=-3.54596e-08 0.000224353 -0.00027617 -0.000138386 0.00035872 -0.000649619 -0.000141887
internal_weight=884316 487871 396445 289615 356923 106830 130948
internal_count=140800 70400 70400 52800 52800 17600 17600
cat_boundaries=0 1 2 3
cat_threshold=5 8 8
is_linear=0
shrinkage=0.0324511


Tree=51
num_leaves=8
num_cat=1
split_feature=68 67 6 55 6 77 74
split_gain=48.7118 16.899 14.5528 11.4207 8.45137 8.06776 4.58364
threshold=0 35.971925133689844 1807.5000000000002 34.060439560439569 2249.5000000000005 1.5000000000000002 45.500000000000007
decision_type=1 2 2 2 2 2 2
left_child=2 6 5 -4 -3 -1 -2
right_child=1 4 3 -5 -6 -7 -8
leaf_value=0.0001323335650793152 -0.00046556746109021279 -0.00023952460713298556 0.00016992834415465463 0.00062723688905831209 0.00017959564567935265 -0.00034873092519305455 -0.00093487066993511376
leaf_weight=213335.80004420877 54284.200024813414 241250.00000879169 112084 118116 64128 44335.400002807379 36782.400014072657
leaf_count=39004 21344 29824 16007 8889 5376 6500 13856
internal_value=-3.45903e-08 -0.000267208 0.000217073 0.000404586 -0.000151509 4.95537e-05 -0.000655178
internal_weight=884316 396445 487871 230200 305378 257671 91066.6
internal_count=140800 70400 70400 24896 35200 45504 35200
cat_boundaries=0 1
cat_threshold=5
is_linear=0
shrinkage=0.0324511


Tree=52
num_leaves=8
num_cat=1
split_feature=1 70 77 70 69 79 15
split_gain=39.4738 28.5203 15.5805 12.2881 7.3927 4.93143 4.71143
threshold=0 20.500000000000004 1.5000000000000002 6.5000000000000009 27.258755760368668 2022.9486652977414 4.5000000000000009
decision_type=1 2 2 2 2 2 2
left_child=3 2 -2 5 -5 -1 -3
right_child=1 6 -4 4 -6 -7 -8
leaf_value=-0.00025505877640520923 0.00026975758668569192 -0.00033728564538342335 -0.00023784333981077642 -0.0010635521062923811 -0.00042862139372234955 0.00027278733670018512 -0.00095569611648369532
leaf_weight=40850.200003445148 505002.60004654527 51309.000020861626 72861.799998104572 22393.400010824203 140266.60000771284 34268 17364.200007200241
leaf_count=5688 71661 18861 7539 8800 17600 3112 7539
internal_value=-3.36879e-08 0.00013145 0.000205753 -0.000357531 -0.000516073 -1.4259e-05 -0.000493731
internal_weight=884316 646538 577864 237778 162660 75118.2 68673.2
internal_count=140800 105600 79200 35200 26400 8800 26400
cat_boundaries=0 1
cat_threshold=8
is_linear=0
shrinkage=0.0324511


Tree=53
num_leaves=8
num_cat=1
split_feature=1 67 67 70 67 6 66
split_gain=36.9536 26.6996 17.9823 11.5036 6.9209 4.61662 4.48422
threshold=0 20.829879679144387 39.95889037433156 6.5000000000000009 20.829879679144387 1807.5000000000002 1.0000000180025095e-35
decision_type=1 2 2 2 2 2 2
left_child=3 6 -3 5 -5 -1 -2
right_child=1 2 -4 4 -6 -7 -8
leaf_value=-0.00024678321212356338 -0.00075384233357658715 0.00030968884635275266 -9.7176949815973491e-05 -0.0010290491359799864 -0.00041471284052090008 0.00026393682870717611 -0.00022864928256613806
leaf_weight=40850.200003445148 32560.600017130375 420763.00003799796 157101.40000665188 22393.400010824203 140266.60000771284 34268 36112.600010931492
leaf_count=5688 13887 60336 18864 8800 17600 3112 12513
internal_value=-3.32785e-08 0.000127184 0.000199076 -0.00034593 -0.000499328 -1.37962e-05 -0.000477713
internal_weight=884316 646538 577864 237778 162660 75118.2 68673.2
internal_count=140800 105600 79200 35200 26400 8800 26400
cat_boundaries=0 1
cat_threshold=8
is_linear=0
shrinkage=0.0324511


Tree=54
num_leaves=8
num_cat=3
split_feature=68 1 1 70 77 67 78
split_gain=41.7998 19.2257 15.7559 11.9738 11.4406 9.00461 5.88295
threshold=0 1 2 11.500000000000002 1.5000000000000002 29.799158793422318 2022.5000000000002
decision_type=1 1 1 2 2 2 2
left_child=1 4 6 -4 -1 -3 -2
right_child=2 5 3 -5 -6 -7 -8
leaf_value=0.00044325968652859156 -0.00080604093061942598 -0.00025364612028759358 6.0784115086544853e-05 -0.00035981366551240149 -0.00011452112831819961 0.00020630715411553346 -0.00032269813198374132
leaf_weight=258280.80001419783 57833.800011634827 106823.40002247691 162886.40000680089 126728.40002924204 45550.80000013113 77216.200010210276 48996
leaf_count=30174 11520 22626 18861 33939 5026 12574 6080
internal_value=-3.2744e-08 0.000201083 -0.000247527 -0.000123259 0.000359624 -6.0663e-05 -0.000584342
internal_weight=884316 487871 396445 289615 303832 184040 106830
internal_count=140800 70400 70400 52800 35200 35200 17600
cat_boundaries=0 1 2 3
cat_threshold=5 6 8
is_linear=0
shrinkage=0.0324511


Tree=55
num_leaves=8
num_cat=3
split_feature=68 1 1 70 77 70 6
split_gain=39.1311 17.9982 14.7501 11.2093 10.7102 8.53816 5.83595
threshold=0 1 2 11.500000000000002 1.5000000000000002 13.500000000000002 1816.5000000000002
decision_type=1 1 1 2 2 2 2
left_child=1 4 6 -4 -1 -3 -2
right_child=2 5 3 -5 -6 -7 -8
leaf_value=0.00042887579717854659 -0.00078846414148720889 0.00012843644173313748 5.8811679901434953e-05 -0.00034813794343788141 -0.00011080534955720291 -0.00031975113837432112 -0.00030744372937029855
leaf_weight=258280.80001419783 57289.800011634827 107198.6000148952 162886.40000680089 126728.40002924204 45550.80000013113 76841.000017791986 49540
leaf_count=30174 11448 17600 18861 33939 5026 17600 6152
internal_value=-3.19695e-08 0.000194557 -0.000239495 -0.000119259 0.000347954 -5.86944e-05 -0.000565382
internal_weight=884316 487871 396445 289615 303832 184040 106830
internal_count=140800 70400 70400 52800 35200 35200 17600
cat_boundaries=0 1 2 3
cat_threshold=5 6 8
is_linear=0
shrinkage=0.0324511


Tree=56
num_leaves=8
num_cat=3
split_feature=68 1 1 6 71 6 0
split_gain=36.6328 16.8843 13.8084 11.3903 10.7564 5.55402 3.97817
threshold=0 1 2 2201.5000000000005 41.500000000000007 2081.5000000000005 81.500000000000014
decision_type=1 1 1 2 2 2 10
left_child=1 6 5 -3 -4 -2 -1
right_child=2 3 4 -5 -6 -7 -8
leaf_value=-0.00016484711452093714 -0.00070403405204751785 0.00020079117193651412 -3.4610807118591284e-05 0.00062988324676027142 -0.00059954541844548241 -0.00019821568583026114 0.00071670281928385207
leaf_weight=125322.00001072884 73677.800011634827 271178.80003666878 248207.60002180934 85744 41407.200014233589 33152 5626.3999996185303
leaf_count=17032 13568 43584 37392 9216 15408 4032 568
internal_value=-3.12417e-08 0.000188244 -0.000231724 0.000303874 -0.00011539 -0.000547037 -0.000126925
internal_weight=884316 487871 396445 356923 289615 106830 130948
internal_count=140800 70400 70400 52800 52800 17600 17600
cat_boundaries=0 1 2 3
cat_threshold=5 8 8
is_linear=0
shrinkage=0.0324511


Tree=57
num_leaves=8
num_cat=2
split_feature=67 1 67 6 1 6 9
split_gain=29.4989 25.7733 14.2004 6.9306 5.26879 3.91191 3.76238
threshold=20.829879679144387 0 39.95889037433156 1771.5000000000002 1 2089.5000000000005 148.50000000000003
decision_type=2 1 2 2 1 2 2
left_child=4 3 -3 -2 6 -6 -1
right_child=1 2 -4 -5 5 -7 -8
leaf_value=0.00034694075526352003 -0.00041821249600104791 0.00027470124013236996 -8.6857826414186458e-05 -4.9892627271369642e-05 -0.00086073424637226345 -0.00031569270332340067 -0.00047821654391247203
leaf_weight=9832.8000046908855 110876.80001115799 420763.00003799796 157101.40000665188 104508 47378.600027531385 19620 14235.200006663799
leaf_count=3608 16632 60336 18864 9768 20448 5952 5192
internal_value=-3.02648e-08 6.34757e-05 0.000176403 -0.000239494 -0.000553172 -0.000701067 -0.000141043
internal_weight=884316 793249 577864 215385 91066.6 66998.6 24068
internal_count=140800 105600 79200 26400 35200 26400 8800
cat_boundaries=0 1 2
cat_threshold=8 2
is_linear=0
shrinkage=0.0324511


Tree=58
num_leaves=8
num_cat=3
split_feature=68 1 1 6 70 67 53
split_gain=32.6502 15.0213 12.4721 10.2622 9.97119 8.12556 5.16217
threshold=0 1 2 1807.5000000000002 24.500000000000004 29.872660427807492 50.598214285714292
decision_type=1 1 1 2 2 2 2
left_child=1 3 6 -1 -4 -3 -2
right_child=2 5 4 -5 -6 -7 -8
leaf_value=0.00013630326598247498 -0.00087903846474074974 -0.00020743777631561031 -4.6554278910381066e-05 0.00051377258813653482 -0.00069627641272505337 0.00024865291682841601 -0.00037730059064254969
leaf_weight=157695.60001432896 30050.300010859966 121984.40002390742 262139.40002503991 146136 27475.400011003017 62055.200008779764 76779.50000077486
leaf_count=22752 10464 25138 41493 12448 11307 10062 7136
internal_value=-2.96774e-08 0.000177717 -0.000218765 0.000317854 -0.000108204 -5.36449e-05 -0.000518433
internal_weight=884316 487871 396445 303832 289615 184040 106830
internal_count=140800 70400 70400 35200 52800 35200 17600
cat_boundaries=0 1 2 3
cat_threshold=5 6 8
is_linear=0
shrinkage=0.0324511


Tree=59
num_leaves=8
num_cat=3
split_feature=68 1 70 1 77 71 6
split_gain=30.5657 14.0622 11.8456 14.4019 10.0125 7.73388 6.16791
threshold=0 1 11.500000000000002 2 1.5000000000000002 11.500000000000002 1985.5000000000002
decision_type=1 1 2 1 2 2 2
left_child=1 4 3 -2 -1 -3 -4
right_child=2 5 6 -5 -6 -7 -8
leaf_value=0.00038578086251936247 0.00028844950675728542 0.00014546200782256758 -0.00055786440579214103 -0.00025331244605481933 -0.00013602280012737421 -0.00027610706162728817 -0.00015556570117583355
leaf_weight=258280.80001419783 81517.999997377396 97877.800013929605 110978.20004016161 141072.40001013875 45550.80000013113 86161.800018757582 62876
leaf_count=30174 6287 16112 32900 18861 5026 19088 12352
internal_value=-2.90429e-08 0.00017195 -0.000211667 -5.49018e-05 0.00030754 -5.1904e-05 -0.000412381
internal_weight=884316 487871 396445 222590 303832 184040 173854
internal_count=140800 70400 70400 25148 35200 35200 45252
cat_boundaries=0 1 2 3
cat_threshold=5 6 4
is_linear=0
shrinkage=0.0324511


Tree=60
num_leaves=8
num_cat=3
split_feature=68 1 1 6 71 67 6
split_gain=28.6142 13.1644 11.3875 9.60021 9.00386 7.33748 4.82295
threshold=0 1 2 1807.5000000000002 23.500000000000004 29.872660427807492 2081.5000000000005
decision_type=1 1 1 2 2 2 2
left_child=1 3 6 -1 -4 -3 -2
right_child=2 5 4 -5 -6 -7 -8
leaf_value=0.00012196267013700693 -0.00063743772596978497 -0.0001963644718884061 2.1006183212058726e-05 0.00048705365533615913 -0.00037160368186158084 0.00023704451089762052 -0.00016608956555539935
leaf_weight=157695.60001432896 73677.800011634827 121984.40002390742 200978.40000686049 146136 88636.400029182434 62055.200008779764 33152
leaf_count=22752 13568 25138 24168 12448 28632 10062 4032
internal_value=-2.82291e-08 0.00016637 -0.000204799 0.00029756 -9.91542e-05 -5.02198e-05 -0.00049114
internal_weight=884316 487871 396445 303832 289615 184040 106830
internal_count=140800 70400 70400 35200 52800 35200 17600
cat_boundaries=0 1 2 3
cat_threshold=5 6 8
is_linear=0
shrinkage=0.0324511


Tree=61
num_leaves=8
num_cat=2
split_feature=67 1 15 69 1 75 9
split_gain=23.5403 20.4812 23.6968 16.9451 4.79134 3.71321 3.531
threshold=20.829879679144387 0 4.5000000000000009 26.829493087557605 1 12.750000000000002 148.50000000000003
decision_type=2 1 2 2 1 2 2
left_child=4 2 -2 -3 6 -6 -1
right_child=1 3 -4 -5 5 -7 -8
leaf_value=0.00037155448646567364 0.00043873645117860371 0.00020650913976844788 -0.00023600832497774557 -0.00019919770592865768 -0.00020432834491350448 -0.0007707338397248848 -0.00042782139825851297
leaf_weight=9832.8000046908855 221195.79999995232 159144.00004312396 72861.799998104572 340047.60001462698 16026.400003910065 50972.200023621321 14235.200006663799
leaf_count=3608 18861 37384 7539 41816 5589 20811 5192
internal_value=-2.74358e-08 5.67031e-05 0.000271537 -6.98545e-05 -0.000494155 -0.000635186 -0.000101188
internal_weight=884316 793249 294058 499192 91066.6 66998.6 24068
internal_count=140800 105600 26400 79200 35200 26400 8800
cat_boundaries=0 1 2
cat_threshold=4 2
is_linear=0
shrinkage=0.0324511


Tree=62
num_leaves=8
num_cat=1
split_feature=68 6 70 55 69 6 50
split_gain=25.9259 11.3157 9.959 8.89915 6.59954 5.67121 4.40931
threshold=0 1771.5000000000002 11.500000000000002 34.060439560439569 22.171428571428574 1985.5000000000002 83.500000000000014
decision_type=1 2 2 2 2 2 2
left_child=1 4 6 -3 -1 -4 -2
right_child=2 3 5 -5 -6 -7 -8
leaf_value=0.00032948905666344773 -8.0689325257984567e-05 0.00011405770949219101 -0.0005184807295503536 0.00050922697655459087 -8.1898142110245088e-05 -0.00013272331517345223 0.0006561148133797331
leaf_weight=51964.600030958652 213687.40000751615 116841 110978.20004016161 123391 195674.60001605749 62876 8903
leaf_count=16152 24628 16732 32900 9316 28200 12352 520
internal_value=-2.67494e-08 0.000158362 -0.000194941 0.000317038 4.43399e-06 -0.000378979 -5.12001e-05
internal_weight=884316 487871 396445 240232 247639 173854 222590
internal_count=140800 70400 70400 26048 44352 45252 25148
cat_boundaries=0 1
cat_threshold=5
is_linear=0
shrinkage=0.0324511


Tree=63
num_leaves=8
num_cat=3
split_feature=68 1 1 77 70 71 53
split_gain=24.2706 11.6541 10.1448 8.83711 8.23294 6.8634 4.41196
threshold=0 1 2 1.5000000000000002 25.500000000000004 11.500000000000002 50.598214285714292
decision_type=1 1 1 2 2 2 2
left_child=1 3 6 -1 -4 -3 -2
right_child=2 5 4 -5 -6 -7 -8
leaf_value=0.00035016404970680614 -0.0007922496568989626 0.00013536353556273747 -4.5199646690206429e-05 -0.00014005544866918949 -0.00077386265784134872 -0.00026177276871512537 -0.00032840711830162134
leaf_weight=258280.80001419783 30050.300010859966 97877.800013929605 272250.60002884269 45550.80000013113 17364.200007200241 86161.800018757582 76779.50000077486
leaf_count=30174 10464 16112 45261 5026 7539 19088 7136
internal_value=-2.56852e-08 0.000153223 -0.000188615 0.000276659 -8.89015e-05 -5.05638e-05 -0.000458881
internal_weight=884316 487871 396445 303832 289615 184040 106830
internal_count=140800 70400 70400 35200 52800 35200 17600
cat_boundaries=0 1 2 3
cat_threshold=5 6 8
is_linear=0
shrinkage=0.0324511


Tree=64
num_leaves=8
num_cat=1
split_feature=68 6 71 55 2 6 6
split_gain=22.7211 10.5835 9.10649 8.2164 6.54183 6.45484 3.70316
threshold=0 1771.5000000000002 40.500000000000007 34.060439560439569 2.839388571428572 2249.5000000000005 2113.5000000000005
decision_type=1 2 2 2 2 2 2
left_child=1 4 5 -3 -1 -2 -4
right_child=2 3 6 -5 -6 -7 -8
leaf_value=8.9499451612359899e-05 -0.00018812282776878319 0.00010666884423565178 -0.00069838950315710745 0.00048637652826727119 -0.00030930812733683769 0.00016423775407178293 -0.00013944291505359267
leaf_weight=191687.60004094243 265267.0000231266 116841 44905.600024551153 123391 55951.600006073713 68980 17292
leaf_count=36224 40048 16732 18368 9316 8128 6832 5152
internal_value=-2.53148e-08 0.000148251 -0.000182495 0.000301707 -6.13135e-07 -0.000115403 -0.000543025
internal_weight=884316 487871 396445 240232 247639 334247 62197.6
internal_count=140800 70400 70400 26048 44352 46880 23520
cat_boundaries=0 1
cat_threshold=5
is_linear=0
shrinkage=0.0324511


Tree=65
num_leaves=8
num_cat=2
split_feature=1 77 1 70 6 71 12
split_gain=20.4475 13.8006 14.7349 7.40778 5.56452 3.84179 1.76716
threshold=0 1.5000000000000002 1 19.500000000000004 1771.5000000000002 37.500000000000007 329.50000000000006
decision_type=1 2 1 2 2 2 2
left_child=3 2 -2 4 -1 -3 -5
right_child=1 5 -4 6 -6 -7 -8
leaf_value=-0.00035094451693451278 0.00033949901078529258 -0.00023037990684960199 5.5067656049501148e-06 -0.0008143099859223193 -1.453662443661893e-05 -0.001005204397759634 -8.1269476460645874e-06
leaf_weight=106811.80001056194 246959.00000810623 73681.799998342991 318485.20006328821 27275.20001065731 100492 7411.6000029742718 3199.2000007629395
leaf_count=15839 25148 7760 70400 9089 9304 2292 968
internal_value=-2.4611e-08 9.4607e-05 0.000151387 -0.000257324 -0.000187874 -0.000301274 -0.000729698
internal_weight=884316 646538 565444 237778 207304 81093.4 30474.4
internal_count=140800 105600 95548 35200 25143 10052 10057
cat_boundaries=0 1 2
cat_threshold=8 4
is_linear=0
shrinkage=0.0324511


Tree=66
num_leaves=8
num_cat=3
split_feature=68 1 79 1 71 79 0
split_gain=21.101 10.2266 9.27212 8.86968 6.97066 4.09813 3.64499
threshold=0 1 2024.0287474332652 2 23.500000000000004 2023.0725530458592 81.500000000000014
decision_type=1 1 2 1 2 2 10
left_child=1 6 -3 5 -5 -2 -1
right_child=3 2 -4 4 -6 -7 -8
leaf_value=-0.00013871315085441346 -0.00060859897336222395 0.00013985335407697347 0.00052699519540148074 2.3094143966875086e-05 -0.00032235446382512713 -0.00020413508368905101 0.00070511063030986312
leaf_weight=125322.00001072884 59285.800011634827 271178.80003666878 85744 200978.40000686049 88636.400029182434 47544 5626.3999996185303
leaf_count=17032 11736 43584 9216 24168 28632 5864 568
internal_value=-2.42021e-08 0.000142868 0.000232859 -0.000175869 -8.26324e-05 -0.000428579 -0.000102414
internal_weight=884316 487871 356923 396445 289615 106830 130948
internal_count=140800 70400 52800 70400 52800 17600 17600
cat_boundaries=0 1 2 3
cat_threshold=5 8 8
is_linear=0
shrinkage=0.0324511


Tree=67
num_leaves=8
num_cat=3
split_feature=68 1 69 1 48 67 79
split_gain=19.7539 9.66729 8.44801 8.30343 7.07022 6.4157 3.86109
threshold=0 1 21.866359447004612 2 67.500000000000014 29.872660427807492 2023.6995208761125
decision_type=1 1 2 1 2 2 2
left_child=1 2 -1 6 -5 -3 -2
right_child=3 5 -4 4 -6 -7 -8
leaf_value=0.00069184170367655692 -0.00054556833827022299 -0.00018402909191658128 0.00018428940468883778 -0.00019619348231440263 0.00014120069033984585 0.00022124277379755898 -0.00012384003744999241
leaf_weight=39724.600008279085 73677.800011634827 121984.40002390742 264107.00000604987 189836.70003923774 99778.099996805191 62055.200008779764 33152
leaf_count=6616 13568 25138 28584 45016 7784 10062 4032
internal_value=-2.33874e-08 0.000138233 0.000250655 -0.000170162 -7.99511e-05 -4.73722e-05 -0.000414673
internal_weight=884316 487871 303832 396445 289615 184040 106830
internal_count=140800 70400 35200 70400 52800 35200 17600
cat_boundaries=0 1 2 3
cat_threshold=5 6 8
is_linear=0
shrinkage=0.0324511


Tree=68
num_leaves=8
num_cat=3
split_feature=68 6 1 71 1 18 17
split_gain=18.4927 9.37291 9.82166 7.90432 6.74926 6.15728 3.45701
threshold=0 1771.5000000000002 1 40.500000000000007 2 0.99024581825578073 -0.8783796973249266
decision_type=1 2 1 2 1 2 2
left_child=1 5 -3 4 -2 -1 -5
right_child=3 2 -4 6 -6 -7 -8
leaf_value=2.457279852385928e-05 -0.00034010533961625097 0.00053929593543910884 0.00011326702428526629 -0.001141968405709178 -1.2778089843759541e-05 -0.0008531818936822191 -0.00040921149636242272
leaf_weight=238922.80004525185 91228.200004816055 92960 147272 7741.6000033020973 243018.80001831055 8716.4000017642975 54456.000021249056
leaf_count=42784 11720 6512 19536 3360 35160 1568 20160
internal_value=-2.25829e-08 0.000133747 0.000278161 -0.000164641 -0.000102133 -6.34492e-06 -0.000500531
internal_weight=884316 487871 240232 396445 334247 247639 62197.6
internal_count=140800 70400 26048 70400 46880 44352 23520
cat_boundaries=0 1 2 3
cat_threshold=5 4 8
is_linear=0
shrinkage=0.0324511


Tree=69
num_leaves=8
num_cat=3
split_feature=68 1 69 15 70 1 6
split_gain=17.3122 8.89141 12.8909 12.3466 7.77832 10.2065 4.86201
threshold=0 1 21.963287250384028 4.5000000000000009 11.500000000000002 2 1985.5000000000002
decision_type=1 1 2 2 2 1 2
left_child=1 3 -3 -1 5 -2 -6
right_child=4 2 -4 -5 6 -7 -8
leaf_value=0.00045778874435852153 0.00025677781516899543 0.00032781756411401705 -0.00012517727016120067 -0.00015743023034199934 -0.00045111034084937158 -0.00019929801693297473 -9.3937165591034989e-05
leaf_weight=139677.80000257492 81517.999997377396 97672.200030446053 204970.40001386404 45550.80000013113 110978.20004016161 141072.40001013875 62876
leaf_count=12574 6287 24960 27840 5026 32900 18861 12352
internal_value=-2.22586e-08 0.000129407 2.10217e-05 0.000306479 -0.000159299 -3.22667e-05 -0.000321944
internal_weight=884316 487871 302643 185229 396445 222590 173854
internal_count=140800 70400 52800 17600 70400 25148 45252
cat_boundaries=0 1 2 3
cat_threshold=5 4 4
is_linear=0
shrinkage=0.0324511


Tree=70
num_leaves=8
num_cat=3
split_feature=68 6 1 70 1 22 7
split_gain=16.2069 8.76779 8.9199 7.4831 7.13783 6.3105 2.87872
threshold=0 1807.5000000000002 1 24.500000000000004 2 1.0000000180025095e-35 98.500000000000014
decision_type=1 2 1 2 1 2 2
left_child=1 5 -3 4 -2 -1 -5
right_child=3 2 -4 6 -6 -7 -8
leaf_value=-4.0443650598613786e-05 -0.00034627979059197482 0.00052488810975191995 0.00011016753996613343 -0.0010488087810770175 -2.0755223735170111e-05 0.00071909811508075335 -0.00041348656112466623
leaf_weight=245592 97236.800007224083 89116 141084 10469.200003474951 262139.40002503991 12079.200047016144 26599.20001193881
leaf_count=29920 13831 6224 18672 4064 41493 15584 11012
internal_value=-2.15071e-08 0.000125208 0.000270754 -0.00015413 -0.000108848 -4.8196e-06 -0.000593079
internal_weight=884316 487871 230200 396445 359376 257671 37068.4
internal_count=140800 70400 24896 70400 55324 45504 15076
cat_boundaries=0 1 2 3
cat_threshold=5 4 8
is_linear=0
shrinkage=0.0324511


Tree=71
num_leaves=8
num_cat=1
split_feature=68 6 70 55 2 6 73
split_gain=15.1723 8.22702 7.10583 6.48939 5.95336 4.56326 4.15115
threshold=0 1771.5000000000002 11.500000000000002 34.060439560439569 2.839388571428572 2017.5000000000002 25.750000000000004
decision_type=1 2 2 2 2 2 2
left_child=1 4 6 -3 -1 -4 -2
right_child=2 3 5 -5 -6 -7 -8
leaf_value=7.5860755706436497e-05 0.00039710589458447461 8.3111699447291167e-05 -0.00042445439952614827 0.00042056166253604866 -0.00030458673033509749 -7.3993980376881437e-05 -7.3938411558619103e-05
leaf_weight=191687.60004094243 21838.800000756979 116841 114386.20004016161 123391 55951.600006073713 59468 200751.60000675917
leaf_count=36224 2320 16732 33572 9316 8128 11680 22828
internal_value=-2.08438e-08 0.000121146 -0.00014913 0.000256444 -1.01035e-05 -0.000304585 -2.77126e-05
internal_weight=884316 487871 396445 240232 247639 173854 222590
internal_count=140800 70400 70400 26048 44352 45252 25148
cat_boundaries=0 1
cat_threshold=5
is_linear=0
shrinkage=0.0324511


Tree=72
num_leaves=8
num_cat=2
split_feature=1 77 68 70 55 70 18
split_gain=15.1107 14.5789 13.8402 11.6623 5.4019 4.66996 3.01767
threshold=0 1.5000000000000002 1 7.5000000000000009 35.445054945054956 19.500000000000004 -0.97111920233974802
decision_type=1 2 1 2 2 2 2
left_child=1 2 -1 4 -2 -5 -3
right_child=3 6 -4 5 -6 -7 -8
leaf_value=0.00048368046270283981 0.00034571114322914102 0.00037506043943498415 7.3907765003383417e-05 -0.0002377773289140807 -9.1239360089577132e-05 -0.0006117242963748999 -0.00035383844823244306
leaf_weight=115670.60001328588 48805.700014442205 6497.2000002264977 347666.60002052784 170288.40002387762 76468.900002717972 44322.200018525124 74596.200001090765
leaf_count=15087 12150 768 45261 30170 7966 20114 9284
internal_value=-2.01409e-08 0.000105968 0.000176224 -0.00016979 7.90016e-05 -0.000315023 -0.000295413
internal_weight=884316 544431 463337 339885 125275 214611 81093.4
internal_count=140800 70400 60348 70400 20116 50284 10052
cat_boundaries=0 1 2
cat_threshold=6 4
is_linear=0
shrinkage=0.0324511


Tree=73
num_leaves=8
num_cat=1
split_feature=68 78 70 65 22 78 73
split_gain=13.5719 7.60948 6.65715 6.2135 5.80627 4.49627 2.88932
threshold=0 2022.5000000000002 24.500000000000004 6.0839467300763994 1.0000000180025095e-35 2023.5000000000002 75.450000000000017
decision_type=1 2 2 2 2 2 2
left_child=1 4 5 -3 -1 -2 -4
right_child=2 3 6 -5 -6 -7 -8
leaf_value=-3.7765924556230933e-05 -0.0001633176945938223 7.1796684106028202e-05 -0.00039349725139436624 0.00041312839862924129 0.00069047703319659261 0.00010440693246435569 -0.0010634920904821004
leaf_weight=250312 272148.20003226399 105895 28138.800011694431 119585 12079.200047016144 87228 8929.6000037193298
leaf_count=30496 45372 14639 11476 9681 15584 9952 3600
internal_value=-1.92895e-08 0.000114579 -0.000141045 0.000252831 -4.22422e-06 -9.83347e-05 -0.000555061
internal_weight=884316 487871 396445 225480 262391 359376 37068.4
internal_count=140800 70400 70400 24320 46080 55324 15076
cat_boundaries=0 1
cat_threshold=5
is_linear=0
shrinkage=0.0324511


Tree=74
num_leaves=8
num_cat=2
split_feature=1 68 69 70 8 55 70
split_gain=14.0711 12.405 11.7231 10.6271 9.1683 5.06415 4.23966
threshold=0 1 39.016666666666673 7.5000000000000009 146.50000000000003 35.445054945054956 19.500000000000004
decision_type=1 1 2 2 2 2 2
left_child=1 4 -3 5 -1 -2 -5
right_child=3 2 -4 6 -6 -7 -8
leaf_value=5.834417594160623e-05 0.0003318854002873654 -0.00016766947297907177 0.00018035196425980802 -0.00022888094286573039 0.00059761808795878518 -9.118437131815675e-05 -0.00058518386952896594
leaf_weight=57361.200002789497 48805.700014442205 196560.40002807975 211694.39999204874 170288.40002387762 78814.600012212992 76468.900002717972 44322.200018525124
leaf_count=7056 12150 35200 17600 30170 10544 7966 20114
internal_value=-1.87538e-08 0.000102259 1.27915e-05 -0.000163845 0.000370447 7.36483e-05 -0.000302482
internal_weight=884316 544431 408255 339885 136176 125275 214611
internal_count=140800 70400 52800 70400 17600 20116 50284
cat_boundaries=0 1 2
cat_threshold=6 4
is_linear=0
shrinkage=0.0324511


Tree=75
num_leaves=8
num_cat=1
split_feature=77 1 55 69 53 2 72
split_gain=13.9186 18.6728 7.92721 6.54795 3.77605 3.52061 1.66862
threshold=1.5000000000000002 0 30.928571428571434 22.752380952380957 29.383928571428573 1.498637142857143 2.511614173228347
decision_type=2 1 2 2 2 2 2
left_child=1 2 -1 -3 6 -6 -2
right_child=4 3 -4 -5 5 -7 -8
leaf_value=-0.00018851988693258827 -0.00071592980992445196 9.1128455295887836e-05 0.00035890522121788171 -0.00015289345848405752 3.8054768328689081e-05 -0.00033157244303710259 0.0025754942475101953
leaf_weight=31999.70001155138 20710.000009179115 189048.80006197095 214959.29999655485 298845.40001747012 38904.799996823072 89690.800001144409 157
leaf_count=7854 6500 56463 17294 39085 5276 8305 23
internal_value=-1.81229e-08 5.80442e-05 0.000287958 -5.83389e-05 -0.000285479 -0.000219751 -0.000690337
internal_weight=884316 734853 246959 487894 149463 128596 20867
internal_count=140800 120696 25148 95548 20104 13581 6523
cat_boundaries=0 1
cat_threshold=4
is_linear=0
shrinkage=0.0324511


Tree=76
num_leaves=8
num_cat=2
split_feature=1 68 69 70 7 55 6
split_gain=12.6253 11.3998 10.2159 9.91485 8.54673 4.59264 4.1686
threshold=0 1 39.016666666666673 7.5000000000000009 194.50000000000003 35.445054945054956 1953.5000000000002
decision_type=1 1 2 2 2 2 2
left_child=1 4 -3 5 -1 -2 -5
right_child=3 2 -4 6 -6 -7 -8
leaf_value=0.00012688191947275162 0.00032011996867973468 -0.00015736413311036887 0.00016751629095945769 -0.00040237126329036136 0.00064501757792960511 -8.2773562312939744e-05 -0.00010850435607646603
leaf_weight=76494.800005227327 48805.700014442205 196560.40002807975 211694.39999204874 131890.60004240274 59681.000009775162 76468.900002717972 82720
leaf_count=9360 12150 35200 17600 35836 8240 7966 14448
internal_value=-1.71181e-08 9.68636e-05 1.10974e-05 -0.000155198 0.000353957 7.41985e-05 -0.00028911
internal_weight=884316 544431 408255 339885 136176 125275 214611
internal_count=140800 70400 52800 70400 17600 20116 50284
cat_boundaries=0 1 2
cat_threshold=6 4
is_linear=0
shrinkage=0.0324511


end of trees

feature_importances:
block=147
days_since_epoch=62
site_enc=61
site_dow_mean=57
site_x_dow=47
weekend_x_block=32
site_month_block_mean=21
roll_mean_91=16
dow=14
site_x_month=14
dow_sin=10
year_frac=10
cdc_ili_rate=4
day_of_year=4
roll_max_91=4
temp_min=4
year=4
days_since_xmas=3
roll_mean_56=3
temp_max=3
aqi=2
days_since_july4=2
doy_cos=2
is_covid_era=2
roll_std_91=2
days_since_school_start=1
days_until_thanksgiving=1
lag_rate_56=1
lag_rate_91=1
roll_max_56=1
roll_mean_14=1
school_in_session=1
snowfall=1
temp_range=1

parameters:
[boosting: gbdt]
[objective: regression]
[metric: l2]
[tree_learner: serial]
[device_type: cpu]
[data_sample_strategy: bagging]
[data: ]
[valid: ]
[num_iterations: 1533]
[learning_rate: 0.0324511]
[num_leaves: 50]
[num_threads: 16]
[seed: 0]
[deterministic: 0]
[force_col_wise: 0]
[force_row_wise: 0]
[histogram_pool_size: -1]
[max_depth: 3]
[min_data_in_leaf: 20]
[min_sum_hessian_in_leaf: 4]
[bagging_fraction: 0.875655]
[pos_bagging_fraction: 1]
[neg_bagging_fraction: 1]
[bagging_freq: 0]
[bagging_seed: 3]
[bagging_by_query: 0]
[feature_fraction: 0.788963]
[feature_fraction_bynode: 1]
[feature_fraction_seed: 2]
[extra_trees: 0]
[extra_seed: 6]
[early_stopping_round: 0]
[early_stopping_min_delta: 0]
[first_metric_only: 0]
[max_delta_step: 0]
[lambda_l1: 0]
[lambda_l2: 6.78234]
[linear_lambda: 0]
[min_gain_to_split: 0]
[drop_rate: 0.1]
[max_drop: 50]
[skip_drop: 0.5]
[xgboost_dart_mode: 0]
[uniform_drop: 0]
[drop_seed: 4]
[top_rate: 0.2]
[other_rate: 0.1]
[min_data_per_group: 100]
[max_cat_threshold: 32]
[cat_l2: 10]
[cat_smooth: 10]
[max_cat_to_onehot: 4]
[top_k: 20]
[monotone_constraints: ]
[monotone_constraints_method: basic]
[monotone_penalty: 0]
[feature_contri: ]
[forcedsplits_filename: ]
[refit_decay_rate: 0.9]
[cegb_tradeoff: 1]
[cegb_penalty_split: 0]
[cegb_penalty_feature_lazy: ]
[cegb_penalty_feature_coupled: ]
[path_smooth: 0]
[interaction_constraints: ]
[verbosity: -1]
[saved_feature_importance_type: 0]
[use_quantized_grad: 0]
[num_grad_quant_bins: 4]
[quant_train_renew_leaf: 0]
[stochastic_rounding: 1]
[linear_tree: 0]
[max_bin: 255]
[max_bin_by_feature: ]
[min_data_in_bin: 3]
[bin_construct_sample_cnt: 200000]
[data_random_seed: 1]
[is_enable_sparse: 1]
[enable_bundle: 1]
[use_missing: 1]
[zero_as_missing: 0]
[feature_pre_filter: 1]
[pre_partition: 0]
[two_round: 0]
[header: 0]
[label_column: ]
[weight_column: ]
[group_column: ]
[ignore_column: ]
[categorical_feature: 1,68]
[forcedbins_filename: ]
[precise_float_parser: 0]
[parser_config_file: ]
[objective_seed: 5]
[num_class: 1]
[is_unbalance: 0]
[scale_pos_weight: 1]
[sigmoid: 1]
[boost_from_average: 1]
[reg_sqrt: 0]
[alpha: 0.9]
[fair_c: 1]
[poisson_max_delta_step: 0.7]
[tweedie_variance_power: 1.5]
[lambdarank_truncation_level: 30]
[lambdarank_norm: 1]
[label_gain: ]
[lambdarank_position_bias_regularization: 0]
[eval_at: ]
[multi_error_top_k: 1]
[auc_mu_weights: ]
[num_machines: 1]
[local_listen_port: 12400]
[time_out: 120]
[machine_list_filename: ]
[machines: ]
[gpu_platform_id: -1]
[gpu_device_id: -1]
[gpu_use_dp: 0]
[num_gpu: 1]

end of parameters

pandas_categorical:[]
