tree
version=v4
num_class=1
num_tree_per_iteration=1
label_index=0
max_feature_idx=85
objective=regression
feature_names=aqi block cdc_ili_rate day day_of_year days_since_epoch days_since_july4 days_since_school_start days_since_xmas days_to_nearest_holiday days_until_school_start days_until_thanksgiving delta_28_91 delta_7_28 delta_lag_63_70 dow dow_cos dow_sin doy_cos doy_sin event_count holiday_x_block is_covid_era is_halloween is_us_holiday is_weekend lag_182 lag_364 lag_63 lag_70 lag_77 lag_91 lag_admit_182 lag_admit_364 lag_admit_63 lag_admit_70 lag_admit_77 lag_admit_91 month month_cos month_sin precip quarter roll_max_14 roll_max_28 roll_max_56 roll_max_7 roll_max_91 roll_mean_14 roll_mean_28 roll_mean_56 roll_mean_7 roll_mean_91 roll_min_14 roll_min_28 roll_min_56 roll_min_7 roll_min_91 roll_std_14 roll_std_28 roll_std_56 roll_std_7 roll_std_91 school_in_session share_reason_abdominal_pain_lag63 share_reason_back_pain_lag63 share_reason_chest_pain_lag63 share_reason_fall_lag63 share_reason_fever_lag63 share_reason_headache_lag63 share_reason_shortness_of_breath_lag63 share_reason_vomiting_lag63 site_dow_mean site_enc site_month_block_mean site_month_mean site_x_dow site_x_month snowfall temp_max temp_min temp_range week_of_year weekend_x_block year year_frac
feature_infos=[5:211] -1:0:1:2:3 [0.48795699999999997:7.7503399999999996] [1:31] [1:366] [364:2737] [0:365] [0:385] [0:365] [0:52] [0:385] [0:370] [-12.947802197802197:8.9010989010988979] [-11.892857142857146:10.357142857142854] [-39:51] [0:6] [-0.90096886790241903:1] [-0.97492791218182362:0.97492791218182362] [-0.99997919295908233:0.9999907524084426] [-0.9999994220246925:0.99998555065071859] [0:1] [0:3] [0:1] [0:1] [0:1] [0:1] [0:87] [0:87] [0:87] [0:87] [0:87] [0:87] [0:1] [0:1] [0:1] [0:1] [0:1] [0:1] [1:12] [-1:1] [-1:1] [0:2.5390000000000001] [1:4] [7:87] [9:87] [11:87] [6:87] [12:87] [4.7142857142857144:65.428571428571431] [4.9642857142857144:63.535714285714285] [5.5178571428571432:61.803571428571431] [4:70.571428571428569] [5.7032967032967035:61.098901098901102] [0:56] [0:52] [0:49] [0:63] [0:48] [1.0271051820261772:13.403501264738468] [1.6471074533748196:11.396358371294912] [2.1121171750258032:11.952815785194982] [0.53452248382496037:16.905902040693519] [2.2659555014506254:11.91310623314085] [0:1] [0:1] [0:0.5] [0:0.66666666666666663] [0:0.5] [0:0.5] [0:1] [0:0.59999999999999998] [0:0.66666666666666663] [17.527493606138108:43.498081841432224] -1:0:1:2:3 [6.8938053097345131:57.631336405529957] [16.955645161290324:42.871428571428574] -1:0:7:14:21:1:2:3:4:5:6:8:9:10:11:12:13:15:16:17:18:19:20:22:23:24:25:26:27 -1:0:2:4:12:14:16:24:26:28:36:38:40:3:5:15:17:27:29:39:41:1:13:25:37:11:23:35:47:6:7:9:18:19:21:30:31:33:42:43:45:8:10:20:22:32:34:44:46 [0:2.7448818897637794] [-22:102.59999999999999] [-39.299999999999997:81.099999999999994] [1.5:49.5] [1:53] [0:3] [2018:2025] [2018.996577686516:2025.4928131416839]
tree_sizes=3159 3366 3362 3325 3359 3339 3339 3395 3511 3387 3372 3539 3392 3460 3403 3366 3385 3339 3400 3459 3389 3311 3374 3448 3335 3473 3399 3433 3456 3380 3410 3490 3431 3368 3442 3309 3332 3381 3388 3308 3490 3450 3450 3369 3485 3318 3410 3313 3355 3442 3392 3557 3521 3427 3469 3279 3223 3421 3375 3191 3473 3368 3248 3493 3422 3373 3238 3542 3338 3477 3207 3560 3261 3514 3482 3508 3337 3423 3430 3291 3503 3339 3507 3523 3387 3072 3339 3527 3369 3369 3239 3192 3158 3372 3319 3424 3464 3437 3426 3430 3516 3430 3414 3492 3343 3556 3350 3341 3566

Tree=0
num_leaves=31
num_cat=7
split_feature=73 1 75 1 15 15 1 52 5 77 5 1 29 83 45 77 5 5 8 44 5 28 5 82 75 59 48 4 52 64
split_gain=354.115 87.1646 76.279 69.8407 14.7091 13.0989 10.4859 8.24482 5.34692 4.36182 3.31618 3.04435 2.76461 2.73264 2.56193 1.97145 1.88992 1.88628 1.85185 1.20977 1.08845 0.86268 0.740536 0.690349 0.672017 0.628465 0.621618 0.601144 0.417174 0.375961
threshold=0 1 35.460342261904771 2 4.5000000000000009 4.5000000000000009 3 13.423076923076925 1810.5000000000002 4 1765.5000000000002 5 40.500000000000007 1.5000000000000002 71.500000000000014 6 1837.5000000000002 1819.5000000000002 148.50000000000003 43.500000000000007 1513.5000000000002 35.500000000000007 1837.5000000000002 11.500000000000002 26.933213325652847 5.460233826081585 56.392857142857146 281.50000000000006 32.565934065934073 0.15235814296241715
decision_type=1 1 2 1 2 2 1 2 2 1 2 1 2 2 2 1 2 2 2 2 2 2 2 2 2 2 2 2 2 2
left_child=1 9 6 17 14 7 27 24 -9 20 25 15 -6 18 -5 -7 -13 21 -8 -12 28 -4 -15 -22 -3 -11 -19 29 -1 -2
right_child=2 5 3 4 12 11 13 8 -10 10 19 16 -14 22 -16 -17 -18 26 -20 -21 23 -23 -24 -25 -26 -27 -28 -29 -30 -31
leaf_value=0.30524340451069609 0.30233287753167298 0.3067480135330653 0.3059578490302845 0.30624464315144928 0.30577240914936932 0.30848075347598575 0.30456161127317627 0.30792311183552351 0.30845181454927328 0.30565439730750249 0.30596885482193964 0.30678230698179815 0.30497923409820277 0.30253810856981206 0.30672623756373518 0.30747940153412395 0.30741740848773746 0.30421034516046308 0.30392161585671379 0.3068644711200465 0.30638596987801803 0.30388389781514374 0.30365936683960815 0.30574760271323853 0.30880510549087647 0.30617736646611615 0.30465684045479291 0.3032152603417787 0.30671445224205868 0.30313540360502245
leaf_weight=3777.100001335144 4020.100001886487 4011.5000018179417 185.99999979138374 30295.900001473725 7321.3000008910894 2626.1000006347895 7288.8000029027462 33198.900003321469 35991 2672.1000003963709 1540 8583.8000018820167 8633.4999994039536 1150.4000008031726 14790.700000226498 5800.0000005289912 8301 5137 9514.1000033095479 11219 2110 11272.100000411272 1137 5497 143.40000098198652 9133.9000008553267 6662 1370.9000004455447 180 766.60000037401915
leaf_count=855 1580 1696 45 4070 1234 460 2815 4944 3305 431 174 1680 800 420 1018 896 1032 414 3629 1039 257 1411 258 664 231 1306 504 507 22 287
internal_value=0.306426 0.307455 0.305159 0.305592 0.306126 0.307917 0.303713 0.30812 0.308198 0.306195 0.306421 0.307328 0.305343 0.304066 0.306403 0.307795 0.307094 0.304194 0.304199 0.306756 0.305715 0.303917 0.303088 0.305925 0.306822 0.306059 0.304462 0.30263 0.305311 0.302458
internal_weight=244331 134785 109546 84298.5 61041.4 98655.7 25247.9 73344.8 69189.9 36129.1 24565 25310.9 15954.8 19090.3 45086.6 8426.1 16884.8 23257.1 16802.9 12759 11564.1 11458.1 2287.4 7607 4154.9 11806 11799 6157.6 3957.1 4786.7
internal_count=37984 18992 18992 9496 7122 14244 9496 10176 8249 4748 2950 4068 2034 7122 5088 1356 2712 2374 6444 1213 1798 1456 678 921 1927 1737 918 2374 877 1867
cat_boundaries=0 1 2 3 4 6 7 9
cat_threshold=5 8 8 8 3070230528 11 2 2080374786 3
is_linear=0
shrinkage=1


Tree=1
num_leaves=31
num_cat=5
split_feature=73 1 72 1 15 15 1 74 5 72 5 1 29 83 47 5 5 8 74 5 58 52 30 5 10 27 50 4 22 19
split_gain=333.204 82.0167 71.7797 65.7159 13.8403 12.3232 9.86864 8.3493 4.96293 3.74186 3.61032 2.86573 2.6013 2.57305 2.38854 1.7783 1.77473 1.74241 1.46826 1.15055 0.843663 0.799561 0.723868 0.696951 0.637692 0.606764 0.603423 0.565399 0.456929 0.376963
threshold=0 1 36.056549793830584 2 4.5000000000000009 4.5000000000000009 3 12.629032258064518 1810.5000000000002 27.266628934182375 1765.5000000000002 4 40.500000000000007 1.5000000000000002 72.500000000000014 1837.5000000000002 1819.5000000000002 148.50000000000003 21.774081399616659 1513.5000000000002 6.2480766271278467 12.302197802197805 31.500000000000004 1837.5000000000002 46.500000000000007 55.500000000000007 60.312500000000007 281.50000000000006 1.0000000180025095e-35 0.99700008544936913
decision_type=1 1 2 1 2 2 1 2 2 2 2 1 2 2 2 2 2 2 2 2 2 2 2 2 2 2 2 2 2 2
left_child=1 9 6 16 14 7 27 21 -9 19 22 18 -6 17 -5 -13 25 -8 -7 28 -21 -3 -11 -15 -12 -4 -18 29 -1 -2
right_child=2 5 3 4 12 11 13 8 -10 10 24 15 -14 23 -16 -17 26 -19 -20 20 -22 -23 -24 -25 -26 -27 -28 -29 -30 -31
leaf_value=-0.0010164898296079739 -0.0039019558160932073 0.00044729568729313598 -0.0022592993337899776 -0.00018277097276255165 -0.00063383737986456173 0.0019927694369890709 -0.0018083363233104355 0.0014564001006096606 0.0019652076807933458 0.0001792349321406883 -0.00029728019303291238 0.00034578315062024111 -0.0014032289442066641 -0.0037716003377449786 0.00027491710022002088 0.00096184328022758754 -0.0019513025087872777 -0.0024291329214381984 0.001091203941080394 -0.00056377441339402752 4.3696916260791621e-05 -0.0010126711661317155 -0.00048914305139366346 -0.0026838383764997381 0.00049492326962694716 -0.0027225206508479797 -0.00088778532610807792 -0.0031146083470642979 0.00010538891194930667 -0.0023277157051341769
leaf_weight=4861 4618.7000022158027 3644.2000017911196 7182.2000005841255 29299.000001914799 7321.3000008910894 2216.7000005543232 7288.8000029027462 33342.300004303455 35991 1768.6999996602535 1006 8583.8000018820167 8633.4999994039536 1150.4000008031726 15787.599999785423 8301 11285 9514.1000033095479 6209.4000006094575 7303 2863 367.30000002682209 8246.1000012010336 1137 9732 4275.8999996185303 514 1370.9000004455447 349.30000172555447 168.00000004470348
leaf_count=663 1804 1552 907 4055 1234 413 2815 5175 3305 326 94 1680 800 420 1033 1032 881 3629 943 890 334 144 1076 258 878 549 37 507 487 63
internal_value=-1.00182e-08 0.000998712 -0.0012288 -0.00080855 -0.000291202 0.00144652 -0.00263198 0.00164366 0.00172065 -0.000224191 3.85618e-05 0.000875633 -0.00105048 -0.00228918 -2.24934e-05 0.000648465 -0.00216499 -0.00216046 0.00132785 -0.000578861 -0.000392758 0.000312524 -0.000371071 -0.00323794 0.000420601 -0.00243328 -0.00190537 -0.00368233 -0.00094125 -0.00384919
internal_weight=244331 134785 109546 84298.5 61041.4 98655.7 25247.9 73344.8 69333.3 36129.1 20752.8 25310.9 15954.8 19090.3 45086.6 16884.8 23257.1 16802.9 8426.1 15376.3 10166 4011.5 10014.8 2287.4 10738 11458.1 11799 6157.6 5210.3 4786.7
internal_count=37984 18992 18992 9496 7122 14244 9496 10176 8480 4748 2374 4068 2034 7122 5088 2712 2374 6444 1356 2374 1224 1696 1402 678 972 1456 918 2374 1150 1867
cat_boundaries=0 1 2 3 4 5
cat_threshold=5 8 8 8 2
is_linear=0
shrinkage=0.03


Tree=2
num_leaves=31
num_cat=8
split_feature=73 1 75 1 15 15 1 74 5 77 5 1 29 83 45 77 5 5 76 4 5 30 28 5 37 4 46 4 30 64
split_gain=313.526 77.1712 67.5453 61.8352 13.0229 11.5942 9.28739 7.85618 4.66965 3.91303 2.9234 2.69672 2.44763 2.42278 2.27714 1.79328 1.67538 1.67003 1.6393 1.51263 0.96965 0.817042 0.809912 0.658516 0.628909 0.588635 0.556275 0.53173 0.392048 0.356107
threshold=0 1 35.460342261904771 2 4.5000000000000009 4.5000000000000009 3 12.629032258064518 1810.5000000000002 4 1765.5000000000002 5 40.500000000000007 1.5000000000000002 71.500000000000014 6 1891.5000000000002 1819.5000000000002 7 142.50000000000003 1513.5000000000002 31.500000000000004 35.500000000000007 2134.5000000000005 0.40967365967365971 70.500000000000014 73.500000000000014 281.50000000000006 32.500000000000007 0.15235814296241715
decision_type=1 1 2 1 2 2 1 2 2 1 2 1 2 2 2 1 2 2 1 2 2 2 2 2 2 2 2 2 2 2
left_child=1 9 6 17 14 7 27 24 -9 20 21 15 -6 19 -5 -7 -13 22 -12 -8 28 -11 -4 -15 -3 -22 -19 29 -1 -2
right_child=2 5 3 4 12 11 13 8 -10 10 18 16 -14 23 -16 -17 -18 26 -20 -21 25 -23 -24 -25 -26 -27 -28 -29 -30 -31
leaf_value=-0.0012404122124075421 -0.0038548837610095452 0.00014757344047102043 -0.00038545087607090323 -0.00017078109142739219 -0.00061483525718507488 0.0018256311404583514 -0.0017538845310307142 0.0014127145896196648 0.0019062596593345329 8.802602620115961e-05 -0.00031826814441232788 0.00035150588139078301 -0.0013611564468517297 -0.0035163077149199568 0.00028325776877406066 0.00092315426436187498 0.00095101252179654726 -0.0019396350527379532 0.00049462530099871483 -0.0023362189449313603 -9.140635691803588e-06 -0.00048759841447602843 -0.0023927441629474412 -0.0024028227826270753 0.0012105013313320561 -0.00062378010916038071 -0.0013718275411028257 -0.0030215096718272695 -0.00057219137015848828 -0.0030786479814806709
leaf_weight=2844.8000009134412 4020.100001886487 3429.4000015482306 185.99999979138374 30295.900001473725 7321.3000008910894 3382.8000008314848 6957.6000027731061 33342.300004303455 35991 2960.0999999940395 2874 9063.8000018820167 8633.4999994039536 1504.4000008031726 14790.700000226498 5043.3000003322959 7821 9887 9885 9845.300003439188 1854 8845.900001257658 11272.100000411272 783 582.10000026971102 5753 1912 1370.9000004455447 1112.3000004217029 766.60000037401915
leaf_count=680 1580 1466 45 4070 1234 572 2698 5175 3305 569 312 1744 800 506 1018 784 968 776 901 3746 227 1168 1411 172 230 694 142 507 197 287
internal_value=-2.45295e-08 0.000968757 -0.00119197 -0.000784311 -0.000282471 0.00140314 -0.00255314 0.00159435 0.00166903 -0.000217472 -3.14748e-06 0.00084939 -0.00101899 -0.00222059 -2.18183e-05 0.00128807 0.000629023 -0.00210009 0.000311604 -0.00209568 -0.000672155 -0.000343297 -0.00236034 -0.00314122 0.000303127 -0.000474083 -0.00184824 -0.00357209 -0.00105354 -0.00373391
internal_weight=244331 134785 109546 84298.5 61041.4 98655.7 25247.9 73344.8 69333.3 36129.1 24565 25310.9 15954.8 19090.3 45086.6 8426.1 16884.8 23257.1 12759 16802.9 11564.1 11806 11458.1 2287.4 4011.5 7607 11799 6157.6 3957.1 4786.7
internal_count=37984 18992 18992 9496 7122 14244 9496 10176 8480 4748 2950 4068 2034 7122 5088 1356 2712 2374 1213 6444 1798 1737 1456 678 1696 921 918 2374 877 1867
cat_boundaries=0 1 2 3 4 6 7 9 10
cat_threshold=5 8 8 8 3070230528 11 2 2097153026 3 1785864
is_linear=0
shrinkage=0.03


Tree=3
num_leaves=31
num_cat=11
split_feature=73 1 73 1 15 15 1 74 85 77 85 85 29 83 45 77 85 8 76 77 85 76 85 76 37 48 57 4 3 85
split_gain=295.011 72.6133 63.4866 58.183 12.2537 10.9076 8.74071 7.3914 4.39371 3.68214 2.75073 2.54224 2.30305 2.28119 2.1426 1.69316 1.57129 1.55 1.5427 1.45254 0.914118 0.787373 0.628631 0.616089 0.592089 0.572136 0.524554 0.500111 0.359124 0.300675
threshold=0 1 2 3 4.5000000000000009 4.5000000000000009 4 12.629032258064518 2022.9568788501028 5 2022.8336755646819 2023.0314852840522 40.500000000000007 1.5000000000000002 71.500000000000014 6 2022.9815195071872 148.50000000000003 7 8 2021.9459274469543 9 2023.0314852840522 10 0.40967365967365971 56.392857142857146 20.500000000000004 281.50000000000006 27.500000000000004 2023.9185489390832
decision_type=1 1 1 1 2 2 1 2 2 1 2 2 2 2 2 1 2 2 1 1 2 1 2 1 2 2 2 2 2 2
left_child=1 9 3 16 14 7 27 24 -9 20 21 19 -6 17 -5 -13 23 -8 -12 -7 28 -11 -15 -2 -3 -18 -22 -4 -1 -29
right_child=2 5 6 4 12 11 13 8 -10 10 18 15 -14 22 -16 -17 25 -19 -20 -21 26 -23 -24 -25 -26 -27 -28 29 -30 -31
leaf_value=-0.0011767743712650406 -0.0019090572621008684 0.00014315263593254836 -0.0036221099329165917 -0.00016565850903964494 -0.00059640276695118052 0.00099678009912192254 -0.0017007496125177534 0.0013703394957057576 0.0018490797877738544 -0.00062147320550042483 -0.00030876965576305071 0.00064610107641776898 -0.0013203453324184032 -0.0035539092246809414 0.0002747628855124075 0.0013855100644951297 -0.0020335328730601327 -0.0022862475099031639 0.00047980904230481068 0.00030910981094597125 -0.00057933515073699227 -0.00012444885793167499 -0.002521551852130809 -0.0024434245837465784 0.0011744954657519342 -0.0016058547597672401 9.9057763623569065e-05 -0.0032269472200508122 -0.00022413473058406185 -0.0021797643652609962
leaf_weight=3014.3000012487173 3399.8000002205372 3429.4000015482306 4786.7000022605062 30295.900001473725 7321.3000008910894 4046.1000014692545 7288.8000029027462 33342.300004303455 35991 4934.7000009864569 2874 4363 8633.4999994039536 1150.4000008031726 14790.700000226498 8113 5137 9514.1000033095479 9885 8788.8000015765429 6941 6871.3000002652407 1137 8058.2999999821186 582.10000026971102 6662 1202 971.90000044554472 406.80000008642673 399
leaf_count=714 416 1466 1867 4070 1234 939 2815 5175 3305 743 312 576 800 420 1018 972 414 3629 901 1581 854 994 258 1040 230 504 139 393 91 114
internal_value=-3.36274e-08 0.000939707 -0.00115625 -0.000760705 -0.000274001 0.00136106 -0.00247568 0.00154653 0.00161897 -0.000210957 -3.05224e-06 0.000823965 -0.000988435 -0.00215405 -2.11634e-05 0.00112892 -0.00203713 -0.00203285 0.000302262 0.000527213 -0.000652022 -0.000333003 -0.00304737 -0.00228957 0.000294084 -0.00179284 -0.000479197 -0.00346517 -0.00106399 -0.00293119
internal_weight=244331 134785 109546 84298.5 61041.4 98655.7 25247.9 73344.8 69333.3 36129.1 24565 25310.9 15954.8 19090.3 45086.6 12476 23257.1 16802.9 12759 12834.9 11564.1 11806 2287.4 11458.1 4011.5 11799 8143 6157.6 3421.1 1370.9
internal_count=37984 18992 18992 9496 7122 14244 9496 10176 8480 4748 2950 4068 2034 7122 5088 1548 2374 6444 1213 2520 1798 1737 678 1456 1696 918 993 2374 805 507
cat_boundaries=0 1 2 3 4 5 7 9 10 12 13 14
cat_threshold=5 8 2 8 8 3070230528 11 2449475604 13 1785864 2080374788 7 1196129 2176
is_linear=0
shrinkage=0.03


Tree=4
num_leaves=31
num_cat=6
split_feature=73 1 75 1 15 15 1 74 52 76 5 1 57 83 47 5 5 8 2 44 28 52 5 6 59 5 2 5 61 38
split_gain=277.593 68.3252 59.8105 54.751 11.53 10.2615 8.22597 6.95411 4.37971 3.28613 3.15547 2.53752 2.18126 2.14797 2.00312 1.48595 1.4792 1.4584 1.38204 1.09614 0.760841 0.751049 0.593193 0.586008 0.549254 0.527725 0.678168 0.467612 0.421225 0.395951
threshold=0 1 35.460342261904771 2 4.5000000000000009 4.5000000000000009 3 12.629032258064518 33.939560439560445 4 1765.5000000000002 5 33.500000000000007 1.5000000000000002 72.500000000000014 1891.5000000000002 1819.5000000000002 148.50000000000003 5.354050714285715 43.500000000000007 35.500000000000007 12.302197802197805 2134.5000000000005 349.50000000000006 5.5112919197171211 793.50000000000011 4.1408400000000016 2044.5000000000002 2.9920529661724098 11.500000000000002
decision_type=1 1 2 1 2 2 1 2 2 1 2 1 2 2 2 2 2 2 2 2 2 2 2 2 2 2 2 2 2 2
left_child=1 9 6 16 14 7 27 21 -9 25 24 18 -6 17 -5 -13 20 -8 -7 -12 -4 -3 -15 -18 -11 28 -27 -2 -1 -29
right_child=2 5 3 4 12 11 13 8 -10 10 19 15 -14 22 -16 -17 23 -19 -20 -21 -22 -23 -24 -25 -26 26 -28 29 -30 -31
leaf_value=0.00031616954250071361 -0.0035769432815167417 0.00041594669402072977 -0.00030897520755213066 -0.0001673057493509497 -0.00070552379121641877 0.0013390326138565344 -0.001649762145090571 0.0013513156175425742 0.0018306927235618769 -0.00067463565424785927 -0.00035357053005477274 0.00032425597513173108 -0.0014457164883931257 -0.0033121673961830555 0.00025183191309945899 0.00088884702935546382 -0.0017888605281341692 -0.0022176961155323518 -8.0985406044350295e-05 0.00037854215559846168 -0.0022524519428963321 -0.00099898214233891912 -0.0022560288974404247 -0.0008285896442290666 -0.00025098472492209251 -0.00070157219775436206 0.0002215359268426865 -0.0031379104408979937 -0.0013283791286979841 -0.0017734667385205687
leaf_weight=152 3886.6000027060509 3644.2000017911196 185.99999979138374 29299.000001914799 10503.500000461936 7756.6000010892749 7288.8000029027462 37662.400004327297 31670.899999976158 3925.6000004559755 2168 9063.8000018820167 5451.299999833107 1504.4000008031726 15787.599999785423 7821 11183 9514.1000033095479 669.50000007450581 12055 11272.100000411272 367.30000002682209 783 616 9242.1000012755394 6211.400000795722 807.20000001788139 2035 1567.8000000417233 236
leaf_count=19 1681 1552 45 4055 1611 1254 2815 6075 2405 646 258 1744 423 506 1033 968 875 3629 102 1130 1411 144 172 43 1357 1003 108 631 227 62
internal_value=-4.89688e-08 0.000911528 -0.00112162 -0.000738005 -0.000265786 0.00132025 -0.00240247 0.00150015 0.00157041 -0.000204643 -4.28996e-05 0.000799306 -0.0009588 -0.00208951 -2.05281e-05 0.000585612 -0.00197612 -0.0019719 0.00122477 0.000266862 -0.00222105 0.000285311 -0.00295635 -0.0017391 -0.000377493 -0.00071069 -0.000595325 -0.00336143 -0.00118253 -0.00300033
internal_weight=244331 134785 109546 84298.5 61041.4 98655.7 25247.9 73344.8 69333.3 36129.1 27390.7 25310.9 15954.8 19090.3 45086.6 16884.8 23257.1 16802.9 8426.1 14223 11458.1 4011.5 2287.4 11799 13167.7 8738.4 7018.6 6157.6 1719.8 2271
internal_count=37984 18992 18992 9496 7122 14244 9496 10176 8480 4748 3391 4068 2034 7122 5088 2712 2374 6444 1356 1388 1456 1696 678 918 2003 1357 1111 2374 246 693
cat_boundaries=0 1 2 3 4 5 6
cat_threshold=5 8 8 8 1654784 2
is_linear=0
shrinkage=0.03


Tree=5
num_leaves=31
num_cat=11
split_feature=73 1 72 1 15 15 1 74 52 77 5 1 29 15 45 77 76 5 5 1 77 5 30 28 52 82 70 77 5 52
split_gain=261.197 64.2887 56.2822 51.517 10.849 9.65478 7.74149 6.54342 4.12093 3.32158 2.43002 2.38764 2.10747 2.04487 1.90427 1.66445 1.4073 1.39998 1.39178 1.19211 0.936535 0.824738 0.771569 0.715707 0.707094 0.604936 0.550943 0.483933 0.455881 0.381757
threshold=0 1 36.056549793830584 2 4.5000000000000009 4.5000000000000009 3 12.629032258064518 33.939560439560445 4 1765.5000000000002 5 47.500000000000007 4.5000000000000009 71.500000000000014 6 7 1837.5000000000002 1819.5000000000002 8 9 1513.5000000000002 31.500000000000004 35.500000000000007 12.302197802197805 11.500000000000002 0.01941930618401207 10 2107.5000000000005 32.565934065934073
decision_type=1 1 2 1 2 2 1 2 2 1 2 1 2 2 2 1 1 2 2 1 1 2 2 2 2 2 2 1 2 2
left_child=1 9 6 18 14 7 27 24 -9 21 22 15 -6 19 -5 -7 -12 -13 23 -8 -15 29 -11 -4 -3 -23 -20 28 -2 -1
right_child=2 5 3 4 12 11 13 8 -10 10 16 17 -14 20 -16 -17 -18 -19 26 -21 -22 25 -24 -25 -26 -27 -28 -29 -30 -31
leaf_value=-0.0010334666207219886 -0.0031704103749832574 0.0004034854665615609 -0.00029994857452258074 -0.00015613407836304996 -0.00064098852720924522 0.0018177820915563586 -0.0014583217996745148 0.0013107815187570783 0.0017757805900854308 0.00010794518273997533 -0.00029767463544648633 0.00029949480179471247 -0.0013421155715928933 -0.0021134013028685462 0.00025907102000828137 0.00089896869722526503 0.00045549295821110714 0.00084610023217909476 -0.0019108159038790046 -0.0020533545146827416 -0.0030258404137447062 -2.8860043958886298e-06 -0.00045140252435839552 -0.0021849083680850032 -0.00096941518486757063 -0.00060037359760590754 -0.0014939072229231099 -0.0034931347244582514 -0.0022240889026847559 0.00037175045680959477
leaf_weight=3777.100001335144 1236.1000009551644 3644.2000017911196 185.99999979138374 30295.900001473725 9384.3000007420778 2626.1000006347895 5045.2000022083521 37662.400004327297 31670.899999976158 2960.0999999940395 2874 8583.8000018820167 6570.4999995529652 2502.4000010639429 14790.700000226498 5800.0000005289912 9885 8301 5443 9231.8000030070543 2310.9000007361174 2110 8845.900001257658 11272.100000411272 367.30000002682209 5497 6356 4084.5000017508864 837 180
leaf_count=855 563 1552 45 4070 1465 460 1696 6075 2405 569 312 1680 569 1047 1018 896 901 1032 435 3392 987 257 1168 1411 144 664 483 1574 237 22
internal_value=-6.13126e-08 0.000884185 -0.001088 -0.000715877 -0.000257817 0.00128065 -0.00233051 0.00145515 0.0015233 -0.000198514 -1.05175e-06 0.000775341 -0.000930056 -0.0020269 -1.9912e-05 0.00118805 0.000285913 0.000568055 -0.00191687 -0.00184613 -0.00256482 -0.000617428 -0.000311172 -0.00215445 0.00027673 -0.000434756 -0.00168696 -0.0032608 -0.00278123 -0.000969158
internal_weight=244331 134785 109546 84298.5 61041.4 98655.7 25247.9 73344.8 69333.3 36129.1 24565 25310.9 15954.8 19090.3 45086.6 8426.1 12759 16884.8 23257.1 14277 4813.3 11564.1 11806 11458.1 4011.5 7607 11799 6157.6 2073.1 3957.1
internal_count=37984 18992 18992 9496 7122 14244 9496 10176 8480 4748 2950 4068 2034 7122 5088 1356 1213 2712 2374 5088 2034 1798 1737 1456 1696 921 918 2374 800 877
cat_boundaries=0 1 2 3 4 6 7 9 10 11 13 15
cat_threshold=5 8 8 8 3070230528 11 2 2080374786 3 1785864 2 0 49616 0 41152
is_linear=0
shrinkage=0.03


Tree=6
num_leaves=31
num_cat=10
split_feature=73 1 72 1 17 17 1 74 5 77 5 1 57 83 62 77 8 76 5 5 5 76 28 52 82 5 6 77 5 30
split_gain=245.781 60.4911 52.9718 48.4743 10.2083 9.08281 7.2862 6.15699 4.03067 3.12546 2.28649 2.24754 1.97032 1.94844 1.83418 1.57521 1.3607 1.32438 1.32008 1.30947 0.776035 0.740842 0.67325 0.665712 0.569216 0.566516 0.548985 0.455256 0.428913 0.360913
threshold=0 1 36.056549793830584 2 -0.60785761079279388 -0.60785761079279388 3 12.629032258064518 1810.5000000000002 4 1765.5000000000002 5 33.500000000000007 1.5000000000000002 7.278549948615777 6 148.50000000000003 7 1891.5000000000002 1819.5000000000002 1513.5000000000002 8 35.500000000000007 12.302197802197805 11.500000000000002 1837.5000000000002 349.50000000000006 9 2107.5000000000005 32.500000000000007
decision_type=1 1 2 1 2 2 1 2 2 1 2 1 2 2 2 1 2 1 2 2 2 1 2 2 2 2 2 1 2 2
left_child=1 9 6 19 12 11 27 23 -9 20 21 15 -5 16 -6 -3 -8 -12 -13 22 29 -11 -4 -7 -22 -15 -21 28 -2 -1
right_child=2 5 3 4 14 7 13 8 -10 10 17 18 -14 25 -16 -17 -18 -19 -20 26 24 -23 -24 -25 -26 -27 -28 -29 -30 -31
leaf_value=-0.0011193056821915915 -0.003075681281413882 0.0016559070664195355 -0.00029118567420016402 -0.00066146348898478782 -0.00020951898371836478 0.0003913974112930919 -0.001543262069526988 0.001239514152831001 0.0016979802182451723 -0.00066460642368491277 -0.00028879077600262986 0.00030468583445941965 -0.0013649391099297031 -0.0032715893842610085 0.00017313638292822201 0.00081101860874849578 -0.0020916348427687092 0.00044184890155906249 0.00083683187763377187 -0.0016845401548524113 -2.7996463443529097e-06 -0.00014565978127521696 -0.0021193901599856112 -0.00094072327835013339 -0.0005823787455605787 -0.0022941129716013715 -0.00075581015866015846 -0.003388724151069071 -0.0021577624643814358 -0.00047883751242757517
leaf_weight=2844.8000009134412 1236.1000009551644 3382.8000008314848 185.99999979138374 10503.500000461936 22675.40000166744 3644.2000017911196 7288.8000029027462 33342.300004303455 35991 3532.6000008434057 2874 9063.8000018820167 5451.299999833107 1150.4000008031726 22411.200000032783 5043.3000003322959 9514.1000033095479 9885 7821 11183 2110 8273.4000004082918 11272.100000411272 367.30000002682209 5497 1137 616 4084.5000017508864 837 1112.3000004217029
leaf_count=680 563 572 45 1611 3241 1552 2815 5175 3305 543 312 1744 423 420 1847 784 3629 901 968 875 257 1194 1411 144 664 258 43 1574 237 197
internal_value=-8.33687e-08 0.000857672 -0.00105543 -0.000694415 -0.000250087 0.00124225 -0.00226084 0.0014115 0.00147761 -0.000192563 -1.01939e-06 0.000752136 -0.000902173 -0.00196629 -1.93143e-05 0.00115255 -0.00185429 0.000277342 0.000551023 -0.0018594 -0.000598921 -0.000301841 -0.00208985 0.000268407 -0.000421725 -0.00279178 -0.00163639 -0.00316336 -0.00269818 -0.000940108
internal_weight=244331 134785 109546 84298.5 61041.4 98655.7 25247.9 73344.8 69333.3 36129.1 24565 25310.9 15954.8 19090.3 45086.6 8426.1 16802.9 12759 16884.8 23257.1 11564.1 11806 11458.1 4011.5 7607 2287.4 11799 6157.6 2073.1 3957.1
internal_count=37984 18992 18992 9496 7122 14244 9496 10176 8480 4748 2950 4068 2034 7122 5088 1356 6444 1213 2712 2374 1798 1737 1456 1696 921 678 918 2374 800 877
cat_boundaries=0 1 2 3 4 6 7 9 10 11 13
cat_threshold=5 8 8 8 3070230528 11 2 2097153026 3 1785864 1196065 0 41152
is_linear=0
shrinkage=0.03


Tree=7
num_leaves=31
num_cat=6
split_feature=73 1 72 1 83 17 1 52 74 5 76 5 5 49 17 4 57 5 1 8 44 75 28 50 58 19 57 19 4 64
split_gain=231.268 56.9189 49.8499 45.611 9.60614 8.54479 6.8592 5.84927 3.77264 3.66242 2.84861 2.63307 2.12538 2.11201 1.85394 1.39607 1.27577 1.23208 1.12489 0.98273 0.969521 0.840527 0.633312 0.564066 0.508263 0.484686 0.859506 0.658154 0.436727 0.346391
threshold=0 1 36.056549793830584 2 1.0000000180025095e-35 -0.60785761079279388 3 33.939560439560445 12.629032258064518 1810.5000000000002 4 1765.5000000000002 1837.5000000000002 42.875000000000007 -0.60785761079279388 356.50000000000006 33.500000000000007 1819.5000000000002 5 60.500000000000007 43.500000000000007 17.285166286040539 35.500000000000007 60.312500000000007 5.9077152014208032 -0.75015329512557205 17.500000000000004 -0.99866806308218525 281.50000000000006 0.15235814296241715
decision_type=1 1 2 1 2 2 1 2 2 2 1 2 2 2 2 2 2 2 1 2 2 2 2 2 2 2 2 2 2 2
left_child=1 10 6 17 13 12 28 8 -7 -9 25 24 19 -5 21 -14 -6 22 -16 -3 -13 -8 -4 -19 -12 27 -27 -1 29 -2
right_child=2 5 3 4 16 7 14 9 -10 -11 11 20 15 -15 18 -17 -18 23 -20 -21 -22 -23 -24 -25 -26 26 -28 -29 -30 -31
leaf_value=0.00067055017380727175 -0.003331640705224972 -8.3709959977039749e-05 -0.00028267883227962577 -0.0002413949460812141 -0.00071523457305047071 0.00026033414916886588 -0.0018700978267664839 0.0012517278528639878 0.001228463144625622 0.00192242595261827 -0.00053288329837694669 -0.00033674561194869788 0.0010578329363314023 0.00015531824214900004 -0.0013595327766983206 -0.0010212831713732669 -0.0013240284746309729 -0.0016316635383045973 -0.0019361928550716892 0.0005853582678638418 0.00035178029769104878 -0.0027148557989410431 -0.0020558366634433811 -0.00060770394011384486 -0.00015990064894587979 -0.00080598977734481114 -0.00011677056928404779 -0.0012714191787194923 -0.0025727247412069701 -0.0025825110319362293
leaf_weight=170.20000001788139 4020.100001886487 2437.6000005155802 185.99999979138374 25010.100002668798 7231.7999998033047 4011.5000018179417 1695.7000006660819 11617.899999976158 37662.400004327297 20053 6419.1000009104609 2168 12182 23348.199999690056 5045.2000022083521 294 5451.299999833107 11285 9231.8000030070543 10397.300002530217 12055 3117.6000011339784 11272.100000411272 514 6748.600000821054 4255.8000006750226 2639 1673.4000001624227 1370.9000004455447 766.60000037401915
leaf_count=21 1580 444 45 4043 933 1696 708 1094 6075 1311 1043 258 1506 1723 1696 42 423 881 3392 2076 1130 1326 1411 37 960 756 313 267 507 287
internal_value=-9.60482e-08 0.000831949 -0.00102381 -0.000673595 -0.00024259 0.001205 -0.00219316 0.00136916 0.00113531 0.00167663 -0.000186804 -3.62143e-05 0.000729622 -4.98589e-05 -0.00190738 0.00100845 -0.000977318 -0.00180365 -0.00173527 0.000458306 0.000246747 -0.0024195 -0.00202719 -0.00158733 -0.000341859 -0.000657958 -0.000542465 -0.00109081 -0.00306883 -0.00321449
internal_weight=244331 134785 109546 84298.5 61041.4 98655.7 25247.9 73344.8 41673.9 31670.9 36129.1 27390.7 25310.9 48358.3 19090.3 12476 12683.1 23257.1 14277 12834.9 14223 4813.3 11458.1 11799 13167.7 8738.4 6894.8 1843.6 6157.6 4786.7
internal_count=37984 18992 18992 9496 7122 14244 9496 10176 7771 2405 4748 3391 4068 5766 7122 1548 1356 2374 5088 2520 1388 2034 1456 918 2003 1357 1069 288 2374 1867
cat_boundaries=0 1 2 3 4 5 6
cat_threshold=5 8 8 8 1654784 2
is_linear=0
shrinkage=0.03


Tree=8
num_leaves=31
num_cat=3
split_feature=73 72 83 83 33 52 52 37 17 52 77 52 83 37 47 52 85 85 17 53 46 33 19 77 60 18 67 28 61 34
split_gain=217.611 46.9117 16.1336 16.0751 9.41523 8.3775 5.40068 5.38049 4.52537 3.68995 3.44797 3.32404 2.98964 2.07111 2.06506 1.74871 1.6984 1.41691 1.10174 1.04012 0.848297 0.763802 0.731821 0.72222 0.638087 0.632729 0.546354 0.521583 0.456924 0.362624
threshold=0 36.056549793830584 2.5000000000000004 1.5000000000000002 0.26272648835202767 41.159340659340664 49.560439560439569 0.30079365079365084 -0.60785761079279388 26.862637362637368 1 18.697802197802201 2.5000000000000004 0.21896404109589043 48.500000000000007 24.445054945054945 2022.9075975359344 2023.3025325119784 1.0000000180025095e-35 4.5000000000000009 10.500000000000002 0.24357284113381678 0.99700008544936913 2 7.9546400631772949 -0.97111920233974802 0.097800095648015326 38.500000000000007 2.6095064302514239 0.19378911892152145
decision_type=1 2 2 2 2 2 2 2 2 2 1 2 2 2 2 2 2 2 2 2 2 2 2 1 2 2 2 2 2 2
left_child=2 11 5 4 6 7 -3 9 21 -1 -9 19 25 -6 28 23 -10 27 -17 20 -2 -7 -21 -13 -14 -5 -19 -16 -4 -30
right_child=1 3 14 12 13 8 -8 10 16 -11 -12 15 24 -15 17 18 -18 26 -20 22 -22 -23 -24 -25 -26 -27 -28 -29 29 -31
leaf_value=0.000934083190087806 -0.0015128754265501723 -0.00041751974589015231 0.0011690116399458803 -0.0002426733932719513 -0.00056996195066664178 0.0013463112969853671 -0.00117421511445385 0.0007095832075138844 0.0012455100900130684 0.00036500520724231918 0.0011893770831083383 -0.0021632021603985347 -0.0023309595398460156 -9.2638604688511882e-06 -0.00077415325276311987 -0.0024211138863005962 0.0018879245588985156 0.0006188617824136192 -0.0017657795720689247 -0.0015291645464322193 -0.002652055844501274 0.00048038838425511042 0.00033687363374585854 -0.0029777563250010155 -0.0017396841363301416 -0.0012384788071095902 -0.00065433813863822164 -2.8934882164766389e-06 -0.0014582349949843006 -0.00075817863219020413
leaf_weight=15180.900004297495 1013.8000006601214 15868.900001510978 93.30000002682209 629.59999996423721 7491.2000003606081 1173.3000000268221 18268.80000025034 23574.800001084805 5615.8000003099442 31618.400000974536 32021.000004284084 1710.9000008329749 3268.4999997913837 28362.500000558794 1772.1000001728535 5255.7000008746982 11152 2671 4280.200000628829 6532.100003644824 1495.8000006601214 4187.2000001072884 193.10000015795231 4766.3000022619963 3537.1000002324581 6871.8999995291233 338 1419.6000000238419 855.59999997913837 3111.8000004664063
leaf_count=4068 857 2630 15 52 977 90 1572 3547 412 3800 4712 671 357 2961 220 1286 666 246 966 2625 1226 341 77 1788 321 626 36 147 146 546
internal_value=-1.09538e-07 -0.000993136 0.000806994 -0.000653399 -0.000466029 0.000901272 -0.000822578 0.00078681 0.00143063 0.000549685 0.000986349 -0.0021275 -0.00156954 -0.000126478 -0.000336181 -0.00238945 0.00167321 8.34174e-06 -0.00212805 -0.00167223 -0.00219579 0.000670999 -0.00147537 -0.00277236 -0.00202516 -0.00115512 0.000474995 -0.000431654 -0.000861631 -0.000910797
internal_weight=244331 109546 134785 84298.5 69991.4 124523 34137.7 102395 22128.3 46799.3 55595.8 25247.9 14307.1 35853.7 10261.4 16013.1 16767.8 6200.7 9535.9 9234.8 2509.6 5360.5 6725.2 6477.2 6805.6 7501.5 3009 3191.7 4060.7 3967.4
internal_count=37984 18992 18992 9496 8140 17636 4202 16127 1509 7868 8259 9496 1356 3938 1356 4711 1078 649 2252 4785 2083 431 2702 2459 678 678 282 367 707 692
cat_boundaries=0 1 3 5
cat_threshold=5 2147487591 1 0 57472
is_linear=0
shrinkage=0.03


Tree=9
num_leaves=31
num_cat=9
split_feature=76 1 1 72 15 15 62 74 54 77 1 5 63 29 62 77 5 76 5 74 5 76 5 19 50 35 48 77 5 64
split_gain=204.763 52.0044 44.4799 39.8193 8.82328 7.8266 7.69639 5.4329 3.48332 2.80272 2.10551 1.89556 1.73469 1.70592 1.6705 1.47141 1.166 1.14707 1.09594 1.03676 0.765861 0.752425 0.721829 0.754339 0.637272 0.594143 0.539006 0.503592 0.355384 0.346062
threshold=0 1 2 36.056549793830584 4.5000000000000009 4.5000000000000009 6.7069023899664124 12.629032258064518 23.500000000000004 3 4 1765.5000000000002 1.0000000180025095e-35 40.500000000000007 7.9015384659871124 5 1891.5000000000002 6 1819.5000000000002 26.049423963133645 2620.5000000000005 7 783.50000000000011 -0.72696319516528884 12.455357142857144 0.095695970695970703 56.392857142857146 8 2107.5000000000005 0.10948202054794522
decision_type=1 1 1 2 2 2 2 2 2 1 1 2 2 2 2 1 2 1 2 2 2 1 2 2 2 2 2 1 2 2
left_child=1 9 6 12 14 7 27 24 -9 22 15 21 19 -6 -5 -7 -12 -13 25 -4 -14 -11 29 -24 -3 -8 -20 28 -2 -1
right_child=2 5 3 4 13 10 18 8 -10 11 16 17 20 -15 -16 -17 -18 -19 26 -21 -22 -23 23 -25 -26 -27 -28 -29 -30 -31
leaf_value=-0.0012521607145060632 -0.0027525497060585736 0.0003518636883178495 -0.0019421507618101997 -0.00011448267992157033 -0.00049173569840071528 0.0015611847417387466 -0.00045198775561064864 0.0011814540352622972 0.0016146126270643393 2.8926945494016472e-06 0.0002583793997472321 -0.00026333626528127441 -0.0015873838692892959 -0.0011147610265464269 0.00030572377035780238 0.00074424544136876742 0.00075847255985875901 0.00042808233964561798 -0.0017355313086572517 -0.0027883232326360733 -0.00049646703082219853 -0.00050197464249222888 -0.00089175806778272939 -0.00028918655507976983 -0.00088027064127603688 -0.0019518127858506064 -0.0013220201454999672 -0.0031142378396037599 -0.0019361521937107918 -0.00054421481590786872
leaf_weight=1629 1388.3000009432435 3594.2000017911196 7397.4000038206577 33698.900002025068 7321.3000008910894 3356.5000009164214 246.49999997019768 40997.500004947186 28335.79999935627 4766.1000002920628 9063.8000018820167 2803 9447.900002732873 8633.4999994039536 11387.699999675155 5069.6000002473593 7821 9295 5137 1622.000000461936 623 6003.1000010371208 2421.9000002369285 8188.0000010207295 417.30000002682209 11031.700000338256 6662 4112.2000016570091 837 1023
leaf_count=230 580 1541 3283 4103 1234 580 31 6336 2144 691 1744 304 3243 800 985 776 968 847 414 443 153 922 377 1247 155 1419 504 1563 237 130
internal_value=-1.20118e-07 0.000782795 -0.000963387 -0.000596884 -0.000222912 0.00113938 -0.001961 0.00129648 0.00135859 -0.000190978 0.000684421 1.03251e-05 -0.00179261 -0.000829112 -8.32735e-06 0.00107187 0.000489887 0.00026798 -0.00170665 -0.00209578 -0.00152018 -0.000279102 -0.000537701 -0.00042709 0.000222754 -0.00191925 -0.00150271 -0.00288821 -0.00243957 -0.000980611
internal_weight=244331 134785 109546 80131.7 61041.4 98655.7 29414.7 73344.8 69333.3 36129.1 25310.9 22867.2 19090.3 15954.8 45086.6 8426.1 16884.8 12098 23077.2 9019.4 10070.9 10769.2 13261.9 10609.9 4011.5 11278.2 11799 6337.5 2225.3 2652
internal_count=37984 18992 18992 14244 7122 14244 4748 10176 8480 4748 4068 2764 7122 2034 5088 1356 2712 1151 2368 3726 3396 1613 1984 1624 1696 1450 918 2380 817 360
cat_boundaries=0 1 2 3 5 6 8 9 10 12
cat_threshold=2080895 8 8 3070230592 11 2 2097152010 3 1785864 819228 24576 41152
is_linear=0
shrinkage=0.03


Tree=10
num_leaves=31
num_cat=10
split_feature=73 1 1 72 15 15 62 74 5 77 1 5 15 45 29 77 5 76 5 51 6 77 30 5 76 27 50 77 5 64
split_gain=192.672 48.9334 41.8565 37.4685 8.30215 7.363 7.24529 5.11206 3.42932 2.63734 1.98187 1.78372 1.66215 1.62416 1.61569 1.39212 1.09714 1.07948 1.03117 1.01682 0.907656 0.845735 0.714838 0.679384 0.671544 0.643781 0.599938 0.473832 0.334328 0.325643
threshold=0 1 2 36.056549793830584 4.5000000000000009 4.5000000000000009 6.7069023899664124 12.629032258064518 1810.5000000000002 3 4 1765.5000000000002 4.5000000000000009 71.500000000000014 47.500000000000007 5 1891.5000000000002 6 2080.5000000000005 25.500000000000004 350.50000000000006 7 31.500000000000004 783.50000000000011 8 53.500000000000007 12.455357142857144 9 2107.5000000000005 0.10948202054794522
decision_type=1 1 1 2 2 2 2 2 2 1 1 2 2 2 2 1 2 1 2 2 2 1 2 2 1 2 2 1 2 2
left_child=1 9 6 12 13 7 27 26 -9 23 15 22 19 -5 -6 -7 -12 -13 25 -4 -20 -14 -11 29 -25 -8 -3 28 -2 -1
right_child=2 5 3 4 14 10 18 8 -10 11 16 17 21 -15 -16 -17 -18 -19 20 -21 -22 -23 -24 24 -26 -27 -28 -29 -30 -31
leaf_value=-0.0012147108223084064 -0.0026702695375254992 0.00034132243069768782 -0.0014141684901084113 -0.00013388289073070368 -0.00055116066568272799 0.0016152711428323284 -0.0016154952430663747 0.0010982408350981598 0.0015210849808899572 0.00013849080537970567 0.00025063228761144826 -0.00025547823722615063 -0.0018005400213007316 0.00024957063937753254 -0.0011650400337736601 0.00077579327085027373 0.00073573291025125621 0.00041526056452688442 -0.0014605191512344618 -0.0019794160869671422 8.2036402465692207e-06 -0.0026556714040249806 -0.00041659502999640794 -0.00063882359181592326 -0.00015963716718909155 -0.002021125192829439 -0.00085417518009443295 -0.0030211502395619222 -0.0018784125533061113 -0.00052796774847317012
leaf_weight=1629 1388.3000009432435 3594.2000017911196 10229.400004558265 30295.900001473725 9384.3000007420778 2626.1000006347895 7551.5000005289912 33342.300004303455 35991 2829.6000002324581 9063.8000018820167 2803 2502.4000010639429 14790.700000226498 6570.4999995529652 5800.0000005289912 7821 9295 8181 4047.6000006571412 397 2310.9000007361174 7939.6000010967255 5617.8000006228685 4992.1000006347895 6947.6999997794628 417.30000002682209 4112.2000016570091 837 1023
leaf_count=230 580 1541 4207 4070 1465 460 910 5175 3305 538 1744 304 1047 1018 569 896 968 847 631 881 26 987 1075 885 739 801 155 1563 237 130
internal_value=-1.29719e-07 0.000759318 -0.000934523 -0.000578993 -0.000216228 0.00110521 -0.00190227 0.00125759 0.00131783 -0.000185265 0.000663935 1.00088e-05 -0.00173888 -8.07689e-06 -0.000804254 0.00103983 0.0004752 0.000259947 -0.00165549 -0.00157506 -0.00139258 -0.00222267 -0.00027075 -0.000521603 -0.000414294 -0.00181049 0.000216051 -0.00280189 -0.0023667 -0.000951294
internal_weight=244331 134785 109546 80131.7 61041.4 98655.7 29414.7 73344.8 69333.3 36129.1 25310.9 22867.2 19090.3 45086.6 15954.8 8426.1 16884.8 12098 23077.2 14277 8578 4813.3 10769.2 13261.9 10609.9 14499.2 4011.5 6337.5 2225.3 2652
internal_count=37984 18992 18992 14244 7122 14244 4748 10176 8480 4748 4068 2764 7122 5088 2034 1356 2712 1151 2368 5088 657 2034 1613 1984 1624 1711 1696 2380 817 360
cat_boundaries=0 1 2 3 5 6 8 9 11 12 14
cat_threshold=5 8 8 3070230592 11 2 2080374786 3 1785864 0 49616 1622088 24576 41152
is_linear=0
shrinkage=0.03


Tree=11
num_leaves=31
num_cat=1
split_feature=73 72 83 83 33 62 37 52 34 52 52 83 36 17 47 52 5 5 17 8 61 27 79 12 18 60 67 28 61 34
split_gain=181.297 39.1142 13.625 13.5604 8.07343 7.37878 5.00501 4.39586 3.13889 2.8967 2.85897 2.56781 2.46658 2.33605 1.80408 1.46373 1.23696 1.18357 1.0017 0.964461 0.884153 0.83884 0.672861 0.667687 0.593451 0.586826 0.514117 0.494594 0.434539 0.341317
threshold=0 36.056549793830584 1.5000000000000002 2.5000000000000004 0.26272648835202767 7.1021158002420828 0.3024785801713587 49.560439560439569 0.34514106583072107 26.862637362637368 18.697802197802201 2.5000000000000004 0.24357284113381678 -0.60785761079279388 48.500000000000007 24.445054945054945 1936.5000000000002 793.50000000000011 1.0000000180025095e-35 148.50000000000003 3.5321651258385938 9.5000000000000018 48.750000000000007 1.010989010989009 -0.97111920233974802 7.9546400631772949 0.097800095648015326 38.500000000000007 2.6095064302514239 0.19378911892152145
decision_type=1 2 2 2 2 2 2 2 2 2 2 2 2 2 2 2 2 2 2 2 2 2 2 2 2 2 2 2 2 2
left_child=3 10 4 5 7 6 9 -3 -8 -1 19 24 -6 20 28 22 27 -15 -17 21 -7 -2 -12 -21 -4 -13 -18 -16 -5 -30
right_child=1 2 11 14 12 13 8 -9 -10 -11 15 25 -14 17 16 18 26 -19 -20 23 -22 -23 -24 -25 -26 -27 -28 -29 29 -31
leaf_value=0.00085432143702880248 -0.0018679966660402926 -0.00038853902339860502 -0.00017263706156457937 0.0011768258539240446 -0.00047186717274492866 0.0028028993355811126 0.00073422375346976747 -0.0010712292604409738 0.0011744018399566123 0.00035491633559800283 -0.0022024545387991563 -0.0021549045354902585 6.1386886080521536e-05 0.00051020968988818192 -0.00073412247045409422 -0.0022253398717012591 0.00058609292295869989 0.0017127421438215616 -0.0016010277548484041 -0.0019571523742199569 0.00065986381744995702 -0.00091801778229512595 -0.0028304533977534037 -0.0010209394571718947 -0.0011364285686356914 -0.0015886664195617435 -0.00064888778295701922 1.6850045625027725e-05 -0.0013815139164939938 -0.00070264799353111896
leaf_weight=15153.200004041195 1162.3000006973743 15868.900001510978 629.59999996423721 93.30000002682209 11479.699999906123 177.99999988079071 34807.200003437698 18268.80000025034 25146.900002419949 33724.200001135468 3061.2000010237098 3268.4999997913837 24374.000001013279 793.89999997615814 1772.1000001728535 5255.7000008746982 2671 11225.700000196695 4280.200000628829 4185.100002259016 3494.2999999970198 3046.1000016629696 3416.0000020712614 841.30000050365925 6871.8999995291233 3537.1000002324581 338 1419.6000000238419 855.59999997913837 3111.8000004664063
leaf_count=4031 924 2630 52 15 1418 22 5067 1572 3268 3838 1129 357 2520 66 220 1286 246 982 966 2230 362 1238 1330 393 626 321 36 147 146 546
internal_value=-1.44692e-07 -0.000906538 -0.000596318 0.000736546 -0.000423818 0.000822979 0.000735226 -0.000753984 0.000918933 0.000509816 -0.00194235 -0.00143976 -0.000109393 0.00143117 -0.000311507 -0.00218526 1.05084e-05 0.00163356 -0.0019461 -0.00152018 0.000767409 -0.00118229 -0.00253558 -0.00180162 -0.00105571 -0.00186199 0.000446522 -0.000400602 -0.000802632 -0.000850605
internal_weight=244331 109546 84298.5 134785 69991.4 124523 108832 34137.7 59954.1 48877.4 25247.9 14307.1 35853.7 15691.9 10261.4 16013.1 6200.7 12019.6 9535.9 9234.8 3672.3 4208.4 6477.2 5026.4 7501.5 6805.6 3009 3191.7 4060.7 3967.4
internal_count=37984 18992 9496 18992 8140 17636 16204 4202 8335 7869 9496 1356 3938 1432 1356 4711 649 1048 2252 4785 384 2162 2459 2623 678 678 282 367 707 692
cat_boundaries=0 1
cat_threshold=5
is_linear=0
shrinkage=0.03


Tree=12
num_leaves=31
num_cat=1
split_feature=73 72 74 52 74 15 74 34 36 15 33 57 74 37 74 63 5 5 27 11 5 33 47 80 5 20 7 34 5 5
split_gain=170.591 36.8067 15.0421 9.31972 9.60635 8.59918 6.50338 5.65746 4.78544 4.3483 3.84136 3.72276 3.34161 3.07967 2.07416 1.70609 1.60853 1.11547 1.06071 1.0567 1.02769 1.18601 0.909443 0.902317 0.825954 0.765496 0.654142 0.615007 0.45685 0.404906
threshold=0 36.056549793830584 54.913824884792632 40.796703296703306 27.131048387096779 4.5000000000000009 12.629032258064518 0.34514106583072107 0.24025316455696205 4.5000000000000009 0.36435786435786438 33.500000000000007 19.601305683563751 0.25658350658350665 24.339132104454688 1.0000000180025095e-35 1792.5000000000002 2080.5000000000005 10.500000000000002 186.50000000000003 1585.5000000000002 0.28035087719298252 69.500000000000014 -23.849999999999998 2017.5000000000002 1.0000000180025095e-35 16.500000000000004 0.24357284113381678 2566.5000000000005 1864.5000000000002
decision_type=1 2 2 2 2 2 2 2 2 2 2 2 2 2 2 2 2 2 2 2 2 2 2 2 2 2 2 2 2 2
left_child=3 12 5 4 6 8 24 10 -3 16 -6 -7 18 -9 29 -16 25 -4 28 -20 21 -11 -18 -8 -1 -5 -19 -22 -2 -14
right_child=1 2 17 9 7 11 23 13 -10 20 -12 -13 14 -15 15 -17 22 26 19 -21 27 -23 -24 -25 -26 -27 -28 -29 -30 -31
leaf_value=-0.00018232624066644249 -0.0020405369448592372 -0.00063620069289833459 -0.0017760718875396663 0.0011844005105351139 9.0522333632010702e-05 -0.00059809106882508726 -0.0015806092396378516 0.00018609380972149514 -2.5211998195632234e-05 0.00072302581097028233 0.00069734373710219233 -0.001442587849163754 -0.0028714379906358591 0.00096941480445559094 -0.0022931521814586161 -0.0015055019427314942 0.0018182588690721887 0.00023828249470606236 -0.0016103248713035664 -0.0008544848877151557 -0.00019744652469775507 -0.00081369337200086521 0.0010843029922681751 0.0012181167714564779 0.00055061474514799826 -0.00033171711260399984 -0.0012631838704164722 0.00094035384954243803 -0.00074699478588640051 -0.0023371080677153152
leaf_weight=3532.7000027224422 2667.600001513958 16910.000000491738 7848.4999997615814 6573.8000005483627 39616.60000090301 10979.100000396371 100 5923.3000011146069 36289.100001595914 881.00000004470348 12300.600000590086 8223.7999999523163 2943.800002515316 19060.800000116229 4938.6000019162893 5068.900001116097 9463 279 3351.2000014707446 3350.8000011891127 485 917.80000013113022 1843 27998.200005583465 2268 312 3769 3509 279 2648
leaf_count=1654 2076 2108 871 496 5106 1683 26 775 3845 77 1431 695 1377 2246 1428 1132 561 17 1297 1214 43 97 114 5359 720 24 277 263 161 811
internal_value=-1.49211e-07 -0.000879372 -0.000578441 0.000714457 0.000598397 -0.000415935 0.00101911 0.000412889 -0.000219464 0.00125068 0.000234348 -0.000960035 -0.00188416 0.000783777 -0.002156 -0.00189515 0.0014786 -0.00156686 -0.00144379 -0.00123335 0.000534234 -6.1135e-05 0.00169915 0.00120788 0.000104472 0.00111551 -0.00115953 0.000802114 -0.00191953 -0.00262072
internal_weight=244331 109546 84298.5 134785 110800 72402 33898.9 76901.3 53199.1 23984.6 51917.2 19202.9 25247.9 24984.1 15599.3 10007.5 18191.8 11896.5 9648.6 6702 5792.8 1798.8 11306 28098.2 5800.7 6885.8 4048 3994 2946.6 5591.8
internal_count=37984 18992 9496 18992 17317 8331 7759 9558 5953 1675 6537 2378 9496 3021 4748 2560 1195 1165 4748 2511 480 174 675 5385 2374 520 294 306 2237 2188
cat_boundaries=0 1
cat_threshold=5
is_linear=0
shrinkage=0.03


Tree=13
num_leaves=31
num_cat=1
split_feature=73 72 74 83 83 62 74 74 34 74 74 83 15 74 47 63 8 5 5 5 27 61 53 7 67 34 19 5 35 34
split_gain=160.516 34.6355 14.1538 12.3931 10.3834 6.65303 4.89674 6.12505 4.63985 3.14417 2.91828 2.08213 2.01774 1.95204 1.6885 1.60537 1.26713 1.24433 1.15407 1.04954 1.01705 0.803477 0.634095 0.615632 0.485855 0.482673 0.424512 0.380994 0.349218 0.308673
threshold=0 36.056549793830584 54.913824884792632 2.5000000000000004 1.5000000000000002 7.0732345569614647 27.131048387096779 12.629032258064518 0.32373653686826848 19.601305683563751 52.612615207373274 2.5000000000000004 4.5000000000000009 24.339132104454688 48.500000000000007 1.0000000180025095e-35 148.50000000000003 793.50000000000011 1936.5000000000002 2080.5000000000005 9.5000000000000018 3.5321651258385938 4.5000000000000009 16.500000000000004 0.097800095648015326 0.34960317460317464 -0.99763297024448894 1864.5000000000002 0.10084745762711866 0.19378911892152145
decision_type=1 2 2 2 2 2 2 2 2 2 2 2 2 2 2 2 2 2 2 2 2 2 2 2 2 2 2 2 2 2
left_child=3 9 4 5 10 6 7 -1 -8 16 -3 -6 17 27 26 -15 20 -7 25 28 -2 -14 -18 -21 -20 -16 -5 -11 -4 -28
right_child=1 2 19 14 11 12 8 -9 -10 13 -12 -13 21 15 18 -17 22 -19 24 23 -22 -23 -24 -25 -26 -27 29 -29 -30 -31
leaf_value=0.00010134711646425315 -0.0017630847528167183 -0.00038005316183210413 -0.00045760195796580664 0.0010721820051972377 -0.00098773228419012874 0.00045532295289812805 0.00033674439919320008 0.0011722413994182954 0.00081320083028133124 -0.0027854409123747514 8.2903520799785271e-05 -0.0018983349490161554 0.0026151447092910727 -0.0022244272011015132 -0.00025057747785426325 -0.0014603813835354193 -0.0022896755356089748 0.0016055035152179385 0.00055949025234048808 0.00023125989421624951 -0.00072411238824586879 0.0006352702405074905 -0.0015196700777887124 -0.0012253385720499134 -0.00064100551913300952 -0.0013426370982529729 -0.0013377470656730994 -0.0022671269484478549 -0.0017548584237473434 -0.0006925236881188539
leaf_weight=5800.7000027224422 1172.300000667572 44784.700003795326 195.69999992847443 103.90000000596046 7501.4999994933605 917.89999997615814 40442.80000140518 28078.300005458295 33756.700001507998 2943.800002515316 16867.699999094009 3248.1000000536442 189.99999988079071 4938.6000019162893 2776.7000001966953 5068.900001116097 1295.2000006809831 11670.100000113249 2671 279 3087.7000011280179 3666.9000000208616 4093.4000016972423 3769 338 415 858.69999995827675 2648 7652.799999833107 3098.1000005081296
leaf_count=2374 926 6059 18 16 678 77 4776 5357 3626 1377 1250 344 23 1428 317 1132 1099 1025 246 17 1148 378 1575 277 36 50 147 811 853 544
internal_value=-1.52966e-07 -0.000853017 -0.000561098 0.000693031 -0.000403463 0.00077566 0.000690063 0.000988927 0.000553546 -0.00182772 -0.000253395 -0.00126363 0.00133783 -0.0020914 -0.000308894 -0.00183835 -0.00140055 0.00152185 2.64145e-06 -0.00151989 -0.00101176 0.000736063 -0.0017067 -0.00112478 0.000423799 -0.00039445 -0.000784028 -0.00254224 -0.00172282 -0.000834061
internal_weight=244331 109546 84298.5 134785 72402 124523 108079 33879 74199.5 25247.9 61652.4 10749.6 16444.9 15599.3 10261.4 10007.5 9648.6 12588 6200.7 11896.5 4260 3856.9 5388.6 4048 3009 3191.7 4060.7 5591.8 7848.5 3956.8
internal_count=37984 18992 9496 18992 8331 17636 16133 7731 8402 9496 7309 1022 1503 4748 1356 2560 4748 1102 649 1165 2074 401 2674 294 282 367 707 2188 871 691
cat_boundaries=0 1
cat_threshold=5
is_linear=0
shrinkage=0.03


Tree=14
num_leaves=31
num_cat=8
split_feature=73 1 1 76 76 76 62 74 54 84 76 84 18 62 6 82 50 2 1 84 2 52 66 13 59 7 50 4 70 41
split_gain=151.036 42.1731 35.2526 30.1643 6.65685 6.62661 5.4733 4.69321 2.87384 2.23549 2.07039 1.80361 1.61572 1.48641 1.2458 1.03515 0.866701 0.840215 0.835745 0.831394 0.781044 0.569182 0.553832 0.523717 0.511307 0.491643 0.476882 0.339773 0.325595 0.316086
threshold=0 1 2 3 4 5 6.7069023899664124 12.629032258064518 23.500000000000004 2022.5000000000002 6 2022.5000000000002 0.9989598388634241 7.278549948615777 104.50000000000001 36.500000000000007 37.955357142857146 3.4364900000000005 7 2022.5000000000002 6.0169035714285721 12.302197802197805 0.062895569620253181 -5.5714285714285738 5.460233826081585 36.500000000000007 32.830357142857146 281.50000000000006 0.068337484433374854 0.018000000000000006
decision_type=1 1 1 1 1 1 2 2 2 2 1 2 2 2 2 2 2 2 1 2 2 2 2 2 2 2 2 2 2 2
left_child=1 10 6 13 18 9 27 21 -9 17 25 24 -11 15 -6 -4 -13 -3 -5 23 -15 -7 -21 -8 -12 28 -27 -2 -1 -29
right_child=2 5 3 4 14 7 19 8 -10 12 11 16 -14 20 -16 -17 -18 -19 -20 22 -22 -23 -24 -25 -26 26 -28 29 -30 -31
leaf_value=-0.0012419033703259452 -0.002616817143315203 0.0005293992735026352 -2.5119939667216346e-05 -0.00058338525997401081 -0.0020438231620832767 0.00029178132016247023 -0.00010461058011016058 0.0010705465698254274 0.0014935701009508937 0.0009381958130322797 -0.00063221414239401279 0.0001214637538275898 -0.0012336473739816851 0.00021726650297395798 -0.0014475297460519534 -0.00046561913310242406 0.00083219978987944586 3.6318977627043982e-05 -0.00098716495164579104 -0.0014717760908176964 -0.0007946317622355033 -0.00093979900662292655 -0.001033676222625272 -0.0017113274577364248 -0.00017765876917127287 -0.00039357472376677535 -0.0011443839252176808 -0.0023738599469538936 0.00025450235294651304 -0.0013665204774513647
leaf_weight=1117.2000000551343 4966.6000021547079 12982.300002753735 15778.800000973046 9869.4000013023615 4358.9000011757016 3644.2000017911196 186.30000007152557 36693.700004801154 23956.499999403954 16611 2977.200000166893 9408 310 21707.100000008941 11849.700005017221 6896.6000006943941 1843 4090.7000003904104 8967.0999998152256 7707 704.10000002384186 367.30000002682209 4015 11168.900000236928 8824.0000011771917 10998.300001196563 815 932.20000035315752 146.3999999910593 438.7000000923872
leaf_count=167 1873 2535 2252 2034 1620 1552 42 5629 1831 1920 435 883 39 1789 4485 989 159 594 1017 607 58 144 305 1414 1236 1727 116 369 25 138
internal_value=-1.58395e-07 0.000672246 -0.000827456 -0.000501187 -0.00116121 0.000993359 -0.00171557 0.00117184 0.00123775 0.000653494 -0.000204649 -3.34976e-05 0.000898054 1.2058e-05 -0.00160748 -0.000159168 0.000238206 0.000411302 -0.000776237 -0.00150107 0.000185305 0.000177986 -0.00132222 -0.00168502 -0.000292553 -0.000505973 -0.000445835 -0.00249758 -0.00106821 -0.00205764
internal_weight=244331 134785 109546 80131.7 35045.1 98655.7 29414.7 64661.7 60650.2 33994 36129.1 23052.2 16921 45086.6 16208.6 22675.4 11251 17073 18836.5 23077.2 22411.2 4011.5 11722 11355.2 11801.2 13076.9 11813.3 6337.5 1263.6 1370.9
internal_count=37984 18992 18992 14244 9156 14244 4748 9156 7460 5088 4748 2713 1959 5088 6105 3241 1042 3129 3051 2368 1847 1696 912 1456 1671 2035 1843 2380 192 507
cat_boundaries=0 1 2 3 4 5 6 7 8
cat_threshold=5 8 8 3968 16789504 1572961 1818624 3
is_linear=0
shrinkage=0.03


Tree=15
num_leaves=31
num_cat=12
split_feature=73 1 1 76 77 76 77 74 52 77 5 17 5 62 4 77 77 5 80 76 30 27 76 5 55 37 46 64 78 64
split_gain=142.116 39.6816 33.1713 28.3831 6.2959 6.23506 5.23209 4.4161 2.62375 2.29388 2.28368 1.51077 1.50929 1.42113 1.50179 1.33317 1.18969 1.09791 1.0184 0.940115 0.666561 0.633378 0.629905 0.626604 0.650058 0.54929 0.514905 0.339238 0.311117 0.293361
threshold=0 1 2 3 4 5 6 12.629032258064518 34.41208791208792 7 1837.5000000000002 -0.8783796973249266 1765.5000000000002 7.9015384659871124 253.50000000000003 8 9 1819.5000000000002 73.15000000000002 10 31.500000000000004 65.500000000000014 11 783.50000000000011 25.500000000000004 0.40967365967365971 73.500000000000014 0.15235814296241715 0.78661417322834659 0.10948202054794522
decision_type=1 1 1 1 1 1 1 2 2 1 2 2 2 2 2 1 1 2 2 1 2 2 1 2 2 2 2 2 2 2
left_child=1 9 6 13 11 10 27 25 -9 23 16 -5 20 14 -4 -12 -3 22 -6 -14 -11 -15 -8 29 -25 -7 -19 28 -2 -1
right_child=2 5 3 4 18 7 17 8 -10 12 15 -13 19 21 -16 -17 -18 26 -20 -21 -22 -23 -24 24 -26 -27 -28 -29 -30 -31
leaf_value=-0.0011749600338085008 -0.0026835311075758509 0.00080891503783021249 3.8368922082230004e-05 -0.0022873555534233697 -0.00074594648297321106 2.7422454844060852e-05 -0.0013139003414681374 0.0010323395922242809 0.0014326908240969557 0.0001205500580926393 0.0011685992518276995 -0.0014265791965691313 -0.00026733083223310652 0.00024308138643125191 -0.00040808300078504976 0.00062805668400470302 0.00024269650313644861 -0.0013617417256530449 0.0016268936757675213 0.00035849400213471764 -0.00041547971308360845 0.0011620908510407287 -0.0018241450242916157 -0.00045262939683488127 0.00085407154297482372 0.0010205381780059692 -0.00082181113017671943 -0.0019528565850316054 -0.00029960534851933897 -0.00052290058287779223
leaf_weight=1629 4245.9000020027161 4530.8000017479062 24298.000001303852 2098.7000008821487 17388.500001206994 3429.4000015482306 3399.8000002205372 35172.500004157424 25477.700000047684 2829.6000002324581 7875 15398.100005328655 2803 10671.599999651313 9400.9000007212162 8844 12744.200001396239 10353 159.79999989271164 9295 7939.6000010967255 716.10000002384186 8644.5000002533197 10259.900001257658 350 582.10000026971102 1912 808.30000042915344 51.200000002980232 1023
leaf_count=230 1678 1059 2951 927 2646 1466 416 5529 1931 538 870 5565 304 944 1152 1065 2094 906 18 847 1075 41 1283 1597 27 230 142 308 15 130
internal_value=-1.66011e-07 0.000652078 -0.00080266 -0.000486169 -0.00112641 0.000963561 -0.00166416 0.00113669 0.00120062 -0.000198519 0.00063389 -0.00152958 -1.63825e-05 1.16927e-05 -8.62187e-05 0.000884011 0.000392001 -0.00147849 -0.000723469 0.000213521 -0.000274648 0.000301357 -0.00168333 -0.0005122 -0.000409142 0.000172622 -0.00127794 -0.00254131 -0.00265551 -0.000924888
internal_weight=244331 134785 109546 80131.7 35045.1 98655.7 29414.7 64661.7 60650.2 36129.1 33994 17496.8 22867.2 45086.6 33698.9 16719 17275 24309.3 17548.3 12098 10769.2 11387.7 12044.3 13261.9 10609.9 4011.5 12265 5105.4 4297.1 2652
internal_count=37984 18992 18992 14244 9156 14244 4748 9156 7460 4748 5088 6492 2764 5088 4103 1935 3153 2747 2664 1151 1613 985 1699 1984 1624 1696 1048 2001 1693 360
cat_boundaries=0 1 2 3 4 6 7 9 11 13 15 16 17
cat_threshold=5 8 8 3968 0 65392 1572961 0 24560 3070230592 11 1677723179 2 2080374804 6 1785864 2176
is_linear=0
shrinkage=0.03


Tree=16
num_leaves=31
num_cat=14
split_feature=73 1 1 76 76 76 77 74 77 77 84 18 45 49 77 77 77 0 8 55 84 76 76 57 80 31 50 6 19 35
split_gain=133.724 37.338 31.2153 26.7065 5.96103 5.86585 4.92358 4.15484 2.58108 2.15844 1.97646 1.50752 1.36946 1.16565 1.09942 1.08617 1.04186 1.03422 1.03672 1.00572 0.989033 0.930369 0.603755 0.588199 0.825634 0.635549 0.535488 0.518662 0.322941 0.342263
threshold=0 1 2 3 4 5 6 12.629032258064518 7 8 2022.5000000000002 0.9989598388634241 71.500000000000014 25.660714285714288 9 10 11 76.500000000000014 142.50000000000003 40.500000000000007 2022.5000000000002 12 13 20.500000000000004 7.3500000000000005 38.500000000000007 12.455357142857144 349.50000000000006 0.99700008544936913 0.15655637254901963
decision_type=1 1 1 1 1 1 1 2 1 1 2 2 2 2 1 1 1 2 2 2 2 1 1 2 2 2 2 2 2 2
left_child=1 9 6 12 16 10 28 26 -9 23 15 -12 14 -6 -4 -3 -5 21 -19 -14 22 -11 -8 25 -25 -1 -7 -22 -2 -30
right_child=2 5 3 4 13 7 20 8 -10 17 11 -13 19 -15 -16 -17 -18 18 -20 -21 27 -23 -24 24 -26 -27 -28 -29 29 -31
leaf_value=-0.00067084706319960237 -0.0025144998025246109 0.00078472768963906009 7.3997496400833528e-05 -0.001139909851063711 -0.0013567920277541301 0.00028587138012120365 -0.0012672695132467317 0.0014195872667487595 0.0010120858396926093 -0.0006955699194021275 0.00088364513228818135 -0.0012140674762250411 0.0004606872788684375 -0.0019277113278127554 -0.00028735362231637325 0.0002424977365371867 -0.00060547045510822713 0.0023836076281889356 0.00035390717712033894 -3.958210185247377e-05 -0.0012875766027133182 -4.5576548062010307e-06 -0.0017642974650357288 0.0014762670749231524 -0.00027039328464017115 5.4713809488176119e-05 -0.00084350818374422673 -0.00039027342295267387 -0.0024647858457893181 0.00019364559604660099
leaf_weight=9700.2000011503696 4937.4000023901463 4530.8000017479062 15365.200000755489 4302.2000007480383 11708.300005599856 3594.2000017911196 3423.8000002205372 22625.500002741814 38024.700001463294 1910.9000003635883 16611 310 8498.7000002264977 4500.3000005930662 14930.700000718236 12542.200001396239 14534.300000369549 283.89999997615814 1059.7000001072884 6292 11555 19612.700000882149 8714.5000002533197 271 2068 1222.7000001072884 417.30000002682209 616 81.400000028312206 86.600000016391277
leaf_count=1589 1938 1059 2079 918 5091 1541 418 2808 4652 308 1920 39 645 1014 1991 2070 2133 27 101 373 993 2328 1293 29 215 151 155 43 37 26
internal_value=-1.65691e-07 0.000632528 -0.000778605 -0.000471587 -0.00109263 0.000934673 -0.00161432 0.0011026 0.00116461 -0.000192569 0.000614911 0.000844867 1.13453e-05 -0.00151492 -0.000104175 0.000387183 -0.000728345 -1.58912e-05 0.000790026 0.00024793 -0.00143421 -6.63793e-05 -0.00162718 -0.000496849 -6.53053e-05 -0.000589641 0.000167483 -0.00124234 -0.00246521 -0.00112844
internal_weight=244331 134785 109546 80131.7 35045.1 98655.7 29414.7 64661.7 60650.2 36129.1 33994 16921 45086.6 16208.6 30295.9 17073 18836.5 22867.2 1343.6 14790.7 24309.3 21523.6 12138.3 13261.9 2339 10922.9 4011.5 12171 5105.4 168
internal_count=37984 18992 18992 14244 9156 14244 4748 9156 7460 4748 5088 1959 5088 6105 4070 3129 3051 2764 128 1018 2747 2636 1711 1984 244 1740 1696 1036 2001 63
cat_boundaries=0 1 2 3 4 5 6 8 9 11 12 14 16 17 18
cat_threshold=5 8 8 3968 16789504 1572961 0 24560 2063598120 3070230592 11 974848 2080374804 6 8396800 55888 1720320 2176
is_linear=0
shrinkage=0.03


Tree=17
num_leaves=31
num_cat=7
split_feature=73 1 1 76 76 15 43 52 5 52 5 76 1 63 45 2 8 5 5 51 2 59 44 43 5 5 50 64 82 30
split_gain=125.829 35.1319 29.3738 25.1298 5.60857 5.56008 4.60907 3.967 2.7848 2.01052 1.82111 1.77423 1.73311 1.37166 1.28858 1.14005 1.03651 1.00107 0.810166 0.778006 0.776506 0.76918 0.732635 0.727921 0.705951 0.582347 0.509648 0.341359 0.283138 0.280045
threshold=0 1 2 3 4 4.5000000000000009 57.500000000000007 33.939560439560445 1810.5000000000002 13.423076923076925 1765.5000000000002 5 6 1.0000000180025095e-35 71.500000000000014 5.354050714285715 250.50000000000003 2341.5000000000005 1891.5000000000002 65.071428571428584 3.4364900000000005 5.5112919197171211 58.500000000000007 69.500000000000014 2269.5000000000005 633.50000000000011 40.866071428571438 0.15047169811320757 41.500000000000007 27.500000000000004
decision_type=1 1 1 1 1 2 2 2 2 2 2 1 1 2 2 2 2 2 2 2 2 2 2 2 2 2 2 2 2 2
left_child=1 10 6 14 17 7 27 9 -9 -3 21 22 15 -6 16 -7 -4 -5 -14 24 -13 26 -12 -16 -8 -23 -1 28 -2 -29
right_child=2 5 3 4 13 12 19 8 -10 -11 11 20 18 -15 23 -17 -18 -19 -20 -21 -22 25 -24 -25 -26 -27 -28 29 -30 -31
leaf_value=-0.00072617851058650446 -0.0024834361126059678 0.00022003222147471335 1.159154183996156e-05 -0.00082366356326569849 -0.001746668391191064 0.00097801448522583036 -0.0014909486532108602 0.00092192549374993838 0.0015064977527926018 0.00091584541925458644 0.00035533038376727035 -0.000424495543887651 0.00015399436219092196 -0.0011924746626197408 0.00051327052184488189 -0.0003102245542248829 -0.00037435315615800857 -0.00029679012859034146 0.00057078638786338821 1.061489228564112e-05 0.00020128558139169688 -0.00056735045254110539 -0.0013821303392095225 7.8120759494569128e-05 -0.0011094978265094979 -0.00010960890129951716 0.0010046766757452271 -0.001952036840926521 -0.0019164855943397932 -0.00051183968052162358
leaf_weight=5896.7000009343028 4357.8000016063452 4154.9000027999282 21456.90000089258 14658.500001117587 8115.5000037923455 7756.6000010892749 16564.200000375509 11617.899999976158 20053 37519.000003345311 9040 7189 9063.8000018820167 8093.1000024005771 5515.1000000238419 669.50000007450581 8839.0000005811453 4178 7821 363 2370 3747 219 9275.6000002026558 6047 7514.4000016525388 153 838.10000037401915 1097.6000004857779 147.00000006705523
leaf_count=1045 1711 1927 2907 2541 3381 1254 1766 1094 1311 5844 809 832 1744 2724 425 102 1163 510 968 25 279 406 24 593 455 1341 12 318 419 54
internal_value=-1.69059e-07 0.000613564 -0.00075528 -0.000457456 -0.00105989 0.000906647 -0.00156597 0.00103905 0.00129224 0.000846507 -0.000186787 1.74573e-05 0.000523198 -0.0014695 1.10043e-05 0.000874496 -0.000101053 -0.000706536 0.000346958 -0.00136709 -0.000269038 -0.000408859 0.000313173 0.000240496 -0.0013892 -0.000262097 -0.000681611 -0.00227623 -0.00237123 -0.0017408
internal_weight=244331 134785 109546 80131.7 35045.1 98655.7 29414.7 73344.8 31670.9 41673.9 36129.1 18818 25310.9 16208.6 45086.6 8426.1 30295.9 18836.5 16884.8 22974.2 9559 17311.1 9259 14790.7 22611.2 11261.4 6049.7 6440.5 5455.4 985.1
internal_count=37984 18992 18992 14244 9156 14244 4748 10176 2405 7771 4748 1944 4068 6105 5088 1356 4070 3051 2712 2246 1111 2804 833 1018 2221 1747 1057 2502 2130 372
cat_boundaries=0 1 2 3 4 5 6 7
cat_threshold=5 8 8 3968 16789504 119 2
is_linear=0
shrinkage=0.03


Tree=18
num_leaves=31
num_cat=12
split_feature=76 1 1 76 77 76 77 74 77 77 84 18 17 62 4 77 0 4 80 84 76 27 76 57 79 31 81 13 19 35
split_gain=118.396 33.0565 27.6399 23.6454 5.35016 5.26222 4.38188 3.70178 2.41879 1.96039 1.7847 1.40472 1.36935 1.23792 1.31022 1.03046 0.962821 0.973729 0.953444 0.896871 0.85434 0.597749 0.570068 0.544467 0.91296 0.589322 0.520277 0.486554 0.30356 0.32332
threshold=0 1 2 3 4 5 6 12.629032258064518 7 8 2022.5000000000002 0.9989598388634241 -0.8783796973249266 7.9015384659871124 253.50000000000003 9 76.500000000000014 136.50000000000003 73.15000000000002 2022.5000000000002 10 65.500000000000014 11 20.500000000000004 14.750000000000002 38.500000000000007 33.150000000000013 6.482142857142855 0.99700008544936913 0.15655637254901963
decision_type=1 1 1 1 1 1 1 2 1 1 2 2 2 2 2 1 2 2 2 2 1 2 1 2 2 2 2 2 2 2
left_child=1 9 6 13 12 10 28 26 -9 23 15 -12 -5 14 -4 -3 20 -18 -6 22 -11 -15 -8 25 -25 -1 -7 -21 -2 -30
right_child=2 5 3 4 18 7 19 8 -10 16 11 -13 -14 21 -16 -17 17 -19 -20 27 -22 -23 -24 24 -26 -27 -28 -29 29 -31
leaf_value=-0.00063864159344215296 -0.0023693288922073215 0.00074738134560327146 3.5662614686759112e-05 -0.0021209342521528668 -0.00067841946972132801 0.00010251025960364859 -0.0011843683364794397 0.0013437845587722984 0.00094945272233413396 -0.00066446242642583442 0.00083254934957402947 -0.0011922470022525107 -0.0013017040809593173 0.00022441830223606432 -0.00038134313482917861 0.00021932701105654482 0.0023476486791115612 0.0003523108077429488 0.0016171126008543005 -0.0011944596737032257 -2.2893236176947833e-06 0.0011171773805983927 -0.0016657551972023776 0.0017886205384992572 -0.00024551941589517911 6.0006885445114251e-05 0.0023473148866623148 0.00011528364632208391 -0.0023282770732445768 0.0002524982776582919
leaf_weight=9700.2000011503696 4937.4000023901463 4530.8000017479062 24298.000001303852 2098.7000008821487 17388.500001206994 3921.3000017553568 3423.8000002205372 22625.500002741814 38024.700001463294 1910.9000003635883 16611 310 15398.100005328655 10671.599999651313 9400.9000007212162 12542.200001396239 272.89999997615814 1070.7000001072884 159.79999989271164 11911 19612.700000882149 716.10000002384186 8714.5000002533197 214 2125 1222.7000001072884 90.200000062584877 260 81.400000028312206 86.600000016391277
leaf_count=1589 1938 1059 2951 927 2646 1661 418 2808 4652 308 1920 39 5565 944 1152 2070 26 102 18 1017 2328 41 1293 22 222 151 35 19 37 26
internal_value=-1.70111e-07 0.00059516 -0.00073264 -0.000443739 -0.00102811 0.000879455 -0.00151904 0.0010385 0.00109703 -0.00018119 0.000576602 0.000795113 -0.00139975 1.06749e-05 -8.07078e-05 0.000360205 -1.28148e-05 0.000764787 -0.000656687 -0.00134913 -6.15285e-05 0.000281024 -0.00153286 -0.000471173 -5.59934e-05 -0.000560444 0.000155845 -0.00116644 -0.00232173 -0.0010291
internal_weight=244331 134785 109546 80131.7 35045.1 98655.7 29414.7 64661.7 60650.2 36129.1 33994 16921 17496.8 45086.6 33698.9 17073 22867.2 1343.6 17548.3 24309.3 21523.6 11387.7 12138.3 13261.9 2339 10922.9 4011.5 12171 5105.4 168
internal_count=37984 18992 18992 14244 9156 14244 4748 9156 7460 4748 5088 1959 6492 5088 4103 3129 2764 128 2664 2747 2636 985 1711 1984 244 1740 1696 1036 2001 63
cat_boundaries=0 1 2 3 4 6 7 9 10 12 14 15 16
cat_threshold=2080895 8 8 3968 0 65392 1572961 0 24560 2063598120 3070230592 11 2080374804 6 1720320 2176
is_linear=0
shrinkage=0.03


Tree=19
num_leaves=31
num_cat=9
split_feature=73 1 1 72 83 15 49 52 5 74 77 1 62 5 15 77 80 77 51 77 48 61 78 30 0 5 19 30 77 5
split_gain=111.405 31.1035 26.0098 22.2092 5.14984 4.9905 4.14699 3.70613 2.56916 2.02618 1.84448 1.63103 1.42347 1.31455 1.25533 1.22616 1.10211 0.987833 0.858559 0.763841 0.759507 0.738385 0.84009 0.642377 0.563769 0.550332 0.64072 0.547477 0.412489 0.270068
threshold=0 1 2 36.056549793830584 1.0000000180025095e-35 4.5000000000000009 49.517857142857146 33.939560439560445 1810.5000000000002 12.629032258064518 3 4 7.278549948615777 1765.5000000000002 4.5000000000000009 5 72.950000000000017 6 25.500000000000004 7 32.464285714285722 9.788233947425077 0.070472440944881864 31.500000000000004 26.500000000000004 783.50000000000011 -0.72696319516528884 55.500000000000007 8 743.50000000000011
decision_type=1 1 1 2 2 2 2 2 2 2 1 1 2 2 2 1 2 1 2 1 2 2 2 2 2 2 2 2 1 2
left_child=1 10 6 14 12 7 27 9 -9 -3 25 15 -5 23 18 -7 -6 -13 -4 -16 -15 24 -23 -12 -8 29 -27 28 -2 -1
right_child=2 5 3 4 16 11 21 8 -10 -11 13 17 -14 20 19 -17 -18 -19 -20 -21 -22 22 -24 -25 -26 26 -28 -29 -30 -31
leaf_value=-0.00074179547875570756 -0.0017746509199621236 0.00015126090811367699 -0.0010338514529646681 -0.00016124948737278303 -0.00072305528815383663 0.0012733026431632347 -0.00092296551576674744 0.00086757448888056415 0.0014290308201122765 0.00086069438637108482 0.00013448705980321506 -1.9264987951867302e-05 0.00016511979770847968 -0.00036625672278555729 -0.0013528947952121 0.00053072082109478747 0.0015975273929577016 0.00047461217574470499 -0.0015520903707239386 -0.0021473624663471877 0.00030141914143586154 -0.0010173189470263147 0.00068894397268294083 -0.00039170962133098348 -0.0014174920376018615 -0.00078866289082564077 -0.00023338237301760579 -0.00020439248369328333 -0.0023229014731171297 -0.0017653153791766742
leaf_weight=2396 2475.0000009015203 4011.5000018179417 10229.400004558265 25947.100002326071 12500.699999719858 3382.8000008314848 2432.1999998092651 11617.899999976158 20053 37662.400004327297 2829.6000002324581 5328.200000718236 22411.200000032783 1797 2502.4000010639429 5043.3000003322959 182.3999999165535 11556.600001163781 4047.6000006571412 2310.9000007361174 10301 3696.4000001549721 275.90000003576279 7939.6000010967255 15828.899999886751 2421.9000002369285 8188.0000010207295 135.50000017881393 4570.8000019416213 256
leaf_count=320 945 1696 4207 3919 1340 572 219 1094 1311 6075 538 914 1847 202 1047 784 16 1798 881 987 949 317 22 1075 1512 377 1247 27 1706 40
internal_value=-1.66254e-07 0.000577321 -0.000710682 -0.00043043 -0.000151137 0.00085309 -0.00147354 0.000978529 0.00122324 0.000792431 -0.000175747 0.000489813 -9.99527e-06 -1.24257e-05 -0.00132342 0.000830576 -0.000689066 0.000318885 -0.00118127 -0.00174342 0.000202134 -0.00127104 -0.000898092 -0.000253454 -0.0013519 -0.000457027 -0.000360447 -0.00210121 -0.00213752 -0.000843733
internal_weight=244331 134785 109546 80131.7 61041.4 98655.7 29414.7 73344.8 31670.9 41673.9 36129.1 25310.9 48358.3 22867.2 19090.3 8426.1 12683.1 16884.8 14277 4813.3 12098 22233.4 3972.3 10769.2 18261.1 13261.9 10609.9 7181.3 7045.8 2652
internal_count=37984 18992 18992 14244 7122 14244 4748 10176 2405 7771 4748 4068 5766 2764 7122 1356 1356 2712 5088 2034 1151 2070 339 1613 1731 1984 1624 2678 2651 360
cat_boundaries=0 1 2 3 5 6 8 10 12 14
cat_threshold=5 8 8 3070230592 11 2 2097153026 3 2466252840 1 0 49616 475136 41152
is_linear=0
shrinkage=0.03


Tree=20
num_leaves=31
num_cat=16
split_feature=73 1 1 76 76 76 49 49 77 74 5 77 77 77 5 45 51 77 77 76 0 51 76 61 5 19 77 35 5 76
split_gain=104.829 29.2671 24.4753 20.9635 4.75145 4.72127 3.90426 3.39121 2.274 2.11905 1.8139 1.73578 1.40084 1.25815 1.23687 1.12424 1.04459 0.960328 0.949191 0.771321 0.725887 0.702736 0.631884 0.591313 0.518088 0.602953 0.479126 0.385711 0.254609 0.184112
threshold=0 1 2 3 4 5 49.517857142857146 34.482142857142868 6 12.629032258064518 1837.5000000000002 7 8 9 1765.5000000000002 71.500000000000014 22.357142857142858 10 11 12 66.500000000000014 65.071428571428584 13 9.9618319217950084 783.50000000000011 -0.72696319516528884 14 0.12599206349206352 743.50000000000011 15
decision_type=1 1 1 1 1 1 2 2 1 2 2 1 1 1 2 2 2 1 1 1 2 2 1 2 2 2 1 2 2 1
left_child=1 11 6 15 12 10 26 9 -9 -7 17 24 -5 -12 22 18 -6 -3 -4 -16 -17 23 -13 -8 28 -26 29 -28 -1 -2
right_child=2 5 3 4 16 7 21 8 -10 -11 13 14 -14 -15 19 20 -18 -19 -20 -21 -22 -23 -24 -25 25 -27 27 -29 -30 -31
leaf_value=-0.0007195879600151616 -0.0025420360359497724 0.00064371434919506141 7.1210539146222598e-05 -0.0005170604160535839 -0.001164133647216377 0.00014672870736647493 -0.0013218844605428037 0.0016392520781758561 0.0010406039150595984 0.00087531007597076811 0.0010210050887050485 -4.1325230620033258e-05 -0.0010289068943252634 0.0004976135535283842 -0.0002394940557154629 0.00017375632951640047 -0.0016973640615822116 0.00016761798345563491 -0.00026454426997147759 0.00032738159880080588 0.0010929010526227632 7.5220780386386996e-05 -0.00050416235895661254 -0.00088882090812205771 -0.0007650517442803266 -0.00022638517347207214 -0.0022012636854196817 -0.001424948576823519 -0.0017133704607171572 -0.0020251210266765025
leaf_weight=2396 1820.1000007092953 5691.4000016227365 15365.200000755489 14280.800000414252 7177.2000036984682 4011.5000018179417 18463.899999588728 8746.700000166893 17305.099999785423 34598.400004252791 8459 6025.3000003993511 7343.400001809001 8260 2803 13976.80000025034 6243.7000013887882 11583.600001521409 14930.700000718236 9295 813.89999997615814 363 4743.9000009298325 3406.5000002980232 2421.9000002369285 8188.0000010207295 893.30000036209822 1797.8000008612871 256 2670.1000010892749
leaf_count=320 717 1221 2079 2055 3547 1696 1750 670 1321 5469 948 874 2013 987 304 966 1541 1932 1991 847 52 25 739 295 377 1247 373 636 40 952
internal_value=-1.74241e-07 0.000560008 -0.000689399 -0.00041754 -0.000967774 0.000827512 -0.00142941 0.000978158 0.0012429 0.000799641 0.000540656 -0.000170491 -0.000691472 0.000763558 -1.20551e-05 1.03286e-05 -0.00141169 0.000325082 -9.43393e-05 0.000196069 0.000224687 -0.00123293 -0.000245854 -0.00125465 -0.000443356 -0.000349648 -0.00203844 -0.00168002 -0.000818562 -0.00224242
internal_weight=244331 134785 109546 80131.7 35045.1 98655.7 29414.7 64661.7 26051.8 38609.9 33994 36129.1 21624.2 16719 22867.2 45086.6 13420.9 17275 30295.9 12098 14790.7 22233.4 10769.2 21870.4 13261.9 10609.9 7181.3 2691.1 2652 4490.2
internal_count=37984 18992 18992 14244 9156 14244 4748 9156 1991 7165 5088 4748 4068 1935 2764 5088 5088 3153 4070 1151 1018 2070 1613 2045 1984 1624 2678 1009 360 1669
cat_boundaries=0 1 2 3 4 5 6 7 9 11 13 15 16 17 18 20 21
cat_threshold=5 8 8 3968 25178112 1572961 2063598092 3070230592 11 8376320 160 1811940907 2 2080375316 6 974848 1785864 819292 40960 24368 85988864
is_linear=0
shrinkage=0.03


Tree=21
num_leaves=30
num_cat=7
split_feature=73 1 1 76 76 15 49 54 85 74 76 1 85 63 62 4 12 85 74 51 48 85 30 30 61 3 28 51 64
split_gain=98.6412 27.54 23.0329 19.726 4.47467 4.47444 3.67679 3.40751 2.48894 1.86007 1.53833 1.53513 1.53013 1.19988 1.0853 1.18872 0.954811 0.936736 0.784915 0.661251 0.638704 0.575252 0.574273 0.508409 0.48756 0.432115 0.894301 0.564126 0.300687
threshold=0 1 2 3 4 4.5000000000000009 49.517857142857146 23.500000000000004 2022.9568788501028 12.629032258064518 5 6 2022.8336755646819 1.0000000180025095e-35 7.9015384659871124 253.50000000000003 -1.976648351648352 2024.4120465434637 11.540783410138252 65.071428571428584 32.464285714285722 2024.2149212867901 61.500000000000007 55.500000000000007 4.6445052020023416 11.500000000000002 25.500000000000004 34.500000000000007 0.15047169811320757
decision_type=1 1 1 1 1 2 2 2 2 2 1 1 2 2 2 2 2 2 2 2 2 2 2 2 2 2 2 2 2
left_child=1 10 6 14 17 7 23 9 -9 -3 25 16 24 -6 15 -4 -7 -5 -13 21 -14 -8 -16 28 -12 27 -27 -1 -2
right_child=2 5 3 4 13 11 19 8 -10 -11 12 18 20 -15 22 -17 -18 -19 -20 -21 -22 -23 -24 -25 -26 26 -28 -29 -30
leaf_value=-0.00092494367193193372 -0.0020952006897127437 0.00014233233255261731 3.5299868900603759e-05 -0.00073643001481014112 -0.001563727260815196 0.002859688700987528 -0.0013125409859410953 0.00083418932331611568 0.0014089246203681171 0.00081939360402719628 -0.00059873966942916633 -0.00037315583107601829 -0.00022618975572461848 -0.0010456190520856988 0.00036936829578631359 -0.00036189997345039852 0.00074037273507163691 -0.00022688528709529667 0.0003558336445285886 7.2994833893102139e-05 0.00026528229762568016 -0.0009662084267771713 -0.00016372585541671552 -0.00015159275539951305 -0.00018048016021965182 -0.0012319926841954387 -0.00019426351381618653 0.00050570709324938108 -0.0015204296374088761
leaf_weight=2799.6000004038215 6019.7000022828579 4011.5000018179417 24298.000001303852 14658.500001117587 8115.5000037923455 191.60000024735928 15823.399999886751 11330.79999935627 17005 40997.500004947186 3370.1000002399087 1450.500000782311 3017 8093.1000024005771 9119.3999998420477 9400.9000007212162 8234.5000009164214 4178 15434.300001099706 363 11206 6047 2268.299999833107 135.50000017881393 9797.6000014916062 881.30000035464764 4788.5000000968575 269 1026.1000005602837
leaf_count=461 2264 1696 2951 2541 3381 52 1590 1055 1089 6336 556 572 353 2724 834 1152 1304 510 2140 25 1035 455 151 27 1447 213 653 30 387
internal_value=-1.78239e-07 0.00054322 -0.000668753 -0.000405026 -0.000938773 0.000802711 -0.00138663 0.000921487 0.00117929 0.000759072 -0.000165396 0.000458732 -5.47129e-05 -0.00130463 1.0021e-05 -7.55433e-05 0.000789295 -0.000623171 0.000292944 -0.00119595 0.000160988 -0.00121703 0.000263157 -0.00197765 -0.000287715 -0.000511647 -0.000356509 -0.000798911 -0.00201263
internal_weight=244331 134785 109546 80131.7 35045.1 98655.7 29414.7 73344.8 28335.8 45009 36129.1 25310.9 27390.7 16208.6 45086.6 33698.9 8426.1 18836.5 16884.8 22233.4 14223 21870.4 11387.7 7181.3 13167.7 8738.4 5669.8 3068.6 7045.8
internal_count=37984 18992 18992 14244 9156 14244 4748 10176 2144 8032 4748 4068 3391 6105 5088 4103 1356 3051 2712 2070 1388 2045 985 2678 2003 1357 866 491 2651
cat_boundaries=0 1 2 3 4 5 6 7
cat_threshold=5 8 8 3968 16789504 1654784 2
is_linear=0
shrinkage=0.03


Tree=22
num_leaves=31
num_cat=13
split_feature=73 1 1 72 83 76 77 54 77 77 5 77 62 77 1 5 80 5 77 37 5 76 30 76 6 5 55 64 79 78
split_gain=92.8143 25.9135 21.6727 18.5769 4.34697 4.24053 3.49771 3.11022 2.42295 1.93011 1.69062 1.56699 1.20889 1.181 1.12391 1.09008 1.0336 0.978747 0.943023 0.892629 0.820912 0.703599 0.611687 0.524739 0.483266 0.47904 0.581449 0.281319 0.290574 0.285874
threshold=0 1 2 36.056549793830584 1.0000000180025095e-35 3 4 23.500000000000004 5 6 1837.5000000000002 7 7.278549948615777 8 9 1765.5000000000002 72.950000000000017 2305.5000000000005 10 0.12403846153846156 1819.5000000000002 11 33.500000000000007 12 349.50000000000006 783.50000000000011 25.500000000000004 0.15235814296241715 24.150000000000002 0.78661417322834659
decision_type=1 1 1 2 2 1 1 2 1 1 2 1 2 1 1 2 2 2 1 2 2 1 2 1 2 2 2 2 2 2
left_child=1 11 6 14 12 10 27 9 -9 -7 18 25 -5 -12 19 22 -6 -16 -3 -4 23 -17 -13 -8 -22 -1 -27 29 -29 -2
right_child=2 5 3 4 16 7 20 8 -10 -11 13 15 -14 -15 17 21 -18 -19 -20 -21 24 -23 -24 -25 -26 26 -28 28 -30 -31
leaf_value=-0.00078047888032458149 -0.0021917049060539776 0.00064295684528821429 -0.0015328685249742055 -0.00014716206747248257 -0.00066459510114843547 0.0010493285334839543 -0.0010372360581352887 0.0016055263756041701 0.00096839694590859316 0.00061200024918687472 0.00044977809876567073 7.1057791284615543e-05 0.00015360283306481323 0.00095783213538804511 -0.0015311150026754469 -0.0002305204049108062 0.0015824242765565234 -0.00090107954014899633 0.00015559202069628523 -0.00070445148492863916 -0.0010632689512980653 0.00031089094913615642 -0.00039941530095238234 -0.0014976312992140838 -0.00019925155069517052 -0.00037074373009526949 0.00086483627608911664 -0.0029365496717616104 -0.0012860024409146699 5.7865076801352383e-05
leaf_weight=2652 4245.9000020027161 5050.1000018715858 1514.1000005826354 25947.100002326071 12500.699999719858 13889.600002609193 3399.8000002205372 8388.799999833107 15567.699999570847 26815.600004009902 7796 3892.8000002801418 22411.200000032783 8923 9428.3000041767955 2803 182.3999999165535 2938 12224.900001272559 5209.9000022560358 11649 9295 6876.4000010490417 8644.5000002533197 616 10259.900001257658 350 112.00000002235174 696.3000004068017 51.200000002980232
leaf_count=360 1678 1158 569 3919 1340 2502 416 648 1183 4823 921 696 1847 1014 3884 304 16 864 1995 1805 1005 847 917 1283 43 1597 27 50 258 15
internal_value=-1.76245e-07 0.000526928 -0.000648704 -0.000392882 -0.000137447 0.00077864 -0.00134506 0.000921407 0.00119286 0.000761746 0.000506789 -0.000160445 -7.77393e-06 0.000721976 -0.00120959 -9.91072e-06 -0.000631669 -0.00138074 0.000298673 -0.00089067 -0.00119328 0.000185474 -0.000229397 -0.00137026 -0.00101997 -0.000419704 -0.000329596 -0.00206213 -0.00153135 -0.00216487
internal_weight=244331 134785 109546 80131.7 61041.4 98655.7 29414.7 64661.7 23956.5 40705.2 33994 36129.1 48358.3 16719 19090.3 22867.2 12683.1 12366.3 17275 6724 24309.3 12098 10769.2 12044.3 12265 13261.9 10609.9 5105.4 808.3 4297.1
internal_count=37984 18992 18992 14244 7122 14244 4748 9156 1831 7325 5088 4748 5766 1935 7122 2764 1356 4748 3153 2374 2747 1151 1613 1699 1048 1984 1624 2001 308 1693
cat_boundaries=0 1 2 3 4 6 8 9 11 13 14 16 17 18
cat_threshold=5 8 8 1572961 0 24560 2063598092 8 1778385202 3070230592 11 2449476052 13 2 2080374804 7 1785864 2176
is_linear=0
shrinkage=0.03


Tree=23
num_leaves=31
num_cat=14
split_feature=73 1 1 76 76 17 77 54 77 74 77 1 77 77 77 62 29 6 77 0 4 76 84 13 57 79 19 66 19 35
split_gain=87.3362 24.3837 20.3949 17.4843 4.04718 4.01786 3.29204 3.04396 2.51118 1.75446 1.4744 1.44436 1.22914 1.13868 1.00451 1.19094 1.10232 0.937863 0.903082 0.872455 0.9007 0.736011 0.735868 0.515133 0.48805 0.852589 0.48234 0.481368 0.271508 0.299645
threshold=0 1 2 3 4 -0.60785761079279388 5 23.500000000000004 6 12.629032258064518 7 8 9 10 11 8.1242337849243462 23.500000000000004 104.50000000000001 12 76.500000000000014 136.50000000000003 13 2022.5000000000002 -5.5714285714285738 20.500000000000004 14.750000000000002 -0.72696319516528884 0.062895569620253181 0.99700008544936913 0.15655637254901963
decision_type=1 1 1 1 1 2 1 2 1 2 1 1 1 1 1 2 2 2 1 2 2 1 2 2 2 2 2 2 2 2
left_child=1 10 6 14 12 11 28 9 -9 -7 24 13 -5 -3 16 -16 -4 -6 -13 21 -21 -12 23 -8 26 -26 -1 -24 -2 -30
right_child=2 5 3 4 17 7 22 8 -10 -11 19 18 -14 -15 15 -17 -18 -19 -20 20 -22 -23 27 -25 25 -27 -28 -29 29 -31
leaf_value=-0.00086743832758613899 -0.0020449418278502352 0.0012614157815062448 -0.00044196950172595132 -0.00046530595964130024 -0.001707943279348222 0.00011541485012087332 0.00023567114411855911 0.0014512863297245202 0.00087352159843365228 0.00077294000863225285 -0.00061560909223630511 -2.4220306595958228e-05 -0.00094462834934737631 0.00050905283519727393 -0.00021196658496037138 0.00028993280056721806 0.00026232075089767783 -0.0011405262786389708 0.00043294805879435177 0.0022529308238664436 0.00033391850811966418 -1.0023085676555075e-06 -0.0011292943127046236 -0.0013482537995792646 0.0017683873282209651 -0.00019733016498216336 -0.00038549974804582318 -0.00073024687782541234 -0.0020394970673994362 0.00043701812745218841
leaf_weight=2396.9000002369285 4937.4000023901463 2677.8000006973743 2270.8000006303191 14280.800000414252 3622.3000010177493 4011.5000018179417 186.30000007152557 11621.799999833107 16713.999999523163 40997.500004947186 1910.9000003635883 6075.3000004887581 7343.400001809001 5748.3000004664063 20956.500000819564 5334.0999999046326 16525.200000345707 9798.6000040695071 10809.500001393259 272.89999997615814 1070.7000001072884 19612.700000882149 7977 11952.000000402331 214 2125 8526.0000010207295 4194 81.400000028312206 86.600000016391277
leaf_count=385 1938 460 584 2055 1350 1696 42 886 1258 6336 308 1016 2013 896 2521 437 1546 3738 1696 26 102 2328 684 1669 22 222 1355 352 37 26
internal_value=-1.70969e-07 0.000511142 -0.000629269 -0.000381103 -0.000883607 0.00075531 -0.00130478 0.000867862 0.00111152 0.000714356 -0.000155633 0.000429355 -0.000628622 0.000749969 9.64983e-06 -0.000110059 0.000177044 -0.00129329 0.000268579 -9.61398e-06 0.000730599 -5.59848e-05 -0.00115754 -0.00132386 -0.000407116 -1.4094e-05 -0.000491604 -0.000992143 -0.00200045 -0.000787177
internal_weight=244331 134785 109546 80131.7 35045.1 98655.7 29414.7 73344.8 28335.8 45009 36129.1 25310.9 21624.2 8426.1 45086.6 26290.6 18796 13420.9 16884.8 22867.2 1343.6 21523.6 24309.3 12138.3 13261.9 2339 10922.9 12171 5105.4 168
internal_count=37984 18992 18992 14244 9156 14244 4748 10176 2144 8032 4748 4068 4068 1356 5088 2958 2130 5088 2712 2764 128 2636 2747 1711 1984 244 1740 1036 2001 63
cat_boundaries=0 1 2 3 4 5 7 9 11 12 14 16 17 19 20
cat_threshold=5 8 8 3968 25178112 0 24560 2130706988 8 3070230592 11 2 8376320 160 1560281090 3 942080 2466253864 1 1720320
is_linear=0
shrinkage=0.03


Tree=24
num_leaves=31
num_cat=6
split_feature=73 1 1 72 83 76 27 54 5 74 5 5 76 45 15 4 29 2 35 51 2 76 4 51 5 5 14 27 5 30
split_gain=82.18 22.9435 19.1905 16.4577 3.88264 3.8099 3.11397 2.75705 2.09397 1.81315 1.59013 1.33292 1.21616 1.08138 1.07498 1.07012 0.813404 0.809013 0.792401 0.75726 0.694825 0.690735 0.640428 0.632581 0.574959 0.568043 0.53757 0.294235 0.297289 0.222534
threshold=0 1 2 36.056549793830584 1.0000000180025095e-35 3 34.500000000000007 23.500000000000004 1810.5000000000002 12.629032258064518 1864.5000000000002 1765.5000000000002 4 71.500000000000014 4.5000000000000009 362.50000000000006 47.500000000000007 3.4364900000000005 0.16784037558685447 25.500000000000004 2.9458078571428579 5 14.500000000000002 65.071428571428584 633.50000000000011 2269.5000000000005 3.5000000000000004 25.500000000000004 1864.5000000000002 58.500000000000007
decision_type=1 1 1 2 2 1 2 2 2 2 2 2 1 2 2 2 2 2 2 2 2 1 2 2 2 2 2 2 2 2
left_child=1 11 6 14 13 10 27 9 -9 -7 17 21 18 -5 19 -12 -6 -3 -13 -4 -14 26 -16 25 -23 -8 -1 28 -2 -29
right_child=2 5 3 4 16 7 23 8 -10 -11 15 12 20 -15 22 -17 -18 -19 -20 -21 -22 24 -24 -25 -26 -27 -28 29 -30 -31
leaf_value=-0.00099980315333670321 -0.0019640451633511145 0.00039314238767313602 -0.00086864026733771106 -0.00010087519212925036 -0.00034682270546967621 0.00011195669609755122 -0.0012149177362572943 0.00076617497833281049 0.001344237208414012 0.00078386497176511337 0.00071751507812477331 -0.0010144216916861308 -0.00038015002530720192 0.00020696929697342677 -4.651015343535245e-05 -0.0014356171561325614 -0.00082802758815849343 -7.9695001952163747e-05 0.00032873197023499599 -0.0013549635155422251 0.00017884657319857023 -0.00056247279560785201 -0.0016077358665470968 0.0001358280001896555 -0.00012869859346409049 -0.00087338498615332051 -0.00020758849529188111 -0.0023014075785489211 -0.0014703768028554564 -0.00075461633205413815
leaf_weight=2223.5000002086163 2439.7000018358231 13469.300002753735 10229.400004558265 33567.600002132356 6112.6000000834465 4011.5000018179417 16745.300000555813 9153.4999994039536 14803 36693.700004801154 16026 409 6712 14790.700000226498 249.70000006258488 206 6570.4999995529652 4292.7000003904104 8850 4047.6000006571412 2847 3772 4563.6000017374754 363 10132.200002260506 6031 1183.4000001177192 1540.7000005170703 2200 95
leaf_count=399 1095 2595 4207 4748 787 1696 1894 871 960 5629 1848 42 777 1018 84 27 569 618 791 881 334 425 1950 25 1778 457 202 603 667 7
internal_value=-1.64823e-07 0.000495825 -0.00061041 -0.000369683 -0.000129259 0.000732673 -0.00126567 0.000867994 0.00112357 0.00071767 0.000475003 -0.00015096 2.3777e-05 -6.70729e-06 -0.0011384 0.000689756 -0.00059634 0.000278877 0.000268595 -0.00100694 -0.000213432 -0.000340946 -0.00152688 -0.00110489 -0.000246358 -0.00112469 -0.000723212 -0.00185919 -0.0017318 -0.00221414
internal_weight=244331 134785 109546 80131.7 61041.4 98655.7 29414.7 64661.7 23956.5 40705.2 33994 36129.1 18818 48358.3 19090.3 16232 12683.1 17762 9259 14277 9559 17311.1 4813.3 23139.3 13904.2 22776.3 3406.9 6275.4 4639.7 1635.7
internal_count=37984 18992 18992 14244 7122 14244 4748 9156 1831 7325 5088 4748 1944 5766 7122 1875 1356 3213 833 5088 1111 2804 2034 2376 2203 2351 601 2372 1762 610
cat_boundaries=0 1 2 3 4 5 6
cat_threshold=5 8 8 1572961 119 1064992
is_linear=0
shrinkage=0.03


Tree=25
num_leaves=31
num_cat=16
split_feature=73 1 1 76 76 15 49 52 77 77 77 1 77 77 77 27 62 5 51 77 76 76 61 78 69 0 2 30 77 19
split_gain=77.3258 21.5883 18.0577 15.504 3.6116 3.59679 2.94406 2.70641 2.09648 1.56933 1.36061 1.36009 1.11034 1.07067 0.947977 1.05436 0.978016 0.937272 0.929541 0.847294 0.743603 0.712626 0.653276 0.919415 0.647395 0.567801 0.533352 0.45302 0.344661 0.193602
threshold=0 1 2 3 4 4.5000000000000009 49.517857142857146 33.939560439560445 5 6 7 8 9 10 11 17.500000000000004 8.1242337849243462 1765.5000000000002 22.357142857142858 12 13 14 9.6127388449519398 0.070472440944881864 0.067989214175654858 24.500000000000004 6.2598257142857152 55.500000000000007 15 -0.92274349529687905
decision_type=1 1 1 1 1 2 2 2 1 1 1 1 1 1 1 2 2 2 2 1 1 1 2 2 2 2 2 2 1 2
left_child=1 10 6 14 12 7 27 9 -9 -3 24 13 -5 -7 15 -4 -16 21 -6 -13 -19 -12 25 -24 26 -8 -1 28 -2 -26
right_child=2 5 3 4 18 11 22 8 -10 -11 17 19 -14 -15 16 -17 -18 20 -20 -21 -22 -23 23 -25 29 -27 -28 -29 -30 -31
leaf_value=-0.0002850543828403121 -0.001963247829294603 0.00085262557839517461 -0.00075675552211675544 -0.00043572233654235831 -0.00098542354858621186 0.0012092264608640673 -0.00061684231327422214 0.0013495218180636093 0.00083924317420359473 0.00048263123905022668 0.00016132404553684151 -6.668073126500873e-05 -0.00089124825727716689 0.00047986604699368381 -0.00022472752505220587 0.00019490310636222771 0.0002694572521660063 0.00037962403611753622 -0.0014880044582795922 0.00039051866718003931 -0.00013377540681796358 -0.0003752115929616504 -0.00084917228618525673 0.00080987694038517908 -5.4405683751858418e-06 -0.0011928732178836242 -0.0014615798435127631 -3.6998267762100016e-05 -0.0014770276676496614 -0.0013002821687024102
leaf_weight=13640.100001096725 4441.9000016674399 19725.700003273785 1097.2000003382564 14280.800000414252 7177.2000036984682 2677.8000006973743 1721.1999998092651 11555.500000178814 20115.399999797344 21948.200002871454 3296.6000000685453 5328.200000718236 7343.400001809001 5748.3000004664063 18238.200000599027 21264.100000798702 4487.0999999642372 7172 6243.7000013887882 11556.600001163781 3920 6826.3000014126301 4038.0000001788139 320.90000003576279 119.29999995231628 16153.299999862909 351.19999992847443 135.50000017881393 2603.9000011757016 803.60000012814999
leaf_count=1980 1658 3698 305 2055 3547 460 156 902 1503 4073 475 914 2013 896 2161 2278 344 650 1541 1798 408 1014 351 25 19 1538 61 27 993 141
internal_value=-1.6821e-07 0.00048095 -0.000592116 -0.000358602 -0.000831793 0.000710697 -0.00122775 0.000817187 0.0010263 0.000658164 -0.000146443 0.000402295 -0.000590926 0.000713392 9.3566e-06 0.000147983 -0.000127057 7.97259e-06 -0.00121879 0.000246313 0.000198428 -0.000200702 -0.00105713 -0.000726246 -0.00036588 -0.00113759 -0.000315098 -0.00175659 -0.00178961 -0.00113383
internal_weight=244331 134785 109546 80131.7 35045.1 98655.7 29414.7 73344.8 31670.9 41673.9 36129.1 25310.9 21624.2 8426.1 45086.6 22361.3 22725.3 21214.9 13420.9 16884.8 11092 10122.9 22233.4 4358.9 14914.2 17874.5 13991.3 7181.3 7045.8 922.9
internal_count=37984 18992 18992 14244 9156 14244 4748 10176 2405 7771 4748 4068 4068 1356 5088 2583 2505 2547 5088 2712 1058 1489 2070 376 2201 1694 2041 2678 2651 160
cat_boundaries=0 1 2 3 4 5 6 7 9 10 12 14 15 17 18 19 21
cat_threshold=5 8 8 3968 25178112 1526727212 4194304314 3070230596 11 2 8376320 160 1560281090 3 974848 2466252840 1 295027 819212 36864 24368
is_linear=0
shrinkage=0.03


Tree=26
num_leaves=31
num_cat=7
split_feature=76 76 83 74 5 77 47 36 83 33 77 57 76 12 50 76 33 76 47 5 27 5 34 70 64 81 34 61 60 56
split_gain=72.7616 16.3535 6.02046 5.50517 4.07558 3.94163 3.10448 2.75344 2.23546 2.03053 2.01476 1.80353 1.53756 1.48493 1.46908 1.44636 1.30627 1.1551 1.03784 0.788004 0.715283 0.686222 0.51617 0.4787 0.470023 0.460334 0.459657 0.410924 0.330079 0.256525
threshold=0 1 2.5000000000000004 54.913824884792632 1810.5000000000002 2 56.500000000000007 0.24025316455696205 2.5000000000000004 0.3603278688524591 3 33.500000000000007 4 1.4890109890109875 22.723214285714288 5 0.24467120181405896 6 48.500000000000007 1936.5000000000002 61.500000000000007 2080.5000000000005 0.1101010101010101 0.030076888285843515 0.05594679186228483 15.600000000000007 0.34960317460317464 2.7516228977509254 4.7459825799670314 37.500000000000007
decision_type=1 1 2 2 2 1 2 2 2 2 1 2 1 2 2 1 2 1 2 2 2 2 2 2 2 2 2 2 2 2
left_child=2 3 4 7 10 8 9 11 20 -6 12 -2 -1 17 -12 -8 -9 -7 27 26 -3 29 -15 -21 -10 -23 -20 -4 -29 -5
right_child=1 5 18 21 6 13 15 16 24 -11 14 -13 -14 22 -16 -17 -18 -19 19 23 -22 25 -24 -25 -26 -27 -28 28 -30 -31
leaf_value=0.00040953984634019589 -0.00018291769128907044 -0.00042461018182690928 0.00079920966393743763 -0.00060986207919744826 0.00043533251501406956 -0.0017610944063709659 0.0016162709270186582 -0.00026588359572238019 -0.0016484520224659762 0.00085270080373351102 0.00087684305326027345 -0.0008080742816820943 -4.193089288497217e-05 -0.0025606269028476667 0.00039855137037714164 0.00090522735810766341 0.00012693582847325127 -0.0010756386765879641 -0.00017543484852974807 0.0007807638367710708 -0.0011415706269109936 -3.7446423502744972e-05 -0.0016298113125653337 2.0300632583468991e-05 -0.0010224666072331462 -0.00085167630668971442 -0.0012408278309074896 0.00043194198922590841 -0.00073764911857659499 -0.0012401554200426664
leaf_weight=12179.500001654029 9574.800000205636 13863.300001129508 175.49999998509884 677.89999961853027 32256 2542.0000008940697 3312 10874.900000572205 1455.5000001713634 15562 7441.900005877018 7335.2000002861023 15317.000001892447 721.70000024139881 25922.000001661479 12533 25414.20000102371 21283.900006480515 2776.7000001966953 1343 1374.4999999403954 926 2360.7000012397766 1666 4406.6999999433756 1920 415 227.70000010728836 3657.5000003799796 4815.1000001728535
leaf_count=1982 1471 2371 26 100 4072 1099 203 1323 175 1777 2605 637 2452 275 3713 832 2522 6999 317 123 114 67 723 159 452 143 50 39 642 521
internal_value=-1.66556e-07 -0.000574378 0.000466536 -0.00025049 0.000524127 -0.000989338 0.000691939 -0.000138146 -0.000681118 0.000571237 0.000348544 -0.000454256 0.000158161 -0.00123051 0.0005052 0.00105591 9.19765e-06 -0.00115031 -0.000231788 1.24462e-05 -0.000489636 -0.000966981 -0.00185154 0.000360449 -0.00117916 -0.000587281 -0.000315686 -0.000604292 -0.000668636 -0.001163
internal_weight=244331 109546 134785 61538.1 124523 48008.3 63663 53199.1 21100 47818 60860.4 16910 27496.5 26908.3 33363.9 15845 36289.1 23825.9 10261.4 6200.7 15237.8 8339 3082.4 3009 5862.2 2846 3191.7 4060.7 3885.2 5493
internal_count=37984 18992 18992 6784 17636 12208 6884 5953 3112 5849 10752 2108 4434 9096 6318 1035 3845 8098 1356 649 2485 831 998 282 627 210 367 707 681 621
cat_boundaries=0 1 2 4 6 7 8 9
cat_threshold=2080895 3968 8376320 128 2164264003 11 1261588 507920 67108864
is_linear=0
shrinkage=0.03


Tree=27
num_leaves=31
num_cat=13
split_feature=76 1 1 72 76 83 49 74 77 5 77 77 1 62 8 80 5 5 77 76 76 69 51 51 37 2 77 35 76 19
split_gain=68.4669 19.8573 16.3629 13.7391 3.36768 3.27415 2.68571 2.51942 1.94385 1.41574 1.25875 1.16247 1.00391 0.983279 0.981648 0.963177 0.917978 0.842057 0.800604 0.692912 0.655235 0.609505 0.579028 0.549305 0.518093 0.498321 0.366539 0.347 0.199141 0.183933
threshold=0 1 2 36.056549793830584 3 1.0000000180025095e-35 49.517857142857146 12.629032258064518 4 1864.5000000000002 5 6 7 7.278549948615777 148.50000000000003 72.950000000000017 2305.5000000000005 1765.5000000000002 8 9 10 0.067989214175654858 65.071428571428584 46.071428571428577 0.40967365967365971 6.2598257142857152 11 0.12599206349206352 12 -0.92274349529687905
decision_type=1 1 1 2 1 2 2 2 1 2 1 1 1 2 2 2 2 2 1 1 1 2 2 2 2 2 1 2 1 2
left_child=1 10 6 12 9 13 26 24 -9 18 21 -11 14 -5 -4 -7 -14 20 -3 -19 -12 25 23 -8 -6 -1 28 -28 -2 -23
right_child=2 4 3 5 7 15 22 8 -10 11 17 -13 16 -15 -16 -17 -18 19 -20 -21 -22 29 -24 -25 -26 -27 27 -29 -30 -31
leaf_value=-0.00028190607546847528 -0.0021301712667787854 0.0005645928546115413 -0.00033323419092318006 -0.00012839362416862307 -6.8872952506117844e-05 -0.00057594678294670533 0.00049555515665201542 0.0010692637247690876 0.00071637639295995842 0.00094612890742223454 0.00014875452464290612 0.00042534207397535746 -0.0013440621951321997 0.00014285828848018529 -0.0010630213623138466 0.0015927050192751258 -0.00073454203171630377 0.00035481628776685124 0.00011817607890434077 -0.00014073256393208191 -0.00036574821615415468 -5.5169094411042303e-06 0.00018669688163082239 -0.0010338491932279201 0.00089551066088205782 -0.0014191628941183573 -0.0018493065688217584 -0.0011169459730272454 -0.001637929566644838 -0.0012676169389642376
leaf_weight=13640.100001096725 1820.1000007092953 5050.1000018715858 2999.2000011727214 25947.100002326071 3429.4000015482306 12500.699999719858 210.70000004768372 22625.500002741814 38024.700001463294 6448 3296.6000000685453 9784 9428.3000041767955 22411.200000032783 3724.8000016659498 182.3999999165535 2938 7172 12711.900001272559 3920 6826.3000014126301 119.29999995231628 363 21659.699999839067 582.10000026971102 351.19999992847443 893.30000036209822 1797.8000008612871 2670.1000010892749 803.60000012814999
leaf_count=1980 717 1158 1037 3919 1466 1340 28 2808 4652 714 475 1161 3884 1847 1337 16 864 650 2055 408 1014 19 25 2017 230 61 373 636 952 141
internal_value=-1.67513e-07 0.000452553 -0.000557176 -0.000334893 0.000672896 -0.000115222 -0.00116224 0.000800112 0.000848392 0.000430665 -0.000149156 0.000633292 -0.00103725 -2.6827e-06 -0.000736899 -0.000544143 -0.00119864 -6.26276e-07 0.000245609 0.000179894 -0.00019842 -0.000360222 -0.000999282 -0.001019 7.20072e-05 -0.000310949 -0.00166733 -0.00135799 -0.00184389 -0.00110538
internal_weight=244331 134785 109546 80131.7 98655.7 61041.4 29414.7 64661.7 60650.2 33994 36129.1 16232 19090.3 48358.3 6724 12683.1 12366.3 21214.9 17762 11092 10122.9 14914.2 22233.4 21870.4 4011.5 13991.3 7181.3 2691.1 4490.2 922.9
internal_count=37984 18992 18992 14244 14244 7122 4748 9156 7460 5088 4748 1875 7122 5766 2374 1356 4748 2547 3213 1058 1489 2201 2070 2045 1696 2041 2678 1009 1669 160
cat_boundaries=0 1 2 3 4 5 7 9 10 12 13 14 16 17
cat_threshold=2080895 8 8 1572961 2063598120 3070230596 11 1677723147 2 2 2080374804 7 295027 819212 40960 24368 85988864
is_linear=0
shrinkage=0.03


Tree=28
num_leaves=31
num_cat=14
split_feature=73 1 1 72 76 76 49 54 77 77 1 77 29 77 63 77 33 5 77 30 76 61 26 5 69 19 5 30 77 19
split_gain=64.425 18.6852 15.3985 12.9279 3.18295 2.88488 2.52929 2.51537 2.11531 1.58404 1.2872 1.18456 1.06885 1.01196 0.963183 0.896502 0.839055 0.79237 0.783954 0.66759 0.652065 0.606989 0.774005 0.603436 0.573763 0.494977 0.443134 0.412989 0.295121 0.173127
threshold=0 1 2 36.056549793830584 3 4 49.517857142857146 23.500000000000004 5 6 7 8 40.500000000000007 9 1.0000000180025095e-35 10 0.25834260289210237 1765.5000000000002 11 31.500000000000004 12 9.788233947425077 68.500000000000014 2620.5000000000005 0.067989214175654858 -0.72696319516528884 1387.5000000000002 55.500000000000007 13 -0.92274349529687905
decision_type=1 1 1 2 1 1 2 2 1 1 1 1 2 1 2 1 2 2 1 2 1 2 2 2 2 2 2 2 1 2
left_child=1 11 6 14 10 12 27 9 -9 -6 13 24 -5 -3 16 -7 -4 19 -12 -13 -19 26 -23 -16 25 -1 -8 28 -2 -26
right_child=2 4 3 5 7 15 21 8 -10 -11 18 17 -14 -15 23 -17 -18 20 -20 -21 -22 22 -24 -25 29 -27 -28 -29 -30 -31
