tree
version=v4
num_class=1
num_tree_per_iteration=1
label_index=0
max_feature_idx=85
objective=tweedie
feature_names=aqi block cdc_ili_rate day day_of_year days_since_epoch days_since_july4 days_since_school_start days_since_xmas days_to_nearest_holiday days_until_school_start days_until_thanksgiving delta_28_91 delta_7_28 delta_lag_63_70 dow dow_cos dow_sin doy_cos doy_sin event_count holiday_x_block is_covid_era is_halloween is_us_holiday is_weekend lag_182 lag_364 lag_63 lag_70 lag_77 lag_91 lag_admit_182 lag_admit_364 lag_admit_63 lag_admit_70 lag_admit_77 lag_admit_91 month month_cos month_sin precip quarter roll_max_14 roll_max_28 roll_max_56 roll_max_7 roll_max_91 roll_mean_14 roll_mean_28 roll_mean_56 roll_mean_7 roll_mean_91 roll_min_14 roll_min_28 roll_min_56 roll_min_7 roll_min_91 roll_std_14 roll_std_28 roll_std_56 roll_std_7 roll_std_91 school_in_session share_reason_abdominal_pain_lag63 share_reason_back_pain_lag63 share_reason_chest_pain_lag63 share_reason_fall_lag63 share_reason_fever_lag63 share_reason_headache_lag63 share_reason_shortness_of_breath_lag63 share_reason_vomiting_lag63 site_dow_mean site_enc site_month_block_mean site_month_mean site_x_dow site_x_month snowfall temp_max temp_min temp_range week_of_year weekend_x_block year year_frac
feature_infos=[5:211] -1:0:1:2:3 [0.48795699999999997:7.7503399999999996] [1:31] [1:366] [364:2556] [0:365] [0:385] [0:365] [0:52] [0:385] [0:370] [-12.947802197802197:8.9010989010988979] [-11.892857142857146:10.357142857142854] [-39:51] [0:6] [-0.90096886790241903:1] [-0.97492791218182362:0.97492791218182362] [-0.99997919295908233:0.9999907524084426] [-0.9999994220246925:0.99998555065071859] [0:1] [0:3] [0:1] [0:1] [0:1] [0:1] [0:87] [0:87] [0:87] [0:87] [0:87] [0:87] [0:1] [0:1] [0:1] [0:1] [0:1] [0:1] [1:12] [-1:1] [-1:1] [0:2.5390000000000001] [1:4] [7:87] [9:87] [11:87] [6:87] [12:87] [4.7142857142857144:65.428571428571431] [4.9642857142857144:63.535714285714285] [5.5178571428571432:61.803571428571431] [4:70.571428571428569] [5.7032967032967035:61.098901098901102] [0:56] [0:52] [0:49] [0:63] [0:48] [1.0271051820261772:13.403501264738468] [1.6471074533748196:11.396358371294912] [2.1121171750258032:11.952815785194982] [0.53452248382496037:16.905902040693519] [2.2659555014506254:11.91310623314085] [0:1] [0:1] [0:0.5] [0:0.66666666666666663] [0:0.5] [0:0.5] [0:1] [0:0.59999999999999998] [0:0.66666666666666663] [17.497260273972604:43.31712328767123] -1:0:1:2:3 [6.8755760368663594:57.631336405529957] [16.890552995391705:42.871428571428574] -1:0:1:7:8:14:15:21:22:2:3:4:5:6:9:10:11:12:13:16:17:18:19:20:23:24:25:26:27 -1:11:23:35:47:0:2:4:6:7:9:12:14:16:18:19:21:24:26:28:30:31:33:36:38:40:42:43:45:3:5:8:10:15:17:20:22:27:29:32:34:39:41:44:46:1:13:25:37 [0:2.7448818897637794] [-22:102.59999999999999] [-39.299999999999997:80.5] [1.7000000000000028:49.5] [1:53] [0:3] [2018:2024] [2018.996577686516:2024.9993155373031]
tree_sizes=3292 3515 3460 3476 3459 3486 3483 3478 3492 3502 3493 3479 3516 3483 3460 3477 3489 3505 3468 3549 3477 3480 3503 3498 3471 3497 3488 3475 3480 3489 3494 3502 3482 3495 3483 3478 3479 3492 3488 3549 3485 3484 3520 3548 3474 3513 3485 3501 3505 3495 3480 3475 3458 3547 3469 3553 3487 3467 3507 3477 3550 3507 3479 3513 3504 3554 3503 3464 3495 3483 3489 3507 3524 3531 3485 3505 3560 3534 3537 3521 3537 3486 3522 3562 3510 3532 3550 3512 3542 3541 3498 3521 3574 3534 3537 3544 3528 3513 3583 3542 3526 3516 3533 3530 3549 3530 3558 3538 3555 3532 3514 3539 3529 3538 3533 3510 3541 3531 3528 3555 3549 3585 3561 3558 3506 3556 3549 3566 3563 3545 3552 3572 3548 3538 3559 3564 3548 3579 3580 3561 3559 3550 3552 3556 3550 3565 3546 3537 3554 3555 3547 3540 3532 3564 3521 3548 3551 3535 3551 3542 3554 3556 3533 3553 3548 3545 3547 3560 3554 3563 3561 3554 3564 3564 3548 3544 3556 3555 3551 3562 3532 3563 3566 3551 3584 3557 3539 3560 3552 3537 3554 3556 3553 3534 3564 3535 3564 3558 3529 3591 3542 3542 3528 3561 3565 3572 3558 3520 3555 3564 3570 3522 3564 3573 3555 3525 3515 3537 3550 3538 3549 3525 3559 3577 3545 3539 3561 3564 3516 3552 3544 3573 3544 3526 3533 3561 3565 3544 3574 3571 3536 3569 3549 3563 3561 3554 3586 3588 3577 3571 3586 3550 3588 3583 3550 3583 3574 3554 3577 3551 3569 3591 3541 3577 3570 3587 3549 3549 3551 3546 3570 3567 3586 3573 3535 3577 3554 3566 3548 3544 3585 3566 3563 3548 3554 3569 3571 3582 3579 3555 3545 3582 3568 3536 3523 3546 3577 3565 3568 3533 3582 3598 3582 3558 3564 3547 3595 3550 3564 3572 3601 3567 3521 3568 3565 3539 3544 3534 3569 3556 3542 3564 3587 3579 3554 3571 3557 3559 3551 3578 3549 3558 3582 3524 3567 3554 3589 3550 3537 3561 3559 3535 3531 3589 3585 3551 3526 3536 3546 3563 3551 3575 3545 3561 3548 3570 3557 3570 3577 3568

Tree=0
num_leaves=31
num_cat=12
split_feature=50 49 50 52 50 49 50 52 52 52 77 77 52 15 1 77 77 77 5 77 77 73 15 63 1 15 17 77 63 77
split_gain=166090 35052 34322.2 7337.2 6389.75 4719.59 1843.83 1370.07 1026.1 632.461 578.769 475.335 399.333 340.619 281.168 277.574 231.556 228.797 206.149 203.506 192.003 188.726 172.543 134.819 130.581 128.686 128.048 124.219 123.839 120.098
threshold=28.241071428571434 45.517857142857146 16.616071428571434 34.467032967032971 9.5625000000000018 23.482142857142861 13.348214285714286 19.148351648351653 39.730769230769234 32.357142857142868 0 1 49.873626373626379 1.0000000180025095e-35 2 3 4 5 1578.5000000000002 6 7 8 1.5000000000000002 1.0000000180025095e-35 9 1.0000000180025095e-35 1.0000000180025095e-35 10 1.0000000180025095e-35 11
decision_type=2 2 2 2 2 2 2 2 2 2 1 1 2 2 1 1 1 1 2 1 1 1 2 2 1 2 2 1 2 1
left_child=2 3 4 9 28 7 23 19 16 17 -7 -9 -3 -10 22 -8 25 -2 -14 -4 -11 -16 -12 -6 -15 -5 -20 -13 -1 -24
right_child=1 12 5 8 6 10 15 11 13 20 14 27 18 24 21 -17 -18 -19 26 -21 -22 -23 29 -25 -26 -27 -28 -29 -30 -31
leaf_value=3.5673926763682169 3.6023388572167518 3.6100300298643933 3.5923380537777998 3.6076642620027433 3.579028548121979 3.5996950715654474 3.5888271982638233 3.5929831223022166 3.6092095887878468 3.6026998831292474 3.5990943005906559 3.5969669394738304 3.6113517971125781 3.6074834935891333 3.5996610806120413 3.5842084608218485 3.6049932078872202 3.6007882571316734 3.612513249682638 3.588940394676273 3.604541048365014 3.5947261418629628 3.5957366192162525 3.5755371330527468 3.6062948413047993 3.6059407396542116 3.6117072387998328 3.5948451922352644 3.5625137438388395 3.5977665654431235
leaf_weight=5426.1594640798867 64438.094327092171 47845.085767745972 9666.0256767272949 19611.535330533981 10232.809220694005 50368.926412284374 6689.7581753730774 54974.345809265971 36600.637731075287 44812.336013197899 24359.975075304508 18075.402108669281 172839.39958524704 123498.57718968391 3462.8423185348511 26986.860430330038 111377.81816375256 81255.109577596188 186202.7618598938 27175.773738414049 40712.578609824181 22337.332242190838 16689.686765909195 8222.48611356318 48694.172796726227 97152.046964883804 125080.78369903564 27140.434537708759 4252.8249190077186 35248.460217416286
leaf_count=1258 1380 728 661 247 1350 1455 505 2471 368 806 723 676 1597 1492 280 2274 1968 2168 1117 1750 842 821 608 1111 695 1460 836 1170 1087 1184
internal_value=3.60457 3.60801 3.59283 3.60505 3.57971 3.59564 3.5824 3.59302 3.60653 3.60225 3.59799 3.5942 3.61172 3.60751 3.59715 3.58511 3.60563 3.60147 3.61189 3.58982 3.60358 3.59538 3.59774 3.57746 3.60715 3.60623 3.61219 3.59569 3.56522 3.59711
internal_weight=1.55143e+06 1.20012e+06 351310 668153 61810.9 289499 52131.9 137032 436935 231218 152467 100190 531968 208793 102098 33676.6 228141 145693 484123 36841.8 85524.9 25800.2 76298.1 18455.3 172193 116764 311284 45215.8 9678.98 51938.1
internal_count=35088 15704 19384 11426 7585 11799 5240 6728 6230 5196 5071 4317 4278 2555 3616 2779 3675 3548 3550 2411 1648 1101 2515 2461 2187 1707 1953 1846 2345 1792
cat_boundaries=0 2 4 5 7 8 10 12 14 15 16 18 20
cat_threshold=1124077555 1024 1919545344 49272 6 0 3904 4042887664 4060088704 1 2667970560 263 2349117440 15 4 4 0 3843 3019898888 167
is_linear=0
shrinkage=1


Tree=1
num_leaves=31
num_cat=1
split_feature=74 74 74 50 74 52 74 74 74 72 72 72 50 15 52 15 5 72 72 49 5 74 1 72 15 5 72 5 15 72
split_gain=160518 40579.6 25879 8062.42 6884.35 2986.05 2136.81 1075.44 815.197 649.116 426.982 398.077 341.791 308.11 246.636 227.861 213.998 206.67 193.733 176.029 174.543 168.362 146.8 139.235 135.732 127.679 122.147 118.85 118.097 113.223
threshold=29.635407066052231 17.757757296466977 46.278571428571432 12.723214285714286 24.967939766326868 34.467032967032971 9.3825652841781899 39.016666666666673 21.370967741935488 20.82112714275021 23.267123287671236 41.066350400479088 21.866071428571434 1.0000000180025095e-35 19.763736263736266 1.0000000180025095e-35 1281.5000000000002 24.557817763305639 31.28449453551913 52.839285714285715 1308.5000000000002 35.963133640553004 0 42.346063515233183 4.5000000000000009 1146.5000000000002 43.220378583726337 1308.5000000000002 4.5000000000000009 41.066350400479088
decision_type=2 2 2 2 2 2 2 2 2 2 2 2 2 2 2 2 2 2 2 2 2 2 1 2 2 2 2 2 2 2
left_child=1 3 5 6 8 17 -1 13 12 -5 -6 16 26 23 25 -9 -4 27 20 -13 -12 -15 28 -7 -8 -10 -3 -2 -14 -24
right_child=2 4 11 9 10 7 24 15 14 -11 18 19 22 21 -16 -17 -18 -19 -20 -21 -22 -23 29 -25 -26 -27 -28 -29 -30 -31
leaf_value=-0.03827481047152366 -0.0028541086166158649 -0.01262800573331941 0.0056476651144355978 -0.015854270050111037 -0.0056772261522266736 0.0016979637286932412 -0.028025837430934453 0.0047632036665375063 -0.012665331461278245 -0.020044613580262754 -0.0054282103591095322 0.0067468174759126405 -0.0070757893222475089 0.00036787185891205392 -0.0080402785923732126 0.0028430116465924899 0.0068974471456230528 -0.00035070384758398 -0.0016798978315753961 0.0079656755957655812 -0.0036145221838224878 0.00141495567743469 -0.011349217798751121 0.0038456902931038469 -0.024159672617387034 -0.00822991025872284 -0.0085885577850850024 -0.0013703537847569408 -0.011622493126594578 -0.008748162742414519
leaf_weight=9584.7308582365513 31803.68925088644 41534.89651222527 68368.805069327354 28253.870765194297 73233.757655978203 26075.326135873795 11284.757339514792 28134.048273563385 7300.8749361336231 27911.304274186492 26985.345761209726 59423.61181640625 9607.8682473897934 113748.60806488991 70911.352106362581 135232.45257925987 213415.91479492188 50722.484412312508 14383.183755755424 183437.71346116066 77472.746912956238 117670.92916357517 23570.527897953987 20177.751618623734 5575.6516879945993 3761.4352258443832 3089.0735037922859 56429.973928451538 2800.2181805372238 8803.2682318687439
leaf_count=2193 1152 2403 1048 1801 2190 353 1637 303 607 2121 1199 731 272 1792 2297 1814 1458 1469 314 1149 1592 1638 1001 222 654 201 144 947 111 275
internal_value=3.0325e-07 -0.00982546 0.00396807 -0.0221029 -0.00703454 0.00114288 -0.0309401 0.0019245 -0.00986217 -0.0179388 -0.00451133 0.00709127 -0.0111447 0.00118937 -0.00846255 0.00317387 0.00659435 -0.0013379 -0.0037926 0.00766763 -0.00408338 0.000900312 -0.00994238 0.00263532 -0.0267572 -0.011163 -0.0123497 -0.00190534 -0.00810097 -0.0106406
internal_weight=1.55071e+06 446065 1.10464e+06 82610.3 363455 579995 26445.1 441039 171380 56165.2 192075 524646 89405.9 277673 81973.7 163367 281785 138956 118841 242861 104458 231420 44781.9 46253.1 16860.4 11062.3 44624 88233.7 12408.1 32373.8
internal_count=35088 21012 14076 8406 12606 9690 4484 6122 7311 3922 5295 4386 4206 4005 3105 2117 2506 3568 3105 1880 2791 3430 1659 575 2291 808 2547 2099 383 1276
cat_boundaries=0 1
cat_threshold=2
is_linear=0
shrinkage=0.0194071


Tree=2
num_leaves=31
num_cat=12
split_feature=74 74 74 50 74 52 74 74 74 76 76 76 76 76 76 76 5 15 5 5 5 47 77 77 15 76 15 63 76 77
split_gain=153887 38346.9 25100.2 7572.17 6541.39 2874.63 2006.73 1038.55 771.827 659.279 610.14 545.653 432.617 386.253 317.428 255.645 225.832 220.768 208.673 179.154 173.847 164.097 150.936 134.694 127.145 121.679 112.989 109.673 107.56 102.642
threshold=29.635407066052231 17.757757296466977 46.278571428571432 12.723214285714286 24.967939766326868 34.467032967032971 9.3825652841781899 39.016666666666673 21.370967741935488 0 1 2 3 4 5 6 1695.5000000000002 1.0000000180025095e-35 1281.5000000000002 1308.5000000000002 1587.5000000000002 30.500000000000004 7 8 4.5000000000000009 9 4.5000000000000009 1.0000000180025095e-35 10 11
decision_type=2 2 2 2 2 2 2 2 2 1 1 1 1 1 1 1 2 2 2 2 2 2 1 1 2 1 2 2 1 1
left_child=1 3 5 6 8 15 27 12 11 -5 19 16 28 20 -10 -2 -3 -9 -15 25 -4 -16 -14 -13 -8 -6 -19 -1 -7 -12
right_child=2 4 13 9 10 7 24 17 14 -11 29 23 22 18 21 -17 -18 26 -20 -21 -22 -23 -24 -25 -26 -27 -28 -29 -30 -31
leaf_value=-0.03495257772262194 4.4086153226403839e-05 -0.010464920516962791 0.0069335863341589378 -0.015614563699280637 -0.0033278946455006513 0.0037790695862944118 -0.027145219794223081 0.0046860809828142063 -0.010613431953083629 -0.019923488372062374 -0.0063342738727714442 -0.013271930808065617 0.0013763907089020787 0.0055597936050745082 -0.01098166297720695 -0.0018217699975666254 -0.006911324258134832 0.0031664531880941297 0.0067964519026278798 -0.002854188336417751 0.007995062542498382 -0.0073458958267279299 0.00033572149576652644 -0.011243762534620736 -0.023424555047711182 -0.0060506858126447086 0.001947789790187866 -0.039528578298413539 0.0020386762349443354 -0.0050085317718163314
leaf_weight=5394.6377745121717 38094.995848417282 12552.836188256741 99095.259231567383 32920.254494890571 11966.324748754501 20125.598824739456 11423.566052056849 28043.093090295792 17231.875649273396 23760.198383554816 36806.820853620768 18971.202674925327 88993.881964087486 68104.263167262077 5097.8395012617111 100978.20729351044 14697.191605567932 93620.279525279999 212394.11251449585 73180.160036087036 142462.63955688477 60047.012449890375 128008.98247408867 43743.112535685301 5638.6047313809395 13102.92981505394 41356.56881570816 4323.2043587975204 40326.89234650135 57546.384819984436
leaf_count=1156 1091 724 1048 2087 446 222 1637 303 754 1835 1212 1038 1217 1048 334 2477 402 1210 1458 1415 832 2017 2038 2042 654 618 604 1037 528 1604
internal_value=6.10581e-07 -0.00958388 0.00390198 -0.0214511 -0.00686958 0.00112159 -0.029957 0.0018896 -0.00961633 -0.0174292 -0.00441155 -0.01086 0.00116722 0.0069885 -0.00825735 -0.00131082 -0.0085473 0.00311897 0.0064961 -0.00333939 0.0075595 -0.00763032 0.000762577 -0.0118606 -0.0259251 -0.00475597 0.00279317 -0.0370137 0.00261896 -0.00552672
internal_weight=1.55001e+06 448404 1.1016e+06 83460.5 364944 579549 26780 440475 172341 56680.5 192603 89964.3 277455 522056 82376.7 139073 27250 163020 280498 98249.4 241558 65144.9 217003 62714.3 17062.2 25069.3 134977 9717.84 60452.5 94353.2
internal_count=35088 21012 14076 8406 12606 9690 4484 6122 7311 3922 5295 4206 4005 4386 3105 3568 1126 2117 2506 2479 1880 2351 3255 3080 2291 1064 1814 2193 750 2816
cat_boundaries=0 1 2 3 4 5 6 7 8 10 11 12 14
cat_threshold=266338368 1884191 520192 17280 12416 1576832 25087 1626870256 738258944 5120 1867777 128 122 49956
is_linear=0
shrinkage=0.0194071


Tree=3
num_leaves=31
num_cat=10
split_feature=74 74 74 74 74 49 74 74 76 76 76 74 76 76 76 49 15 85 76 49 85 85 85 76 76 77 15 15 63 62
split_gain=147542 36256.5 24341.4 7821.09 5674.34 2727.3 1819.75 866.953 810.74 703.977 522.343 429.661 406.82 377.258 363.311 232.693 213.891 203.434 183.883 171.178 171.161 153.204 140.207 123.523 116.028 110.382 109.431 109.206 103.471 100.895
threshold=29.635407066052231 18.553686635944704 46.278571428571432 11.808755760368665 25.388600288600291 35.803571428571438 9.3825652841781899 39.016666666666673 0 1 2 20.843010752688176 3 4 5 20.125000000000004 1.0000000180025095e-35 2021.5078713210132 6 52.839285714285715 2021.5817932922657 2021.5817932922657 2021.4093086926764 7 8 9 4.5000000000000009 4.5000000000000009 1.0000000180025095e-35 5.7502030542165716
decision_type=2 2 2 2 2 2 2 2 1 1 1 2 1 1 1 2 2 2 1 2 2 2 2 1 1 1 2 2 2 2
left_child=1 3 5 6 9 12 28 14 -5 22 20 18 -2 19 23 -13 -9 -15 -11 -4 24 -14 -3 -7 -6 -16 -8 -18 -1 -20
right_child=2 4 13 8 10 7 26 16 -10 11 -12 15 21 17 25 -17 27 -19 29 -21 -22 -23 -24 -25 -26 -27 -28 -29 -30 -31
leaf_value=-0.033813216962250821 0.00069617168676010071 -0.013129904583574848 0.0065406676337210661 -0.014918961179110356 -0.0032566225055956819 0.0036841743730557592 -0.026378738305048291 0.0046106659505277319 -0.019445032758980161 -0.012009746289644048 -0.0053198771081617554 -0.010110380639993172 -0.0023421448282789801 0.0054729357849877987 -1.6900382626572049e-05 -0.0072049737181298923 0.0031123016940053142 0.006696425466805515 -0.0097606616328820006 0.0077485382266484562 -0.0027937812445516528 -0.00096598826786720529 -0.010586070519076826 0.0018738101190175038 -0.0059117539838717623 0.0010593270091393838 -0.022859460078331423 0.001913297906143388 -0.038224355127004006 -0.006822507565841001
leaf_weight=5467.6855583116412 42829.064747452736 10817.233433127403 58851.26868724823 40178.682964935899 11991.015309870243 18034.720454216003 11106.915190123022 27956.331677675247 24596.307653054595 12746.408290624619 89293.060459315777 12108.599822044373 48932.881290793419 67845.086290478706 54928.949063658714 74843.757338017225 93408.856252670288 211393.14433288574 20157.051835656166 181429.84894108772 73310.388072013855 80777.629640579224 35364.985118150711 67346.99460709095 13150.512763619423 103587.86053109169 5464.1908278167248 41307.09379529953 4383.5725732259452 5728.7392854690552
leaf_count=1156 1063 882 731 2506 446 197 1434 303 2066 623 2646 771 1719 1048 911 2408 1208 1458 950 1149 1415 1312 1311 902 618 1471 573 604 1037 170
internal_value=8.887e-07 -0.00934927 0.00383679 -0.0202777 -0.00657674 0.0011007 -0.0291776 0.00196829 -0.0166447 -0.00912578 -0.0042444 -0.00836779 -0.000943701 0.00688668 0.00123635 -0.0076103 0.00306561 0.00639907 -0.0100733 0.00745258 -0.00326781 -0.00148512 -0.0111813 0.00225684 -0.00465024 0.000686432 -0.0252278 0.00274477 -0.0358003 -0.00910881
internal_weight=1.54934e+06 450709 1.09863e+06 91197.4 359512 579110 26422.4 406571 64775 171767 187745 125585 172540 519519 243899 86952.4 162672 279238 38632.2 240281 98451.9 129711 46182.2 85381.7 25141.5 158517 16571.1 134716 9851.26 25885.8
internal_count=35088 21012 14076 8772 12240 9690 4200 5596 4572 7115 5125 4922 4094 4386 3481 3179 2115 2506 1743 1880 2479 3031 2193 1099 1064 2382 2007 1812 2193 1120
cat_boundaries=0 1 2 3 4 5 6 7 8 9 11
cat_threshold=266338368 1576832 1884191 9151 12416 18305 188743680 128 1867777 235359246 6
is_linear=0
shrinkage=0.0194071


Tree=4
num_leaves=31
num_cat=9
split_feature=74 74 74 50 74 52 74 74 74 76 76 76 76 76 76 76 5 15 5 5 5 47 50 74 74 15 76 15 76 6
split_gain=141467 34287.9 23602 6697.22 5908.58 2671.87 1761.47 966.663 698.221 579.722 555.02 490.304 404.931 368.379 281.996 238.593 209.222 207.155 198.28 169.075 163.546 150.185 131.487 128.622 119.429 112.693 110.658 105.596 100.735 99.5441
threshold=29.635407066052231 17.757757296466977 46.278571428571432 12.723214285714286 24.967939766326868 34.467032967032971 9.3825652841781899 39.016666666666673 21.370967741935488 0 1 2 3 4 5 6 1695.5000000000002 1.0000000180025095e-35 1281.5000000000002 1587.5000000000002 1308.5000000000002 30.500000000000004 16.616071428571434 36.426907322068622 19.631103663361731 4.5000000000000009 7 4.5000000000000009 8 2.5000000000000004
decision_type=2 2 2 2 2 2 2 2 2 1 1 1 1 1 1 1 2 2 2 2 2 2 2 2 2 2 1 2 1 2
left_child=1 3 5 6 8 15 29 12 11 22 20 16 28 19 -10 -2 -3 -9 -15 -4 26 -16 -5 -14 -13 -8 -6 -19 -7 -1
right_child=2 4 13 9 10 7 25 17 14 -11 -12 24 23 18 21 -17 -18 27 -20 -21 -22 -23 -24 -25 -26 -27 -28 -29 -30 -31
leaf_value=-0.019715976678705092 4.7232930953943218e-05 -0.0099722523707258138 0.0067264595169732686 -0.016425711739157519 -0.0031870129334842178 0.0036587275317660128 -0.025508492841452537 0.0045348832988709939 -0.010064945690495307 -0.019162564933501606 -0.0052785156783033615 -0.01288226845790506 0.0003190083057690581 0.0053870914560882471 -0.010456173094687946 -0.0017547479999974215 -0.0065690520808497077 0.0030577193975681719 0.0065973745465977623 0.0077785905867455733 -0.0027347531017778985 -0.0069977927325379176 -0.014054213816443586 0.0012723318224215417 -0.010817392882406596 -0.022044752675993064 -0.0057764609221754425 0.0018778012772031657 0.0019710788936752048 -0.034912965083290205
leaf_weight=193.95381474494934 38098.713363528252 12692.846204936504 98125.301466941833 15218.721091404557 12015.247131228447 20029.44229722023 11694.34102936089 27866.732928514481 17445.125416755676 20047.847430154681 94978.546291619539 13692.650067985058 122318.07132661343 67591.162429451942 5157.5443727374077 101186.00847965479 14825.254550933838 93228.858934402466 210412.5784072876 140905.12671661377 73438.176884651184 60571.111181080341 22425.625445783138 94473.921428084373 49835.200518965721 5762.0234024226665 13197.250630617142 41251.631236076355 40227.521010279655 9791.3146252073348
leaf_count=18 1091 724 1048 1220 446 222 1637 303 754 1551 2816 749 1943 1048 334 2477 402 1210 1458 832 1415 2017 1151 1312 2331 654 618 604 528 2175
internal_value=1.15473e-06 -0.00912127 0.00377251 -0.0202196 -0.00655238 0.00108017 -0.0281136 0.00182262 -0.00914539 -0.016462 -0.00421906 -0.0103205 0.00112577 0.00678582 -0.00785833 -0.00126199 -0.00813785 0.00301172 0.00630303 0.00734657 -0.0031979 -0.00726908 -0.0150117 0.000734441 -0.011262 -0.0243739 -0.00454714 0.00269589 0.00253291 -0.034631
internal_weight=1.5487e+06 452983 1.09572e+06 85133.8 367849 578681 27441.6 439396 174220 57692.2 193629 91046 277049 517034 83173.8 139285 27518.1 162347 278004 239030 98650.7 65728.7 37644.3 216792 63527.9 17456.4 25212.5 134480 60257 9985.27
internal_count=35088 21012 14076 8406 12606 9690 4484 6122 7311 3922 5295 4206 4005 4386 3105 3568 1126 2117 2506 1880 2479 2351 2371 3255 3080 2291 1064 1814 750 2193
cat_boundaries=0 1 2 3 4 5 6 7 8 9
cat_threshold=266338400 1884191 520192 17280 12416 1576832 25087 1867777 128
is_linear=0
shrinkage=0.0194071


Tree=5
num_leaves=31
num_cat=8
split_feature=74 74 74 74 74 52 72 74 76 76 76 76 74 72 76 49 15 5 76 49 5 77 5 76 15 5 63 52 72 15
split_gain=135652 32434.2 22882 6919.48 5134.44 2572.03 1596.9 933.283 714.927 631.967 475.541 390.539 386.323 362.034 229.501 211.355 200.624 193.214 168.753 166.314 151.3 138.275 131.54 106.341 102.069 98.6737 98.3391 98.0406 97.8571 96.6009
threshold=29.635407066052231 18.553686635944704 46.278571428571432 11.808755760368665 25.388600288600291 34.467032967032971 20.82112714275021 39.016666666666673 0 1 2 3 20.843010752688176 41.066350400479088 4 20.125000000000004 1.0000000180025095e-35 1281.5000000000002 5 52.839285714285715 1308.5000000000002 6 1245.5000000000002 7 4.5000000000000009 2036.5000000000002 1.0000000180025095e-35 32.357142857142868 42.346063515233183 4.5000000000000009
decision_type=2 2 2 2 2 2 2 2 1 1 1 1 2 2 1 2 2 2 1 2 2 1 2 1 2 2 2 2 2 2
left_child=1 3 5 6 9 14 26 11 -5 22 20 28 18 17 27 -14 -9 -4 -11 -15 23 -13 -3 -6 25 -18 -1 -2 -7 -8
right_child=2 4 13 8 10 7 29 16 -10 12 -12 21 15 19 -16 -17 24 -19 -20 -21 -22 -23 -24 -25 -26 -27 -28 -29 -30 -31
leaf_value=-0.031607614219365782 -0.0021143483966717456 -0.012493695161122064 0.0053022602299987827 -0.014119106649254231 -0.0031190215954119828 0.001935859242926163 -0.024792673859251678 0.0044607235565226446 -0.018331959318370894 -0.011418881774466139 -0.0050107669897533806 0.0013089340550894648 -0.0096224297203210459 0.0063386170425490202 0.00060166106532617131 -0.0068682477711606181 0.0025615474427310297 0.0064993050986932874 -0.0086572387972127258 0.0075348888093262414 -0.002599031664857004 0.00031200681537883453 -0.010046344045279326 -0.0057466285803245924 0.001843663989679737 0.003907750242864801 -0.035820996575899093 -0.00099363328031576372 0.0035984868357959456 -0.021521831871373711
leaf_weight=5617.6354325823486 60971.640299677849 10960.878625482321 67342.382288813591 40816.156868830323 12039.028314292431 40175.306364655495 11366.79520919919 27781.169187545776 25076.576351329684 12909.16538771987 96647.586673557758 88781.853951096535 12243.812049686909 58302.476399183273 21612.688283920288 75478.350084781647 62438.022351264954 209451.99243164062 26161.892861455679 179502.81158018112 68581.390612602234 127906.36584174633 35795.719726324081 11445.21825504303 41200.673489809036 30600.871513366699 4502.1092113479972 56811.356138706207 19980.288194417953 5581.7920778393745
leaf_count=1156 1824 882 1048 2506 446 528 1434 303 2066 623 2828 1217 771 731 738 2408 913 1458 1120 1149 1311 2038 1311 540 604 297 1037 1006 222 573
internal_value=1.40694e-06 -0.00889968 0.00370913 -0.0191255 -0.00627532 0.00106001 -0.0273878 0.00178945 -0.015729 -0.00868458 -0.00405942 0.00110476 -0.00796909 0.00668593 -0.00123651 -0.00725336 0.0029593 0.0062082 -0.0095766 0.00724178 -0.00305956 0.000720538 -0.0106195 -0.00440463 0.00264837 0.00300456 -0.0335042 -0.00157374 0.00248801 -0.0237242
internal_weight=1.54808e+06 455224 1.09286e+06 92961.1 362263 578260 27068.3 438865 65892.7 173550 188713 276844 126793 514600 139396 87722.2 162021 276794 39071.1 237805 92065.6 216688 46756.6 23484.2 134240 93038.9 10119.7 117783 60155.6 16948.6
internal_count=35088 21012 14076 8772 12240 9690 4200 6122 4572 7115 5125 4005 4922 4386 3568 3179 2117 2506 1743 1880 2297 3255 2193 986 1814 1210 2193 2830 750 2007
cat_boundaries=0 1 2 3 4 5 6 7 8
cat_threshold=266338368 1576832 1867807 17280 2088448 188743680 1626870256 1867777
is_linear=0
shrinkage=0.0194071


Tree=6
num_leaves=31
num_cat=10
split_feature=74 74 74 74 74 52 72 74 74 76 76 76 76 72 76 76 5 16 5 5 5 48 47 77 77 76 17 5 77 17
split_gain=130085 30689.2 22180.8 5917.63 5341.71 2475.87 1498.17 900.998 632.37 565.006 506.653 441.949 376.63 353.325 250.746 222.547 196.355 194.271 188.235 164.292 149.683 141.411 137.593 133.167 108.671 100.698 98.6519 95.5349 95.2922 94.7262
threshold=29.635407066052231 17.757757296466977 46.278571428571432 11.808755760368665 24.967939766326868 34.467032967032971 20.82112714275021 39.016666666666673 21.370967741935488 0 1 2 3 41.066350400479088 4 5 1695.5000000000002 0.81174490092936691 1281.5000000000002 1587.5000000000002 1308.5000000000002 15.250000000000002 30.500000000000004 6 7 8 -0.60785761079279388 1956.5000000000002 9 -0.60785761079279388
decision_type=2 2 2 2 2 2 2 2 2 1 1 1 1 2 1 1 2 2 2 2 2 2 2 1 1 1 2 2 1 2
left_child=1 3 5 6 8 15 29 12 11 21 20 16 -7 18 -10 -2 -3 26 -4 -15 25 -5 -16 -14 -13 -6 -9 -28 -12 -1
right_child=2 4 13 9 10 7 -8 17 14 -11 28 24 23 19 22 -17 -18 -19 -20 -21 -22 -23 -24 -25 -26 -27 27 -29 -30 -31
leaf_value=-0.029515418149013758 5.3089507863796576e-05 -0.0095163016497211064 0.0052184410486544744 -0.016331534210683552 -0.0030526055444818406 0.002443817283226333 -0.023005314798123209 0.0018101053841999425 -0.0095498050130166569 -0.018683993950457632 -0.0058163368353539111 -0.011950359159729758 0.0012846460884686042 0.0065233271423005938 -0.0099607470789786941 -0.0016866214196191865 -0.0062354390646333011 0.0043875428652136381 0.006402222844246669 0.0075655794174921999 -0.0026188987696528152 -0.013747908183774469 -0.0066686459094961242 0.00030601477159073734 -0.010152078216181906 -0.005516295539410492 0.0024696691976765347 0.003756572469004901 -0.0045486203498516587 -0.033837513472188004
leaf_weight=3411.4612697958946 38105.856335878372 12825.879900068045 67098.640433073044 11038.146197527647 12062.366892397404 60056.205573916435 17137.482094958425 41150.723769187927 17651.406876891851 16756.349863037467 37305.41488841176 19501.524766355753 88705.88565826416 97195.014179706573 5215.433164536953 101398.42300671339 14952.744805335999 27697.329486608505 208510.9695854187 139410.15308380127 73690.444383621216 31590.914547756314 61076.969487965107 127880.56679832935 44813.833968639374 13288.252874612808 58050.877443790436 34801.590446472168 58272.541010379791 6842.9072544686496
leaf_count=626 1091 724 1048 1060 446 750 2007 604 754 1439 1212 1038 1217 1048 334 2477 402 303 1458 832 1415 1707 2017 2038 2042 618 868 342 1604 1567
internal_value=1.64183e-06 -0.00868431 0.00364665 -0.0190729 -0.00625186 0.00104021 -0.0265365 0.00175685 -0.00870151 -0.0156277 -0.00403587 -0.00981282 0.00108412 0.00658701 -0.00748163 -0.00121155 -0.00774938 0.00290769 0.00611416 0.00713763 -0.00306156 -0.0144159 -0.00692756 0.000706894 -0.0107003 -0.0043485 0.00260161 0.00295224 -0.00504435 -0.0324195
internal_weight=1.5475e+06 457434 1.09006e+06 86777.3 370657 577847 27391.9 438343 176038 59385.4 194619 92094 276643 512215 83943.8 139504 27778.6 161701 275610 236605 99041.1 42629.1 66292.4 216586 64315.4 25350.6 134003 92852.5 95578 10254.4
internal_count=35088 21012 14076 8406 12606 9690 4200 6122 7311 4206 5295 4206 4005 4386 3105 3568 1126 2117 2506 1880 2479 2767 2351 3255 3080 1064 1814 1210 2816 2193
cat_boundaries=0 1 2 3 4 5 6 7 9 10 12
cat_threshold=266338401 1884191 520192 17280 1576832 25087 1626870256 738258944 5120 1867777 122 49956
is_linear=0
shrinkage=0.0194071


Tree=7
num_leaves=31
num_cat=8
split_feature=74 74 74 74 74 52 72 74 76 76 76 76 74 72 76 50 15 5 49 76 5 74 52 76 15 5 72 76 74 6
split_gain=124755 29046.6 21498.2 6125.17 4647.31 2383.26 1528 869.767 566.806 529.156 439.888 363.192 348.607 344.742 214.155 199.686 188.096 183.344 161.449 155.292 124.178 115.891 115.627 109.398 95.3403 94.9168 94.7857 93.9803 93.299 93.1628
threshold=29.635407066052231 18.553686635944704 46.278571428571432 12.624423963133642 25.388600288600291 34.467032967032971 20.82112714275021 39.016666666666673 0 1 2 3 20.843010752688176 41.066350400479088 4 22.562500000000004 1.0000000180025095e-35 1281.5000000000002 52.839285714285715 5 1641.5000000000002 36.426907322068622 28.730769230769237 6 4.5000000000000009 1308.5000000000002 42.346063515233183 7 53.082949308755765 2.5000000000000004
decision_type=2 2 2 2 2 2 2 2 1 1 1 1 2 2 1 2 2 2 2 1 2 2 2 1 2 2 2 1 2 2
left_child=1 3 5 6 8 14 29 11 20 -5 -6 26 19 17 25 27 -9 -4 -15 -10 -3 -13 -12 -17 -18 -2 -7 -14 -20 -1
right_child=2 4 13 9 10 7 -8 16 12 -11 22 21 15 18 -16 23 24 -19 28 -21 -22 -23 -24 -25 -26 -27 -28 -29 -30 -31
leaf_value=-0.017389202645964656 -0.0021469163669448816 -0.011216551844261456 0.0051356327092798087 -0.017062378966133697 -0.002647576663690305 0.0018563439523485803 -0.022110546159587428 0.0043153362547526681 -0.010866332556482854 -0.013370036388327558 -0.0050467353661155078 0.00029922112606698889 -0.0092442155183850277 0.0061407195502594034 0.00058921672098081633 -0.0047499530695363215 0.0029007200353855073 0.0063061328180958704 0.0067721070955899191 -0.0082330141900602595 -0.0092001010513691733 0.001204876041474555 -0.0037950317612042302 -0.0067219362103950403 0.0017771171621842122 -0.0010347936602065257 0.0034956375873667002 -0.0071841564650328982 0.0076861674312222869 -0.03164141705215464
leaf_weight=202.24701106548309 50666.894896447659 20864.55172291398 66859.832546472549 23588.752854809165 69109.895904779434 40059.606023669243 19275.413976669312 27615.178342580795 13066.091372877359 41436.713090822101 76744.543084383011 122236.55786895752 14655.276911646128 57776.261533737183 21603.510444879532 15370.702295184135 92669.760714769363 207589.10277938843 70281.997480869293 26428.149472638965 26451.222409009933 94250.123118638992 43789.068660736084 36819.24544864893 41101.759766817093 67340.650524139404 19899.449704647064 21622.536646425724 107371.2857208252 10186.810854803771
leaf_count=18 1722 1278 1048 1880 1671 528 2193 303 623 2506 2513 1943 722 731 738 391 1210 1458 491 1120 915 1312 941 1175 604 1108 222 891 658 2175
internal_value=1.86129e-06 -0.00847497 0.00358505 -0.0180524 -0.00598954 0.00102077 -0.0253614 0.0017248 -0.00826761 -0.0147157 -0.00388382 0.00106386 -0.00759241 0.00648907 -0.00118712 -0.00691484 0.00285687 0.00602111 0.00703441 -0.00911071 -0.0100886 0.000693502 -0.00459185 -0.00614403 0.00255559 -0.00151225 0.00240032 -0.00802242 0.00732482 -0.0313752
internal_weight=1.54693e+06 459611 1.08732e+06 94689.9 364921 577443 29664.5 437832 175278 65025.5 189644 276446 127962 509878 139611 88467.8 161387 274449 235430 39494.2 47315.8 216487 120534 52189.9 133772 118008 59959.1 36277.8 177653 10389.1
internal_count=35088 21012 14076 8772 12240 9690 4386 6122 7115 4386 5125 4005 4922 4386 3568 3179 2117 2506 1880 1743 2193 3255 3454 1566 1814 2830 750 1613 1149 2193
cat_boundaries=0 1 2 3 4 5 6 7 8
cat_threshold=1576832 63 1867787 17280 2088448 188743680 2154496 10977280
is_linear=0
shrinkage=0.0194071


Tree=8
num_leaves=31
num_cat=10
split_feature=74 74 74 50 74 52 74 74 74 76 76 76 76 72 76 76 85 72 85 76 85 50 77 47 77 85 17 45 77 17
split_gain=119650 27495.2 20833.9 5249.34 4833.06 2294.06 1351.67 839.551 574.071 464.895 459.379 398.933 350.22 336.294 223.223 207.317 183.212 182.097 178.541 161.953 159.534 146.686 128.753 126.912 124.648 113.855 100.125 99.7446 116.19 92.129
threshold=29.635407066052231 17.757757296466977 46.278571428571432 12.723214285714286 24.967939766326868 34.467032967032971 9.3825652841781899 39.016666666666673 21.370967741935488 0 1 2 3 41.066350400479088 4 5 2022.6420260095827 31.28449453551913 2021.5078713210132 6 2022.3463381245724 16.616071428571434 7 30.500000000000004 8 2021.5571526351816 -0.60785761079279388 35.500000000000007 9 -0.60785761079279388
decision_type=2 2 2 2 2 2 2 2 2 1 1 1 1 2 1 1 2 2 2 1 2 2 1 2 1 2 2 2 1 2
left_child=1 3 5 6 8 15 -1 12 11 19 21 16 -7 18 -10 -2 -3 29 -4 -6 -15 -5 -11 -16 -14 -21 -8 28 -13 -9
right_child=2 4 13 10 9 7 26 17 14 22 -12 27 24 20 23 -17 -18 -19 -20 25 -22 -23 -24 -25 -26 -27 -28 -29 -30 -31
leaf_value=-0.030369586641814873 5.7619688928751163e-05 -0.0090800225446907648 0.0050538334754830321 -0.014886269227086239 -0.0018081841176351742 0.0023575455550362049 -0.019463557852200348 0.0017446911886577331 -0.0090651684227729609 -0.0041271457822657561 -0.017537048446022007 -0.0096914788000246332 0.0012258519415600164 0.0063242076799692694 -0.009501143278691157 -0.0016209477904998899 -0.0059255738061923914 0.0042440985924705223 0.0062110392765066602 -0.0047447063389287822 0.007356163852208524 -0.012597504804217258 -0.0056377242509359016 -0.0063557832454864916 0.00028257508274972452 -0.0030509556263188984 -0.022643530848833703 -0.0092253520828708951 -0.011873068119644548 0.0028499829521804747
leaf_weight=10523.700041383505 38111.390593767166 12956.396542534232 66625.855448007584 19982.541796445847 30231.156833469868 59863.572160720825 6013.24746273458 41053.762712717056 17851.025529503822 40752.761286199093 16260.268207594752 19608.374529838562 91236.7290776968 96302.451242208481 5270.5531303286552 101604.15902614594 15073.492321014404 27534.681059598923 206685.99608230591 20075.596414983273 137975.23668289185 23396.163682669401 45626.276282161474 61567.019185066223 125152.16027545929 58886.512184143066 12213.164184644818 25729.393492996693 19739.511023491621 92490.937608003616
leaf_count=2193 1091 724 1048 1507 678 750 654 604 754 1104 1249 936 1253 1048 334 2477 402 303 1458 878 832 1166 1450 2017 2002 1185 1637 1022 1122 1210
internal_value=2.06865e-06 -0.00827142 0.00352433 -0.0180042 -0.00596705 0.00100167 -0.0248174 0.0016933 -0.00828283 -0.00386157 -0.0147174 -0.00933531 0.00104396 0.00639213 -0.00712508 -0.0011632 -0.00738283 0.00280684 0.00592907 -0.00301857 0.00693216 -0.0136508 -0.00492598 -0.00660374 0.000680355 -0.0034815 -0.0216018 -0.0101728 -0.0107932 0.0025103
internal_weight=1.54639e+06 461757 1.08464e+06 88389.1 373368 577047 28750.1 437332 177796 195572 59639 93107.2 276252 507590 84688.6 139716 28029.9 161079 273312 109193 234278 43378.7 86379 66837.6 216389 78962.1 18226.4 65077.3 39347.9 133545
internal_count=35088 21012 14076 8406 12606 9690 4484 6122 7311 5295 3922 4206 4005 4386 3105 3568 1126 2117 2506 2741 1880 2673 2554 2351 3255 2063 2291 3080 2058 1814
cat_boundaries=0 1 2 3 4 5 6 7 9 10 12
cat_threshold=3981343 266371169 520192 17280 1576832 25087 1572865 251662085 3082 1895305712 350814208 224
is_linear=0
shrinkage=0.0194071


Tree=9
num_leaves=31
num_cat=8
split_feature=74 74 74 74 74 49 72 74 76 72 76 76 72 74 76 50 15 5 49 76 5 5 50 77 76 72 15 77 74 15
split_gain=114761 26032.7 20187.4 5419.64 4212.03 2200.69 1341.85 696.185 512.164 473.13 403.399 330.109 327.968 313.114 305.833 182.994 176.334 173.827 156.6 142.345 135.019 117.142 108.085 104.086 103.61 102.512 97.7495 96.7026 91.7536 91.1296
threshold=29.635407066052231 18.553686635944704 46.278571428571432 12.624423963133642 25.388600288600291 35.803571428571438 20.82112714275021 39.016666666666673 0 29.748630136986304 1 2 41.066350400479088 20.843010752688176 3 22.562500000000004 1.0000000180025095e-35 1281.5000000000002 52.839285714285715 4 1182.5000000000002 1245.5000000000002 28.241071428571434 5 6 42.346063515233183 1.0000000180025095e-35 7 53.082949308755765 4.5000000000000009
decision_type=2 2 2 2 2 2 2 2 1 2 1 1 2 2 1 2 2 2 2 1 2 2 2 1 1 2 2 1 2 2
left_child=1 3 5 6 8 11 29 14 21 26 -6 -2 17 19 25 23 -9 -4 -14 -10 -13 -3 -12 -15 -17 -7 -5 -16 -20 -1
right_child=2 4 12 9 10 7 -8 16 13 -11 22 20 18 15 27 24 -18 -19 28 -21 -22 -23 -24 -25 -26 -27 -28 -29 -30 -31
leaf_value=-0.030751143859507748 0.00063215997339587798 -0.011341216183186934 0.004973041155683873 -0.01053818218015494 -0.0025340497805183592 0.0017044885803766307 -0.020821747813715586 0.0041749607412346823 -0.010336319860923824 -0.016465956387454499 -0.0048739656327459304 -0.0022077786448593761 0.0059470194412283199 -0.0089754858030949951 -0.00017097652437909251 -0.0045079558986967951 0.0024666095427337857 0.0061169462531134042 0.0065678608338450911 -0.0078297079459162221 -0.00088701113633509723 -0.0090607684683678899 -0.0036928983981166239 -0.0068088645609059228 -0.0064195136443484469 0.0033616901602463536 -0.013207208979928976 0.00090351121515517088 0.0074786334196670669 -0.026642980526967893
leaf_weight=7109.7776057235897 42734.110938191414 11233.566010832787 66396.610479950905 6122.6514634490013 69343.044086873531 66935.33000099659 19682.167857341468 27458.55659365654 13221.042754769325 19582.461160480976 71762.406980991364 44031.045031070709 57271.691756725311 14119.640894055367 43533.397269010544 15473.060562372208 133313.45828175545 205801.25992965698 69610.299536466599 26687.344751358032 86292.993309259415 36616.352914810181 49435.701597571373 22488.355670034885 37104.489904344082 17805.657544136047 40339.163915738463 114555.17255580425 106267.55540943146 3548.6499568745494
leaf_count=1567 1063 882 1048 314 1671 902 2193 303 623 1567 2360 1445 731 703 703 391 1812 1458 491 1120 1586 1311 1094 910 1175 197 2505 1679 658 626
internal_value=2.26203e-06 -0.00807352 0.00346448 -0.0170504 -0.00571879 0.000982921 -0.0238412 0.00176797 -0.00787486 -0.0139286 -0.00371637 -0.000847941 0.00629617 -0.00723528 0.00111207 -0.00659518 0.00275854 0.00583804 0.00683085 -0.00866623 -0.00133323 -0.00959562 -0.00439208 -0.0076503 -0.00585967 0.00205269 -0.012857 0.000607639 0.00711842 -0.0294007
internal_weight=1.54588e+06 463870 1.08201e+06 96384.9 367485 576660 30340.6 403602 176944 66044.3 190541 173058 505347 129094 242830 89185.5 160772 272198 233150 39908.4 130324 47849.9 121198 36608 52577.6 84741 46461.8 158089 175878 10658.4
internal_count=35088 21012 14076 8772 12240 9690 4386 5596 7115 4386 5125 4094 4386 4922 3481 3179 2115 2506 1880 1743 3031 2193 3454 1613 1566 1099 2819 2382 1149 2193
cat_boundaries=0 1 2 3 4 5 7 8 10
cat_threshold=1576832 1867787 9151 18305 188743680 3809476608 76 2154496 235359234 4
is_linear=0
shrinkage=0.0194071


Tree=10
num_leaves=31
num_cat=9
split_feature=74 74 74 74 74 52 72 74 74 76 76 76 76 72 76 76 5 15 5 5 50 47 77 76 45 77 15 5 72 63
split_gain=110079 24660.2 19558.4 4644.66 4376.57 2131.21 1043.17 780.862 569.213 538.57 385.389 360.16 327.445 319.78 209.097 193.56 170.72 170.609 169.202 154.786 134.097 120.373 117.966 106.077 91.0833 106.015 89.1688 93.2961 88.9178 87.6359
threshold=29.635407066052231 17.757757296466977 46.278571428571432 11.540783410138252 25.388600288600291 34.467032967032971 20.82112714275021 39.016666666666673 21.370967741935488 0 1 2 3 41.066350400479088 4 5 1695.5000000000002 1.0000000180025095e-35 1281.5000000000002 1587.5000000000002 16.616071428571434 30.500000000000004 6 7 35.500000000000007 8 4.5000000000000009 2036.5000000000002 42.346063515233183 1.0000000180025095e-35
decision_type=2 2 2 2 2 2 2 2 2 1 1 1 1 2 1 1 2 2 2 2 2 2 1 1 2 1 2 2 2 2
left_child=1 3 5 6 8 15 29 12 11 20 -6 16 28 18 -10 -2 -3 -9 -4 -15 -5 -16 -14 -12 25 -13 27 -19 -7 -1
right_child=2 4 13 9 10 7 -8 17 14 -11 23 24 22 19 21 -17 -18 26 -20 -21 -22 -23 -24 -25 -26 -27 -28 -29 -30 -31
leaf_value=-0.026766238024443237 6.0061281089320866e-05 -0.0086645363817371996 0.0048932533618661128 -0.014106788321886204 -0.0024809105987667764 0.0017514072062561113 -0.02061726456364827 0.0041045692656541373 -0.0086095354530476599 -0.016866700239554732 -0.0050963464667251566 -0.0092160414117455208 0.0011862813979836529 0.0061291884231463121 -0.0090754415856158892 -0.0015614031781314716 -0.0056330975297617875 0.0023244099378462381 0.0060238570770497438 0.0071503769734000532 -0.011932255687261492 -0.0060373332067296956 0.00026817720087432697 -0.0038796293187696044 -0.0087728748951240026 -0.011287044618844461 0.0016677787867482494 0.0036399106947983531 0.0033432826531927169 -0.030556829484859365
leaf_weight=5992.891105491668 38114.261662006378 13083.751931890845 66171.999180078506 20198.978133693337 69453.011230111122 39908.038246035576 15902.442667677999 27378.577334403992 18043.786432623863 19345.505244091153 41442.567693889141 19824.782870292664 91109.905932068825 95446.363847494125 5322.8956500291824 101791.45688837767 15189.643756866455 61888.807343006134 204934.51404190063 136597.82416534424 23726.554174661636 67550.346030890942 125091.26527738571 80081.189652860165 26003.597758054733 19990.441041588783 40940.437310218811 30275.703113555908 19781.085353374481 4799.5066152848303
leaf_count=1156 1091 724 1048 1601 1671 528 1820 303 754 1626 1259 936 1253 1048 334 2477 402 913 1458 832 1166 2187 2002 2195 1022 1122 604 297 222 1037
internal_value=2.44501e-06 -0.00788105 0.0034055 -0.0170079 -0.00569691 0.000964507 -0.0237981 0.00163276 -0.00782425 -0.0141409 -0.00363585 -0.00888308 0.00100659 0.00620122 -0.00672787 -0.0011198 -0.00703512 0.00270914 0.00574802 0.00673052 -0.0129312 -0.00625919 0.000655139 -0.0042952 -0.00967357 -0.0102627 0.00242192 0.00275678 0.00227889 -0.0284696
internal_weight=1.54538e+06 465952 1.07943e+06 89965.9 375986 576280 26694.8 436374 185009 63271 190977 94092.2 275890 503151 90917 139906 28273.4 160484 271107 232044 43925.5 72873.2 216201 121524 65818.8 39815.2 133105 92164.5 59689.1 10792.4
internal_count=35088 21012 14076 8406 12606 9690 4013 6122 7481 4393 5125 4206 4005 4386 3275 3568 1126 2117 2506 1880 2767 2521 3255 3454 3080 2058 1814 1210 750 2193
cat_boundaries=0 1 2 3 4 5 6 7 8 10
cat_threshold=266338401 1867787 520192 17280 1576832 25087 1895305712 226492448 350814208 224
is_linear=0
shrinkage=0.0194071


Tree=11
num_leaves=31
num_cat=11
split_feature=74 74 74 74 74 52 72 52 76 76 76 72 76 51 76 77 5 77 49 77 77 52 1 74 76 15 74 6 15 15
split_gain=105600 23719.7 18558 4804.05 3984.01 1945.26 1177.82 660.526 465.348 420.456 399.108 311.718 307.897 268.007 174.208 169.986 164.665 159.621 151.772 145.048 141.099 127.933 120.173 90.1685 89.721 89.0408 87.7077 86.8979 83.3672 81.9396
threshold=30.149692780337947 18.553686635944704 46.278571428571432 12.624423963133642 25.388600288600291 39.027472527472533 20.82112714275021 34.324175824175832 0 1 2 41.066350400479088 3 22.071428571428573 4 5 1281.5000000000002 6 52.839285714285715 7 8 28.730769230769237 9 53.082949308755765 10 1.0000000180025095e-35 53.760368663594477 2.5000000000000004 4.5000000000000009 1.0000000180025095e-35
decision_type=2 2 2 2 2 2 2 2 1 1 1 2 1 2 1 1 2 1 2 1 1 2 1 2 1 2 2 2 2 2
left_child=1 3 5 6 8 7 27 14 20 -5 -6 16 22 19 -2 -15 -4 24 -13 -10 -3 -12 29 -20 -9 -17 -18 -1 -8 -7
right_child=2 4 11 9 10 12 28 17 13 -11 21 18 -14 15 -16 25 26 -19 23 -21 -22 -23 -24 -25 -26 -27 -28 -29 -30 -31
leaf_value=-0.0145949164172006 6.8833459907271903e-05 -0.0076493314607638131 0.004814467124886858 -0.015245913312469548 -0.0022095393998059305 0.0039452711458140468 -0.02052891408232814 0.0021785304159148097 -0.0093124565850848523 -0.012006302895452497 -0.0045615520762787342 0.0057575512218077185 0.0016196959885416138 -0.0080756136434969525 -0.0015489678266169076 -0.0040253802313475083 0.0055035280566395383 0.00016863994988047356 0.0063676107329039382 -0.0070937716926269597 -0.0096789921193251114 -0.0033401412633700853 0.0012196115084061444 0.00727464830507428 0.00088050796576137798 -0.0059707555172888631 0.0063123469250688851 -0.027823040326248979 -0.017760115264122613 0.0028181995835077941
leaf_weight=213.48046600818634 34675.503711462021 21126.711906820536 65951.926834702492 24406.689671874046 61657.435483276844 37623.914784908295 13502.215674594045 28477.604019403458 18191.809541076422 42629.10368911922 84222.152685761452 56787.871912002563 123531.22604799271 13023.717229098082 90522.097730457783 10951.949520915747 96075.873569488525 104278.50441658497 68965.926207780838 30736.083677396178 36691.760056972504 52575.004165053368 12770.199546813965 105207.77509403229 68000.783838033676 47834.218671679497 108009.50871276855 10712.39111000672 6577.5641582608223 68976.611035823822
leaf_count=18 1022 837 1048 1880 1463 378 1567 375 945 2506 2732 731 1605 482 2224 288 724 1867 491 1338 1746 1116 165 658 1046 1479 734 2175 626 822
internal_value=2.61349e-06 -0.0076117 0.00338365 -0.0161153 -0.0054001 0.000984905 -0.0224332 5.2156e-06 -0.00750333 -0.0131912 -0.00350756 0.00610725 0.00229953 -0.0068137 -0.00110103 -0.00605803 0.00565902 0.000695115 0.00663115 -0.00792319 -0.00893977 -0.00409201 0.00300255 0.00691575 0.00126395 -0.00560787 0.00593177 -0.0275735 -0.0196281 0.00321591
internal_weight=1.54491e+06 475052 1.06986e+06 98041.4 377011 568856 31005.7 325954 178556 67035.8 198455 500999 242902 120738 125198 71809.9 270037 200757 230962 48927.9 57818.5 136797 119371 174174 96478.4 58786.2 204085 10925.9 20079.8 106601
internal_count=35088 21198 13890 8772 12426 9504 4386 6534 7115 4386 5311 4386 2970 4532 3246 2249 2506 3288 1880 2283 2583 3848 1365 1149 1421 1767 1458 2193 2193 1200
cat_boundaries=0 1 2 3 4 5 7 9 11 13 14 15
cat_threshold=18354048 63 1867785 151 25087 8392704 61440 4042265072 8 2048401408 57396 9830400 7001 6 82817
is_linear=0
shrinkage=0.0194071


Tree=12
num_leaves=31
num_cat=0
split_feature=74 74 74 50 74 52 74 52 72 74 72 74 15 74 52 5 50 5 72 74 15 74 79 5 50 63 5 74 15 5
split_gain=101311 22477.3 17976.2 4531.22 3794.77 1874.63 1045.14 634.983 433.207 413.623 303.791 273.777 269.114 179.053 175.794 160.22 159.192 150.059 142.82 130.035 127.035 104.168 102.673 96.1117 96.0765 90.2537 88.1362 85.4333 83.1675 82.9685
threshold=30.149692780337947 18.553686635944704 46.278571428571432 12.723214285714286 25.388600288600291 39.027472527472533 9.3825652841781899 34.324175824175832 20.82112714275021 21.370967741935488 41.066350400479088 27.502995391705074 1.0000000180025095e-35 37.768970814132111 19.763736263736266 1281.5000000000002 21.866071428571434 1587.5000000000002 31.28449453551913 33.548847926267293 1.0000000180025095e-35 37.370967741935495 69.65000000000002 1146.5000000000002 28.526785714285719 1.0000000180025095e-35 1272.5000000000002 53.760368663594477 4.5000000000000009 1924.5000000000002
decision_type=2 2 2 2 2 2 2 2 2 2 2 2 2 2 2 2 2 2 2 2 2 2 2 2 2 2 2 2 2 2
left_child=1 3 5 6 9 7 -1 19 -5 16 15 24 -7 -14 23 -4 -3 -12 26 -2 -9 -22 -18 -11 -6 -8 -13 -17 29 -15
right_child=2 4 10 8 11 12 25 20 -10 14 17 18 13 28 -16 27 22 -19 -20 -21 21 -23 -24 -25 -26 -27 -28 -29 -30 -31
leaf_value=-0.026710879370132647 -0.0016160319722884043 -0.0091787754782523354 0.0047366793115548415 -0.011527468394783399 -0.0046998407110743542 0.0036849886260011187 -0.017956421781436239 0.0017921082200187558 -0.014635318357263819 -0.0098956063387133832 0.0059383084361520119 -0.0039783911935961126 0.00094745498784380873 0.0021295819248756051 -0.0060857028730388002 0.0054173228942211637 -0.0079901407441816414 0.0069482888859105892 -0.00053088594268038171 -0.00035109840976342907 0.00010836719316606064 0.0011174826410185316 -0.0057897195098611434 -0.0061573843723384189 -0.0033304845046307988 -0.020744162185055526 -0.0026715535798442756 0.006217191329854696 0.0016191549087386384 0.0032354521732054354
leaf_weight=11058.796374127269 72080.528571069241 40270.294883131981 65736.298017382622 37971.638635799289 58365.618594348431 41320.770357608795 10719.729751341045 32522.916921854019 30790.712608829141 7754.3158803880215 94625.244886875153 26201.186663269997 49194.255887985229 60174.41973567009 79934.487288951874 95714.163722991943 37128.407986015081 135275.55695343018 9597.6148135662079 53204.286339998245 108365.69601714611 59777.027119874954 10293.4484821558 3961.2924138307571 28963.207410097122 8313.8489836901426 75756.175082683563 107539.12476348877 47331.949647188187 44510.068370819092
leaf_count=2193 1704 2181 1048 2136 1952 424 1301 470 2121 607 1048 1057 654 803 2467 724 1369 832 183 1542 1819 999 290 201 617 1021 1502 734 634 455
internal_value=2.77173e-06 -0.00743188 0.00332584 -0.0156714 -0.00527813 0.000966452 -0.0219533 5.124e-06 -0.0129204 -0.00732522 0.0060143 -0.003432 0.0022584 0.00196532 -0.00641228 0.00557103 -0.0082788 0.00653277 -0.00279458 -0.0010789 0.000681946 0.000467151 -0.00751338 -0.0086358 -0.00424597 -0.0191809 -0.00300762 0.00584071 0.00229465 0.00259995
internal_weight=1.54445e+06 477081 1.06737e+06 98854.7 378226 568482 30092.4 325950 68762.4 179342 498890 198884 242531 201211 91650.1 268990 87692.2 229901 111555 125285 200666 168143 47421.9 11715.6 87328.8 19033.6 101957 203253 152016 104684
internal_count=35088 21198 13890 8772 12426 9504 4515 6534 4257 7115 4386 5311 2970 2546 3275 2506 3840 1880 2742 3246 3288 2818 1659 808 2569 2322 2559 1458 1892 1258
is_linear=0
shrinkage=0.0194071


Tree=13
num_leaves=31
num_cat=14
split_feature=74 74 74 74 50 52 74 52 51 76 76 72 76 76 76 77 77 76 76 5 77 74 5 1 50 15 77 5 76 77
split_gain=97200.5 21308.4 17410.4 3938.82 3876.71 1806.5 973.025 610.428 459.812 403.805 350.283 295.993 289.489 243.284 219.509 216.791 185.778 171.194 165.212 155.864 150.49 149.386 134.983 125.492 115.818 109.851 108.158 96.4199 92.4265 86.1547
threshold=30.149692780337947 17.757757296466977 46.278571428571432 24.967939766326868 12.723214285714286 39.027472527472533 9.3825652841781899 34.324175824175832 22.071428571428573 0 1 41.066350400479088 2 3 4 5 6 7 8 1281.5000000000002 9 54.457066052227347 1272.5000000000002 10 16.616071428571434 1.0000000180025095e-35 11 1587.5000000000002 12 13
decision_type=2 2 2 2 2 2 2 2 2 1 1 2 1 1 1 1 1 1 1 2 1 2 2 1 2 2 1 2 1 1
left_child=1 4 5 8 6 7 -1 18 14 26 24 19 23 28 -3 -15 -16 -11 -2 -4 -9 27 -19 25 -6 -7 -5 -13 -10 -24
right_child=2 3 11 9 10 12 -8 20 13 17 -12 21 -14 15 16 -17 -18 22 -20 -21 -22 -23 29 -25 -26 -27 -28 -29 -30 -31
leaf_value=-0.025879785576609964 8.1970322591752684e-05 -0.0055956953273361542 0.0046598864527493287 -0.005235226699015938 -0.013008596970674014 0.0038171572632243744 -0.018649413835140901 0.0012219061100388993 -0.0032549068746656 -0.0015020914600143219 -0.01525791629133904 0.0054267716819081597 0.0013396217714698264 -0.0063325923629516008 -0.0076231054204187213 -0.0091280037901418989 -0.0095725716786543309 -0.0044669953756148167 -0.0014928686504562601 0.0057506607259293343 0.00015787981964432028 0.0070195360970566299 -0.0042301810641185962 0.0010930972716085164 -0.011011732745424012 0.0025831542481255499 -0.0038115184182699368 0.0064823238551974284 -0.0057981082610241231 -0.002401211389323006
leaf_weight=11191.313047004864 34690.572074174881 9803.1000429391861 65525.02173948288 37736.495579689741 20748.280629858375 37431.070960521698 19153.055580809712 96335.439618349075 6256.8684214949608 32665.871008098125 16966.266158744693 59150.12305021286 89335.332037687302 26291.997144639492 33963.040237545967 17844.477608770132 42786.621028274298 21987.818983733654 90679.904081881046 202438.09091567993 104240.74564349651 96064.477499961853 11777.559983730316 15845.664953231812 24203.493457883596 99555.934007406235 44172.480427980423 73647.243198394775 44989.907001644373 56540.388507843018
leaf_count=2193 1022 390 1048 1211 1507 378 2291 1421 142 731 1249 692 1186 888 1549 697 2266 985 2224 1458 1867 711 270 207 1166 1199 1188 477 1379 1096
internal_value=2.92758e-06 -0.00725687 0.00326888 -0.00525779 -0.0156372 0.000948332 -0.0213211 5.03222e-06 -0.00733596 -0.00341217 -0.0128496 0.00592235 0.00221794 -0.00640539 -0.00836091 -0.00746579 -0.00871173 -0.00270788 -0.00105723 0.00548405 0.000669017 0.00643537 -0.00314369 0.00273099 -0.0119325 0.00292029 -0.00446837 0.00601246 -0.00548875 -0.00271786
internal_weight=1.54402e+06 479079 1.06494e+06 386817 92262.4 568115 30344.4 325947 181936 204881 61918 496825 242168 95383.3 86552.8 44136.5 76749.7 122972 125370 267963 200576 228862 90305.8 152833 44951.8 136987 81909 132797 51246.8 68317.9
internal_count=35088 21198 13890 12792 8406 9504 4484 6534 7311 5481 3922 4386 2970 3106 4205 1585 3815 3082 3246 2506 3288 1880 2351 1784 2673 1577 2399 1169 1521 1366
cat_boundaries=0 1 2 3 4 5 7 9 10 11 13 14 16 17 19
cat_threshold=264372320 266371169 415 78114816 24576 10420224 7129 2244345856 3011 1572865 25087 4042265072 8 6 122 54052 16384 33554464 42756
is_linear=0
shrinkage=0.0194071


Tree=14
num_leaves=31
num_cat=9
split_feature=74 74 74 74 74 52 72 52 76 76 76 72 76 51 76 5 74 76 1 48 50 74 76 1 15 78 5 79 15 74
split_gain=93262.8 20206.3 16860.3 4020.02 3444.48 1740.77 883.653 586.825 425.69 419.147 358.196 288.343 280.356 230.669 158.612 151.593 145.71 145.403 141.772 124.481 121.363 117.924 111.69 110.369 98.1836 97.3069 93.9322 89.4852 83.9849 83.7001
threshold=30.149692780337947 18.553686635944704 46.278571428571432 11.808755760368665 25.388600288600291 39.027472527472533 20.82112714275021 34.324175824175832 0 1 2 41.066350400479088 3 22.071428571428573 4 1281.5000000000002 54.457066052227347 5 6 15.250000000000002 28.241071428571434 20.995391705069128 7 8 1.0000000180025095e-35 0.027165354330708654 1587.5000000000002 64.15000000000002 4.5000000000000009 54.622119815668206
decision_type=2 2 2 2 2 2 2 2 1 1 1 2 1 2 1 2 2 1 1 2 2 2 1 1 2 2 2 2 2 2
left_child=1 3 5 6 9 7 28 14 19 21 -6 15 23 22 -2 -4 26 -9 27 -5 -12 -3 -11 -7 -20 -19 -13 -15 -1 -17
right_child=2 4 11 8 10 12 -8 17 -10 13 20 16 -14 18 -16 29 -18 25 24 -21 -22 -23 -24 -25 -26 -27 -28 -29 -30 -31
leaf_value=-0.026321578075719606 8.0384568411476641e-05 -0.0092758971405067139 0.0045840845542554276 -0.013152266631085326 -0.0020585547450690947 0.0030567401782397603 -0.018173589881869887 0.0015041762879318432 -0.01490472047426254 -0.0054686638567364053 -0.0043452941063170502 0.0053414719706960639 0.0015287898167204862 -0.008291079423059974 -0.001462505371423662 0.0053488967919477796 0.0069173953955797077 0.00050919836851781618 -0.0032812935050063777 -0.01088454926300091 -0.0031829282104096322 -0.0075222637294848843 -0.0078156863326584291 0.0011407000914602043 -0.0054742826561173319 -0.0011063126893591456 0.0063854199224840542 -0.0058007303185544281 -0.022553442837916462 0.0061649864375782973
leaf_weight=7550.257091710344 34688.738488435745 27232.780782818794 65318.009439945221 12031.903845205903 61939.198472380638 105946.9226808548 18569.05072825402 55191.501239538193 17965.9708545506 9836.2037327885628 77555.444843649864 58930.715559244156 123130.18555426598 10104.960796386003 90765.646292209625 124421.49924850464 95595.798110961914 129553.85439169407 9510.0002334713936 40558.47315043211 60224.194302916527 31418.604630380869 39779.296680688858 12734.851959228516 41010.345822811127 15743.332663059235 73317.283374786377 11983.906200289726 3772.7657289803028 77218.144355773926
leaf_count=1567 1022 1328 1048 1101 1463 1200 2007 835 1439 390 2539 692 1605 421 2224 935 711 2140 231 2032 1309 1255 1893 165 1215 313 477 382 626 523
internal_value=3.06283e-06 -0.00708664 0.00321276 -0.0148288 -0.00504308 0.000930539 -0.0207946 4.94124e-06 -0.0122995 -0.00698312 -0.00328591 0.00583142 0.00217814 -0.0063323 -0.00103602 0.00539809 0.00633896 0.000656326 -0.00563451 -0.0114028 -0.00383712 -0.00833603 -0.00735386 0.00285133 -0.00506095 0.000334088 0.00592052 -0.00693898 -0.0250799 0.00566161
internal_weight=1.5436e+06 481043 1.06256e+06 100448 380595 567755 29892.1 325943 70556.3 180876 199719 494801 241812 122225 125454 266958 227844 200489 72609.2 52590.4 137780 58651.4 49615.5 118682 50520.3 145297 132248 22088.9 11323 201640
internal_count=35088 21198 13890 8772 12426 9504 4200 6534 4572 7115 5311 4386 2970 4532 3246 2506 1880 3288 2249 3133 3848 2583 2283 1365 1446 2453 1169 803 2193 1458
cat_boundaries=0 1 2 3 4 5 6 7 8 9
cat_threshold=266338401 18354048 1867785 151 25087 25473 8 24576 6
is_linear=0
shrinkage=0.0194071


Tree=15
num_leaves=31
num_cat=9
split_feature=74 74 74 74 74 52 74 52 76 76 76 5 76 74 76 76 47 77 5 49 76 48 50 74 5 27 79 76 6 80
split_gain=89488.9 19162.5 16325.7 3788.51 3282.67 1677.36 747.687 564.14 480.753 398.472 342.489 282.57 272.423 242.349 168.668 152.281 147.942 143.785 122.606 122.171 117.707 117.585 115.897 113.837 102.562 86.4673 83.7088 83.4628 81.1656 75.8881
threshold=30.149692780337947 18.553686635944704 46.278571428571432 11.540783410138252 25.388600288600291 39.027472527472533 9.3825652841781899 34.324175824175832 0 1 2 1578.5000000000002 3 20.843010752688176 4 5 30.500000000000004 6 1876.5000000000002 52.839285714285715 7 15.250000000000002 28.241071428571434 41.345494111623147 1641.5000000000002 19.500000000000004 55.750000000000007 8 2.5000000000000004 7.4500000000000011
decision_type=2 2 2 2 2 2 2 2 1 1 1 2 1 2 1 1 2 1 2 2 1 2 2 2 2 2 2 1 2 2
left_child=1 3 5 6 9 7 28 15 21 24 -6 19 18 20 -13 -2 -15 27 23 -4 -11 -5 -12 -7 -3 -18 -21 -9 -1 -23
right_child=2 4 11 8 10 12 -8 17 -10 13 22 14 -14 16 -16 -17 25 -19 -20 26 -22 29 -24 -25 -26 -27 -28 -29 -30 -31
leaf_value=-0.012206305412471767 7.882941365924042e-05 -0.009314629335356827 0.0046589627363505196 -0.012803951479769336 -0.0020159782189218358 0.0013609245478559474 -0.017841429095067401 0.002068849254726707 -0.014667342628957818 -0.0089936046429094103 -0.0042495476669487213 0.0066369524689372187 0.001286427678026367 -0.0082188084508644337 0.0056916775747521192 -0.0014327869761573064 -0.0066830717838257583 0.00014425069245995272 0.0032805004798500009 0.0050622155986159469 -0.006751308796368519 -0.012778775219205009 -0.0031149452188718851 0.0027728889903343395 -0.0075220428888872716 -0.0051373682795253653 0.0061336140761631686 0.00081476184185004334 -0.024545533864671017 -0.010275197420085419
leaf_weight=224.39650869369507 34686.940667867661 21775.384859979153 91661.55602645874 12118.675837025046 62019.433288693428 37763.949528217316 16680.843289136887 28363.191319465637 20170.186921685934 13634.641293466091 77761.906578242779 134416.85596847534 89167.872628927231 8050.4721947908401 156005.66507720947 90849.753779470921 17308.830131858587 104192.8919711113 64511.927394866943 53258.705376148224 27411.415479689837 5383.4013412594795 60343.252071022987 50019.570073366165 27535.825435161591 65905.467585742474 57476.054492473602 67846.556961297989 11229.107125028968 35424.47752520442
leaf_count=18 1022 1278 1495 1101 1463 570 1820 375 1626 623 2539 840 1186 495 1116 2224 632 1867 645 495 1120 295 1309 569 915 2052 440 1046 2175 1737
internal_value=3.19261e-06 -0.00692095 0.00315747 -0.0144275 -0.00493015 0.000913069 -0.0204802 4.8524e-06 -0.0120963 -0.00681924 -0.00321554 0.00574149 0.00213899 -0.00626101 0.00612975 -0.00101524 -0.00570337 0.000643873 0.00263783 0.00518419 -0.00750131 -0.0111098 -0.0037537 0.00216562 -0.00831309 -0.00545938 0.00561865 0.00118477 -0.0243109 -0.0106075
internal_weight=1.5432e+06 482978 1.06022e+06 101231 381747 567403 28134.3 325939 73096.7 181622 200125 492819 241463 132311 290423 125537 91264.8 200403 152295 202396 41046.1 52926.6 138105 87783.5 49311.2 83214.3 110735 96209.7 11453.5 40807.9
internal_count=35088 21198 13890 8772 12426 9504 4013 6534 4759 7115 5311 4386 2970 4922 1956 3246 3179 3288 1784 2430 1743 3133 3848 1139 2193 2684 935 1421 2193 2032
cat_boundaries=0 1 2 3 4 5 6 8 9 10
cat_threshold=266338401 1576832 1867785 415 12416 25087 4042265072 8 188743680 82817
is_linear=0
shrinkage=0.0194071


Tree=16
num_leaves=31
num_cat=11
split_feature=74 74 74 74 50 74 74 50 76 76 85 74 85 76 50 76 76 76 77 83 85 49 76 15 77 76 77 15 15 85
split_gain=85872.4 18177.9 15806.1 3552.68 3077 1593.15 795.696 587.286 457.971 425.329 303.46 294.244 275.081 263.49 233.923 225.553 164.397 161.848 133.954 128.032 122.812 118.79 95.603 95.5088 92.3923 89.8835 86.1266 84.4883 79.0576 75.5167
threshold=30.149692780337947 17.593471582181262 46.278571428571432 24.29508448540707 12.723214285714286 37.370967741935495 9.3825652841781899 33.955357142857146 0 1 2021.4832306639289 21.7741935483871 2022.3216974674883 2 41.133928571428577 3 4 5 6 1.5000000000000002 2021.4832306639289 52.839285714285715 7 1.0000000180025095e-35 8 9 10 4.5000000000000009 4.5000000000000009 2021.1382614647503
decision_type=2 2 2 2 2 2 2 2 1 1 2 2 2 1 2 1 1 1 1 2 2 2 1 2 1 1 1 2 2 2
left_child=1 4 5 9 6 7 28 29 18 10 -3 26 21 -6 25 -9 -14 -10 -5 -16 -19 -4 -17 -12 -22 -7 -11 -8 -1 -2
right_child=2 3 12 8 13 14 27 15 17 11 23 -13 16 -15 19 22 -18 20 -20 -21 24 -23 -24 -25 -26 -27 -28 -29 -30 -31
leaf_value=-0.024757543138529303 -0.001975635065719265 -0.0083462765879142413 0.0045831706334220988 -0.0050228131468294246 -0.010665678790054743 0.0023915728433595248 -0.018045747133089086 0.002288133325367636 -0.0013888178703200338 -0.0078582398963715668 -0.0031306316736050264 -0.0062229876307652501 0.0065384982990870019 -0.013296720010205439 0.0029651195133740026 0.00068100046890234769 0.0056033037263387014 -0.0042092546023197938 -0.0035609108215563581 0.0015124425661415693 -0.004056493493338518 0.0055311261002071715 -0.00021217848584062808 -0.005427689020491875 -0.0022378688833159656 0.0011995708564981832 -0.0092055546391145923 -0.015258982361775589 -0.021155523670031654 -0.00086719469483165321
leaf_weight=7724.6642652954906 39800.092534482479 13325.763353213668 91372.030754685402 51334.620156049728 29483.511848062277 30328.713508725166 13170.023443989456 23805.605357646942 32781.44356918335 45479.56886279583 8252.2181532382965 32682.458517819643 133799.26889419556 30043.744488686323 93284.667524576187 100552.81079113483 155397.04086685181 22954.152289152145 44488.413600921631 30294.322061777115 12944.06480550766 110308.4198615551 81877.165046930313 40118.994335651398 57422.144826889038 111744.62968087196 32337.976691097021 6479.0299106240273 3858.4081941619515 55368.975690603256
leaf_count=1567 1270 909 1495 1684 1703 452 1625 290 731 1980 184 1202 840 2051 1006 1526 1116 1024 1188 387 297 935 1363 1100 1109 1999 1570 648 626 1211
internal_value=3.31315e-06 -0.00675968 0.00310301 -0.00495631 -0.0145898 0.000895917 -0.0195244 -6.98209e-05 -0.0033331 -0.00704808 -0.00575108 -0.00777064 0.00565257 -0.0119989 0.0019916 0.000512117 0.00603654 -0.00256357 -0.00434482 0.00260911 -0.00297591 0.00510182 0.000280146 -0.00503629 -0.00257365 0.00145438 -0.00842106 -0.0171323 -0.0235704 -0.00133085
internal_weight=1.54281e+06 484881 1.05793e+06 394122 90759.4 567057 31232.1 301405 221925 172197 61697 110500 490877 59527.3 265652 206236 289196 126102 95823 123579 93320.4 201680 182430 48371.2 70366.2 142073 77817.5 19649.1 11583.1 95169.1
internal_count=35088 21198 13890 12978 8220 9504 4466 5660 6033 6945 2193 4752 4386 3754 3844 3179 1956 3161 2872 1393 2430 2430 2889 1284 1406 2451 3550 2273 2193 2481
cat_boundaries=0 1 2 3 4 5 6 8 9 11 12 14
cat_threshold=264372320 520192 132153408 16512 12416 1572865 122 54260 370451 33554464 42836 385 317390848 57568
is_linear=0
shrinkage=0.0194071


Tree=17
num_leaves=31
num_cat=11
split_feature=52 50 50 50 50 52 50 48 76 77 77 72 77 76 76 77 76 50 5 77 5 76 76 50 50 50 80 63 63 51
split_gain=82075.6 18638.9 13266.1 3923.13 2993.84 1210.96 746.714 639.847 495.356 368.897 277.641 272.385 263.025 244.703 194.724 185.415 142.632 142.232 134.081 125.624 122.018 113.65 102.38 102.016 97.4245 93.787 82.7796 82.5972 79.75 75.2326
threshold=32.357142857142868 18.080357142857149 47.187500000000007 25.776785714285719 12.723214285714286 39.027472527472533 9.5625000000000018 20.821428571428573 0 1 2 41.066350400479088 3 4 5 6 7 34.330357142857146 1281.5000000000002 8 1587.5000000000002 9 10 28.241071428571434 40.776785714285722 22.562500000000004 14.850000000000003 1.0000000180025095e-35 1.0000000180025095e-35 23.071428571428573
decision_type=2 2 2 2 2 2 2 2 1 1 1 2 1 1 1 1 1 2 2 1 2 1 1 2 2 2 2 2 2 2
left_child=1 4 5 7 6 10 28 15 19 -9 21 18 -6 -7 29 -3 -10 -12 -4 -5 -13 -2 -17 -18 -15 -16 -20 -8 -1 -11
right_child=2 3 11 8 12 13 27 9 16 14 17 20 -14 24 25 22 23 -19 26 -21 -22 -23 -24 -25 -26 -27 -28 -29 -30 -31
leaf_value=-0.021267150578017931 0.0019689908515426475 -0.0069293312796002149 0.0043624697475843017 -0.0029359546723330653 -0.013392009636111174 0.0031092738719612828 -0.015436641370798776 -0.007189347569978498 -0.0012294174196145818 -0.0069784890975760515 -0.001269529968401027 0.005526500771394831 -0.010630437211814749 0.0011434928731773838 -0.0056108399844813101 -0.0071280658152039393 -0.0034728448485403253 6.4927171872822571e-05 0.0042996462888177951 -0.0046619375981492486 0.0064545384160658017 0.00057626086832171758 -0.0096960521166787744 -0.0021607453429161668 0.0020842374169144631 -0.0037908212077285299 0.0055414341783372404 -0.018041360444219091 -0.024632083186757484 -0.0053808025444260959
leaf_weight=6720.0115008056164 27164.236558675766 30047.020118057728 61879.982340812683 24066.505828022957 20175.813231602311 67726.779961109161 11026.971514157951 44556.651736974716 45756.055550992489 17845.403899788857 45503.988983511925 90277.405784130096 40311.674242526293 65593.556842565536 14568.036527633667 8208.59729193151 30575.711993455887 88733.848693728447 22989.329284667969 47935.857256859541 132165.62093353271 117564.7921025753 24809.203105866909 82915.355827093124 112838.10723733902 40244.153122007847 176331.27313232422 8654.7343468815088 5259.9544607382268 29998.655813992023
leaf_count=1258 390 1281 866 580 1454 779 1209 1747 1023 683 871 907 2795 985 575 363 948 1505 192 1365 832 2034 1319 2022 1529 1266 1266 971 1087 986
internal_value=3.4212e-06 -0.00615142 0.00325958 -0.00449438 -0.0140902 0.00112372 -0.0189263 -0.00641278 -0.00274982 -0.0057115 0.000248271 0.00557858 -0.0115569 0.00211582 -0.00506844 -0.00804901 -0.00214521 -0.000387439 0.00515306 -0.00408584 0.00607807 0.000837858 -0.00906152 -0.0025142 0.00173837 -0.00427438 0.00539836 -0.0165877 -0.0227573 -0.00597635
internal_weight=1.54245e+06 533676 1.00877e+06 441527 92149.2 525125 31661.7 210278 231249 147213 278967 483644 60487.5 246158 102656 63064.8 159247 134238 261201 72002.4 222443 144729 33017.8 113491 178432 54812.2 199321 19681.7 11980 47844.1
internal_count=35088 22932 12156 14158 8774 8093 4525 8220 5938 5257 4800 4063 4249 3293 3510 2963 3993 2376 2324 1945 1739 2424 1682 2970 2514 1841 1458 2180 2345 1669
cat_boundaries=0 1 3 4 6 7 8 10 11 13 14 15
cat_threshold=264372320 149483520 61456 1895371772 1599 14 145 85925760 2279473152 1987 1572865 4143975685 2049 82049 2387968
is_linear=0
shrinkage=0.0194071


Tree=18
num_leaves=31
num_cat=15
split_feature=74 74 74 74 74 52 74 52 76 76 76 72 76 51 74 76 77 77 84 77 77 76 1 74 76 76 76 52 76 15
split_gain=79124.3 16385.9 14807.5 3178.19 2849.44 1508.19 616.912 502.659 413.391 353.212 300.36 265.45 250.122 194.603 141.717 139.309 134.862 131.819 127.091 121.274 109.821 103.697 99.9722 87.6082 87.2527 83.5459 76.4161 75.6367 73.1941 72.39
threshold=30.149692780337947 18.553686635944704 46.278571428571432 11.540783410138252 25.388600288600291 39.027472527472533 8.1428571428571441 34.324175824175832 0 1 2 41.066350400479088 3 22.071428571428573 53.082949308755765 4 5 6 2020.5000000000002 7 8 9 10 53.760368663594477 11 12 13 27.368131868131872 14 1.0000000180025095e-35
decision_type=2 2 2 2 2 2 2 2 1 1 1 2 1 2 2 1 1 1 2 1 1 1 1 2 1 1 1 2 1 2
left_child=1 3 5 6 9 7 -1 15 24 20 -6 18 22 19 -13 -2 -15 26 -4 -11 -3 -12 29 -20 -5 -8 -9 -23 -19 -7
right_child=2 4 11 8 10 12 25 17 -10 13 21 14 -14 16 -16 -17 -18 28 23 -21 -22 27 -24 -25 -26 -27 -28 -29 -30 -31
leaf_value=-0.022513556601868264 8.8287041213794181e-05 -0.0064653013780305952 0.0042873117719753493 -0.0087781085355026073 -0.0018919415753745911 0.003555480350242259 -0.015356671813744269 0.0019736180217238787 -0.0135412583790534 -0.0079391755041348828 -0.0043192934881300755 0.0054252375608560763 0.0014151277418471976 -0.006894406697514446 0.0064091015700475 -0.0013568773976407782 -0.004728631104796592 -0.0020133243170567527 0.0048692324727022777 -0.0059463314815417318 -0.0082256117874626444 -0.0038879616978323389 0.001037220302663988 0.0056819796856054094 -0.010716323976928524 -0.018300923666494454 0.00077191451814909661 -0.0027558213789734927 0.00025253721279309965 0.0024885680447249243
leaf_weight=10567.089841766283 34697.233784079552 21763.016160696745 61671.855239987373 12282.980083405972 62254.001344442368 37044.121696949005 10767.340504989028 28264.666975140572 20627.902021616697 18794.323346078396 42331.943268299103 100144.89904999733 122632.75294184685 13409.126742303371 123891.68347454071 91064.601713180542 60189.001886636019 5662.5750831365585 95712.528294563293 31649.979129582644 37964.7826821208 34784.411671549082 12688.818698883057 105697.04097938538 41627.86455181241 7629.7916671857238 67746.474277853966 61927.384861111641 98476.899815440178 68125.242074251175
leaf_count=2007 1022 837 838 628 1463 378 1068 375 1626 945 1259 932 1605 482 948 2224 1767 113 898 1338 1746 1220 165 770 2505 938 1046 1369 1754 822
internal_value=3.51651e-06 -0.00645176 0.00299718 -0.0133069 -0.00460898 0.000863453 -0.0187634 3.19629e-06 -0.0111851 -0.00635623 -0.00301371 0.00547815 0.00202924 -0.00576254 0.00596948 -0.000958279 -0.00512538 0.000607337 0.0050596 -0.00669251 -0.00758618 -0.00351546 0.00266776 0.00529592 -0.0102776 -0.0166021 0.00112596 -0.00316293 0.00012903 0.0028643
internal_weight=1.54209e+06 488571 1.05352e+06 103503 385068 566403 28964.2 325912 74538.7 183770 201298 487118 240491 124042 224037 125762 73598.1 200151 263081 50444.3 59727.8 139044 117858 201410 53910.8 18397.1 96011.1 96711.8 104139 105169
internal_count=35088 21198 13890 8772 12426 9504 4013 6534 4759 7115 5311 4386 2970 4532 1880 3246 2249 3288 2506 2283 2583 3848 1365 1668 3133 2006 1421 2589 1867 1200
cat_boundaries=0 1 2 3 4 5 7 9 11 13 14 15 16 17 18 19
cat_threshold=266338401 18354048 1867785 151 25087 8392704 61440 4042265072 8 2048401408 57396 9830400 7001 226492448 6 6291456 68730880 82817 528384
is_linear=0
shrinkage=0.0194071


Tree=19
num_leaves=31
num_cat=4
split_feature=74 74 74 74 74 52 74 52 48 74 5 74 15 77 72 74 77 77 72 77 49 27 51 79 50 5 31 72 52 15
split_gain=75938.3 15563.9 14331.2 3078.31 2574.32 1453.04 579.17 483.649 394.595 275.864 258.87 245.41 227.182 172.049 154.363 150.998 145.372 130.545 119.776 116.882 112.926 104.7 90.5444 80.9158 78.1443 73.4448 71.9355 68.5797 67.5965 69.8991
threshold=30.149692780337947 17.593471582181262 46.278571428571432 24.967939766326868 11.540783410138252 39.027472527472533 8.1428571428571441 34.467032967032971 20.821428571428573 14.531490015360985 1578.5000000000002 27.502995391705074 1.0000000180025095e-35 0 41.066350400479088 37.768970814132111 1 2 31.28449453551913 3 52.839285714285715 18.500000000000004 16.642857142857149 55.750000000000007 28.526785714285719 1227.5000000000002 27.500000000000004 29.748630136986304 32.357142857142868 1.0000000180025095e-35
decision_type=2 2 2 2 2 2 2 2 2 2 2 2 2 1 2 2 1 1 2 1 2 2 2 2 2 2 2 2 2 2
left_child=1 4 5 8 6 7 -1 17 16 -6 20 24 -7 -10 -12 -14 -3 -2 25 -9 -4 -15 -11 -22 -5 -13 -23 -26 -19 -30
right_child=2 3 10 11 9 12 -8 19 13 22 14 18 15 21 -16 -17 -18 28 -20 -21 23 26 -24 -25 27 -27 -28 -29 29 -31
leaf_value=-0.021838911568033536 0.00052463981985799858 -0.0066169694303112366 0.0043474119820055869 -0.0041017424360416986 -0.013273217217913936 0.0033135653054285567 -0.016139479871141602 0.0011491240069083004 -0.0069776071399447756 -0.011254824980813843 0.00534809491115938 -0.0034604170676574173 0.00078592525553448705 -0.0066589835260289672 0.0062545501774359108 0.0020271748639564642 -0.0085137637935083534 -0.0016394969214118722 -0.00031940429587198936 0.00018845808616814189 0.0047257605414607225 -0.0053990819875604345 -0.0094936644293079787 0.0057867161783417059 -0.0038060998043532137 -0.0022745249135480254 -0.0040414908069374691 -0.0019270050784619894 0.00081473619741635609 -0.0009922741095341307
leaf_weight=10681.181485433131 20650.529066681862 28315.458953917027 90484.41549539566 65106.106122583151 18409.327658221126 40721.082121610641 18556.370699301362 87613.839043021202 34027.696273833513 24323.389357194304 153667.0867805481 26495.839056670666 48920.294260025024 18603.663124501705 132051.01245117188 150526.88229823112 34958.186099335551 55139.564920246601 9663.9774194955826 104722.70930624008 52504.440690040588 53947.870816916227 20837.674557447433 56584.484950065613 15078.090373277664 76754.111478090286 20369.884250402451 14254.670728445053 9680.5836234092712 48102.0280854702
leaf_count=2007 632 1364 1495 2122 1467 424 2006 1292 1214 1740 1116 1038 654 682 840 1892 1955 1703 183 1860 495 1713 1000 440 348 1521 569 269 149 898
internal_value=3.59945e-06 -0.00630293 0.00294513 -0.00463233 -0.0134587 0.000847203 -0.0182261 3.14067e-06 -0.00641525 -0.0112644 0.00539226 -0.00299655 0.00199257 -0.00579044 0.00576717 0.00172276 -0.0076681 -0.000893953 -0.00238568 0.000626158 0.00485536 -0.0053539 -0.0104437 0.00527639 -0.00372671 -0.00257905 -0.00502737 -0.00289356 -0.00115334 -0.000689479
internal_weight=1.54175e+06 490383 1.05137e+06 397576 92807.9 566078 29237.6 325909 190223 63570.4 485291 207353 240168 126949 285718 199447 63273.6 133573 112914 192337 199573 92921.4 45161.1 109089 94438.9 103250 74317.8 29332.8 112922 57782.6
internal_count=35088 21198 13890 12978 8220 9504 4013 6534 7497 4207 4386 5481 2970 4178 1956 2546 3319 3382 2742 3152 2430 2964 2740 935 2739 2559 2282 617 2750 1047
cat_boundaries=0 2 4 5 6
cat_threshold=6877184 57376 2278948864 963 12796152 4042265072
is_linear=0
shrinkage=0.0194071


Tree=20
num_leaves=31
num_cat=9
split_feature=74 74 74 74 50 52 74 52 74 76 72 76 76 76 76 74 50 5 76 76 5 74 76 78 52 80 5 76 27 50
split_gain=72883.3 14774.8 13868.6 2819.03 2568.51 1399.85 621.545 465.102 363.162 280.181 254.364 249.62 245.286 238.393 158.04 137.495 137.086 132.273 131.25 126.929 115.213 104.957 97.3804 90.5518 86.1695 80.0211 77.8358 74.247 71.5871 71.2916
threshold=30.149692780337947 17.757757296466977 46.278571428571432 25.388600288600291 12.723214285714286 39.027472527472533 9.3825652841781899 34.324175824175832 21.241935483870972 0 41.066350400479088 1 2 3 4 54.457066052227347 22.026785714285719 1281.5000000000002 5 6 1876.5000000000002 41.345494111623147 7 0.027165354330708654 19.763736263736266 14.850000000000003 1587.5000000000002 8 19.500000000000004 16.616071428571434
decision_type=2 2 2 2 2 2 2 2 2 1 2 1 1 1 1 2 2 2 1 1 2 2 1 2 2 2 2 1 2 2
left_child=1 4 5 8 6 7 -1 18 11 -5 17 16 29 20 24 26 -3 -4 -2 -9 21 -7 -11 -21 -10 -19 -12 -8 -16 -6
right_child=2 3 10 9 12 13 27 19 14 22 15 -13 -14 -15 28 -17 -18 25 -20 23 -22 -23 -24 -25 -26 -27 -28 -29 -30 -31
leaf_value=-0.02088718401827613 0.00082375073924658879 -0.007023190041707145 0.0041292931507371598 -0.0018045447557884103 -0.010745559461299785 0.001191755849898158 -0.016546746386988029 0.001379020233713129 -0.0086582184105434973 -0.0042728352006350424 0.0048472945099207396 -0.0078973553236841559 -0.011947947698819114 0.0011576923711325074 -0.0061057963622433873 0.0063598093214691717 -0.0047265791258219916 0.004060415503558343 -0.0011457870010840379 0.00045300157052903344 0.0030514401069523236 0.0025522188365115668 -0.0030765148642694466 -0.0011055720976075759 -0.0060045787542160542 0.0052871738881701815 0.0058087758198079112 -0.013956250478929686 -0.0044886279900703359 -0.0088518940059831505
leaf_weight=12087.420182952657 14378.008415222168 19267.234898418188 64106.841643810272 62420.562695384026 11837.643005281687 37539.106930494308 10479.727171130478 54945.921697974205 5590.3916496038437 34209.016324996948 57695.309313774109 54024.426952838898 31360.786424577236 88765.122712135315 12844.030436515808 93126.249704360962 20062.950725376606 22766.221736907959 111532.65851396322 129306.03129684925 63942.845643997192 49604.965772151947 105415.18824079633 15743.613313794136 27400.364614248276 174385.22990036011 71422.032371520996 9882.3833609521389 53654.02280652523 21631.118835955858
leaf_count=2193 495 963 1048 1463 873 570 1183 835 425 1023 692 2477 2074 1186 502 711 579 192 2751 2140 645 569 2825 313 827 1266 477 1108 1708 975
internal_value=3.68664e-06 -0.00615794 0.00289389 -0.00448887 -0.0129325 0.000831248 -0.0173909 3.08712e-06 -0.00616727 -0.00288676 0.00530739 -0.00703724 -0.0106993 0.00195651 -0.00535053 0.0057904 -0.00585115 0.00489637 -0.000920876 0.000584795 0.00242551 0.00196631 -0.0033701 0.000283773 -0.00645393 0.00514565 0.00537941 -0.0153094 -0.00480083 -0.00952081
internal_weight=1.54143e+06 492167 1.04926e+06 394888 97279.1 565758 32449.5 325906 192843 202045 483502 93354.6 64829.5 239852 99488.8 222244 39330.2 261258 125911 199996 151087 87144.1 139624 145050 32990.8 197151 129117 20362.1 66498.1 33468.8
internal_count=35088 21198 13890 12792 8406 9504 4484 6534 7481 5311 4386 4019 3922 2970 3462 1880 1542 2506 3246 3288 1784 1139 3848 2453 1252 1458 1169 2291 2210 1848
cat_boundaries=0 1 2 3 4 5 6 7 8 9
cat_threshold=1867785 69726208 132153408 415 1970048 8375 25473 92274720 491520
is_linear=0
shrinkage=0.0194071


Tree=21
num_leaves=31
num_cat=11
split_feature=74 74 74 74 74 74 76 50 76 76 76 72 76 52 50 1 76 74 85 76 80 85 76 48 48 76 15 52 85 76
split_gain=69954.8 14039.2 13419.5 2672.57 2471.65 1350.42 575.372 480.206 316.663 300.015 269.746 247.423 201.261 199.129 176.156 140.805 135.195 134.239 129.587 126.684 115.403 98.0241 92.5838 92.252 91.051 87.7472 85.6888 77.9562 70.1876 69.1645
threshold=30.149692780337947 18.553686635944704 46.278571428571432 11.808755760368665 25.388600288600291 37.370967741935495 0 33.955357142857146 1 2 3 41.066350400479088 4 39.027472527472533 22.562500000000004 5 6 53.082949308755765 2022.3216974674883 7 9.0500000000000025 2021.8528405201919 8 20.607142857142861 15.250000000000002 9 1.0000000180025095e-35 27.115384615384617 2021.1382614647503 10
decision_type=2 2 2 2 2 2 1 2 1 1 1 2 1 2 2 1 1 2 2 1 2 2 1 2 2 1 2 2 2 1
left_child=1 3 5 6 8 7 -1 28 23 24 -6 18 -9 -7 20 21 -15 -13 -4 -12 -10 -16 -8 -3 -5 -14 -17 -21 -2 -22
right_child=2 4 11 9 10 13 22 12 14 -11 19 17 25 16 15 26 -18 -19 -20 27 29 -23 -24 -25 -26 -27 -28 -29 -30 -31
leaf_value=-0.020860011216579568 -0.0018293931432254227 -0.0082714580610752306 0.0043016479354617658 -0.010976520632889437 -0.0012175878462324663 0.001046366504405083 -0.013579657280485579 0.0021382528325762282 -0.0082685136403505381 -0.012384715649272455 -0.0040550921814680608 0.005168511500696759 0.00062121758432725962 0.0029748613215847706 -0.0046723064364708735 -0.0025502782833362837 0.0018302665917771339 0.0061316791023624867 0.0051819603969983424 -0.0036123239946521395 -0.0069164548904046257 -0.0074386309627361459 -0.016343578218379392 -0.0065949909412826744 -0.009080976527176661 -0.0002350474164743009 -0.0045672433545892489 -0.0025330675627416865 -0.00076293085631803155 -0.0052879639503754369
leaf_weight=10093.745952798054 39977.978021919727 17595.345299273729 107822.05749809742 12600.526118695736 32957.710678875446 83713.537148475647 9417.5738388746977 23673.584909439087 8501.7285416126251 18905.175573661923 42644.92478376627 99035.956628322601 100346.23369908333 56913.653601169586 9241.8615310192108 9904.0515501499176 123451.89177417755 122324.10474991798 152566.23046875 34797.441133201122 14828.987550348043 10221.230628013611 12419.352659959346 42883.087456643581 42251.459432214499 81814.820244193077 40471.282475650311 92007.084372371435 55553.523056149483 32178.211332842708
leaf_count=1880 1270 1091 1390 1101 731 1636 860 290 378 1439 1259 932 1526 629 349 230 1579 948 1116 1283 757 355 1460 1492 2032 1363 1139 2038 1211 1324
internal_value=3.76111e-06 -0.00601676 0.00284343 -0.0122876 -0.00430948 0.000815585 -0.016979 -7.2228e-05 -0.00592558 -0.0102553 -0.00282563 0.00522353 0.000455538 0.00182873 -0.00536609 -0.00471672 0.0021918 0.00570093 0.00481756 -0.00313807 -0.0061834 -0.00612395 -0.0151628 -0.00708241 -0.00951595 0.000236653 -0.00417026 -0.00282918 -0.00120932 -0.00580518
internal_weight=1.54111e+06 493921 1.04719e+06 105688 388233 565445 31930.7 301366 185826 73757.2 202407 481748 205835 264079 125347 69838.4 180366 221360 260388 169449 55508.9 19463.1 21836.9 60478.4 54852 182161 50375.3 126805 95531.5 47007.2
internal_count=35088 21198 13890 8772 12426 9504 4200 5660 7115 4572 5311 4386 3179 3844 4532 2073 2208 1880 2506 4580 2459 704 2320 2583 3133 2889 1369 3321 2481 2081
cat_boundaries=0 1 2 3 4 5 6 7 8 9 10 11
cat_threshold=132120576 18354048 266338401 1572865 16512 8 401 226492448 1589248 370451 2588672
is_linear=0
shrinkage=0.0194071


Tree=22
num_leaves=31
num_cat=14
split_feature=74 74 74 74 74 52 76 52 76 76 5 76 72 50 77 72 77 76 76 74 49 77 76 15 76 77 79 15 77 76
split_gain=67147.3 13336.9 12983.4 2526.49 2358.34 1305.19 629.979 432.905 301.253 258.575 243.465 224.449 210.846 167.793 157.129 144.133 139.064 138.029 116.214 109.336 108.204 97.0382 94.0229 81.1624 77.9882 77.696 77.0037 72.2145 69.9381 69.1403
threshold=30.149692780337947 18.553686635944704 46.278571428571432 13.506451612903229 25.388600288600291 39.027472527472533 0 34.467032967032971 1 2 1578.5000000000002 3 29.748630136986304 22.562500000000004 4 41.066350400479088 5 6 7 37.768970814132111 52.839285714285715 8 9 1.0000000180025095e-35 10 11 55.750000000000007 1.0000000180025095e-35 12 13
decision_type=2 2 2 2 2 2 1 2 1 1 2 1 2 2 1 2 1 1 1 2 2 1 1 2 1 1 2 2 1 1
left_child=1 3 5 6 8 7 -1 17 21 29 20 -7 27 16 -15 -12 -10 -2 28 -13 -4 -3 -8 -16 -11 -20 -22 -5 -9 -6
right_child=2 4 10 12 9 11 22 18 13 24 15 19 -14 14 23 -17 -18 -19 25 -21 26 -23 -24 -25 -26 -27 -28 -29 -30 -31
leaf_value=-0.020246500723502803 0.00015792169500957406 -0.0059862134684548597 0.0041181993680617871 -0.0072172883998639047 -0.0011930382558555516 0.0028488218999175893 -0.015668733220292528 0.0019296891290944693 -0.0050219840186982488 -0.0040899678051357548 0.0050995907313760164 0.00072101719744184869 -0.011484661091738341 -0.0063952011993580263 -0.0026272120863161759 0.0059805763453256479 -0.0069798558785327189 -0.0012333905650931387 0.00066273966372542127 0.0018182289755252262 0.0044924630656284778 -0.0075847799341878944 -0.013170415894101201 -0.0045014104038743332 -0.0030039265150357134 -0.00029187904955603136 0.0055327457631980485 -0.0094150051350174804 0.00059295962045324325 -0.0023826642651123687
leaf_weight=10197.252036321908 37201.512040257454 25488.114429503679 89640.398431658745 6621.1066250503063 32983.207550108433 66308.444211244583 13745.726644381881 31594.221557855606 26799.190449431539 34384.012214422226 152027.24343109131 46972.356164932251 20175.218090683222 14775.155055046082 10866.911128282547 130415.91653442383 28914.776133298874 96571.544642269611 78487.626875042915 125978.26347994804 51995.670386552811 35243.946674793959 12544.678142219782 44396.32283449173 93486.160715699196 54327.641855359077 55951.466776371002 43113.151310771704 27696.96688246727 41909.117771685123
leaf_count=1880 1064 970 1495 314 731 733 1566 412 1029 1023 1116 630 1434 535 260 840 1430 2318 1277 1607 495 1613 1126 1278 2511 990 440 2452 473 1046
internal_value=3.82394e-06 -0.00587926 0.00279374 -0.0119682 -0.00421474 0.00080021 -0.0161086 1.05749e-06 -0.0057899 -0.00276589 0.00514068 0.00188865 -0.00980587 -0.00524489 -0.00461188 0.00550651 -0.00604095 -0.000846566 0.000591308 0.00152018 0.00461757 -0.00691571 -0.0144857 -0.00413248 -0.00329645 0.000272268 0.00503197 -0.00912342 0.0013056 -0.00185912
internal_weight=1.54081e+06 495644 1.04517e+06 106397 389247 565139 36487.7 325880 186484 202762 480031 239259 69909.5 125752 70038.4 282443 55714 133773 192106 172951 197588 60732.1 26290.4 55263.2 127870 132815 107947 49734.3 59291.2 74892.3
internal_count=35088 21198 13890 8772 12426 9504 4572 6534 7115 5311 4386 2970 4200 4532 2073 1956 2459 3382 3152 2237 2430 2583 2692 1538 3534 2267 935 2766 885 1777
cat_boundaries=0 1 2 3 4 6 8 9 10 12 13 14 16 17 18
cat_threshold=132120576 18354048 1867787 145 4096 61440 2163195904 2819 25087 91009 10354688 7001 134709248 92274720 3773826044 3 4117828064 1572865
is_linear=0
shrinkage=0.0194071


Tree=23
num_leaves=31
num_cat=11
split_feature=74 74 74 74 50 52 74 76 76 76 77 72 76 50 50 77 74 74 50 77 77 84 15 84 74 77 76 15 74 77
split_gain=64466.6 13604.2 11471 2709.29 2388.72 1008.69 523.398 324.885 287.341 281.884 248.968 236.838 219.355 175.835 151.795 132.608 130.369 123.769 122.799 121.015 113.831 113.602 100.172 88.1957 84.555 78.0825 74.9304 71.2422 71.0542 71.0327
threshold=31.622119815668206 18.553686635944704 46.278571428571432 25.388600288600291 12.723214285714286 39.027472527472533 8.1428571428571441 0 1 2 3 41.066350400479088 4 22.562500000000004 36.169642857142868 5 54.457066052227347 21.7741935483871 28.241071428571434 6 7 2020.5000000000002 1.0000000180025095e-35 2022.5000000000002 53.760368663594477 8 9 4.5000000000000009 41.345494111623147 10
decision_type=2 2 2 2 2 2 2 1 1 1 1 2 1 2 2 1 2 2 2 1 1 2 2 2 2 1 1 2 2 1
left_child=1 4 5 8 6 9 -1 29 17 20 -6 21 22 15 -11 -10 -13 -3 -9 -15 -2 -4 -7 28 -23 -20 -12 -8 -24 -5
right_child=2 3 11 7 10 12 27 18 13 14 26 16 -14 19 -16 -17 -18 -19 25 -21 -22 24 23 -25 -26 -27 -28 -29 -30 -31
leaf_value=-0.019416315829496645 0.0011984471993927957 -0.0072211693213301478 0.0039252211392494969 -0.00221124168397379 -0.0086899330264247083 0.0031378728781763622 -0.015024072738915923 -0.0035814585376633917 -0.0049951068155809526 -0.00098423739932242561 -0.0099431544871828592 0.0051256136934298407 0.001087444147643353 -0.0060708444681142537 0.00034998761805997143 -0.0069849549746914133 0.0060858765940617603 -0.0055116142425745722 -0.0018515907262168375 -0.0039551091796816333 0.0001468970377579416 0.0044635733646319706 0.00075288173225037541 0.0026304018868685548 0.005268788859187655 -0.0031189889463452978 -0.011913267397689777 -0.012631633751561138 0.0020793487927542836 -0.0010513431677647562
leaf_weight=11118.870022434741 85123.091135382652 46613.546415328979 60771.8470672369 34401.50428789854 41255.168456524611 40006.547674655914 14914.911445274949 80067.369065970182 28265.151431664824 85956.379744291306 15287.723154813051 127707.24430656433 88547.026324510574 12857.36235833168 51266.274163126945 23526.041730076075 91966.107359409332 24468.681197404861 37012.700601220131 51400.821660876274 71219.752723932266 94100.976145267487 26200.018869876862 47918.842021942139 103801.4429526329 36597.7505838871 17183.200578019023 7336.192047342658 36288.456430435181 47343.515658676624
leaf_count=2007 1537 2087 838 835 2147 419 1793 2615 1095 1997 909 1169 1186 457 793 1188 711 886 738 1402 1481 898 422 506 770 807 1201 715 437 1042
internal_value=3.88025e-06 -0.00548072 0.00287757 -0.00391476 -0.0116587 0.000918186 -0.0159677 -0.00252918 -0.00565775 0.000156134 -0.00970706 0.00505883 0.00185434 -0.00505947 -0.000485744 -0.00590208 0.0055278 -0.00663232 -0.00305505 -0.00438058 0.000719495 0.00466044 0.00230552 0.00200395 0.00488608 -0.00248262 -0.0109913 -0.0142393 0.00152333 -0.00153982
internal_weight=1.54052e+06 529651 1.01087e+06 422554 107096 532526 33370 235423 187132 293565 73726.1 478348 238961 116049 137223 51791.2 219673 71082.2 153678 64258.2 156343 258674 150414 110407 197902 73610.5 32470.9 22251.1 62488.5 81745
internal_count=35088 21924 13164 13152 8772 8778 4515 6037 7115 5808 4257 4386 2970 4142 2790 2283 1880 2973 4160 1859 3018 2506 1784 1365 1668 1545 2110 2508 859 1877
cat_boundaries=0 1 2 3 5 6 8 10 12 14 15 17
cat_threshold=1867785 152571776 25595 256 65393 415 2163195904 2947 20480 61440 1979257328 1 2097155520 2 65011809 117440620 14
is_linear=0
shrinkage=0.0194071


Tree=24
num_leaves=31
num_cat=10
split_feature=74 74 74 74 74 52 76 76 76 76 76 5 76 74 72 52 47 5 49 50 74 76 5 5 76 5 76 74 76 72
split_gain=61901.3 13177.9 10804.8 2710.22 2259.31 906.948 437.098 351.091 301.981 273.919 247.774 234.538 211.677 171.083 137.502 134.553 110.065 108.113 103.836 99.8445 97.0588 91.508 85.0657 82.7081 74.7748 72.1549 70.6552 67.3582 66.3876 65.4129
threshold=31.725806451612907 18.553686635944704 46.278571428571432 25.388600288600291 11.540783410138252 39.027472527472533 0 1 2 3 4 1578.5000000000002 5 20.843010752688176 41.066350400479088 36.30219780219781 30.500000000000004 1876.5000000000002 52.839285714285715 28.241071428571434 41.345494111623147 6 1641.5000000000002 1272.5000000000002 7 1407.5000000000002 8 37.370967741935495 9 41.066350400479088
decision_type=2 2 2 2 2 2 1 1 1 1 1 2 1 2 2 2 2 2 2 2 2 1 2 2 1 2 1 2 1 2
left_child=1 4 5 9 6 10 -1 23 24 22 27 18 17 21 -13 25 -15 20 -4 -9 -7 -11 -3 -5 -6 -12 -18 -2 -8 -20
right_child=2 3 11 7 8 12 28 19 -10 13 15 14 -14 16 -16 -17 26 -19 29 -21 -22 -23 -24 -25 -26 -27 -28 -29 -30 -31
leaf_value=-0.01910756847970236 0.00038229870880101646 -0.0076348443485002712 0.0039725256697016337 -0.0025318129159809292 -0.0068302073892043767 0.0010724152649219183 -0.012988421445294386 -0.003512397173127449 -0.01156087617456417 -0.0073815149054661713 -0.0014818430201643462 0.0049397932248596635 0.001067108013050347 -0.006738784445933896 0.0058034549501569223 0.00034640434807113607 -0.0025188205197477997 0.0028728599765186196 0.0044263922169382568 -0.0024833858002275238 0.0023839892328766667 -0.0054456228017017569 -0.006035741124520687 -0.0012401222840311855 -0.0090947311117000901 -0.00030101045604688135 -0.0045684085603407507 0.0012041864929473022 -0.015450310614253688 0.005391227388958645
leaf_weight=10396.849206920713 90939.022680997849 22665.547508448362 89113.433213949203 24690.036149740219 6684.071647554636 37382.278642892838 11037.96629396081 78711.936859130859 21499.608979508281 14175.113820582628 41984.037725806236 150993.86750793457 88484.235110998154 8350.0377281904221 129383.44302368164 51077.550982952118 7018.5351728200912 63507.328014373779 57898.437252521515 64893.442465662956 49294.36324930191 28354.575110808015 28591.490776062012 76668.072915077209 49057.421547725797 36379.798139572144 78612.244684547186 63984.295966625214 9108.8569632135332 49309.386335611343
leaf_count=1880 1740 1278 1495 972 314 570 1041 2539 1626 623 1291 1116 1186 495 840 778 167 645 531 1361 569 1120 915 1351 2819 562 2517 1251 1092 404
internal_value=3.93402e-06 -0.00528721 0.00286467 -0.00377476 -0.0113588 0.000938516 -0.0158279 -0.00242999 -0.00959029 -0.00552902 0.000198139 0.00497799 0.00182062 -0.00507223 0.00533847 -0.000428559 -0.00460958 0.00226428 0.00446302 -0.00304732 0.00181845 -0.00609491 -0.00674243 -0.00155476 -0.0088253 -0.000933722 -0.00440145 0.000721734 -0.0141133 0.00487046
internal_weight=1.54025e+06 540516 999731 432731 107785 523033 30543.7 244963 77241.1 187768 284365 476699 238668 136511 280377 129441 93980.8 150184 196321 143605 86676.6 42529.7 51257 101358 55741.5 78363.8 85630.8 154923 20146.8 107208
internal_count=35088 22110 12978 13338 8772 8592 4013 6223 4759 7115 5622 4386 2970 4922 1956 2631 3179 1784 2430 3900 1139 1743 2193 2323 3133 1853 2684 2991 2133 935
cat_boundaries=0 1 2 3 4 5 6 7 8 9 10
cat_threshold=132120576 1884169 266338401 1576832 25595 415 188743680 2097152 16384 1622016
is_linear=0
shrinkage=0.0194071


Tree=25
num_leaves=31
num_cat=13
split_feature=74 74 74 74 74 52 76 76 76 76 5 76 72 50 72 50 77 77 77 77 74 49 50 77 76 79 77 5 77 5
split_gain=59442.4 12531 10452.9 2587.85 2140.37 873.818 527.42 336.12 261.058 238.328 227.912 207.015 179.234 164.696 133.758 129.334 124.593 114.183 112.205 109.582 102.037 100.794 95.4741 89.7678 79.0269 74.2008 69.1497 68.5156 70.1186 68.5073
threshold=31.725806451612907 18.553686635944704 46.278571428571432 25.388600288600291 13.506451612903229 39.027472527472533 0 1 2 3 1578.5000000000002 4 29.748630136986304 22.562500000000004 41.066350400479088 36.169642857142868 5 6 7 8 37.768970814132111 52.839285714285715 28.241071428571434 9 10 55.750000000000007 11 1398.5000000000002 12 1272.5000000000002
decision_type=2 2 2 2 2 2 1 1 1 1 2 1 2 2 2 2 1 1 1 1 2 2 2 1 1 2 1 2 1 2
left_child=1 4 5 8 6 9 -1 23 17 19 21 -7 -6 16 -12 27 -10 -3 -15 -2 -13 -4 -9 -5 -8 -23 -24 28 -11 -25
right_child=2 3 10 7 12 11 24 22 13 15 14 20 -14 18 -16 -17 -18 -19 -20 -21 -22 25 26 29 -26 -27 -28 -29 -30 -31
leaf_value=-0.018556958996699062 0.00014634994290893744 -0.005223722700195681 0.0039059811742177637 -0.0022299538749943884 -0.0084641175069400908 0.0027122348729865836 -0.014427765562384714 -0.0034366956180390193 -0.0047707724425780761 -0.002224341938005866 0.0048604171584099879 0.00066064447741717843 -0.010621828874720811 -0.0058007871298069742 0.0057138113996453369 0.00033767254802888368 -0.0066925605181518176 -0.006884438925819223 -0.0037705112712583082 0.00118260213913724 0.0017218905846932181 0.0042600878151764412 -0.0016567188158777817 -0.0022504874691461575 -0.012161128322184706 0.0052862823134082653 -0.0029511864980349216 -0.00031544666975244268 -0.0006134023046372374 -0.00069740800738054447
leaf_weight=10497.071500767022 70921.520816326141 24032.218248069286 88875.186929702759 40608.150881886482 50513.843209087849 65965.652745008469 14080.410527512431 78882.988113492727 28437.79456859827 21601.545269727707 150486.67007064819 46875.206951141357 20560.121817141771 12948.350960552692 128868.16298294067 51244.977897763252 23700.479773581028 47603.899137705564 51669.4011926651 83928.995088458061 125540.57433605194 51500.164509057999 26145.939407229424 13847.034127652645 12811.306829586625 55352.701117515564 38848.415704011917 37340.251219749451 19289.610189318657 47002.439719200134
leaf_count=1880 1482 871 1495 991 2766 733 1566 2539 1095 704 1116 630 1434 457 840 793 1188 2102 1402 1509 1607 495 511 551 1126 440 850 578 556 781
internal_value=3.97627e-06 -0.00516843 0.00281463 -0.00369292 -0.0110682 0.00092089 -0.0148278 -0.00237919 -0.0054036 0.000194324 0.00489816 0.00178746 -0.00908922 -0.00483475 0.00525422 -0.000420125 -0.00564729 -0.00632865 -0.00417938 0.000708065 0.00143332 0.00438981 -0.00298248 -0.00152308 -0.0133561 0.00479198 -0.00243138 -0.000916556 -0.00146533 -0.00105086
internal_weight=1.53998e+06 542190 997791 433727 108463 522708 37388.8 245335 188392 284327 475083 238381 71074 116756 279355 129476 52138.3 71636.1 64617.8 154851 172416 195728 143877 101458 26891.7 106853 64994.4 78231.4 40891.2 60849.5
internal_count=35088 22110 12978 13338 8772 8592 4572 6223 7115 5622 4386 2970 4200 4142 1956 2631 2283 2973 1859 2991 2237 2430 3900 2323 2692 935 1361 1838 1260 1332
cat_boundaries=0 1 2 3 4 5 7 9 11 13 15 16 17 19
cat_threshold=132120576 1884169 152571776 25595 145 2163195904 2947 9699328 7000 20480 61440 42397199 14 117440620 14 134709248 2080378304 1965858816 6
is_linear=0
shrinkage=0.0194071


Tree=26
num_leaves=31
num_cat=10
split_feature=74 74 74 74 74 52 74 76 76 76 74 76 76 74 5 50 52 72 77 47 5 76 72 5 74 76 76 27 77 5
split_gain=57083.2 11918 10111.4 2471.34 2022.91 841.865 497.868 324.046 249.231 229.243 222.159 200.556 170.604 157.822 140.964 126.048 124.496 114.527 105.513 102.231 85.0371 85.0188 83.781 81.7144 74.5753 70.2581 70.1969 68.4343 68.3904 66.5125
threshold=31.725806451612907 18.553686635944704 46.278571428571432 25.388600288600291 13.506451612903229 39.027472527472533 8.1428571428571441 0 1 2 54.457066052227347 3 4 20.843010752688176 2028.5000000000002 28.241071428571434 36.30219780219781 41.066350400479088 5 30.500000000000004 1892.5000000000002 6 41.066350400479088 1245.5000000000002 41.345494111623147 7 8 19.500000000000004 9 1407.5000000000002
decision_type=2 2 2 2 2 2 2 1 1 1 2 1 1 2 2 2 2 2 1 2 2 1 2 2 2 1 1 2 1 2
left_child=1 4 5 8 6 9 -1 28 23 18 14 20 -6 21 22 -9 29 -12 -2 -15 24 -10 -4 -3 -7 -8 -17 -21 -5 -11
right_child=2 3 10 7 12 11 25 15 13 16 17 -13 -14 19 -16 26 -18 -19 -20 27 -22 -23 -24 -25 -26 -27 -28 -29 -30 -31
leaf_value=-0.017813756844893402 0.00014352406527531929 -0.0078299172694364424 0.0038120764986275838 -0.0018812617500755147 -0.0080269097364617688 0.0011790053503542288 -0.011825482508703191 -0.0033212601815100751 -0.007059959625713234 -0.0014228339478682208 0.0048819961729547959 0.001203656503596374 -0.0099732493008319011 -0.0064476467338202073 0.0051362184018240928 -0.0030522670854953261 0.00033396108743264676 0.0058258086959222365 0.0011605604068736564 -0.0052709226424404306 0.0029790744165661023 -0.0052013998952323394 0.004621564917250286 -0.0060038899111071291 0.0024560337761280414 -0.013994971295379766 -0.0018694321216131491 -0.0039214082397221487 -0.00070501763531683067 -0.00028970524725547355
leaf_weight=11435.186233054847 70914.823334693909 12178.671672463417 106202.44349372387 35448.197753667831 40772.993484795094 30283.166836023331 12858.992196500301 85746.594951808453 14289.270925492048 42061.108269453049 104583.22319555283 121719.67494630814 30673.873547554016 8412.2440760731697 83135.669414520264 28559.1078799963 51056.123566269875 90894.860522270203 83864.202114462852 17957.361542403698 46099.708225250244 28539.988224595785 88683.631849050522 39482.663187623024 39998.05030632019 13389.703446641564 56634.338243722916 68145.30302387476 39310.778415381908 36393.271223068237
leaf_count=2007 1482 882 1224 834 2166 454 1126 2798 623 1291 946 1605 2034 495 587 636 778 711 1509 632 456 1120 918 1311 455 1439 1119 2052 836 562
internal_value=4.01471e-06 -0.00505263 0.00276536 -0.00361304 -0.0107864 0.000903583 -0.0144254 -0.00232953 -0.00528141 0.000190581 0.00481933 0.00175487 -0.00886588 -0.00484674 0.00446646 -0.00279565 -0.000411865 0.00532104 0.000694652 -0.00440344 0.00233097 -0.00582533 0.00418058 -0.00643406 0.00190594 -0.0129452 -0.00226673 -0.00420324 -0.00126305 -0.000897269
internal_weight=1.53973e+06 543835 995890 434705 109131 522390 37683.9 245699 189006 284290 473500 238101 71446.9 137344 278022 170940 129511 195478 154779 94514.9 116381 42829.3 194886 51661.3 70281.2 26248.7 85193.4 86102.7 74759 78454.4
internal_count=35088 22110 12978 13338 8772 8592 4572 6223 7115 5622 4386 2970 4200 4922 2729 4553 2631 1657 2991 3179 1365 1743 2142 2193 909 2565 1755 2684 1670 1853
cat_boundaries=0 1 2 3 4 5 7 8 9 10 12
cat_threshold=1867777 1576832 25595 151 132120640 42397199 14 188743680 68698223 260178016 654312040 14
is_linear=0
shrinkage=0.0194071


Tree=27
num_leaves=31
num_cat=12
split_feature=52 74 74 74 74 74 76 76 74 76 5 76 72 76 50 52 76 49 77 74 77 83 50 77 74 76 74 80 76 76
split_gain=54824 11467.4 9619.63 2426.89 1914.26 780.65 366.541 303.018 262.926 237.781 219.021 198.475 165.672 156.476 154.219 154.089 120.906 119.177 116.745 105.977 104.141 102.072 96.8086 90.9744 81.8361 78.8502 77.1794 74.0968 66.8726 63.0016
threshold=32.357142857142868 18.553686635944704 46.278571428571432 25.388600288600291 11.540783410138252 37.768970814132111 0 1 14.73509984639017 2 1281.5000000000002 3 41.066350400479088 4 22.562500000000004 34.467032967032971 5 40.946428571428577 6 21.7741935483871 7 2.5000000000000004 28.044642857142858 8 54.150614439324123 9 54.622119815668206 -9.2999999999999989 10 11
decision_type=2 2 2 2 2 2 1 1 2 1 2 1 2 1 2 2 1 2 1 2 1 2 2 1 2 1 2 2 1 1
left_child=1 4 5 9 6 11 -1 -5 -6 19 21 -2 26 -7 18 23 -9 -15 -11 -3 -16 -4 -18 -13 -14 -17 -12 -10 -22 -29
right_child=2 3 10 7 8 13 -8 16 27 14 12 15 24 17 20 25 22 -19 -20 -21 28 -23 -24 -25 -26 -27 -28 29 -30 -31
