tree
version=v4
num_class=1
num_tree_per_iteration=1
label_index=0
max_feature_idx=77
objective=tweedie
feature_names=aqi block cdc_ili_rate day day_of_year days_ahead days_since_epoch days_since_july4 days_since_school_start days_since_xmas days_to_nearest_holiday days_until_school_start days_until_thanksgiving delta_28_91 delta_7_28 dow dow_cos dow_sin doy_cos doy_sin event_count holiday_x_block is_covid_era is_halloween is_us_holiday is_weekend lag_diff lag_rate_182 lag_rate_364 lag_rate_63 lag_rate_70 lag_rate_77 lag_rate_91 lag_total_182 lag_total_364 lag_total_63 lag_total_70 lag_total_77 lag_total_91 month month_cos month_sin precip quarter roll_max_14 roll_max_28 roll_max_56 roll_max_7 roll_max_91 roll_mean_14 roll_mean_28 roll_mean_56 roll_mean_7 roll_mean_91 roll_min_14 roll_min_28 roll_min_56 roll_min_7 roll_min_91 roll_std_14 roll_std_28 roll_std_56 roll_std_7 roll_std_91 school_in_session site_dow_mean site_enc site_month_block_mean site_x_dow site_x_month snowfall temp_max temp_min temp_range week_of_year weekend_x_block year year_frac
feature_infos=[5:211] -1:0:1:2:3 [0.48795699999999997:7.7503399999999996] [1:31] [1:366] [31:61] [395:2526] [0:365] [0:385] [0:365] [0:52] [0:385] [0:370] [-12.947802197802197:8.9010989010988979] [-11.892857142857146:10.357142857142854] [0:6] [-0.90096886790241903:1] [-0.97492791218182362:0.97492791218182362] [-0.99997919295908233:0.9999907524084426] [-0.9999994220246925:0.99998555065071859] [0:1] [0:3] [0:1] [0:1] [0:1] [0:1] [-39:51] [0:1] [0:1] [0:1] [0:1] [0:1] [0:1] [0:87] [0:87] [0:87] [0:87] [0:87] [0:87] [1:12] [-1:1] [-1:1] [0:2.5390000000000001] [1:4] [7:87] [9:87] [11:87] [6:87] [12:87] [4.7142857142857144:65.428571428571431] [4.9642857142857144:63.535714285714285] [5.5178571428571432:61.803571428571431] [4:70.571428571428569] [5.7032967032967035:61.098901098901102] [0:56] [0:52] [0:49] [0:63] [0:48] [1.0271051820261772:13.403501264738468] [1.6471074533748196:11.396358371294912] [2.1121171750258032:11.952815785194982] [0.53452248382496037:16.905902040693519] [2.2659555014506254:11.91310623314085] [0:1] [17.497260273972604:43.31712328767123] -1:0:1:2:3 [6.8755760368663594:57.631336405529957] [0:27] [1:48] [0:2.7448818897637794] [-14:102.59999999999999] [-35.399999999999999:80.5] [1.7000000000000028:49.5] [1:53] [0:3] [2019:2024] [2019.0821355236139:2024.9171800136892]
tree_sizes=6654 7079 7036 6959 7098 7047 7079 7083 7093 7088 7098 7091 7114 7104 7010 7111 7104 7081 7080 7070 7098 7110 7096 7083 7125 7079 7111 7104 7075 7107 7129 7093 7122 7106 7077 7113 7110 7127 7119 7119 7140 7018 7117 7127 7165 6987 7152 6958 7136 7044 7137 7030 7103 7031 7145 7037 7037 6922 7028 6801 7135 7006 7133 7141 7032 7138 7106 6997 6900 7124 6921 7121 7008 7069 7136 7017 6576 6584 7167 7091 6997 7153 7048 7132 7106 6469 6604 7132 6612 7164 6720 7041 7092 6939 6997 6804 6807 7119 6886 6981 7077 7134 6764 6831 6767 6781 6385 6539 6875 6862 6370 6580 6553 7019 6548 6481 5993 6782 6107 6239 6611 5834 7072 6459 6501 6545 5674 7082 5561 5730 7047 6277 5427 6346 6777 6227 6147 6329 6753 6156 6296 5890 5685 6008 6550 5643 6550 5967 6025 5447 5735 6877 5214 6243 6133 5232 5519 5496 6638 5316 7031 5283 6637 7027 5537 5945 6957 4913 5408 7076 6924 5335 6807 5078 6874 5885 5845 6365 7095 5665 5976 5402 6516 7060 5457 5686 4544 5402 6302 4938 6998 4955 5715 5216 4945 5136 6151 4560 5109 4731 4311 5598 7008 5910 5294 5190 4807 5310 5119 4770 5347 5805 3696 4738 4381 5051 4769 4320 4346 4861 4708 4177 3363 6266 5908 4091 3125 3574 5247 4417 5819 3688 3526 4585 4799 4746 4742 4634 4623 2769 6543 6601 5011 4642 5057 4641 6097 2811 4745 4647 3987 5241 4529 2798 4735 6648 4961 4716 5790 4620 3024 3690 5366 4842 4080 5474 3911 4625 5091 4512 5311 5393 4814 4095 4503 5879 6134 6416 3217 5090 3983 4393 4752 4427 4724 5915 4425 3953 3128 4688 3313 6113 5768 5152 4957 5490 5497 3118 5072 3714 5154 5858 6525 6357 3649 6288 4415 6107 4828 3330 4524 2712 4089 3927 4724 5269 3611 2671 4731 4554 3034 4302 3536 5074 2767 4896 3466 6984 4735 4389 4112 4637 5049 4251 4864 3106 4832 4118 5516 3242 3314 3467 4628 5007 4319 4639 3887 5885 3651 3866 4401 4604 4706 3262 5136 3107 3716 4850 4827 3119 5493 4734 4943 3448 3352 4806 4072 3110 4424 4014 5065 3559 5819 4076 3348 2889 5010 7020 3347 4527 4073 5044 5588 5127 3414 5246 4055 5415 4531 4654 3591 3017 5520 5075 4809 3348 5158 3118 4000 3580 4849 4642

Tree=0
num_leaves=63
num_cat=0
split_feature=67 67 67 67 67 67 53 65 67 65 67 68 15 15 6 68 6 67 67 65 15 65 67 48 6 68 68 65 67 48 67 6 6 6 6 15 15 15 67 0 70 0 72 67 70 6 64 8 0 70 6 7 0 10 15 7 12 67 67 70 6 6
split_gain=1.88487e+06 358907 332146 76818.7 42904.9 26454 8938.18 8047.21 7792.27 6971.93 5732.74 4756.27 3746.87 3636.99 3346.97 3120.08 2693.81 2490.3 2288.1 1922.21 1785.91 1689.78 1581.33 1579.71 1397.26 1344.13 2433.75 1299.95 1267.57 1245.18 1121.9 1069.46 966.212 959.412 747.628 596.068 594.279 568.585 560.823 487.383 593.39 463.772 426.931 421.6 406.166 380.081 360.022 322.761 312.123 304.945 290.238 272.704 271.203 269.162 236.701 206.064 197.114 176.899 167.414 144.739 120.567 101.219
threshold=31.725806451612907 46.278571428571432 18.553686635944704 25.388600288600291 12.624423963133642 39.016666666666673 34.774725274725277 20.82112714275021 27.732718894009221 41.066350400479088 21.370967741935488 5.5000000000000009 1.0000000180025095e-35 1.0000000180025095e-35 1278.5000000000002 7.5000000000000009 1590.5000000000002 29.635407066052231 35.963133640553004 42.346063515233183 4.5000000000000009 31.28449453551913 54.622119815668206 37.500000000000007 2038.5000000000002 11.500000000000002 18.500000000000004 29.748630136986304 54.150614439324123 48.500000000000007 54.457066052227347 1894.5000000000002 1270.5000000000002 2126.5000000000005 1182.5000000000002 4.5000000000000009 1.0000000180025095e-35 1.0000000180025095e-35 26.829493087557605 31.500000000000004 0.26574803149606302 40.500000000000007 15.350000000000003 16.861739514965326 0.94940944881889766 1606.5000000000002 1.0000000180025095e-35 102.50000000000001 99.500000000000014 0.027165354330708654 687.50000000000011 2.5000000000000004 178.00000000000003 15.500000000000002 4.5000000000000009 340.50000000000006 360.50000000000006 55.700460829493089 11.483179723502305 1.0000000180025095e-35 678.50000000000011 1286.5000000000002
decision_type=2 2 2 2 2 2 2 2 2 2 2 2 2 2 2 2 2 2 2 2 2 2 2 2 2 2 2 2 2 2 2 2 2 2 2 2 2 2 2 10 2 10 2 2 2 2 2 2 8 2 2 2 8 2 2 2 2 2 2 2 2 2
left_child=2 5 4 10 7 6 15 46 27 14 25 48 19 47 39 52 30 21 -14 -8 24 -10 33 34 -15 45 -27 38 42 -17 44 -29 -19 -16 -12 58 -25 59 -5 57 -41 -32 -18 -39 -11 -4 51 50 54 -30 -7 -1 -2 -24 -6 -49 -22 -3 -9 -13 -37 -50
right_child=1 9 3 8 11 13 12 35 17 16 23 37 18 20 22 29 28 32 -20 -21 56 -23 53 36 -26 26 -28 31 49 -31 41 -33 -34 -35 -36 60 -38 43 -40 40 -42 -43 -44 -45 -46 -47 -48 55 61 -51 -52 -53 -54 -55 -56 -57 -58 -59 -60 -61 -62 -63
leaf_value=3.5785656073467602 3.607920303811178 3.6137744877107827 3.5884402325008518 3.596874427928237 3.5810614526555611 3.6114630922964182 3.608349892189568 3.5750859886724453 3.5998498468460398 3.6175937376699183 3.5915569923555393 3.588673667998147 3.6062038773700134 3.6102456139423662 3.6166945317262931 3.602816549155714 3.6176157259131885 3.6003415729042572 3.6080074428240114 3.612155990128703 3.6086909854601337 3.6037151597242167 3.6192969044533787 3.5978332777010027 3.6125527999457732 3.5935153172709833 3.5902776305340178 3.597926896902012 3.6212083603315741 3.6048243524573933 3.6186765867782507 3.60148646281541 3.6031754911952394 3.6182851310214859 3.5937459456687266 3.5758208180257531 3.594940756367321 3.5847318280177913 3.5984028166277127 3.6161837820945166 3.6106875821738393 3.6207137542807324 3.6196758269171614 3.5864363983210379 3.609129736945369 3.590449471062525 3.5672901629545741 3.6127893778758766 3.5934098076537553 3.6167576880528607 3.6157869271839642 3.569649084766032 3.601426998264837 3.6182287932446995 3.5830915936208338 3.615789858803764 3.6121824372513878 3.6162548048128307 3.5769820811179258 3.5849391911688357 3.5788343634496789 3.5852732335125395
leaf_weight=3263.8273181915283 242690.66480064392 150828.75968742371 155743.16548633575 619950.62841033936 287083.98396968842 16472.324157714844 275658.81528568268 155529.65223956108 1073129.9145545959 659179.00106811523 188787.04644203186 74878.333533287048 1240781.630440712 746286.07475662231 936347.31903076172 445724.30308532715 105095.28747558594 138907.56962203979 1292570.777513504 210715.23464775085 476103.49825668335 112463.39666557312 540038.34869384766 76231.589155912399 345713.0061340332 386913.4077103138 454718.92188453674 155971.5367603302 741596.27355957031 738729.62139320374 244876.77000427246 148137.32627868652 491105.08064651489 537693.72418212891 550648.54564619064 14383.772026062012 398302.62254881859 269830.50385832787 332007.83955955505 520874.07347106934 18314.123199462891 171336.64862060547 665124.37622070312 255682.48120880127 5147.444206237793 187385.14707183838 87163.381097078323 185439.01876449585 1615.6258678436279 14176.745361328125 92938.707569122314 101981.01288878918 5926.0388088226318 351998.48260498047 64093.885112285614 23208.333023071289 15011.055038452148 31320.911674499512 59740.440292358398 10809.292094230652 87514.279376745224 10505.519714355469
leaf_count=72 1967 900 2634 5640 5898 56 1240 4554 8193 2592 3114 1025 6434 3722 2408 4189 256 1804 5825 792 2368 684 1196 638 1116 4423 5846 1783 1472 4194 844 840 2588 1264 5025 312 3844 4710 2632 2862 86 584 1444 3764 36 1852 3966 768 32 36 300 4432 49 828 1192 84 56 132 1492 183 2112 136
internal_value=3.60565 3.61283 3.59321 3.59663 3.58063 3.60793 3.60666 3.57357 3.59977 3.6183 3.59261 3.58431 3.60759 3.61089 3.61733 3.60471 3.61944 3.60103 3.60712 3.61 3.6103 3.60022 3.61788 3.59405 3.61098 3.59112 3.59177 3.59795 3.62025 3.60407 3.61829 3.59966 3.60255 3.61727 3.59319 3.57651 3.59541 3.58593 3.59741 3.61554 3.616 3.61952 3.61939 3.58556 3.61753 3.58954 3.56873 3.61382 3.5816 3.62112 3.61514 3.56992 3.60777 3.61888 3.58143 3.61312 3.6088 3.6142 3.57561 3.5882 3.57841 3.58635
internal_weight=1.90024e+07 1.20479e+07 6.95448e+06 5.4704e+06 1.48408e+06 6.35397e+06 4.4528e+06 509576 3.07167e+06 5.69395e+06 2.39873e+06 974500 3.01973e+06 1.90117e+06 3.08742e+06 1.43307e+06 2.60653e+06 1.81561e+06 2.53335e+06 486374 1.58311e+06 1.18559e+06 2.36608e+06 1.21397e+06 1.092e+06 1.18476e+06 841632 1.25607e+06 1.52599e+06 1.18445e+06 1.08054e+06 304109 630013 1.47404e+06 739436 317168 474534 611201 951958 721338 539188 416213 770220 525513 664326 343128 192408 318058 363299 755773 109411 105245 248617 892037 351178 208647 491115 182150 215270 85687.6 101898 12121.1
internal_count=135520 50100 85420 51540 33880 33160 24690 16940 24164 16940 27376 16940 14291 8470 9676 10399 7264 13269 12259 2032 7262 8877 5696 12621 4838 14755 10269 10895 3208 8383 4056 2623 4392 3672 8139 8470 4482 9682 8272 3980 2948 1428 1700 8474 2628 4486 8470 1208 7258 1508 356 4504 2016 2024 7090 852 2424 1032 6046 1208 2424 168
is_linear=0
shrinkage=1


Tree=1
num_leaves=63
num_cat=0
split_feature=67 67 67 67 67 67 53 65 67 65 67 68 65 65 68 76 67 67 68 71 17 67 65 53 68 68 65 48 76 76 76 53 76 17 75 48 76 70 17 67 42 67 17 18 64 65 0 67 8 19 0 7 0 17 76 76 0 7 12 7 76 12
split_gain=1.77609e+06 338547 316266 72556.2 41594.9 24901.4 8410.39 7922.86 7343.38 6604.72 5433.19 4565.11 3427.72 2977.89 2935.78 2877.48 2454.78 2345.01 1970.51 1956.27 1681.75 1638.05 1591.11 1498.68 1276.31 2308.22 1225.64 1171.76 1093.2 1065.51 1006.49 927.246 900.131 823.668 795.421 749.786 731.792 586.452 580.606 536.356 466.49 457.179 389.223 368.725 358.793 357.348 329.957 313.898 304.63 300.986 299.714 268.207 255.204 235.328 231.394 207.372 206.139 196.351 185.631 167.687 107.915 81.0209
threshold=31.725806451612907 46.278571428571432 18.553686635944704 25.388600288600291 12.624423963133642 39.016666666666673 34.774725274725277 20.82112714275021 27.732718894009221 41.066350400479088 21.370967741935488 5.5000000000000009 31.28449453551913 31.28449453551913 7.5000000000000009 2020.5000000000002 53.082949308755765 29.635407066052231 9.5000000000000018 44.750000000000007 -0.60785761079279388 53.760368663594477 31.28449453551913 23.357142857142858 11.500000000000002 18.500000000000004 29.748630136986304 48.500000000000007 2020.5000000000002 2022.5000000000002 2022.5000000000002 53.68681318681319 2020.5000000000002 -0.60785761079279388 2.5000000000000004 80.000000000000014 2020.5000000000002 1.0000000180025095e-35 -0.60785761079279388 27.258755760368668 0.029500000000000002 16.861739514965326 -0.60785761079279388 -0.99864786094873803 1.0000000180025095e-35 40.34648738678046 31.500000000000004 51.078969417679097 102.50000000000001 0.78325454425165997 99.500000000000014 2.5000000000000004 178.00000000000003 -0.60785761079279388 2020.5000000000002 2020.5000000000002 36.500000000000007 328.50000000000006 360.50000000000006 16.500000000000004 2019.5000000000002 166.50000000000003
decision_type=2 2 2 2 2 2 2 2 2 2 2 2 2 2 2 2 2 2 2 2 2 2 2 2 2 2 2 2 2 2 2 2 2 2 2 2 2 2 2 2 2 2 2 2 2 2 10 2 2 2 10 2 8 2 2 2 8 2 2 2 2 2
left_child=2 5 4 10 7 6 14 44 26 15 24 50 20 19 52 40 31 22 -15 -8 58 35 -10 36 49 -26 39 -16 34 -22 -28 56 -19 -25 -18 -17 -12 -33 60 -5 46 42 -13 -30 51 -23 -3 -42 55 -4 53 -1 -2 -6 -43 -14 -11 -50 -7 -40 -9 -52
right_child=1 9 3 8 11 12 13 38 17 16 23 41 48 18 27 21 28 32 -20 -21 29 45 -24 33 25 -27 30 -29 43 -31 -32 37 -34 -35 -36 -37 -38 -39 59 -41 47 54 -44 -45 -46 -47 -48 -49 57 -51 61 -53 -54 -55 -56 -57 -58 -59 -60 -61 -62 -63
leaf_value=-0.026433927314265051 0.0022030922661671146 0.0086319829711384247 -0.015150161016453327 -0.0083557427387787198 -0.021942448619402137 0.0029507859625816477 -0.00035741620866471555 -0.028786606863507661 -0.0056269252854866583 0.0088412412117329642 -0.013703660351668954 -0.021244982176768006 0.0064439206655304074 0.0038927873228554594 -0.0027478304992728914 0.010556345039415943 0.011384984445784578 -0.0051987869735864427 0.0016626832583147959 0.0018123826334339173 0.0043345001955011455 0.012284670535200088 -0.0018760546547973472 -0.012057101021426644 -0.011784308114449695 -0.014939827452236215 -0.0075515794260650653 -0.00080008129187250469 0.011484444047529041 0.0062218969210838084 -0.0040988681232496616 0.013101970199476181 -0.0024194024247530346 -0.0092080293611690248 0.014587948862774563 0.012297434848601069 -0.011546960277550977 0.011049973172252306 -0.026063967908091724 -0.0065758084471301869 0.0046070137112545449 -0.020004779456491765 -0.019079709424937131 0.014720262617162087 -0.037670295256297358 0.013439339777424229 0.010529370460026579 0.0087717584037997065 0.0068625023540550435 -0.017213912329642984 -0.016988637710046682 -0.035301471952252243 -0.0040962256422364786 -0.023960764598526557 -0.017936726983282039 0.0098278528611057056 0.011080037216426973 0.0094249864358959459 0.0063395865632968869 -0.02957746419669121 -0.02613589260066386 -0.024154263563576587
leaf_weight=3244.1447925567627 242680.39222145081 105066.8246307373 257416.63816070557 760745.86846828461 64503.104350566864 476067.34130096436 605473.82069396973 17265.854606628418 1072833.660197258 47586.158420562744 191534.3926179409 131309.84023618698 19985.476226806641 776932.2540807724 445694.94979286194 842962.26248550415 185624.45478057861 132917.34111022949 659120.22222518921 978048.29976177216 609414.29843902588 924713.06873321533 112459.94349479675 123383.77287530899 386445.8044834137 453836.97543048859 150717.36567497253 738725.49943447113 32711.895690917969 482320.12356567383 153294.07678222656 776081.04489707947 497038.52138900757 352333.89856719971 112006.16222381592 302849.51522827148 545356.43447113037 149765.18340873718 13411.912271022797 190677.6777973175 17967.628837585449 61663.644501686096 175660.71213126183 1129800.1593856812 86110.510491251945 327440.50016784668 386858.98305130005 176042.67155456543 176753.41644287109 84977.698223114014 8146.3467864990234 100896.02221441269 5925.1710071563721 287156.67670154572 240607.36798286438 89342.573974609375 168838.9162902832 31796.736038208008 15005.793979644775 200262.54446458817 84010.548659086227 1762.6588678359985
leaf_count=72 1967 490 3152 6808 1200 2368 3242 368 8193 445 3145 2380 116 3364 4189 2812 836 1464 3189 4496 3238 2260 684 1242 4423 5846 1751 4194 80 1600 872 1766 2928 3084 420 712 5150 385 292 1464 78 1464 2910 2400 3966 752 1816 756 728 1334 92 4432 49 5934 2928 240 932 124 56 5754 2056 32
internal_value=-1.42038e-07 0.0069681 -0.0120853 -0.00875778 -0.0244076 0.00220882 0.000981713 -0.031389 -0.00570505 0.0122856 -0.0126713 -0.0207744 0.00508347 0.00187992 -0.000910926 0.0113463 0.0133987 -0.00448497 0.00286922 0.000982742 0.00451251 0.0118365 -0.00527105 -0.0112601 -0.0141181 -0.0134887 -0.00746916 -0.00153302 0.0142137 0.00516836 -0.00581069 0.0123567 -0.00300587 -0.00994709 0.0125906 0.0110166 -0.0121076 0.0127701 -0.0284678 -0.00799906 0.00963269 -0.0191891 -0.0200063 0.0146293 -0.0362241 0.0125867 0.0101242 0.00838618 0.00792633 -0.0156626 -0.0234454 -0.0350265 0.00205288 -0.0235909 -0.0183589 0.00920958 0.010588 0.00725341 0.0030544 -0.0293575 -0.0265892 -0.0182748
internal_weight=1.89816e+07 1.20396e+07 6.94198e+06 5.46597e+06 1.47601e+06 6.35329e+06 4.4526e+06 505202 3.07068e+06 5.68632e+06 2.39529e+06 970810 1.90069e+06 3.01957e+06 1.43303e+06 3.0839e+06 2.60241e+06 1.81525e+06 1.43605e+06 1.58352e+06 1.58281e+06 2.39797e+06 1.18529e+06 1.21261e+06 1.18268e+06 840283 1.25543e+06 1.18442e+06 1.46014e+06 1.09173e+06 304011 1.14227e+06 629956 475718 297631 1.14581e+06 736891 925846 314951 951424 685936 609242 306971 1.16251e+06 190251 1.25215e+06 491926 194010 317878 342394 361569 104140 248606 351660 302271 109328 216425 208550 491073 213674 101276 9909.01
internal_count=135520 50100 85420 51540 33880 33160 24690 16940 24164 16940 27376 16940 8470 14291 10399 9676 7264 13269 6553 7738 7262 6536 8877 12621 14755 10269 10895 8383 3736 4838 2623 3528 4392 4326 1256 3524 8295 2151 8470 8272 3140 9682 5290 2480 8470 3012 2306 834 1208 4486 7258 4504 2016 7134 4392 356 1377 852 2424 6046 2424 124
is_linear=0
shrinkage=0.03


Tree=2
num_leaves=63
num_cat=0
split_feature=67 67 67 67 67 67 53 65 67 65 67 68 16 16 6 68 6 67 67 65 17 65 67 53 53 6 63 65 6 67 67 6 16 6 68 6 65 70 6 17 16 0 70 71 67 17 12 70 0 10 0 9 70 16 7 12 67 67 7 42 71 6
split_gain=1.67346e+06 319296 300966 68515.4 40269.7 23439.2 7913.73 7785.92 6922.14 6254.53 5147.09 4377.16 3381.13 3230.18 3002.93 2762.37 2475.67 2072.19 2060.59 1791.62 1583.57 1466.26 1438.11 1417.31 1376.96 1264.04 1240.81 1302.79 1162.3 1148.12 1015.82 877.883 859.45 858.108 758.519 736.734 595.813 585.423 585.095 564.653 540.99 441.459 545.657 413.921 384.362 345.162 291.467 290.943 288.708 255.304 240.148 221.808 221.26 194.332 193.837 174.807 167.504 165.549 165.44 151.347 139.983 114.856
threshold=31.725806451612907 46.278571428571432 18.553686635944704 25.388600288600291 12.624423963133642 39.016666666666673 34.774725274725277 20.82112714275021 27.889400921658989 41.066350400479088 21.370967741935488 5.5000000000000009 0.81174490092936691 0.81174490092936691 1278.5000000000002 7.5000000000000009 1590.5000000000002 36.16193036354327 29.635407066052231 42.346063515233183 -0.60785761079279388 31.28449453551913 54.622119815668206 23.357142857142858 29.543956043956047 2038.5000000000002 5.9277497702093784 43.220378583726337 1902.5000000000002 54.150614439324123 54.913824884792632 2126.5000000000005 0.81174490092936691 1270.5000000000002 15.500000000000002 1198.5000000000002 29.786986301369868 0.94940944881889766 2094.5000000000005 -0.60785761079279388 0.81174490092936691 31.500000000000004 0.26574803149606302 36.95000000000001 16.861739514965326 -0.60785761079279388 22.500000000000004 0.027165354330708654 99.500000000000014 15.500000000000002 178.00000000000003 2.5000000000000004 0.048818897637795254 0.81174490092936691 2.5000000000000004 360.50000000000006 55.700460829493089 11.368663594470048 2.5000000000000004 0.033000000000000008 28.450000000000003 678.50000000000011
decision_type=2 2 2 2 2 2 2 2 2 2 2 2 2 2 2 2 2 2 2 2 2 2 2 2 2 2 2 2 2 2 2 2 2 2 2 2 2 2 2 2 2 10 2 2 2 2 2 2 8 2 8 2 2 2 2 2 2 2 2 2 2 2
left_child=2 5 4 10 7 6 15 45 24 14 26 48 17 20 41 50 30 -8 21 -14 55 -10 31 35 38 -22 27 -4 -17 43 37 -16 -25 -20 -28 -12 -26 -11 -5 61 44 56 -43 -18 -13 58 59 -31 51 -24 -2 -6 -48 -32 -47 -7 -3 -41 -1 -15 -42 -9
right_child=1 9 3 8 11 13 12 39 18 16 23 40 19 46 22 28 29 -19 33 -21 25 -23 49 32 36 -27 34 -29 -30 47 53 -33 -34 -35 -36 -37 -38 -39 -40 57 60 42 -44 -45 -46 54 52 -49 -50 -51 -52 -53 -54 -55 -56 -57 -58 -59 -60 -61 -62 -63
leaf_value=-0.020543057760039219 0.0021370873083106433 0.0076283444138209554 -0.014333405021965168 -0.0074254294586319465 -0.015623366462341689 0.0028624709963866474 0.00056132335196243334 -0.028485943229217627 -0.0054345611558125955 0.011447263426124224 -0.013349581490559198 -0.01982793684122006 0.0025231327787195159 0.0086341820859402382 0.010403802386096606 -0.0017818641951866984 0.011885897933118854 0.0022789142889847042 -0.0049983023004654742 0.0061983337155273486 0.0043196813290998157 -0.0018198288764424012 0.012898750919447031 -0.01022716310108894 -0.0065619321090078578 0.0065147912125099053 -0.0063539198499047598 -0.010495424181732462 0.0015089510128111763 0.01471051791093426 0.014029277704737627 0.011927072629111586 -0.0068024963369350284 -0.0023271264631896131 -0.012128656787196631 -0.011191879461915244 -0.0041714608003231455 0.00185971673208011 -0.0093229410619037004 -0.029319532446209357 -0.019182887829551534 0.0099332687527037104 0.0046613555059621913 0.013424009442822625 -0.018195230121203016 -0.027720821128554441 0.0076692074405174844 0.010358734208926077 -0.018259020630916813 0.011857208135184238 -0.0039739983176107028 -0.023084140002753429 0.0045811480192342715 0.012293727602455702 -0.036584422381963327 0.0061515233183525213 0.010043603515926822 -0.027549783595970052 -0.03383872569305893 0.013387927996213276 -0.015903675172469531 -0.025526523534275029
leaf_weight=882.25703430175781 242670.72228527069 150661.5710773468 987640.63028335571 745023.79831600189 3667.6641445159912 476033.31467437744 1320195.245508194 14180.277122497559 991515.40343761444 798110.26355743408 193369.14040231705 267954.15666103363 275624.73341274261 12994.639045715332 934497.40014648438 1078293.6283216476 221994.05767822266 1213016.748085022 138845.47753334045 210599.25904846191 746027.76641845703 112456.69494819641 538471.22265625 396148.58500623703 262708.15344238281 345459.39172363281 27689.59220790863 86651.1312084198 106095.30967712402 738774.32153320312 189470.11492156982 536336.0029296875 79176.630228042603 491057.01226425171 78732.062956571579 542629.56951522827 146048.12515258789 5775.4880790710449 182098.99298095703 135783.39166212082 14205.211948394775 519954.53124237061 18304.473495483398 545917.16192626953 254188.032330513 2343.2509918212891 270733.48679351807 14144.018188476562 12046.77108669281 351098.69696044922 5924.3541660308838 344218.33279800415 22656.394451141357 84346.082069396973 125054.11607336998 15000.841945648193 31268.937484741211 76378.098558425903 59917.089399337769 11324.51448059082 71044.73099899292 86507.55632686615
leaf_count=20 1967 900 12744 7573 48 2368 6919 312 7572 3048 3381 4710 1240 44 2408 7930 524 5340 1804 792 3722 684 1196 3706 1722 1116 196 900 453 1472 648 1264 620 2588 915 4914 849 40 1372 4022 212 2862 86 1176 3764 52 1033 36 168 828 49 7042 103 320 5994 56 132 2024 2404 28 996 2112
internal_value=-2.70686e-07 0.00676358 -0.0117433 -0.00850169 -0.0238008 0.00214278 0.000952302 -0.030704 -0.00553561 0.0119324 -0.0123081 -0.020225 0.00182361 0.00493217 0.0110179 -0.000883625 0.0130164 0.00138379 -0.00428514 0.00411503 0.00437794 -0.00506635 0.0115354 -0.010934 -0.0071586 0.00501447 -0.0137177 -0.0140239 -0.00148707 0.0137961 0.0119162 0.0109593 -0.00965678 -0.00291595 -0.0106265 -0.0117589 -0.00570788 0.0113784 -0.00779817 -0.0278022 -0.018671 0.00932204 0.00975403 0.0129794 -0.0190333 -0.0355269 0.00769272 0.0146288 -0.0228471 0.0124877 0.00199137 -0.0230057 0.00743082 0.0134949 -0.0364225 0.00296301 0.00804373 -0.0286831 -0.0336475 0.0108501 -0.0164512 -0.0259447
internal_weight=1.89619e+07 1.20318e+07 6.93016e+06 5.46179e+06 1.46837e+06 6.35265e+06 4.45242e+06 501046 3.06975e+06 5.67912e+06 2.39204e+06 967325 3.01944e+06 1.90023e+06 3.08059e+06 1.43298e+06 2.59853e+06 2.53321e+06 1.73387e+06 486224 1.58252e+06 1.10397e+06 2.3604e+06 1.21132e+06 1.33588e+06 1.09149e+06 1.18071e+06 1.07429e+06 1.18439e+06 1.52083e+06 1.0777e+06 1.47083e+06 475325 629902 106422 735999 408756 803886 927123 312849 607392 720190 538259 767911 522142 188197 317709 752918 359933 889570 248595 347886 293390 273816 127397 491034 181931 212161 60799.3 24319.2 85249.9 100688
internal_count=135520 50100 85420 51540 33880 33160 24690 16940 24164 16940 27376 16940 14291 8470 9676 10399 7264 12259 12648 2032 7262 8256 5696 12621 11516 4838 14755 13644 8383 3208 4056 3672 4326 4392 1111 8295 2571 3088 8945 8470 9682 3980 2948 1700 8474 8470 1208 1508 7258 2024 2016 7090 1136 968 6046 2424 1032 6046 2424 72 1208 2424
is_linear=0
shrinkage=0.03


Tree=3
num_leaves=63
num_cat=8
split_feature=50 50 50 50 50 48 50 65 65 65 68 15 65 1 72 1 66 1 69 6 1 6 65 1 65 50 72 1 6 15 48 58 69 50 72 72 72 70 72 2 75 15 75 50 15 50 0 0 12 64 19 8 12 1 6 6 10 10 0 12 17 15
split_gain=1.55451e+06 291774 273213 67263.9 42350.3 16684.5 8960.87 8221.41 8100.14 6678.7 6244.3 5590.78 3916.87 3631.64 3256 3117.78 4075.22 2735.74 2606.1 2776.33 2411.78 2309.89 2158.07 3351.27 2001.71 1748.91 1345.81 1306.98 1585.41 1173.67 1167.37 1108.71 1054.4 998.212 972.048 881.851 756.834 616.223 575.78 659.388 555.344 538.793 508.695 484.7 469.972 454.137 419.183 388.17 387.283 357.787 299.035 237.274 230.738 230.647 224.497 203.452 200.315 199.135 159.295 98.701 76.8896 64.1988
threshold=33.125000000000007 18.625000000000004 45.696428571428577 26.625000000000004 12.946428571428573 55.500000000000007 23.482142857142861 20.82112714275021 20.82112714275021 41.066350400479088 6.5000000000000009 1.0000000180025095e-35 24.557817763305639 0 47.550000000000004 1 2 3 10.500000000000002 1278.5000000000002 4 1590.5000000000002 31.28449453551913 5 29.748630136986304 14.303571428571431 15.15 6 1934.5000000000002 1.0000000180025095e-35 51.500000000000007 28.500000000000004 9.5000000000000018 20.053571428571434 10.350000000000003 34.250000000000007 29.350000000000005 0.94940944881889766 43.650000000000013 5.1746600000000003 2.5000000000000004 4.5000000000000009 2.5000000000000004 40.660714285714299 4.5000000000000009 10.696428571428573 31.500000000000004 53.500000000000007 331.50000000000006 1.0000000180025095e-35 0.10837544681456425 262.50000000000006 22.500000000000004 7 741.50000000000011 1606.5000000000002 27.500000000000004 1.5000000000000002 48.500000000000007 360.50000000000006 1.0000000180025095e-35 4.5000000000000009
decision_type=2 2 2 2 2 2 2 2 2 2 2 2 2 1 2 1 1 1 2 2 1 2 2 1 2 2 2 1 2 2 2 2 2 2 2 2 2 2 2 2 2 2 2 2 2 2 10 10 2 2 2 2 2 1 2 2 2 2 8 2 2 2
left_child=1 4 5 6 7 12 14 45 38 18 41 43 27 24 33 29 -17 51 55 46 -16 37 23 -10 -13 -19 -21 28 -2 -8 35 -15 57 -3 -32 -14 48 40 39 -5 -11 50 -38 54 -34 49 -20 -39 -23 -1 -6 -12 -45 -24 -7 60 -40 -9 -43 -29 -4 -57
right_child=2 3 9 8 10 11 15 32 22 21 17 13 30 31 20 16 -18 25 19 26 -22 36 53 -25 -26 -27 -28 59 -30 -31 34 -33 44 -35 -36 -37 42 47 56 -41 -42 58 -44 52 -46 -47 -48 -49 -50 -51 -52 -53 -54 -55 -56 61 -58 -59 -60 -61 -62 -63
leaf_value=-0.033622558012671409 -0.0020944995566666825 -0.015554217012659638 0.0036503036035928308 -0.0098644446303408958 -0.021804154057319683 0.0041178347033277172 -0.0059789265635958313 -0.013357820574792347 -0.0033734866187481709 0.011125140954767023 -0.013071850855953637 0.0027030852855382463 -0.00071535589796614121 0.0016271224029085552 -0.0089826824257006749 -0.0043056340622104686 -0.013109677153007898 -0.025082156749590818 0.0077982086458078491 0.0091561009680125559 -0.012403598975181153 0.011764413179559032 -0.0015093098346784376 -0.0058193427827063007 0.0049644741815991341 -0.017417843475017198 0.011450549963653956 -0.0044332756712587183 0.00070575636381931472 -0.0087631557908242133 5.4648852082582194e-06 0.011669853358074016 -0.028003590236838544 -0.013178304086069476 0.0022629706337417843 0.001303650797858892 0.01334335802867336 -0.0061631553535968645 -0.0067775710171041502 -0.0066552405431076073 0.012568403492051466 -0.021005239801260379 0.01470027950072984 0.010518511815751311 -0.025404432487726301 -0.021207204247863369 0.0094793183287046542 0.0093836639084264005 0.013757650945950169 -0.036289322068967955 -0.023799888270195621 -0.0095511410003958856 0.0074072083834959652 0.0023749503405635255 0.0063536065625876877 0.0067717997097743038 -0.0024708680772899836 -0.021355300529641772 -0.01871960418561253 -0.0093461436050180507 0.00042462682263785188 0.003468038847970408
leaf_weight=102079.5324473381 348395.45399093628 218701.64685964584 16256.22151184082 244548.74011850357 164519.12620997429 55400.011444091797 162782.11372947693 3434.9042026996613 1498932.6720461845 684251.87437057495 38922.715604305267 533407.88916110992 321488.71635961533 824474.79612874985 298312.85977888107 56864.779483795166 283025.79699897766 28327.537214636803 179703.47603797913 258532.20501708984 492165.51448249817 306338.45452880859 240959.79698133469 759878.95398235321 1037597.7319869995 503318.6924200058 2099736.6285095215 76145.231300354004 380908.28317260742 837983.85473871231 200605.53163051605 10008.995872497559 196912.64925539494 586710.53793406487 1189740.1742520332 493661.24017620087 702748.51010131836 2816.135555267334 46568.350219726562 75448.167044639587 370292.85767745972 87851.053171038628 386043.21957397461 23400.025299072266 92972.753635406494 2257.3896660804749 521258.66843605042 2959.1884765625 123309.65728759766 84162.053634524345 116522.67484378815 31072.727322101593 261561.38073062897 14579.7856798172 149896.78121471405 21342.61637878418 12293.524559020996 16058.973287463188 40742.010451555252 3867.2891578674316 11255.662048339844 7062.8229217529297
leaf_count=4504 1883 3158 61 2102 2896 203 1313 88 11435 2489 779 2352 2466 3953 3259 792 3020 992 972 704 5255 712 1911 5414 4324 8846 4994 449 1688 7884 1084 219 5858 7182 6053 2285 1488 32 342 538 1191 1546 752 59 2352 336 2561 8 256 3966 2473 549 894 182 645 67 67 920 611 30 49 27
internal_value=-3.85795e-07 -0.0108069 0.00683389 -0.00776342 -0.0225636 0.00231585 -0.010962 -0.0297261 -0.00451691 0.0115238 -0.0190372 0.0039422 0.000753731 0.00334709 -0.012481 -0.00915384 -0.011637 -0.0170917 0.010589 0.0107063 -0.0111129 0.0126532 -0.00390072 -0.00419634 0.00419664 -0.0178261 0.011199 -0.00103133 -0.00063195 -0.00831023 0.00140877 0.00174763 -0.0267158 -0.0138236 0.00193725 0.000507371 0.0134036 0.0115785 -0.00860623 -0.0091079 0.011632 -0.0218945 0.0138245 0.00686209 -0.0271704 -0.034666 0.0090484 0.00180403 0.0123366 -0.0348286 -0.022632 -0.0115081 0.00766288 -0.00128762 0.00575039 0.00417031 -0.00587839 -0.0199499 -0.0202818 -0.00467072 0.00233093 0.0059511
internal_weight=1.89434e+07 7.33891e+06 1.16045e+07 5.82976e+06 1.50915e+06 5.91056e+06 2.93655e+06 497878 2.89321e+06 5.69391e+06 1.01128e+06 2.89575e+06 3.01481e+06 2.40549e+06 1.59589e+06 1.34066e+06 339891 601642 3.11515e+06 3.05923e+06 790478 2.57876e+06 2.51435e+06 2.25881e+06 1.57101e+06 531646 2.35827e+06 809316 729304 1.00077e+06 2.2055e+06 834484 309379 805412 1.39035e+06 815150 1.51844e+06 1.06032e+06 378859 319997 1.05454e+06 409635 1.08879e+06 490258 289885 188499 700962 5775.32 429648 186242 281042 69995.4 284961 255540 205297 55917.3 58861.9 19493.9 128593 80012.5 27511.9 28405.4
internal_count=135520 90570 44950 53854 36716 28587 31863 18024 21991 16363 18692 12649 15938 10848 18854 13009 3812 11166 9435 9231 8514 6928 18942 16849 6676 9838 5698 4050 3571 9197 11888 4172 9218 10340 7137 4751 3208 3720 3049 2640 3680 7526 2240 1801 8210 8806 3533 40 968 8470 5369 1328 953 2093 848 204 409 1008 2157 479 110 94
cat_boundaries=0 1 2 3 4 5 6 7 8
cat_threshold=4 6 5 12 12 12 4 2
is_linear=0
shrinkage=0.03


Tree=4
num_leaves=63
num_cat=0
split_feature=67 67 67 67 67 67 53 65 67 65 67 68 67 15 77 15 77 15 15 67 48 65 71 53 68 68 77 67 65 53 67 77 77 67 48 67 15 15 15 65 67 67 0 0 70 9 72 77 19 64 42 71 48 70 8 9 67 72 70 20 77 17
split_gain=1.48662e+06 318059 245284 46796.7 37495.9 28178.9 7485.28 7472.04 6930.69 5604.38 4695.12 3975.06 3125.36 2887.71 2676.97 2252.28 2216.42 1841.71 1397.4 1359.04 1280.38 1248.3 1226.89 1214.34 1164.82 2117.97 1140.92 1057.99 1021.54 1014.78 973.011 919.286 871.727 673.638 616.816 594.963 534.549 514.381 502.307 483.79 467.508 447.713 433.608 394.604 516.353 388.118 360.637 357.006 355.581 354.488 351.141 338.159 282.011 274.157 271.501 215.318 164.912 159.95 138.579 118.882 113.465 102.054
threshold=30.149692780337947 46.278571428571432 18.553686635944704 25.388600288600291 12.624423963133642 35.963133640553004 33.950549450549453 20.82112714275021 39.016666666666673 41.066350400479088 21.370967741935488 5.5000000000000009 27.732718894009221 1.0000000180025095e-35 2021.4996577686518 1.0000000180025095e-35 2022.3545516769339 1.0000000180025095e-35 4.5000000000000009 53.760368663594477 37.500000000000007 31.28449453551913 44.750000000000007 35.752747252747263 11.500000000000002 18.500000000000004 2021.5872689938401 54.150614439324123 29.748630136986304 40.598901098901102 54.457066052227347 2023.1875427789189 2021.2368240930871 33.691705069124431 80.000000000000014 23.283870967741937 4.5000000000000009 1.0000000180025095e-35 1.0000000180025095e-35 42.346063515233183 26.829493087557605 32.952886002886011 40.500000000000007 31.500000000000004 0.26574803149606302 34.500000000000007 51.850000000000001 2022.3983572895279 0.80926549319045582 1.0000000180025095e-35 0.21500000000000002 81.950000000000017 21.500000000000004 0.027165354330708654 102.50000000000001 2.5000000000000004 11.368663594470048 16.650000000000002 1.0000000180025095e-35 1.0000000180025095e-35 2019.8583162217662 1.0000000180025095e-35
decision_type=2 2 2 2 2 2 2 2 2 2 2 2 2 2 2 2 2 2 2 2 2 2 2 2 2 2 2 2 2 2 2 2 2 2 2 2 2 2 2 2 2 2 10 10 2 2 2 2 2 2 2 2 2 2 2 2 2 2 2 2 2 2
left_child=2 5 4 10 7 6 32 49 17 14 24 52 28 54 43 29 30 39 -15 34 35 26 -17 -19 47 -26 -14 45 40 -8 51 -30 33 -2 -16 -12 56 58 -22 -7 -5 -34 -32 57 -45 -18 -39 -4 -23 61 -21 -11 59 -29 -10 -54 -9 -3 -13 -6 -38 -1
right_child=1 9 3 12 11 8 15 36 13 16 20 37 21 18 19 22 27 23 -20 50 38 48 -24 -25 25 -27 -28 53 31 -31 42 -33 41 -35 -36 -37 60 46 -40 -41 -42 -43 -44 44 -46 -47 -48 -49 -50 -51 -52 -53 55 -55 -56 -57 -58 -59 -60 -61 -62 -63
leaf_value=-0.032384865989108703 -0.0041484754066062135 0.0054455404834724344 -0.015511916592082823 -0.0077956084130956184 -0.018853031817667291 0.002790988649558505 0.0024980214541345776 -0.027998185094765263 0.0084710544594872039 0.010315542486150017 -0.011586999436673347 -0.015058680010576682 -0.006666457594798043 0.0047209979013981664 0.0096882370542239627 -0.0006666680319837913 0.010344922037497555 0.00047911823681022112 0.0027936855915133506 0.011737706207577343 -0.0068502740915115864 -0.0020784358635025342 0.0010514374767349845 0.0022446946656167477 -0.010727275728009097 -0.013756247135385872 -0.0044756316409951388 0.013901451372436101 -0.0069187255328723692 0.0080913685537673911 0.011568564148626876 -0.0036166828959766266 -0.0022398239758319519 -0.0017107597974470297 0.011276743889348939 -0.0096333640584804862 -0.027218306277391035 -0.018641294133906063 -0.0095125270392224411 0.0051801449676324544 -0.0063988748730981855 -0.00072033756812680063 0.01354389418576327 0.0093692695827843984 0.0042395869572034676 0.012477851692549141 -0.016991403473464707 -0.013557626828711263 0.0057599097499858613 -0.035591374762205537 0.010112585509182089 0.01271798880528535 -0.01457396990893025 0.0096733016321742544 0.0066228179491321223 -0.021939182966543493 -0.026222526442156838 0.0079489700738508452 -0.018730752861500687 -0.01172873790159854 -0.024262729955791838 -0.034711184780273532
leaf_weight=77760.760708332062 311131.64167881012 27032.708923339844 154449.1266875267 618519.08293676376 12205.452010154724 128842.23299789429 260142.94718265533 133944.48568987846 109119.66709136963 603522.48819828033 546957.63931322098 74192.02593934536 282444.19143438339 1091037.9299507141 814406.82354736328 700587.5997543335 86773.772521972656 504602.09359931946 490965.89070224762 1104652.1936645508 76074.226329803467 106976.7803401947 802584.71579265594 1148784.1737604141 385094.51180696487 451568.15586805344 882384.88576507568 736257.25518798828 155707.79945230484 32879.243774414062 243594.28030395508 148047.40975952148 489411.4620847702 151816.89254045486 301798.05615234375 188983.01513648033 14003.935974121094 331553.53884553909 396919.96504569054 187056.94438648224 331465.26955223083 271254.65783596039 170239.4881362915 519147.3636302948 18294.873817443848 679041.23812866211 187650.57048678398 186083.87965965271 5470.5729064941406 83252.18496465683 134511.22033691406 57888.005987167358 3650.4361472129822 14116.144775390625 208289.41716194153 338488.71820616722 75436.068123579025 154709.0918006897 10678.465939044952 2587.6499938964844 85598.862680196762 23371.450914382935
leaf_count=3264 3334 176 2634 5640 498 632 1200 4022 356 2380 6060 1025 3653 4838 2116 3791 216 3535 2424 2532 638 665 3988 5003 4423 5846 5284 1472 1783 96 844 840 2902 1240 712 2079 312 5658 3844 788 2632 1829 584 2862 86 1484 2816 1852 19 3966 336 248 48 36 852 6675 2024 856 183 37 2112 1240
internal_value=-4.88286e-07 0.00598934 -0.0118029 -0.00860165 -0.022626 0.00165871 -0.000513056 -0.029349 0.00335394 0.0112544 -0.0116159 -0.0191744 -0.00575997 0.00464686 0.0103881 0.000719711 0.0122821 0.00210688 0.00412288 0.0108773 -0.0103026 -0.00471549 0.000250676 0.00170586 -0.0129645 -0.0123622 -0.00500688 0.0130211 -0.00682404 0.00312576 0.0112401 -0.00530943 -0.00232268 -0.00334909 0.0101178 -0.0110854 -0.0264958 -0.0176908 -0.00908442 0.00420577 -0.0073083 -0.00169798 0.0123813 0.00878589 0.00919469 0.0122362 -0.0180452 -0.0144442 -0.00169686 -0.0341294 0.0115613 0.0105259 -0.0216849 0.013822 0.00725833 -0.0218608 -0.0273591 0.00757676 -0.0155218 -0.0176112 -0.0246796 -0.0329242
internal_weight=1.8926e+07 1.25545e+07 6.37152e+06 4.91715e+06 1.45437e+06 6.88851e+06 3.01981e+06 493368 3.8687e+06 5.66599e+06 2.38613e+06 961007 2.53102e+06 1.89941e+06 3.07455e+06 1.79619e+06 2.59143e+06 1.96929e+06 1.582e+06 2.35537e+06 1.20893e+06 1.27728e+06 1.50317e+06 1.65339e+06 1.1772e+06 836663 1.16483e+06 1.51619e+06 1.25374e+06 293022 1.07524e+06 303755 1.22361e+06 462949 1.1162e+06 735941 308983 604075 472994 315899 949984 760666 413834 719184 537442 765815 519204 340533 112447 184384 1.23916e+06 661410 356932 750373 317409 342139 209381 181742 84870.5 14793.1 99602.8 101132
internal_count=135520 53748 81772 47892 33880 36808 18380 16940 18428 16940 27376 16940 20516 8470 9676 9075 7264 9958 7262 5696 12621 9621 7779 8538 14755 10269 8937 3208 10895 1296 4056 2623 9305 4574 2828 8139 8470 9682 4482 1420 8272 4731 1428 3980 2948 1700 8474 4486 684 8470 2868 2628 7258 1508 1208 6723 6046 1032 1208 535 2424 4504
is_linear=0
shrinkage=0.03


Tree=5
num_leaves=63
num_cat=4
split_feature=53 53 51 50 51 53 51 68 51 65 65 1 53 1 6 17 68 6 71 6 68 71 72 68 65 53 53 72 1 65 17 65 65 71 71 58 19 71 2 6 17 70 22 65 17 1 10 0 75 64 18 6 63 8 19 10 0 10 0 17 18 72
split_gain=1.3907e+06 260792 246199 50532.8 45060.8 16847.3 8018.32 7498.15 6816.58 6591.32 5365.49 4070.91 3824.42 2798.58 2879.26 2794.18 2562.98 2464.09 2240.55 2075.76 1744.83 1491.25 1462.74 1460.27 1385.64 1369.95 1230.66 1224.51 1059.32 1016.28 1013.73 1009.27 968.986 697.07 618.593 575.65 563.357 548.824 559.786 538.393 523.362 507.723 503.856 536.649 482.462 477.052 413.267 433.945 358.038 350.366 329.108 328.104 317.799 284.62 258.486 207.003 197.152 196.981 163.311 162.416 107.445 77.0674
threshold=33.038461538461547 19.104395604395609 45.937500000000007 26.625000000000004 12.866071428571431 39.609890109890117 9.008928571428573 6.5000000000000009 23.473214285714288 20.82112714275021 41.066350400479088 0 34.774725274725277 1 1406.5000000000002 -0.60785761079279388 11.500000000000002 1278.5000000000002 70.550000000000011 1590.5000000000002 1.0000000180025095e-35 61.250000000000007 9.8500000000000032 7.5000000000000009 24.557817763305639 30.91758241758242 41.41208791208792 15.15 2 27.134872557826188 -0.60785761079279388 42.346063515233183 31.28449453551913 36.95000000000001 63.150000000000013 27.500000000000004 0.85673801594079257 69.950000000000017 5.1746600000000003 1606.5000000000002 -0.60785761079279388 0.94940944881889766 1.0000000180025095e-35 41.066350400479088 -0.60785761079279388 3 42.500000000000007 31.500000000000004 2.5000000000000004 1.0000000180025095e-35 0.99932962452255414 1486.5000000000002 5.7403100915445293 296.50000000000006 0.10837544681456425 1.5000000000000002 26.500000000000004 27.500000000000004 48.500000000000007 1.0000000180025095e-35 -0.99628250747696534 32.650000000000013
decision_type=2 2 2 2 2 2 2 2 2 2 2 1 2 1 2 2 2 2 2 2 2 2 2 2 2 2 2 2 1 2 2 2 2 2 2 2 2 2 2 2 2 2 2 2 2 1 2 10 2 2 2 2 2 2 2 2 10 2 8 2 2 2
left_child=1 4 5 8 6 12 49 40 16 37 17 53 23 30 -15 42 39 46 32 34 52 -18 51 59 -13 -20 -22 56 -25 44 -10 -24 -11 50 41 -36 -29 38 -5 -3 58 -12 45 -44 -8 -7 47 -4 -35 60 -21 -14 -17 -9 -42 -31 -19 -39 -6 -2 -1 -48
right_child=2 3 10 9 7 15 29 11 13 18 19 24 22 14 -16 20 21 27 25 33 26 -23 31 28 -26 -27 -28 36 -30 55 -32 -33 -34 48 35 -37 -38 57 -40 -41 54 -43 43 -45 -46 -47 61 -49 -50 -51 -52 -53 -54 -55 -56 -57 -58 -59 -60 -61 -62 -63
leaf_value=-0.028498684404208899 0.0023520212773009779 -0.014850365015469479 0.0073689466661049988 -0.0091414866435662184 -0.019965682510795411 0.0027958620935080755 -0.024129056665402732 -0.01087416667542331 -0.0094025819552767276 -0.0048169744781966185 0.01037944742103644 -0.016878045483113776 0.00078428093321353102 -0.0080298886006712773 -0.013912550853886372 0.0025564448774763773 -0.01206591088489955 0.010650204709603914 -0.0033752930657735022 0.01099065663186298 0.0033022896518050881 -0.0097507974463365912 0.0015691667421026737 -0.00085077554212493729 -0.012281539500804371 -0.00077410109123598558 0.0050224282504263348 0.010982870566517576 -0.0048845727891711167 -0.0095933892852291241 -0.0072788937903108955 0.003830267360696716 -0.0018540446132422608 0.012583759629494522 0.009578322027357207 0.012297139738827867 0.0095924116000816167 -0.005779352888351073 -0.0062087095027231172 -0.01264574437853074 -0.020783689486875961 0.0014378481468612068 -0.0030314542132807592 0.011143962042751431 -0.026719224006033632 0.00097160463658355143 0.0029212606948812356 0.0090979462522081268 0.013659951260012253 -0.034909009449725283 0.014608652356117732 -0.0014304282680184758 0.0069339254987207779 -0.0066776785599136938 -0.022639919907731749 -0.019360613472938347 0.0082552598969384255 -0.00038370228324959005 -0.017653587931688527 0.00034917933131551352 -0.032504695949327235 0.0064468259601690777
leaf_weight=6810.0677390098572 133052.54617214203 166716.19788885117 177225.87022399902 263422.9059586525 88278.58520925045 453853.21583557129 96200.278991937637 24045.091558694839 274629.03848791122 1340613.192232132 605023.01275348663 609379.33567941189 95244.570077896118 142350.20925474167 158059.19450378418 15712.0146484375 436349.75981855392 36021.908264160156 757615.97977924347 259040.17248535156 665110.94919395447 588215.88886666298 2028625.4701366425 815530.32925510406 65428.943768024445 239936.49181938171 856355.83304786682 1794665.6055908203 63115.105766296387 2332.4383654594421 768983.71719408035 194720.30353164673 107297.39890813828 802659.28799438477 87245.144536972046 358734.81966209412 307532.47283935547 32058.162638664246 75386.665722846985 249146.45146179199 165090.65900206566 5771.5620536804199 3078.4714412689209 10929.176158905029 202505.64392602444 180311.62497711182 12364.887788772583 498809.60829734802 427518.80850219727 81336.94153881073 24847.317749023438 163620.61561584473 301329.79449462891 36928.494971752167 116172.25275754929 12508.440953493118 222140.45202636719 7518.0227584838867 40659.249006271362 50186.273446083069 92907.809106469154 10188.869686126709
leaf_count=240 784 2552 895 2245 1559 1769 2422 738 2738 10826 2197 10136 760 1813 1656 62 5313 88 5178 608 2879 6538 10592 4253 1986 1632 3472 4231 388 58 6817 907 1024 1704 385 1048 788 229 538 2400 2905 40 164 256 6036 781 100 2373 848 3957 48 813 989 334 2508 874 616 37 610 367 4321 95
internal_value=-5.81121e-07 -0.0103192 0.00641409 -0.00724159 -0.02084 0.00220232 -0.0284081 -0.0175735 -0.0101094 -0.00441383 0.0109258 -0.0157614 0.000874137 -0.00857262 -0.0111248 0.00409529 -0.0115432 0.0100767 -0.00384368 0.0119361 0.00469239 -0.0107368 0.00151871 -0.00063258 -0.0164322 -0.00274965 0.00427048 0.01054 -0.00114062 -0.0255044 -0.00783771 0.0017672 -0.00459741 0.0126484 0.0109156 0.0117654 0.0107795 -0.0080985 -0.00848903 -0.0135297 -0.0208238 0.010295 0.0024016 0.00802865 -0.0258855 0.00227724 0.00851145 0.00864474 0.0129578 -0.0334359 0.0113076 -0.000615568 0.00671703 -0.00833196 -0.0215508 -0.0178293 0.00858963 -0.00475456 -0.0192373 0.0018035 -0.0322326 0.00451504
internal_weight=1.89094e+07 7.24888e+06 1.16606e+07 5.6083e+06 1.64058e+06 6.03078e+06 494602 1.14598e+06 2.78445e+06 2.82385e+06 5.62979e+06 735782 3.5441e+06 1.34402e+06 300409 2.48668e+06 1.44043e+06 3.05895e+06 2.44546e+06 2.57084e+06 1.83851e+06 1.02457e+06 2.48221e+06 1.06188e+06 674808 997552 1.52147e+06 2.36036e+06 878645 313547 1.04361e+06 2.22335e+06 1.44791e+06 1.51407e+06 1.05677e+06 445980 2.1022e+06 378386 338810 415863 410201 610795 648172 14007.6 298706 634165 698589 676035 1.23018e+06 181055 283887 258865 317042 60973.6 281263 14840.9 258162 39576.2 128938 183239 99717.9 22553.8
internal_count=135520 90220 45300 51536 38684 29236 17908 20776 29827 21709 16064 13194 18864 13024 3469 10372 16803 9186 18660 6878 7402 11851 13072 5792 12122 6810 6351 5723 4641 9390 9555 11499 11850 3208 3670 1433 5019 3049 2783 4952 7582 2237 2970 420 8458 2550 3463 3268 2552 8518 656 1573 1051 1072 5413 932 704 266 2169 1151 4561 195
cat_boundaries=0 1 2 3 4
cat_threshold=8 6 6 4
is_linear=0
shrinkage=0.03


Tree=6
num_leaves=63
num_cat=2
split_feature=67 67 67 67 67 67 67 67 46 67 6 68 67 15 15 67 75 15 15 6 68 48 15 6 1 6 6 75 68 19 6 6 15 15 48 70 15 1 6 46 67 15 2 15 75 68 10 19 67 7 7 15 58 0 8 15 6 7 70 6 6 8
split_gain=1.32053e+06 282430 221490 41949.4 34853.5 25181.2 7115.25 6090.16 5782.58 4271.52 4259.29 3629.91 2824.07 2579.32 2431.15 1787.27 1755.57 1682.8 1246.28 1218.96 1183.06 1122.37 1077.74 1067.68 1543.48 1061.69 1049.03 1037.03 1011.65 969.743 886.113 852.709 806.467 822.751 769.17 671.862 669.214 602.532 563.101 534.59 519.341 501.933 499.078 489.572 477.106 437.187 367.986 358.816 349.396 349.173 330.984 328.7 276.791 273.78 256.944 209.713 194.272 172.121 133.373 110.972 96.4841 78.3363
threshold=30.149692780337947 46.278571428571432 18.553686635944704 25.388600288600291 12.624423963133642 35.963133640553004 9.3825652841781899 39.016666666666673 48.500000000000007 21.370967741935488 1582.5000000000002 5.5000000000000009 27.502995391705074 1.0000000180025095e-35 1.0000000180025095e-35 54.150614439324123 2.5000000000000004 1.0000000180025095e-35 4.5000000000000009 1278.5000000000002 1.0000000180025095e-35 37.500000000000007 4.5000000000000009 1694.5000000000002 0 1902.5000000000002 1164.5000000000002 2.5000000000000004 4.5000000000000009 0.29342972903661901 1214.5000000000002 1646.5000000000002 1.0000000180025095e-35 5.5000000000000009 56.500000000000007 1.1988188976377956 1.5000000000000002 1 1182.5000000000002 45.500000000000007 54.913824884792632 4.5000000000000009 1.9670000000000003 1.0000000180025095e-35 1.0000000180025095e-35 6.5000000000000009 48.500000000000007 -0.51297808981038739 16.861739514965326 2.5000000000000004 234.50000000000003 4.5000000000000009 37.500000000000007 99.500000000000014 102.50000000000001 4.5000000000000009 1558.5000000000002 16.500000000000004 1.0000000180025095e-35 678.50000000000011 489.50000000000006 315.50000000000006
decision_type=2 2 2 2 2 2 2 2 2 2 2 2 2 2 2 2 2 2 2 2 2 2 2 2 1 2 2 2 2 2 2 2 2 2 2 2 2 1 2 2 2 2 2 2 2 2 2 2 2 2 2 2 2 10 2 2 2 2 2 2 2 2
left_child=2 5 4 9 6 8 49 17 26 23 16 53 28 54 34 32 19 45 -15 35 50 38 36 42 -25 -16 46 -22 31 -21 -19 -5 37 -34 -10 -3 -17 -12 -11 -28 56 57 -4 58 -23 -7 -2 -30 -45 61 -14 -51 -24 55 -9 -6 -18 -8 -13 -43 -42 -1
right_child=1 10 3 12 11 7 41 13 14 21 15 43 20 18 25 22 40 30 -20 29 27 44 52 24 -26 -27 39 -29 47 -31 -32 -33 33 -35 -36 -37 -38 -39 -40 -41 60 59 -44 48 -46 -47 -48 -49 -50 51 -52 -53 -54 -55 -56 -57 -58 -59 -60 -61 -62 -63
leaf_value=-0.016529738622786592 -0.0033757958593816422 0.0086663496461008814 -0.014552457476298235 -0.0067514707545917084 -0.021057491711500238 0.0026601622305838248 -0.022697208971505432 0.0080293576376264577 0.0020218592718119987 -0.01186889061561377 0.013187430541341602 -0.014159537335947318 -0.0019191552122746283 0.0044495735041648653 -0.00073896124870374575 0.012347752439516876 0.010623291516092759 0.00031908517629389678 0.0026292753563103189 0.010807668952598829 -0.0051269911431337141 -0.0080172306510892955 0.013622595901967667 -0.0087716524547184187 -0.012260086207800634 0.0008305665917061625 -0.0021951445527709141 -0.0027316812210964334 -0.0064468440731567465 0.0086310492200171052 0.0019873503213983599 -0.0035607591841178452 0.0099932923480218223 0.01185279323880772 0.0053227407608085796 -0.00034066046494950761 0.010867860035037117 0.010168579944152817 -0.0099617179103070764 -0.00056058596175847109 0.016771435672434509 -0.025981302722362813 -0.012608751365518731 -0.017843080868139231 -0.010210281077569584 0.0049315693610737432 0.0084070767522818907 -0.0076792666629108674 -0.016278477502085272 -0.03381390307994369 0.0056438991220025868 -0.031035258915580774 0.012099215759934051 -0.015591530144437041 0.0062305851985286227 -0.019135939044842624 0.0061968446407822233 -0.026294836598341979 -0.017769955827117236 -0.02304534000095405 0.012523153862356003 -0.026458728316377859
leaf_weight=1184.8812408447266 433751.99694728851 1091042.1126422882 170043.32622480392 139327.76711320877 281136.73024725914 128829.60749149323 13049.864934444427 109007.50160980225 214325.62113380432 187182.85542178154 172454.30392456055 73904.392981290817 106965.40086078644 1090653.6237001419 753179.37553930283 475710.22509765625 180856.71726417542 368837.1619887352 490904.13397216797 581309.30297851562 1069511.208647728 352704.07184076309 352057.97822570801 153039.54544448853 453235.75987052917 799737.30866241455 394739.4303817749 191874.48689460754 440644.99383831024 269907.55334472656 1284453.1626739502 164292.77590942383 1165903.9645385742 262561.63482666016 90305.332736968994 7504.4167785644531 653520.73687744141 91776.058227539062 547285.24004888535 331151.16794490814 4985.17578125 13845.377605438232 397750.86382818222 264878.36696004868 119672.43478751183 186989.02970027924 2394.044319152832 411458.78439950943 251655.02191567421 119983.07600450516 5469.5568237304688 57813.146592617035 155197.78587341309 9771.1899814605713 208141.33058547974 63340.26658654213 9412.3524475097656 193841.78535509109 10621.339037895203 84791.489235162735 180113.29963684082 1961.7540130615234
leaf_count=16 4499 5912 4676 1679 5934 632 292 356 971 3114 348 1025 665 4838 4428 1008 676 3090 2424 1360 8297 3231 685 1224 4428 3507 2968 1384 3568 720 5448 944 2868 572 348 52 1520 220 5025 1651 8 312 4427 4710 1251 788 8 3960 3764 5994 19 2404 331 124 852 1200 28 5754 183 2112 632 56
internal_value=-6.62307e-07 0.00564374 -0.0111448 -0.00810938 -0.0214831 0.00156468 -0.0280196 0.00316745 -0.000488331 -0.0109675 0.0106124 -0.0181543 -0.00541923 0.00437975 0.00055003 0.0113005 0.00962703 0.00199849 0.00388458 0.00926526 -0.00449981 -0.00971401 0.0120076 -0.0122558 -0.0113799 6.93307e-05 -0.00214817 -0.00476264 -0.00651214 0.0101176 0.00161517 -0.00502502 0.0106169 0.0103351 0.00300045 0.00860482 0.0114913 0.01214 -0.0104478 -0.00144947 0.011506 -0.0252263 -0.013191 -0.0167342 -0.00857292 0.00400507 -0.00331102 -0.00704199 -0.017081 -0.0327352 -0.00155101 -0.0329113 0.0131566 -0.0205636 0.00684896 -0.0207045 0.0104045 -0.0260685 -0.0146142 -0.0234587 0.012638 -0.0227521
internal_weight=1.8894e+07 1.25417e+07 6.35224e+06 4.91046e+06 1.44178e+06 6.8874e+06 486471 3.86782e+06 3.01958e+06 2.38091e+06 5.65431e+06 955307 2.52954e+06 1.89871e+06 1.85755e+06 3.32918e+06 2.32513e+06 1.96911e+06 1.58156e+06 1.94976e+06 1.37382e+06 1.20684e+06 1.63649e+06 1.17407e+06 606275 1.55292e+06 1.16204e+06 1.26139e+06 1.15572e+06 851217 1.65329e+06 303621 1.6927e+06 1.42847e+06 304631 1.09855e+06 1.12923e+06 264230 734468 725891 375368 305529 567794 601059 472377 315819 436146 852104 516533 180943 112435 177796 507256 354248 317149 344477 190269 206892 84525.7 98636.9 185098 3146.64
internal_count=135520 53748 81772 47892 33880 36808 16940 18428 18380 27376 16940 16940 20516 8470 9254 7552 9388 9958 7262 8044 10365 12621 3544 14755 5652 7935 9126 9681 10151 2080 8538 2623 4008 3440 1319 5964 2528 568 8139 4619 1344 8470 9103 9682 4482 1420 4507 7528 8474 8470 684 8398 1016 7258 1208 7134 704 6046 1208 2424 640 72
cat_boundaries=0 1 2
cat_threshold=2 4
is_linear=0
shrinkage=0.03


Tree=7
num_leaves=63
num_cat=0
split_feature=67 67 67 67 67 67 65 53 67 65 67 68 67 15 6 15 67 15 67 15 65 71 48 53 68 68 65 6 53 6 6 50 6 6 67 61 67 15 15 15 65 2 65 10 0 6 64 72 9 6 19 15 0 11 12 9 67 71 6 17 6 72
split_gain=1.24391e+06 266184 210320 39585.4 33537.7 23696.2 6932.83 6150.2 5732.89 4825.08 4039.77 3465.01 2660.59 2429.66 2254.65 1978.8 1931.47 1583.86 1217.76 1173.27 1113.69 1096.84 1060.07 1059.78 1016.36 1954.69 953.262 897.872 896.361 894.862 888.635 810.919 779.197 745.938 592.648 557.026 537.228 484.656 465.566 463.675 411.608 409.253 391.036 365.166 423.342 345.716 344.164 339.642 332.351 317.458 311.487 276.081 262.58 250.785 246.854 208.763 163.576 133.537 107.091 103.603 93.1498 85.021
threshold=30.149692780337947 46.278571428571432 18.553686635944704 25.388600288600291 12.624423963133642 35.963133640553004 20.82112714275021 33.950549450549453 39.016666666666673 41.066350400479088 21.370967741935488 5.5000000000000009 27.502995391705074 1.0000000180025095e-35 1278.5000000000002 1.0000000180025095e-35 53.082949308755765 1.0000000180025095e-35 54.622119815668206 4.5000000000000009 31.28449453551913 44.750000000000007 37.500000000000007 35.752747252747263 11.500000000000002 18.500000000000004 29.748630136986304 1214.5000000000002 40.598901098901102 1582.5000000000002 1286.5000000000002 28.767857142857146 2126.5000000000005 1182.5000000000002 33.691705069124431 7.2864734120302188 23.283870967741937 4.5000000000000009 1.0000000180025095e-35 1.0000000180025095e-35 42.346063515233183 2.0138000000000003 22.994863013698634 42.500000000000007 31.500000000000004 1918.5000000000002 1.0000000180025095e-35 51.850000000000001 34.500000000000007 1606.5000000000002 0.80926549319045582 5.5000000000000009 99.500000000000014 334.50000000000006 22.500000000000004 2.5000000000000004 11.368663594470048 28.450000000000003 678.50000000000011 1.0000000180025095e-35 1286.5000000000002 32.650000000000013
decision_type=2 2 2 2 2 2 2 2 2 2 2 2 2 2 2 2 2 2 2 2 2 2 2 2 2 2 2 2 2 2 2 2 2 2 2 2 2 2 2 2 2 2 2 2 10 2 2 2 2 2 2 2 8 2 2 2 2 2 2 2 2 2
left_child=2 5 4 10 6 7 46 33 17 14 24 52 26 54 43 28 29 40 32 -15 27 -17 36 -19 49 -26 45 -14 -9 41 35 -28 -16 34 -2 -18 -12 56 57 -24 -7 -11 -35 44 -3 -5 59 -40 -31 -4 -22 -32 55 -20 -10 -6 -8 -13 -39 -1 -54 -45
right_child=1 9 3 12 11 8 37 15 13 16 22 38 20 19 18 21 30 23 53 -21 50 -23 39 -25 25 -27 31 -29 -30 48 51 -33 -34 42 -36 -37 -38 58 47 -41 -42 -43 -44 61 -46 -47 -48 -49 -50 -51 -52 -53 60 -55 -56 -57 -58 -59 -60 -61 -62 -63
leaf_value=-0.03029249600014311 -0.003813837079426341 0.0068949435391450703 -0.014298723887203175 -0.0063576287382172518 -0.012977635622044958 0.0025805127554740762 -0.02607233109943019 0.0023095751045708155 0.0095574363086920727 0.0077999462356951469 -0.010621231107201309 -0.016884020969975429 -0.0060528780906631075 0.004316799378215894 0.0088936834689141483 -0.00066322578325495876 0.0081334013413892296 0.00042075170610731202 0.010551756163442387 0.0025505448506754941 -0.001861640399194685 0.00096129272862817384 -0.0061732616221669137 0.0020701847432173701 -0.0097675136435608819 -0.012682409222070177 -0.0067044303857224192 -0.0041732102058132103 0.007569203229739991 0.0093730403710647128 0.012034407243466976 -0.0035606913117470352 0.010332121977696559 -0.0033257438271638005 -0.0015271329680203842 0.011227981136873563 -0.0087625614548372411 -0.02534475169830407 -0.017189911191944487 -0.008732761189578284 0.0047845962251437633 0.0098529312234067381 -0.0012777341352074722 0.0026881852412541912 0.0085892280554858407 -0.0076016841826652259 -0.033503023437269575 -0.015583338703808559 0.011379249004541968 -0.01245154169045911 0.0054761906149240766 0.013018625495781828 -0.0088338343897869168 0.011754137510389102 0.0064050958075309106 -0.020247727505549509 -0.024291534436596082 -0.013665312617883689 -0.022453419335096592 -0.032659769577806322 -0.016664739310752675 0.0063012287374073061
leaf_weight=75831.524409294128 311013.22982978821 178982.06528282166 153622.96239161491 525918.17091560364 3626.9686183929443 128822.12298488617 131534.06934225559 260104.7158203125 24226.37805557251 111806.28344726562 545253.69288778305 14025.879284381866 300201.92005872726 1090476.3739414215 930605.97106933594 700579.17679023743 66499.621564865112 504592.06436395645 681406.62524414062 490876.27644443512 106962.16813755035 802554.8731136322 75978.063433408737 1148656.3095588684 383983.58369255066 449687.50483417511 126937.40335273743 960941.26196289062 32841.086563110352 86533.30078125 739250.47416687012 176613.90601921082 533598.02502441406 96029.51224899292 151800.30940818787 247246.02182006836 188552.15080189705 13768.631958007812 328931.80547165871 396109.94322490692 186951.69933700562 402316.99272441864 664566.84387302399 12710.011709213257 515281.04668998718 325836.10934448242 80790.892037272453 186361.94645905495 533990.12869262695 185304.9003276825 5468.12548828125 394649.68696594238 1598.0620059967041 203198.80688476562 292798.43816375732 337505.50703370571 74202.184673666954 70350.675006985664 84421.823796510696 22723.158660650253 10284.441440582275 10895.24382019043
leaf_count=3264 3334 952 2634 5136 48 632 4022 1200 72 1020 6060 212 3765 4838 2408 3791 319 3535 1584 2424 665 3988 638 5003 4423 5846 1581 5916 96 216 1556 1042 1264 595 1240 1077 2079 312 5658 3844 788 1116 4136 112 2804 2392 3966 2816 1176 1852 19 784 32 440 1136 7042 2024 996 2112 1240 136 112
internal_value=-7.35295e-07 0.00547706 -0.0108261 -0.00787115 -0.0209246 0.00151786 -0.0273619 -0.000473695 0.00307277 0.0103039 -0.0106494 -0.017659 -0.00525806 0.00424911 0.00949928 0.00064374 0.0112594 0.00193862 0.00994901 0.00376854 -0.00436561 0.000204139 -0.00943015 0.00156676 -0.0119033 -0.0113399 -0.0063191 -0.00462067 0.00289933 0.0103325 0.0119859 -0.00487541 0.00941793 -0.00211419 -0.00306384 0.0105722 -0.0101437 -0.0246006 -0.0162704 -0.0083209 0.00388548 0.00940655 -0.00153633 0.00802771 0.00815249 -0.00683358 -0.0320405 -0.016609 0.0110996 -0.013289 -0.00150453 0.012377 -0.0200175 0.010828 0.00664614 -0.0201706 -0.0254307 -0.0142013 -0.0228601 -0.0308399 -0.0156157 0.0043568
internal_weight=1.88792e+07 1.25359e+07 6.34333e+06 4.90737e+06 1.43596e+06 6.88689e+06 483272 3.01949e+06 3.8674e+06 5.64897e+06 2.37849e+06 952685 2.52888e+06 1.89838e+06 3.06668e+06 1.79608e+06 2.58229e+06 1.96902e+06 2.34881e+06 1.58135e+06 1.37357e+06 1.50313e+06 1.20589e+06 1.65325e+06 1.1726e+06 833671 1.15531e+06 1.26114e+06 292946 1.13465e+06 1.44765e+06 303551 1.4642e+06 1.22341e+06 462814 313746 733806 303927 599670 472088 315774 514123 760596 717868 694263 851754 179346 515294 620523 338928 112430 1.1339e+06 353015 884605 317025 341132 205736 84376.6 98190.5 98554.7 11882.5 23605.3
internal_count=135520 53748 81772 47892 33880 36808 16940 18380 18428 16940 27376 16940 20516 8470 9676 9075 7264 9958 5696 7262 10365 7779 12621 8538 14755 10269 10151 9681 1296 3528 3736 2623 3672 9305 4574 1396 8139 8470 9682 4482 1420 2136 4731 3980 3756 7528 8470 8474 1392 4486 684 2340 7258 2024 1208 7090 6046 1208 2424 4504 168 224
is_linear=0
shrinkage=0.03


Tree=8
num_leaves=63
num_cat=1
split_feature=67 67 67 67 67 67 65 53 67 65 67 65 67 15 15 6 67 67 6 15 15 65 51 6 1 75 53 53 53 53 6 65 6 15 6 65 65 6 61 6 15 15 9 15 7 65 7 10 0 15 7 7 12 0 7 10 8 0 7 70 6 8
split_gain=1.17167e+06 250848 199617 37348.5 32235.4 22315.5 6743.76 6494.42 4684.62 4560.59 3819.54 3199.62 2506.4 2288.54 2240.77 2128.73 1835.04 1150.65 1111.59 1104.5 1051.05 1048.35 1034.04 995.882 1424.24 978.014 934.804 902.991 829.63 813.652 735.968 719.075 930.654 681.842 595.141 591.754 546.513 532.814 501.887 489.754 473.17 467.376 375.709 369.42 363.956 361.037 346.561 344.186 399.344 318.443 298.261 293.135 279.148 266.181 255.151 242.04 236.847 185.765 165.976 124.909 103.216 76.3788
threshold=30.149692780337947 46.278571428571432 18.553686635944704 25.388600288600291 12.624423963133642 36.426907322068622 20.82112714275021 34.093406593406606 39.016666666666673 41.066350400479088 21.370967741935488 27.134872557826188 27.502995391705074 1.0000000180025095e-35 1.0000000180025095e-35 1278.5000000000002 54.457066052227347 54.622119815668206 1582.5000000000002 4.5000000000000009 1.0000000180025095e-35 31.28449453551913 19.937500000000004 1694.5000000000002 0 2.5000000000000004 40.598901098901102 29.543956043956047 39.994505494505496 35.752747252747263 2126.5000000000005 23.925645632158098 1302.5000000000002 1.0000000180025095e-35 1146.5000000000002 29.748630136986304 43.220378583726337 1286.5000000000002 7.3533608359252431 2118.5000000000005 4.5000000000000009 4.5000000000000009 34.500000000000007 1.0000000180025095e-35 266.50000000000006 42.346063515233183 2.5000000000000004 42.500000000000007 31.500000000000004 4.5000000000000009 186.50000000000003 234.50000000000003 186.50000000000003 31.500000000000004 30.500000000000004 15.500000000000002 102.50000000000001 48.500000000000007 16.500000000000004 1.0000000180025095e-35 678.50000000000011 315.50000000000006
decision_type=2 2 2 2 2 2 2 2 2 2 2 2 2 2 2 2 2 2 2 2 2 2 2 2 1 2 2 2 2 2 2 2 2 2 2 2 2 2 2 2 2 2 2 2 2 2 2 2 10 2 2 2 2 8 2 2 2 8 2 2 2 2
left_child=2 5 4 10 6 7 46 31 20 15 23 43 27 56 26 47 18 30 44 -15 45 25 34 36 -25 -14 -9 39 -16 -22 -17 32 -2 -24 -12 -29 -4 38 -18 -5 50 58 -20 59 -11 -7 61 48 -3 -48 -13 -23 -45 -33 -39 -19 -10 -42 -8 -6 -43 -1
right_child=1 9 3 12 11 8 41 14 13 16 22 40 21 19 28 17 37 55 42 -21 29 51 33 24 -26 -27 -28 35 -30 -31 -32 53 -34 -35 -36 -37 -38 54 -40 -41 57 60 -44 52 -46 -47 49 -49 -50 -51 -52 -53 -54 -55 -56 -57 -58 -59 -60 -61 -62 -63
leaf_value=-0.015214567579414964 -0.0038255355420709486 0.0066907524253849073 -0.012727485783569902 -0.0063165447687369937 -0.013358366251600282 0.0025032392902054573 -0.021479211480488671 0.0024119848725836467 0.0075830848107316315 0.0097074819041506576 -0.012376348229471605 -0.018976502304249885 -0.0048368085081673708 0.004187946550433118 3.8516744188833741e-06 0.0086325662507421904 0.0078436116707111623 0.010914965050208388 0.0090985286047083648 0.0024741634069259128 0.00057399142494549648 -0.0018058459693672331 -0.0068948134541969939 -0.0082066330055474181 -0.011560217263531519 -0.0025104321594751149 0.0070391066496010247 -0.0062024450541763709 0.0017479213125788666 0.0021137388035761553 0.01003108753557976 -0.0025959822600775109 -0.0017224520375929435 -0.00906998205271492 -0.0093251129590820291 -0.0036453496345852832 -0.0091562090280234171 0.01361371577333388 0.011301150939781275 -0.008211083733346768 -0.018435485823822002 -0.024717029372922996 0.011188261996762884 -0.015314857591225186 0.0080186823318280243 0.0046815237706453947 -0.032422793585734355 0.0042269427542136516 0.0083366804596587858 -0.029666557331260619 -0.020935877106101109 0.0053133833975767793 -0.016834939394129993 -0.00075941161855664751 0.012028598122254871 0.0098980173039688261 0.0058553703685678719 -0.016035839540319521 -0.025025280982020986 -0.016859627672704519 -0.021871771291206724 -0.025044305176848268
leaf_weight=1177.4375762939453 301526.43934869766 178912.22065544128 524554.04918694496 675900.33156204224 73665.283141732216 128815.08151531219 12937.429622292519 271722.43632602692 108899.12088775635 504646.49866676331 123765.98022556305 164787.7826551199 1069072.521364212 1090309.5735702515 1326285.9029259682 930001.75769042969 47138.753446578979 534798.22570800781 86470.894287109375 490850.06351184845 446748.89855289459 106959.12523412704 154202.19813871384 152828.20880889893 452137.15915489197 191843.00445604324 45936.720489501953 148737.55820465088 301215.94563293457 1000865.6526260376 533130.44793701172 85291.601136207581 509164.14300537109 819307.57474732399 107722.62436914444 180115.75455474854 41691.456575393677 104590.29150390625 191523.8736782074 150157.68305587769 88595.42026758194 13696.005630493164 753055.1608581543 254045.34659290314 148941.54305076599 146258.45499420166 117792.94816768169 23600.948951721191 514969.0071144104 56923.130381345749 122997.23920893669 5466.778076171875 191765.93694519997 424504.23181962967 743199.24249267578 348954.01049804688 208008.92602062225 43782.362943887711 191705.41262042522 10570.594690322876 84072.433576107025 1937.3636837005615
leaf_count=16 3402 952 8555 6924 1025 632 292 1277 356 1816 2415 3104 8297 4838 7275 2408 265 1196 216 2424 3054 665 1280 1224 4428 1384 138 1017 1251 4307 1264 742 2623 7665 1261 1058 548 196 795 1152 1704 312 1644 3840 800 596 5994 224 2804 2404 2942 19 3422 3041 1532 828 852 720 5754 183 2112 56
internal_value=-7.99542e-07 0.00531516 -0.0105157 -0.00763964 -0.0203764 0.00147243 -0.0267113 -0.000325795 0.00309429 0.0100038 -0.0103401 -0.0171746 -0.00510161 0.00412232 0.000776494 0.00922136 0.0109334 0.00965859 0.0102507 0.00365593 0.00196159 -0.00423537 -0.00915415 -0.0115601 -0.0107134 -0.00448287 0.00308121 -0.00613166 0.000326646 0.00163856 0.00914219 -0.00194954 -0.00250469 -0.00872548 -0.0109567 -0.00480198 -0.0124646 0.0118715 0.0106184 -0.00666097 -0.0191302 -0.0239841 0.0109731 -0.0156241 0.0093227 0.00366151 -0.0313482 0.00779114 0.00791234 -0.0315257 -0.0198143 -0.00145945 -0.0159689 -0.0010667 0.0122242 0.0105135 0.00644918 -0.0176425 -0.0248016 -0.0137987 -0.0222716 -0.0213589
internal_weight=1.88653e+07 1.25303e+07 6.33491e+06 4.90446e+06 1.43045e+06 6.8864e+06 480242 3.26565e+06 3.62076e+06 5.64393e+06 2.37621e+06 950210 2.52825e+06 1.89807e+06 1.94516e+06 3.06437e+06 2.57957e+06 2.34688e+06 1.49311e+06 1.58116e+06 1.72269e+06 1.37334e+06 1.205e+06 1.17121e+06 604965 1.26092e+06 317659 1.15491e+06 1.6275e+06 1.44761e+06 1.46313e+06 1.32049e+06 810691 973510 231489 328853 566246 1.08645e+06 238663 826058 420163 302411 839526 530047 653588 275074 177831 717482 693881 174716 287785 112426 445811 509796 847790 883752 316908 132378 204643 84235.9 97768.4 3114.8
internal_count=135520 53748 81772 47892 33880 36808 16940 19749 17059 16940 27376 16940 20516 8470 9941 9676 7264 5696 4476 7262 8589 10365 12621 14755 5652 9681 1415 10151 8526 7361 3672 9808 6025 8945 3676 2075 9103 2788 1060 8076 8470 8470 1860 8470 2616 1228 8470 3980 3756 8398 6046 684 7262 3783 1728 2024 1208 2424 6046 1208 2424 72
cat_boundaries=0 1
cat_threshold=2
is_linear=0
shrinkage=0.03


Tree=9
num_leaves=63
num_cat=1
split_feature=67 67 67 67 67 67 67 67 53 6 67 67 53 15 15 67 75 6 15 67 16 6 69 48 16 6 1 71 71 53 16 15 17 75 6 17 71 67 6 2 21 71 15 15 75 6 71 15 7 2 15 71 6 6 7 8 67 7 2 6 6 18
split_gain=1.10375e+06 210713 209750 45848.9 30951.6 15493.7 6550.54 4576.88 3983.92 3647.08 3610.22 3048.95 2987.5 2198.07 2150.85 1549.81 1542.5 1516.59 1112.98 1105.16 1090.15 1035.93 1004.85 980.257 964.341 942.175 1345.76 878.543 858.534 857.546 759.081 666.854 655.003 653.03 599.303 589.119 512.48 504.651 484.256 483.694 483.12 464.498 451.836 450.162 439.461 373.783 351.498 347.741 336.205 332.802 312.152 298.846 291.296 287.355 285.359 251.746 219.155 161.503 148.087 122.728 99.3618 97.4514
threshold=31.725806451612907 46.278571428571432 18.553686635944704 25.388600288600291 12.624423963133642 37.768970814132111 9.3825652841781899 27.889400921658989 34.379120879120883 1582.5000000000002 21.370967741935488 15.47857142857143 38.873626373626379 1.0000000180025095e-35 1.0000000180025095e-35 54.150614439324123 2.5000000000000004 1190.5000000000002 4.5000000000000009 29.635407066052231 0.81174490092936691 1278.5000000000002 11.500000000000002 37.500000000000007 -0.56174490092936669 1694.5000000000002 0 44.250000000000007 55.650000000000013 29.543956043956047 1.0000000180025095e-35 1.5000000000000002 0.6078576107927941 1.5000000000000002 1902.5000000000002 0.6078576107927941 25.250000000000004 23.283870967741937 2094.5000000000005 1.9670000000000003 1.5000000000000002 34.45000000000001 4.5000000000000009 4.5000000000000009 1.0000000180025095e-35 1110.5000000000002 84.750000000000014 1.0000000180025095e-35 2.5000000000000004 2.1075364285714291 4.5000000000000009 76.450000000000017 1838.5000000000002 1510.5000000000002 186.50000000000003 24.500000000000004 41.859447004608306 8.5000000000000018 1.9137892857142862 2358.5000000000005 678.50000000000011 -0.94703994556331683
decision_type=2 2 2 2 2 2 2 2 2 2 2 2 2 2 2 2 2 2 2 2 2 2 2 2 2 2 1 2 2 2 2 2 2 2 2 2 2 2 2 2 2 2 2 2 2 2 2 2 2 2 2 2 2 2 2 2 2 2 2 2 2 2
left_child=2 5 4 10 6 8 48 29 20 16 25 42 31 56 22 30 21 33 -15 -19 34 40 -10 37 55 39 -27 -16 -23 38 36 49 -32 -9 -2 -26 -11 -12 -5 -4 -3 58 54 57 -25 -33 47 -13 -1 -7 -50 -22 -31 -43 -6 -17 -14 -8 -18 -44 -45 -48
right_child=1 9 3 7 11 12 43 17 14 15 23 46 13 18 27 24 41 19 -20 -21 51 28 -24 44 35 26 -28 -29 -30 52 32 45 -34 -35 -36 -37 -38 -39 -40 -41 -42 53 59 60 -46 -47 61 -49 50 -51 -52 -53 -54 -55 -56 -57 -58 -59 -60 -61 -62 -63
leaf_value=-0.020803081889887085 -0.0018922980651879121 0.0077311981862293998 -0.013449842839881297 -0.0059733581286545087 -0.018462645028147814 0.0025085221168117395 -0.019822655346858762 -0.0057108612968740586 0.00093204172525661387 0.0070881466422229146 -0.010035992010392849 -0.01358329815542049 0.0055200710405780406 0.0040202274093889337 -0.00012338564893855721 0.011559712300704432 0.0042960642026603595 -0.0036486656240319352 0.0023594307752981265 -0.0018637412576819582 4.9805407066736637e-05 0.0083376475410048608 0.0042517834578288949 -0.007285111903834407 0.011962245788100947 -0.0079649297297602721 -0.011225927768465881 0.001183469719753363 0.01024822314853231 -0.0055939716753013241 0.011005056931463164 0.00025732142346671821 0.0090883315109717231 -0.0026506066480270485 0.001016921574434989 0.01058742676915846 0.0093807055203828354 -0.0082333486573390579 -0.0077027326847557524 -0.011532429603754418 0.011169383578715875 0.011304417755294121 -0.016875376582474948 -0.024098509271544794 -0.0093920050325940509 0.0018497528068984685 -0.011326630740424145 -0.015799530996562085 -0.031728160147786344 0.0046744216215196888 -0.028989301639857964 0.002711331351559492 -0.0039722779643235747 0.0081868922057214098 -0.020382294782915585 0.0094960538839213762 0.0070757733343876604 -0.024348237818790246 0.0086967262390376058 -0.020164007895436997 -0.021300593808122579 -0.013949227070912363
leaf_weight=3102.5536403656006 797566.52579832077 1058457.0898513794 169270.09828233719 742963.72451448441 164300.66417634487 227510.2991771698 7512.2504768371582 316067.6525015831 124340.86851501465 98176.016357421875 544300.10685563087 76139.549095630646 201018.68071556091 1165221.0558919907 826874.63788986206 62294.001708984375 8005.5419044494629 841240.4208521843 527629.92246627808 496454.84891319275 106846.61527061462 445083.78704833984 241345.0164232254 352141.63485312462 750058.65235900879 152743.71335220337 451641.16960144043 1051952.727203846 404060.60397338867 173420.34432220459 525051.95587158203 174860.49369287491 231379.94897460938 78320.87265253067 69260.151863098145 448976.29461669922 833593.87579345703 188311.969840765 181382.33000946045 396249.22428822517 38129.555662155151 287112.31769180298 120723.70735931396 13627.296682357788 119398.73202300072 549706.84502029419 21933.517986536026 399764.40463161469 116776.43556153774 88771.96858215332 56511.854885101318 58894.637178421021 234678.34999847412 29398.701904296875 122554.69343519211 369696.59985351562 137279.55115127563 196096.04721343517 49714.214767456055 11314.473815917969 83742.28432559967 31141.862065553665
leaf_count=72 6324 5792 4676 7573 3104 1424 156 3832 619 272 6060 1104 748 4639 4420 132 108 5084 2333 2908 769 1152 980 3231 1520 1224 4428 5205 928 1151 1140 1877 576 824 301 1008 2020 2079 1372 4427 172 1026 2232 312 1251 2463 296 6610 5994 309 2404 336 1420 76 2942 884 413 5890 134 192 2112 460
internal_value=-8.56373e-07 0.0054918 -0.00959426 -0.00690958 -0.0198387 0.00174343 -0.0260685 -0.00448516 0.00030857 0.00971203 -0.0100391 -0.0167011 0.00327408 0.00394379 0.00101804 0.0103499 0.00879939 -0.00346827 0.0035026 -0.00298624 -0.00123361 0.00846007 0.00312303 -0.00888587 0.0110095 -0.0112261 -0.0104022 0.000608322 0.00924684 -0.00580702 0.00971258 0.00196717 0.0104188 -0.00510317 -0.00165984 0.0114475 0.00913919 -0.0095727 -0.00631275 -0.0121065 0.0078508 0.0105635 -0.0186135 -0.0233771 -0.00781869 0.00146545 -0.0151865 -0.0154451 -0.03066 0.0031165 -0.0308358 0.000995608 -0.00466147 0.011015 -0.0192831 0.00979377 0.00615146 -0.0241818 0.00808679 -0.0171579 -0.0216934 -0.0128666
internal_weight=1.88521e+07 1.19883e+07 6.86383e+06 5.43859e+06 1.42524e+06 6.34908e+06 477369 3.06453e+06 3.27708e+06 5.63919e+06 2.37406e+06 947873 3.072e+06 2.03115e+06 2.24451e+06 3.31923e+06 2.31996e+06 1.73208e+06 1.69285e+06 1.3377e+06 1.03257e+06 1.94573e+06 365686 1.20415e+06 1.63103e+06 1.1699e+06 604385 1.87883e+06 849144 1.33244e+06 1.6882e+06 1.04085e+06 756432 394389 866827 1.19903e+06 931770 732612 924346 565519 1.09659e+06 374231 418894 300978 471540 724567 528979 475904 176391 316282 173288 165741 408099 316511 286855 431991 338298 203608 57719.8 132038 97369.6 53075.4
internal_count=135520 50100 85420 51540 33880 33160 16940 24164 18954 16940 27376 16940 14206 8133 11224 7552 9388 12648 6972 7992 7730 8044 1599 12621 3544 14755 5652 9625 2080 11516 4008 6073 1716 4656 6625 2528 2292 8139 8945 9103 5964 1344 8470 8470 4482 4340 8470 7714 8470 1733 8398 1105 2571 1102 6046 1016 1161 6046 242 2424 2424 756
cat_boundaries=0 1
cat_threshold=2
is_linear=0
shrinkage=0.03


Tree=10
num_leaves=63
num_cat=1
split_feature=67 67 67 67 67 67 69 67 65 48 67 65 53 15 15 6 67 75 6 6 72 15 65 63 51 53 6 53 6 6 67 15 15 15 6 75 18 65 6 15 64 72 2 6 11 1 64 0 19 2 72 16 15 15 7 0 67 0 6 67 12 4
split_gain=1.03945e+06 198828 198555 43237 29688.8 14580.5 6353.3 4310.23 4134.14 3836.1 3411.53 2903.33 2812.1 2174.75 2070.09 1900.86 1665.7 1445.91 1395.39 1298.92 1089.02 1047.67 965.422 1073.71 961.511 807.904 755.563 751.834 747.201 697.84 684.149 639.071 627.59 587.669 555.528 546.763 542.978 467.551 456.507 433.071 431.261 382.461 374.95 362.547 357.281 334.546 332.247 328.648 317.231 313.299 311.941 290.008 277.672 261.588 254.079 238.068 208.514 178.995 170.839 158.053 144.267 98.1752
threshold=31.725806451612907 18.553686635944704 46.278571428571432 25.388600288600291 12.624423963133642 37.768970814132111 36.500000000000007 27.889400921658989 41.066350400479088 51.500000000000007 21.370967741935488 27.134872557826188 38.873626373626379 1.0000000180025095e-35 1.0000000180025095e-35 1278.5000000000002 53.082949308755765 1.5000000000000002 1190.5000000000002 1182.5000000000002 15.15 4.5000000000000009 43.220378583726337 5.9277497702093784 19.937500000000004 29.543956043956047 1582.5000000000002 39.994505494505496 1286.5000000000002 1902.5000000000002 54.622119815668206 1.0000000180025095e-35 1.5000000000000002 4.5000000000000009 1146.5000000000002 2.5000000000000004 -0.30164489695395946 29.786986301369868 2094.5000000000005 4.5000000000000009 1.0000000180025095e-35 61.45000000000001 2.0138000000000003 1638.5000000000002 360.50000000000006 0 1.0000000180025095e-35 44.500000000000007 0.95752911693909493 2.1075364285714291 15.350000000000003 0.81174490092936691 3.5000000000000004 5.5000000000000009 2.5000000000000004 48.500000000000007 41.81797235023042 26.500000000000004 1198.5000000000002 11.368663594470048 66.500000000000014 335.50000000000006
decision_type=2 2 2 2 2 2 2 2 2 2 2 2 2 2 2 2 2 2 2 2 2 2 2 2 2 2 2 2 2 2 2 2 2 2 2 2 2 2 2 2 2 2 2 2 2 1 2 10 2 2 2 2 2 2 2 8 2 10 2 2 2 2
left_child=1 4 5 10 6 9 39 25 15 19 22 41 32 27 56 45 26 18 -9 51 57 -16 23 -3 34 38 42 -11 35 -15 -22 -26 49 -21 -12 -18 -19 -27 -5 59 55 43 -10 -6 -34 47 54 -4 -47 -7 -28 -2 -42 -30 -8 -13 -14 -17 -24 -1 -43 -41
right_child=2 3 8 7 11 12 46 17 16 13 24 40 14 29 21 20 28 36 -20 33 30 -23 58 -25 31 37 50 -29 53 -31 -32 -33 44 -35 -36 -37 -38 -39 -40 61 52 60 -44 -45 -46 48 -48 -49 -50 -51 -52 -53 -54 -55 -56 -57 -58 -59 -60 -61 -62 -63
leaf_value=-0.02420672559315766 -0.0029921637367523045 -0.011454937599458363 0.0073088819964018904 -0.0057958824889112887 -0.01606204206794842 0.0024333957609501463 -0.020253055660148702 -0.0055410445479409489 0.0070621280398393237 0.0025158589531694411 -0.011738350405356946 -0.017965982292495668 0.0052368059239159877 3.4070245738781948e-05 0.0039001465730423585 0.0092220441946109424 0.0087107513485375487 -0.00041668133989069699 -0.0032753540925185591 6.6756114503654492e-05 0.0088695763290973836 0.0022887547713639884 -0.010331584673712063 -0.0082713446451072505 -0.0064385733382756162 -0.0052801104221374519 0.008659084424922454 0.0060093998904535905 0.011015592092036565 0.0012182689651471172 0.0099742076215094972 -0.008545366064404562 0.001551522631297294 -0.0017973839566677275 -0.0087878542803900249 0.011295963364849951 -0.0028445721158392675 -0.0031610102648862281 -0.0074753542752168268 -0.021431263755509522 -0.018615150796857809 -0.0068806370442797363 0.009028769122918754 -0.014330115530028057 -0.0019920955381820854 0.0069232693291750701 -0.031432206747745557 0.0091879396692241978 0.0035444050259372329 0.0045350229160590477 0.010461596598835995 -0.00062364323252280722 -0.021594271474055481 0.011975214479447572 -0.029066815691349005 -0.015937220209311025 0.006727564714253907 0.0069361027937644313 -0.0071223127212260082 -0.022445391813260059 -0.013195217266559136 -0.018079226047269623
leaf_weight=129470.95898234844 298006.17742300034 976895.27980494499 242806.27408027649 742746.12186861038 200879.1617358923 227498.54706192017 3091.5141830444336 315983.03808832169 111631.60597419739 283920.36277103424 123489.69988870621 140543.0779761076 172144.25910758972 903147.12480735779 1165066.4675569534 35875.672485351562 194141.20353126526 172300.14399003983 1083825.5862884521 572096.45719909668 1228602.1971130371 527605.80795574188 19270.593876361847 105726.38609719276 154069.04635500908 262135.1198425293 104067.44128417969 68895.39567565918 736743.35202026367 888436.62314605713 857342.56628417969 818225.36474466324 697973.67904853821 207365.00915622711 107573.67678070068 118789.75755310059 159779.8102221489 145888.633934021 181293.990234375 88123.579225540161 159049.8832000494 3404.3504409790039 401419.48899173737 239069.55081939697 26578.123374938965 318709.80871582031 78683.506744027138 128099.5156288147 27155.002075195312 88756.045257568359 514670.33569335938 55137.542519569397 34515.332005023956 393156.58757019043 93249.888723015785 83587.581092357635 166047.27383422852 221510.67901611328 66781.248161315918 73158.800515174866 84618.961781263351 8869.1139016151428
leaf_count=4022 3608 12744 1352 7573 4274 1424 72 3832 1020 1251 2415 3044 661 5001 4639 88 892 1088 6572 3218 3032 2333 348 1111 1280 1722 256 216 1556 3789 1960 7665 4208 1279 1261 504 1156 849 1372 2248 3176 28 1116 2972 132 1754 3966 638 236 309 1136 592 790 784 4432 1460 500 616 552 2024 1196 176
internal_value=-9.05283e-07 -0.00931696 0.00532927 -0.00670557 -0.0193115 0.00169124 -0.0254338 -0.00435144 0.00942826 0.000299321 -0.00974639 -0.0162384 0.00317621 0.00104528 0.00382603 0.00868285 0.0103142 -0.00336461 -0.00378681 -0.00111302 0.00909641 0.00339788 -0.0109009 -0.0111441 -0.00862508 -0.00563445 0.00945248 0.00319813 0.0109901 0.00062131 0.00932361 -0.00821156 0.00190824 -0.000429181 -0.0103649 0.00969227 -0.00158488 -0.00452248 -0.00612543 -0.02278 -0.0181077 -0.0147595 0.00860093 -0.0151211 0.00142152 0.00733076 -0.029976 0.00795775 0.00665785 0.00302327 0.0101585 -0.00262237 -0.0191469 0.0113496 -0.0287851 -0.0172097 0.00596884 0.0072549 -0.00784156 -0.0235714 -0.0129514 -0.0211257
internal_weight=1.88397e+07 6.8563e+06 1.19834e+07 5.43598e+06 1.42032e+06 6.34867e+06 474647 3.06395e+06 5.63472e+06 3.277e+06 2.37203e+06 945668 3.07167e+06 2.1444e+06 2.03086e+06 3.0601e+06 2.57462e+06 1.73189e+06 1.39981e+06 1.13261e+06 2.34333e+06 1.69267e+06 1.16867e+06 1.08262e+06 1.20336e+06 1.33206e+06 1.13179e+06 352816 1.44283e+06 1.79158e+06 2.08594e+06 972294 1.04081e+06 779461 231063 312931 332080 408024 924040 299622 417696 527972 513051 439949 724552 716771 175025 370906 345865 316255 618738 353144 193565 1.1299e+06 96341.4 224131 338192 257386 86051.8 202630 88023.3 96992.7
internal_count=135520 85420 50100 51540 33880 33160 16940 24164 16940 18954 27376 16940 14206 10257 8133 9676 7264 12648 10404 8697 5696 6972 14755 13855 12621 11516 3528 1467 3736 8790 4992 8945 6073 4497 3676 1396 2244 2571 8945 8470 8470 8470 2136 7246 4340 3980 8470 1990 1990 1733 1392 4200 3966 2340 4504 4504 1161 704 900 6046 1224 2424
cat_boundaries=0 1
cat_threshold=8
is_linear=0
shrinkage=0.03


Tree=11
num_leaves=63
num_cat=0
split_feature=67 67 67 67 67 67 67 53 67 6 67 68 67 15 15 67 15 15 71 68 6 53 68 68 53 16 68 6 67 67 0 6 67 16 6 17 15 17 70 67 48 71 15 72 71 15 67 19 68 15 9 19 7 48 71 7 8 9 15 72 7 7
split_gain=979247 209730 170144 31272.5 28449.7 18789.4 6153.14 4829.72 4464.25 3288.75 3222.82 2880.09 2108.48 1914.87 1630.86 1400.59 1266.77 1190.79 1190.42 984.787 942.768 910.822 908.449 1788.58 896.7 879.508 779.085 766.281 748.311 732.784 783.156 727.818 703.962 691.191 614.01 586.577 569.718 519.712 508.951 502.849 483.833 469.9 416.164 400.596 399.555 376.082 345.49 343.943 333.203 317.937 309.272 293.428 277.929 253.682 246.479 211.24 207.385 201.839 197.949 181.898 162.786 155.184
threshold=30.149692780337947 46.278571428571432 18.553686635944704 25.388600288600291 12.624423963133642 35.963133640553004 9.3825652841781899 33.950549450549453 39.016666666666673 1582.5000000000002 21.370967741935488 5.5000000000000009 27.502995391705074 1.0000000180025095e-35 2.5000000000000004 54.150614439324123 1.0000000180025095e-35 4.5000000000000009 39.95000000000001 1.0000000180025095e-35 2038.5000000000002 20.137362637362639 11.500000000000002 15.500000000000002 35.752747252747263 -0.56174490092936669 4.5000000000000009 1222.5000000000002 54.913824884792632 52.487480798771124 40.500000000000007 1646.5000000000002 23.283870967741937 1.0000000180025095e-35 1182.5000000000002 0.6078576107927941 1.0000000180025095e-35 0.6078576107927941 0.94940944881889766 33.691705069124431 73.500000000000014 25.250000000000004 4.5000000000000009 10.950000000000001 -1.0000000180025095e-35 1.5000000000000002 32.952886002886011 -0.51297808981038739 6.5000000000000009 4.5000000000000009 152.50000000000003 0.78325454425165997 234.50000000000003 21.500000000000004 82.950000000000017 2.5000000000000004 102.50000000000001 2.5000000000000004 5.5000000000000009 61.45000000000001 2.5000000000000004 8.5000000000000018
decision_type=2 2 2 2 2 2 2 2 2 2 2 2 2 2 2 2 2 2 2 2 2 2 2 2 2 2 2 2 2 2 10 2 2 2 2 2 2 2 2 2 2 2 2 2 2 2 2 2 2 2 2 2 2 2 2 2 2 2 2 2 2 2
left_child=2 5 4 10 6 7 49 34 16 17 22 53 26 56 18 33 48 29 -9 52 -15 32 51 -24 -18 50 31 -21 38 40 -31 -5 -12 41 39 -35 -23 -27 -19 -2 -3 -11 61 58 -16 -45 -36 -28 -7 59 -17 -4 -14 55 -30 -6 -10 -55 -13 -1 -51 -8
right_child=1 9 3 12 11 8 42 14 13 15 21 43 19 20 44 25 24 28 -20 27 -22 36 23 -25 -26 37 47 -29 54 30 -32 -33 -34 35 46 -37 -38 -39 -40 -41 -42 -43 -44 45 -46 -47 -48 -49 -50 60 -52 -53 -54 57 -56 -57 -58 -59 -60 -61 -62 -63
leaf_value=-0.030758668716713487 -0.0034341464325356088 0.0063063540648160719 -0.011389436834987887 -0.0059006653675134982 -0.0020986653337667551 0.002297613035987708 -0.018686099684069216 8.2812528613244668e-05 0.0069608035272087894 0.0066402188683738631 -0.010918134559406528 -0.015612079005648339 -0.0015165861226878663 0.0028523801568845729 -0.0044500733147153845 0.011414724350614901 0.00034350192662208225 0.0088269355535417499 0.0024511748200356184 -0.0054321784388636548 0.0044373569659564424 -0.0061566938304857422 -0.007972488348262757 -0.010983997087333299 0.0018607715859609878 0.011289306750269594 -0.0054921321628738744 -0.0036959090706216789 0.011483721022504249 0.0076327743331086415 0.0094275245913223293 -0.0029512749876990456 -0.0079144890316944806 0.01038240804796624 -0.0018331207333403289 0.0085672099129882589 -0.0082219607939057193 0.009996753928141611 -0.00038172989621854781 -0.0013275899186881066 0.0078732917844565545 0.0088364607808304185 -0.020568666438043122 -0.012855968328981037 -0.00017187439028059062 -0.014693074718458208 -0.00049823092084120852 -0.0066997349857297137 0.0042810762781592474 -0.0142973048809114 0.0089293833620745968 -0.01344218791822013 0.0054149188183582973 -0.011030891440993278 0.008674984667855018 -0.015153122660769125 0.0053432454412488959 -0.018197883685840421 -0.019018579221899218 -0.027651790273549925 -0.027635746738091473 -0.023134889798386207
leaf_weight=95831.179665207863 310882.00581359863 345013.08657741547 253675.15825462341 139113.19633054733 1219.3970336914062 128796.33012962341 7461.4372463226318 306841.95876598358 108759.87872028351 98090.394409179688 188969.91233634949 68776.549520730972 106943.19038534164 1091511.8745622635 20051.185638427734 51206.106872558594 504577.07255458832 523613.94519233704 505957.34725379944 300389.62633657455 489141.51936340332 142940.00865268707 257245.31773686409 573070.48946666718 1148503.1610412598 748366.0005645752 439931.52692079544 959927.274559021 149281.02381515503 509795.42611312866 383699.7175693512 164198.00369262695 111884.82206916809 524047.00305175781 489287.22233295441 231076.89041137695 758812.29936599731 448194.58361816406 5457.5303497314453 151786.17180490494 365378.65611362457 832418.00537109375 96636.626290082932 138469.07840073109 963094.44195079803 367644.94927763939 271230.39335918427 410637.43361616135 186829.17298793793 852.61914443969727 380115.84497070312 83526.2813372612 5467.7760009765625 3602.3937315940857 34755.129791259766 13322.572815179825 207840.82632255554 330600.19076633453 19950.88526725769 21302.862223386765 55742.90265917778 194242.99030327797
leaf_count=5158 3334 2041 3152 1679 8 632 156 1593 356 272 3063 1099 665 5586 135 108 3535 2016 2287 3797 1676 1190 2848 7421 5003 1520 3568 5884 468 1972 1460 944 1232 1140 2902 576 7136 1008 32 1240 1227 2020 2424 2060 5060 6155 1829 3960 788 20 908 1334 19 48 172 527 852 6675 368 888 2404 5890
internal_value=-9.4701e-07 0.00485793 -0.00963467 -0.00698641 -0.0187949 0.00134601 -0.0248077 -0.000427403 0.00273097 0.00915237 -0.00946174 -0.0157866 -0.00466437 0.00376944 0.000562838 0.0097587 0.00173018 0.00828525 0.00155709 -0.00386979 0.00334287 -0.00837164 -0.0105846 -0.010051 0.00139765 0.0103864 -0.00560964 -0.00410976 0.00930536 0.00783167 0.00840355 -0.00430408 -0.00980126 0.00915244 -0.00188132 0.009827 -0.00789462 0.0108052 0.00873194 -0.00274308 0.00711233 0.00860498 -0.0221931 -0.0145172 -0.00025915 -0.0141906 -0.00135705 -0.00607517 0.00347174 -0.0292969 0.00922457 -0.0118981 -0.00117921 -0.0179517 0.0109535 -0.0140596 0.00589902 -0.0181208 -0.0163791 -0.0301948 -0.0274361 -0.0229708
internal_weight=1.8828e+07 1.25156e+07 6.31239e+06 4.89673e+06 1.41566e+06 6.88509e+06 472071 3.01913e+06 3.86596e+06 5.63051e+06 2.37012e+06 943586 2.52661e+06 1.89725e+06 1.79594e+06 3.31351e+06 1.96871e+06 2.31699e+06 812799 1.37273e+06 1.58065e+06 1.20261e+06 1.16752e+06 830316 1.65308e+06 1.62788e+06 1.15388e+06 1.26032e+06 713108 1.60389e+06 893495 303311 300855 1.68563e+06 1.22319e+06 755124 901752 1.19656e+06 529071 462668 710392 930508 298341 594841 983146 506114 760518 850569 315626 173730 431322 337201 112411 348745 184036 14542 316601 334203 88727.4 117134 56595.5 201704
internal_count=135520 53748 81772 47892 33880 36808 16940 18380 18428 16940 27376 16940 20516 8470 9075 7552 9958 9388 3880 10365 7262 12621 14755 10269 8538 3544 10151 9681 2688 6700 3432 2623 4295 4008 9305 1716 8326 2528 2048 4574 3268 2292 8470 9682 5195 8215 4731 7528 1420 8470 1016 4486 684 7258 640 535 1208 6723 1467 6046 2424 6046
is_linear=0
shrinkage=0.03


Tree=12
num_leaves=63
num_cat=1
split_feature=67 67 67 67 67 67 65 67 46 65 67 65 67 15 15 6 67 15 65 15 48 6 1 75 6 6 65 51 67 6 6 10 48 0 75 15 6 65 67 67 9 15 6 46 50 2 10 64 65 72 73 8 51 4 0 12 6 67 2 72 6 67
split_gain=922176 197581 161213 29488.5 27237.1 17680.8 5951.44 4201.85 4143.75 3730.95 3043.99 2665.51 1985.77 1816.76 1803.24 1729.8 1495.55 1192.2 926.91 922.669 882.915 881.866 1232.27 866.047 829.464 748.28 740.437 722.084 713.835 676.048 672.906 646.726 615.235 566.312 487.924 486.764 484.799 473.95 458.604 414.892 409.122 399.547 397.382 396.238 361.196 346.376 344.494 318.396 313.659 285.375 273.772 272.427 271.392 255.32 259.352 216.016 193.055 153.08 107.412 99.7446 97.3362 68.4538
threshold=30.149692780337947 46.278571428571432 18.553686635944704 25.388600288600291 12.624423963133642 35.963133640553004 20.82112714275021 39.016666666666673 48.500000000000007 41.066350400479088 21.370967741935488 29.748630136986304 27.502995391705074 1.0000000180025095e-35 1.0000000180025095e-35 1566.5000000000002 53.082949308755765 1.0000000180025095e-35 31.28449453551913 4.5000000000000009 37.500000000000007 1694.5000000000002 0 2.5000000000000004 1902.5000000000002 1164.5000000000002 30.021090650497797 35.866071428571438 54.622119815668206 1286.5000000000002 1574.5000000000002 42.500000000000007 56.500000000000007 34.500000000000007 2.5000000000000004 4.5000000000000009 2126.5000000000005 43.220378583726337 23.283870967741937 17.471428571428575 10.500000000000002 4.5000000000000009 1630.5000000000002 45.500000000000007 28.339285714285719 2.0138000000000003 48.500000000000007 1.0000000180025095e-35 42.346063515233183 15.350000000000003 24.100000000000009 338.50000000000006 26.330357142857149 162.50000000000003 98.000000000000014 22.500000000000004 2030.5000000000002 11.483179723502305 3.2926557142857145 -3.9499999999999997 678.50000000000011 7.4850230414746557
decision_type=2 2 2 2 2 2 2 2 2 2 2 2 2 2 2 2 2 2 2 2 2 2 1 2 2 2 2 2 2 2 2 2 2 10 2 2 2 2 2 2 2 2 2 2 2 2 2 2 2 2 2 2 2 2 10 2 2 2 2 2 2 2
left_child=2 5 4 10 6 8 47 17 25 15 21 35 26 32 55 31 30 48 23 -16 38 37 -23 -14 -15 46 44 -19 36 34 45 33 -10 -3 -18 42 -17 -4 -12 -37 -22 57 -6 -27 -5 -11 -2 59 -7 -32 -31 -30 -20 58 -55 -9 -28 -8 -13 -1 -43 -49
right_child=1 9 3 12 11 7 41 14 13 16 20 53 18 24 19 28 29 27 52 -21 40 22 -24 -25 -26 43 56 -29 51 50 49 -33 -34 -35 -36 39 -38 -39 -40 -41 -42 60 -44 -45 -46 -47 -48 61 -50 -51 -52 -53 -54 54 -56 -57 -58 -59 -60 -61 -62 -63
leaf_value=-0.03245072533626548 -0.0028650462959894985 0.0066392092532494354 -0.011375674046426497 -0.0061099576230841468 -0.014700079993797062 0.002228785369658131 -0.022899602306689363 0.0084509267398892671 0.0017082206006134801 0.006615706279919766 -0.0092202352795995556 -0.019549640856137494 -0.0043202804426489974 -0.00066553811336276093 0.0037293312496158577 0.0076978820653980868 0.0082048667451727585 0.00036271906876323085 -0.0048739542434182506 0.0021627262317355628 -0.0026515274586048137 -0.0071451819954867941 -0.010268563877605026 -0.0021307701382955748 0.00072179347088359316 -0.0018718897473845254 -0.0040014148952458722 0.0017516474454344398 0.0097025494022118294 0.010484651570238051 0.0081275249759592914 0.0037399891313486702 0.0046615672431146483 0.0079757438918307989 0.010649128996747295 -0.015869977011606869 0.0089484803300980513 -0.0080453390700220544 -0.0075003208663824419 -0.013014635051178796 -0.0072872986617378019 -0.022414428853335062 -0.012750405579986563 -0.0004645611698724129 -0.0049183601792106915 0.0085119954418983734 0.0085335150704887591 -0.030687537297761459 0.0041532819371353788 0.0098499351573864569 0.011681812035054513 0.0076887518843983945 -0.0005613131263191327 -0.017313597356999146 -0.011807243815459969 0.0054982448487227277 -0.0013807555565272208 -0.021036266391120651 -0.017503737628374684 -0.02725312100011041 -0.019632447134269634 -0.028700619930180006
leaf_weight=3593.6485209465027 433537.96908330917 476562.40538024902 522076.4775185585 682026.27728843689 167757.80309438705 128790.74856472015 144797.60610795021 24157.824882507324 214283.27629089355 111535.29796600342 543063.93745088577 75336.928303480148 1068344.2897515297 753142.75019359589 1089750.5882863998 588059.21685791016 193904.42896652222 471184.74946594238 15178.855513572693 490750.85459899902 17814.89796257019 152473.38879013062 450294.00495529175 191792.2166800499 799698.99221801758 394658.46413040161 91717.873184204102 1181862.3536076546 637129.95721435547 915322.24014282227 103935.65930175781 44113.094561576843 90208.81475353241 711965.44208908081 118546.81202888489 215600.89184069633 531568.23651123047 41577.622673749924 188005.34479594231 58378.01357793808 453014.88564753532 13453.752168655396 215497.72862148285 331130.84433841705 344879.89943742752 390991.35501289368 2394.810772895813 52948.03045129776 186801.06563663483 523699.35568237305 212280.68112182617 66928.874145507812 97228.774282455444 166736.86314558983 8118.8471755981445 292350.91331863403 34944.38899230957 56032.015234351158 34195.247004508972 91464.17031621933 82847.25945353508 24494.76015996933
leaf_count=185 4499 1940 8555 6613 3486 632 4554 72 971 1020 6060 1992 8297 4428 4838 1516 892 3423 191 2424 124 1224 4428 1384 3507 2968 864 5115 1436 1924 256 288 348 3064 504 4016 1264 548 2079 832 4358 312 2560 1651 2490 1092 8 2870 788 1160 416 168 493 3304 96 1136 184 1492 654 4319 2112 1096
internal_value=-9.82623e-07 0.00471388 -0.00935585 -0.00678007 -0.018289 0.00130571 -0.0241905 0.00264926 -0.000414592 0.00888416 -0.009185 -0.0153455 -0.00452535 0.000464407 0.00365684 0.00817569 0.00972662 0.00167833 -0.0037542 0.0032429 -0.00812536 -0.0102768 -0.00947884 -0.00398705 4.89247e-05 -0.00181991 -0.00544285 0.00135575 0.0087625 0.0103678 0.00890958 0.00730747 0.00258324 0.00743987 0.0091324 -0.0142952 0.00829167 -0.0111301 -0.00877799 -0.0152618 -0.00711192 -0.0216164 -0.013604 -0.00122982 -0.00570979 0.00809119 -0.00280233 -0.0286237 0.00336796 0.00956477 0.0107101 0.00951117 -0.00114386 -0.0177725 -0.0170583 0.00572374 -0.00327849 -0.0223803 -0.0189118 -0.0274513 -0.0200222 -0.030061
internal_weight=1.88169e+07 1.25112e+07 6.30569e+06 4.89443e+06 1.41125e+06 6.88471e+06 469631 3.86565e+06 3.01906e+06 5.62654e+06 2.36832e+06 941622 2.52611e+06 1.85733e+06 1.89701e+06 3.05633e+06 2.57022e+06 1.96864e+06 1.37254e+06 1.5805e+06 1.2019e+06 1.16642e+06 602767 1.26014e+06 1.55284e+06 1.16172e+06 1.15357e+06 1.65305e+06 1.82369e+06 1.44005e+06 1.13016e+06 1.23264e+06 304492 1.18853e+06 312451 657234 1.11963e+06 563654 731069 273979 470830 297131 383256 725789 1.02691e+06 502527 435933 172501 315592 627635 1.1276e+06 704059 112408 284388 174856 316509 126662 200830 109532 95057.8 96301 77442.8
internal_count=135520 53748 81772 47892 33880 36808 16940 18428 18380 16940 27376 16940 20516 9254 8470 9676 7264 9958 10365 7262 12621 14755 5652 9681 7935 9126 10151 8538 4384 3736 3528 5292 1319 5004 1396 10894 2780 9103 8139 4848 4482 8470 6046 4619 9103 2112 4507 8470 1420 1416 2340 1604 684 6046 3400 1208 1048 6046 2646 4504 2424 3966
cat_boundaries=0 1
cat_threshold=2
is_linear=0
shrinkage=0.03


Tree=13
num_leaves=63
num_cat=1
split_feature=67 67 67 67 67 67 65 53 65 67 65 67 67 6 65 16 67 16 72 65 51 65 46 6 48 71 6 65 53 6 6 65 6 67 16 6 67 45 17 72 1 42 9 6 7 19 7 6 17 17 7 48 71 0 19 19 6 0 6 18 16 4
split_gain=868389 186123 152695 27802.6 26053.5 16653.2 5204.27 4885.11 3522.33 3435.17 2921.94 2874.47 1870.06 1665.6 1647.55 1610.95 1425.29 982.271 981.466 872.409 851.522 850.966 977.837 827.692 777.254 758.957 722.878 701.573 696.788 684.949 673.297 615.956 830.738 586.163 572.107 502.515 448.944 409.477 392.663 359.834 350.183 334.635 327.796 325.791 324.638 321.986 316.896 309.416 298.981 294.94 260.129 258.404 252.116 250.969 212.712 179.286 173.36 166.625 166.388 152.55 151.434 102.695
threshold=30.149692780337947 46.278571428571432 18.553686635944704 25.388600288600291 11.808755760368665 36.426907322068622 20.82112714275021 34.379120879120883 41.066350400479088 39.487634408602155 20.82112714275021 21.370967741935488 27.502995391705074 1278.5000000000002 29.786986301369868 0.81174490092936691 54.457066052227347 0.81174490092936691 15.15 31.28449453551913 19.937500000000004 43.220378583726337 36.500000000000007 1582.5000000000002 56.500000000000007 43.250000000000007 1222.5000000000002 29.748630136986304 35.752747252747263 1278.5000000000002 1646.5000000000002 23.925645632158098 1302.5000000000002 54.622119815668206 0.81174490092936691 1146.5000000000002 14.152934878741332 62.500000000000007 -0.60785761079279388 62.250000000000007 0 0.029500000000000002 34.500000000000007 1638.5000000000002 266.50000000000006 -0.51297808981038739 2.5000000000000004 786.50000000000011 -0.60785761079279388 -0.60785761079279388 234.50000000000003 82.000000000000014 57.350000000000001 41.500000000000007 -0.99763297024448894 -0.18492532721306487 1286.5000000000002 26.500000000000004 1198.5000000000002 -0.99052477729077237 0.81174490092936691 335.50000000000006
decision_type=2 2 2 2 2 2 2 2 2 2 2 2 2 2 2 2 2 2 2 2 2 2 2 2 2 2 2 2 2 2 2 2 2 2 2 2 2 2 2 2 1 2 2 2 2 2 2 2 2 2 2 2 2 8 2 2 2 10 2 2 2 2
left_child=2 5 4 11 6 7 46 31 13 17 39 21 27 41 56 25 23 28 57 26 35 22 -4 44 -17 -9 -14 45 -7 -16 -29 32 -2 -20 -22 -13 55 54 61 43 -19 47 -25 -6 -10 -5 -1 -3 -38 -48 -21 -39 -43 -33 -18 -12 -11 -15 -23 -41 -40 -8
right_child=1 8 3 12 10 9 38 15 16 14 36 20 19 18 29 24 37 40 33 50 34 58 -24 42 -26 -27 -28 30 -30 -31 -32 53 -34 -35 -36 -37 48 51 60 59 -42 52 -44 -45 -46 -47 49 -49 -50 -51 -52 -53 -54 -55 -56 -57 -58 -59 -60 -61 -62 -63
leaf_value=-0.01832328524297773 -0.0033682282177175623 0.0073609764137508834 -0.010924916831726196 -0.0051586239467934555 -0.014760842100539916 0.00046527370477351688 -0.019931719791082051 -0.00036603194791595987 0.0084020571723733752 0.0016746270337766485 -0.02104878272096446 -0.010833984970169717 -0.005152686682920779 0.0084728925437159083 0.0029847069510688766 0.001630125939572925 0.00037237741359814116 0.0042358141948492471 0.0081178965233288589 -0.0014359645067161767 -0.0078128806217122992 -0.0095630465454730525 -0.0090712240362426817 0.0077112056860415053 0.0048367143308453188 0.00097318036398046591 -0.0034659949472539493 -0.0055779870874595053 0.001868022477294333 0.0047857764790237133 -0.0027407044689158762 -0.0014931681997799014 -0.0014240887470870519 0.0091414297593721272 -0.0058183884532522403 -0.0080245977843405748 -0.014758077142516471 0.010253209625391961 -0.022517181148349941 -0.0086411232811363908 0.0021618460962700803 0.0046062243962824547 0.0096662790525222642 -0.013128055622451408 0.0068050662411235996 -0.0063273736031176321 -0.026315770480839957 0.0051998272929052736 -0.016814986250733598 -0.029012456584546615 0.0052705984067714789 0.011923383470604995 0.0067393273608747032 -0.00022012147987393607 0.0081681875790631988 -0.017802931126785493 0.0027625699808290051 0.0062655709808744275 -0.0063931791681491488 -0.012253326355296221 -0.020386486477453201 -0.016476934357776332
