tree
version=v4
num_class=1
num_tree_per_iteration=1
label_index=0
max_feature_idx=77
objective=tweedie
feature_names=aqi block cdc_ili_rate day day_of_year days_ahead days_since_epoch days_since_july4 days_since_school_start days_since_xmas days_to_nearest_holiday days_until_school_start days_until_thanksgiving delta_28_91 delta_7_28 dow dow_cos dow_sin doy_cos doy_sin event_count holiday_x_block is_covid_era is_halloween is_us_holiday is_weekend lag_diff lag_rate_182 lag_rate_364 lag_rate_63 lag_rate_70 lag_rate_77 lag_rate_91 lag_total_182 lag_total_364 lag_total_63 lag_total_70 lag_total_77 lag_total_91 month month_cos month_sin precip quarter roll_max_14 roll_max_28 roll_max_56 roll_max_7 roll_max_91 roll_mean_14 roll_mean_28 roll_mean_56 roll_mean_7 roll_mean_91 roll_min_14 roll_min_28 roll_min_56 roll_min_7 roll_min_91 roll_std_14 roll_std_28 roll_std_56 roll_std_7 roll_std_91 school_in_session site_dow_mean site_enc site_month_block_mean site_x_dow site_x_month snowfall temp_max temp_min temp_range week_of_year weekend_x_block year year_frac
feature_infos=[5:211] -1:0:1:2:3 [0.48795699999999997:7.7503399999999996] [1:31] [1:366] [31:61] [395:2526] [0:365] [0:385] [0:365] [0:52] [0:385] [0:370] [-12.947802197802197:8.9010989010988979] [-11.892857142857146:10.357142857142854] [0:6] [-0.90096886790241903:1] [-0.97492791218182362:0.97492791218182362] [-0.99997919295908233:0.9999907524084426] [-0.9999994220246925:0.99998555065071859] [0:1] [0:3] [0:1] [0:1] [0:1] [0:1] [-39:51] [0:1] [0:1] [0:1] [0:1] [0:1] [0:1] [0:87] [0:87] [0:87] [0:87] [0:87] [0:87] [1:12] [-1:1] [-1:1] [0:2.5390000000000001] [1:4] [7:87] [9:87] [11:87] [6:87] [12:87] [4.7142857142857144:65.428571428571431] [4.9642857142857144:63.535714285714285] [5.5178571428571432:61.803571428571431] [4:70.571428571428569] [5.7032967032967035:61.098901098901102] [0:56] [0:52] [0:49] [0:63] [0:48] [1.0271051820261772:13.403501264738468] [1.6471074533748196:11.396358371294912] [2.1121171750258032:11.952815785194982] [0.53452248382496037:16.905902040693519] [2.2659555014506254:11.91310623314085] [0:1] [17.497260273972604:43.31712328767123] -1:0:1:2:3 [6.8755760368663594:57.631336405529957] [0:27] [1:48] [0:2.7448818897637794] [-14:102.59999999999999] [-35.399999999999999:80.5] [1.7000000000000028:49.5] [1:53] [0:3] [2019:2024] [2019.0821355236139:2024.9171800136892]
tree_sizes=5796 6155 6166 6179 6175 6157 6146 6159 6185 6168 6165 6194 6190 6154 6100 6171 6193 6190 6180 6097 6169 6200 6182 6176 6182 6147 6173 6198 6204 6192 6181 6183 6199 6161 6179 6183 6188 6222 6198 6169 6191 6197 6208 6195 6198 6194 6207 6189 6229 6183 6195 6206 6234 6210 6230 6176 6200 6206 6196 6206 6237 6198 6218 6190 6215 6233 6221 6209 6190 6222 6216 6180 6176 6213 6216 6189 6241 6260 6209 6205 6212 6191 6228 6231 6189 6209 6257 6223 6202 6216 6243 6195 6229 6225 6241 6227 6228 6219 6226 6213 6244 6216 6247 6265 6235 6247 6218 6246 6207 6240 6266 6265 6254 6215 6258 6257 6274 6250 6267 6271 6229 6254 6234 6244 6259 6211 6224 6253 6227 6250 6264 6226 6274 6256 6259 6247 6243 6207 6264 6216 6295 6226 6271 6216 6223 6274 6275 6248 6244 6261 6243 6212 6245 6296 6242 6217 6291 6259 6269 6273 6241 6214 6247 6264 6253 6241 6240 6258 6301 6251 6253 6231 6245 6264 6186 6267 6269 6253 6227 6275 6280 6248 6238 6199 6261 6230 6211 6232 6202 6166 6271 6252 6237 6283 6199 6263 6280 6190 6212 6274 6224 6223 6219 6217 6257 6228 6238 6261 6264 6259 6236 6221 6223 6225 6275 6237 6225 6252 6258 6267 6247 6206 6252 6266 6201 6204 6248 6274 6213 6245 6199 6163 6219 6205 6180 6212 6188 6206 6249 6214 6225 6211 6187 6206 6227 6207 6243 6212 6239 6197 6224 6205 6241 6253 6170 6214 6213 6225 6216 6210 6227 6214 6190 6278 6232 6206 6200 6224 6209 6214 6218 6156 6206 6178 6263 6177 6196 6244 6229 6179 6196 6240 6200 6191 6229 6204 6214 6243 6195 6198 6236 6215 6187 6166 6204 6161 6224 6173 6210 6160 6162 6140 6154 6256 6173 6191 6150 6167 6228 6196 6193 6188 6223 6155 6131 6219 6187 6216 6222 6157 6254 6187 6170 6222 6193 6184 6151 6143 6127 6192 6151 6188 6142 6160 6231 6155 6144 6128 6151 6173 6156 6147 6150 6205 6154 6192 6123 6191 6200 6128 6153 6163 6055 6131 6196 6173 6202 6182 6118 6193 6142 6195 6168 6142 6218 6182 6065 6157 6177 6183 6153 6193 6229 6183 6124 6227 6108 6176 6197 6178 6161 6142 6165 6166 6087 6133 6143 6164 6156 6187 6142 6099 6152 6190 6260 6140 6140 6142 6157 6102 6176 6224 6194 6191 6186 6129 6191 6151 6150 6129 6142 6134 6178 6116 6112 6160 6176 6156 6133 6103 6193 6159 6122 6158 6125 6192 6089 6198 6133 6234 6123 6127 6104 6142

Tree=0
num_leaves=55
num_cat=1
split_feature=67 67 67 67 67 53 65 67 65 67 65 68 65 48 15 15 67 66 6 65 53 6 67 64 15 6 65 6 65 15 65 15 15 6 67 7 6 71 67 16 15 68 68 16 6 67 6 67 0 6 10 15 9 68
split_gain=558751 153545 86684.7 33341.4 24384.7 9595.7 8463.95 3408.08 3264.68 2272.03 2163.05 1262.72 1218.3 1047.81 922.187 790.439 732.02 713.133 711.342 672.853 668.453 612.126 588.014 560.003 497.553 476.529 599.994 456.068 455.266 447.903 443.598 435.187 410.531 394.162 392.266 336.303 304.536 297.733 279.703 270.312 262.6 246.731 497.385 244.079 229.758 207.956 204.898 194.875 193.911 192.954 186.271 178.267 177.078 176.842
threshold=29.635407066052231 17.757757296466977 46.278571428571432 11.540783410138252 24.29508448540707 34.774725274725277 20.82112714275021 39.016666666666673 20.82112714275021 21.370967741935488 22.994863013698634 7.5000000000000009 41.066350400479088 30.500000000000004 1.0000000180025095e-35 1.0000000180025095e-35 13.506451612903229 0 1302.5000000000002 43.220378583726337 32.532967032967044 1278.5000000000002 35.963133640553004 1.0000000180025095e-35 4.5000000000000009 1238.5000000000002 20.82112714275021 1590.5000000000002 31.28449453551913 4.5000000000000009 42.346063515233183 4.5000000000000009 4.5000000000000009 1886.5000000000002 26.245852534562214 2.5000000000000004 2038.5000000000002 44.750000000000007 53.760368663594477 -0.56174490092936669 1.0000000180025095e-35 11.500000000000002 16.500000000000004 -0.22252093395631442 1182.5000000000002 54.150614439324123 1630.5000000000002 54.457066052227347 102.50000000000001 1702.5000000000002 7.5000000000000009 3.5000000000000004 2.5000000000000004 17.500000000000004
decision_type=2 2 2 2 2 2 2 2 2 2 2 2 2 2 2 2 2 1 2 2 2 2 2 2 2 2 2 2 2 2 2 2 2 2 2 2 2 2 2 2 2 2 2 2 2 2 2 2 10 2 2 2 2 2
left_child=1 3 5 6 9 11 23 14 40 13 34 -2 21 -3 30 -9 -10 24 53 39 44 -4 37 35 33 26 -11 47 -20 -8 -7 48 36 -15 50 -1 -17 -16 -23 -19 -5 -27 -43 -22 -13 -29 -42 -14 52 -36 -6 -39 -18 -12
right_child=2 4 12 8 10 7 29 15 16 25 18 20 27 17 22 32 31 19 28 -21 43 38 -24 -25 -26 41 -28 45 -30 -31 -32 -33 -34 -35 49 -37 -38 51 -40 -41 46 42 -44 -45 -46 -47 -48 -49 -50 -51 -52 -53 -54 -55
leaf_value=3.5784180947598871 3.607071470140474 3.5904328426467234 3.6116595792887995 3.5904685970023418 3.5990434725736238 3.6074252218682115 3.5729198719644968 3.6107130723417535 3.5784884468391001 3.5974130294364124 3.5994693948224263 3.6026250467589818 3.6127130639973228 3.5940324083332476 3.6053636816971726 3.6086181967952964 3.5920402273498029 3.5915755737842154 3.6016236185862551 3.5969263059483096 3.604153149836244 3.6124693135589188 3.6072074801967413 3.5568093857058392 3.5923124942232754 3.5946613758284474 3.5925272712742413 3.6136643197444385 3.6040908919597987 3.5773416080885987 3.6097476610961303 3.5855313842159044 3.6077171210029286 3.5984278496652027 3.600547244873344 3.5621422078791207 3.6099831658392492 3.6071540944204923 3.6132707136127133 3.5933844684926051 3.5862382104783008 3.598457039037894 3.5960000299097943 3.6054824511976395 3.6039229813369857 3.614513580086034 3.5884223219013491 3.6137243480431498 3.5889026630081866 3.5989726596043314 3.5975140564669106 3.6058877833894796 3.5818443468159344 3.6017156281091944
leaf_weight=588.53138256072998 70966.519173145294 44120.544615089893 217258.4153137207 14537.140514850616 65920.707740545273 77896.545931577682 29881.433102622628 93648.299869060516 16121.048384666443 16241.256145477295 77796.202528357506 98455.085685014725 204391.63204622269 12291.38134521246 155649.91585636139 210598.75431227684 748.64346027374268 48714.881638944149 270962.94575119019 18954.811421513557 100198.69456744194 343094.61346435547 356529.48257136345 12519.581459820271 11857.600801467896 23791.320476055145 29741.583627343178 241665.6417388916 35226.70573425293 14709.922804534435 61212.950389623642 25014.269177913666 136501.39005088806 27787.574157714844 72671.220806360245 15433.477237962186 100748.70018768311 100920.95817351341 387574.78981018066 121039.54927307367 33229.589003205299 54542.874073982239 93214.225297451019 135249.11169743538 134520.91732120514 241402.14047241211 40893.291877746582 130755.88240337372 1822.3624906539917 58834.812885284424 67403.094923496246 85633.785000085831 49885.776520431042 18036.799098491669
leaf_count=72 2333 3538 3980 996 2465 1261 5070 1162 2111 1068 4432 4499 2628 1187 3158 3540 40 2797 6600 748 2149 2828 5812 3966 820 1036 2487 1700 696 2032 795 2212 2332 864 2626 4432 1116 1723 2868 6265 3562 1724 3596 2570 3441 1508 2448 1428 112 1756 3053 1661 5363 854
internal_value=3.60565 3.59479 3.60985 3.58045 3.59792 3.60684 3.56881 3.60775 3.58513 3.59453 3.60048 3.60453 3.61311 3.59333 3.60693 3.60901 3.58247 3.59386 3.60143 3.59327 3.60415 3.61261 3.60663 3.56012 3.59599 3.5961 3.59425 3.61369 3.60191 3.57437 3.60845 3.5833 3.60865 3.59708 3.59905 3.56273 3.60906 3.60602 3.61289 3.59286 3.58794 3.59659 3.59691 3.60492 3.60337 3.61409 3.58744 3.61311 3.58223 3.59984 3.59827 3.60657 3.58199 3.59989
internal_weight=5.10941e+06 1.42454e+06 3.68487e+06 255385 1.16915e+06 1.91873e+06 73132.9 1.37934e+06 182252 502298 666852 539390 1.76614e+06 284766 837844 541497 93592.1 240646 402023 188709 468424 947928 698734 28541.6 51936.6 217531 45982.8 818215 306190 44591.4 139109 77471.1 447849 40079 264830 16022 311347 342205 730669 169754 88660 171548 147757 235448 232976 483068 74122.9 335148 52456.8 131506 133324 186555 50634.4 95833
internal_count=135520 81028 54492 32416 48612 37552 15572 22560 16844 26130 22482 14992 16940 16219 14410 8150 9838 12681 12582 9810 12659 9676 12354 8470 2871 9911 3555 7264 7296 7102 2056 7727 6988 2051 9900 4504 4656 6542 5696 9062 7006 6356 5320 4719 7940 3208 6010 4056 5515 4382 5518 3384 5403 5286
cat_boundaries=0 1
cat_threshold=4
is_linear=0
shrinkage=1


Tree=1
num_leaves=55
num_cat=1
split_feature=67 67 67 67 67 53 65 67 65 67 65 68 65 48 65 65 67 6 66 48 65 6 64 71 68 17 6 65 6 65 65 17 17 17 6 67 17 7 6 67 65 6 48 68 67 6 67 6 6 65 10 0 65 68
split_gain=533951 143778 84022.6 30819.5 23033.2 9223.08 7787.19 3287.2 3030.35 2135.22 2052.97 1210.66 1190.53 981.393 767.947 765.253 676.916 676.138 669.588 642.843 631.901 596.993 514.998 491.1 478.538 467.942 448.629 563.861 446.247 446.089 433.985 412.196 403.248 396.511 371.573 371.411 319.107 307.909 294.663 274.497 244.594 234.738 232.854 295.567 203.737 190.579 190.461 186.283 182.945 182.252 182.631 179.575 176.877 240.846
threshold=29.635407066052231 17.757757296466977 46.278571428571432 11.540783410138252 24.29508448540707 34.774725274725277 20.82112714275021 39.016666666666673 20.82112714275021 21.370967741935488 22.994863013698634 7.5000000000000009 41.066350400479088 30.500000000000004 31.28449453551913 31.28449453551913 13.506451612903229 1302.5000000000002 0 48.500000000000007 43.220378583726337 1278.5000000000002 1.0000000180025095e-35 44.750000000000007 9.5000000000000018 -0.60785761079279388 1238.5000000000002 20.82112714275021 1590.5000000000002 42.346063515233183 31.28449453551913 -0.60785761079279388 -0.60785761079279388 -0.60785761079279388 1886.5000000000002 26.245852534562214 -0.8783796973249266 2.5000000000000004 2038.5000000000002 54.622119815668206 18.450921663298157 1246.5000000000002 38.500000000000007 17.500000000000004 54.150614439324123 1630.5000000000002 54.457066052227347 1934.5000000000002 1702.5000000000002 18.450921663298157 6.5000000000000009 102.50000000000001 31.28449453551913 17.500000000000004
decision_type=2 2 2 2 2 2 2 2 2 2 2 2 2 2 2 2 2 2 1 2 2 2 2 2 2 2 2 2 2 2 2 2 2 2 2 2 2 2 2 2 2 2 2 2 2 2 2 2 2 2 2 10 2 2
left_child=1 3 5 6 9 11 22 14 40 13 35 -2 21 -3 23 33 -10 52 25 41 36 -4 37 -7 29 -15 27 -11 46 -16 -19 -8 -18 -9 -27 49 -20 -1 -35 -23 45 -13 -28 -44 -30 -5 -14 -21 -37 50 -6 -34 53 -12
right_child=2 4 12 8 10 7 31 15 16 26 17 19 28 18 24 -17 32 30 20 47 -22 39 -24 -25 -26 34 42 -29 44 -31 -32 -33 51 38 -36 48 -38 -39 -40 -41 -42 -43 43 -45 -46 -47 -48 -49 -50 -51 -52 -53 -54 -55
leaf_value=-0.026267889153882978 0.0013947408419740345 -0.01475927034462474 0.0059150547899248602 -0.018785445440991137 -0.0066276790880006285 -0.00022101870534980468 -0.027282644815658657 0.0020288714913165714 -0.026189917802750529 -0.0080224482741583936 -0.0064998993052012358 -0.0028691617304956317 0.0069577728145506579 -0.012950174910669569 0.0019714655322197335 0.0049797947019894137 -0.0194625087831953 -0.0039320790072391474 -0.010488454774155472 -0.00085813173283029746 -0.0084938888661070626 0.0068258294747288529 -0.046784489339544579 0.0011924152241671172 0.0011252681204783899 -0.011291614195659296 -0.0092835111585443473 -0.012743098661754491 0.0079009218335009176 0.0040273517415565733 -0.0015247491342882573 -0.0314897551183487 -0.022846015782560923 0.0029149286209300129 -0.0070385519056476954 -0.0049797995971629719 -0.012822892814963828 -0.041723026574231291 0.0042595529311933288 0.0076440281592100911 -0.014725022665644238 -0.0016274023642829307 -0.0061663684314959867 -0.009378677986127187 0.0087442676277217652 -0.016690905728813682 0.0079604935102123679 0.0009395187100148893 -0.0065098388484053915 -0.0054739421911115561 -0.0082830571905781435 -0.016231503345331407 -0.003203092763367867 -0.003842479855523735
leaf_weight=597.79037570953369 70892.203108549118 44553.96218302846 216264.58157491684 33631.140557229519 51619.277858972549 163365.34933710098 14948.686635702848 136292.56927967072 16374.898594260216 16332.71928024292 66927.626703262329 107965.38531678915 203284.56827735901 11961.319110155106 157532.62571001053 93289.798145294189 25325.591233849525 271733.80826187134 29741.410938262939 179333.64837425947 19067.425445735455 449864.51112365723 12800.09904833138 274631.29754400253 180495.32540941238 12386.373699128628 124228.51752090454 29998.011914372444 240170.48414611816 61024.59916806221 35266.235244750977 30418.261444538832 51351.621795117855 210133.14464068413 27925.891525268555 72931.07155251503 141442.32435631752 15761.643379129469 100420.33034515381 276739.90342712402 14679.648021578789 153897.42498707771 26649.854840278625 21723.401371002197 239740.57078552246 41340.309875488281 129940.50931835175 27730.79959487915 59106.746683120728 21668.901917695999 60712.482059955597 1841.7986550331116 11202.698764801025 18086.973969459534
leaf_count=72 2333 3538 3980 3562 1934 3261 2032 2332 2111 1068 3920 4805 2628 820 2569 1162 2212 6600 1407 4070 748 3672 3966 4599 3186 1187 4778 2487 1700 795 696 5070 5403 3540 864 2626 7655 4432 1116 2024 996 3351 773 805 1508 2448 1428 433 1756 784 2800 112 512 854
internal_value=4.72107e-07 -0.0105617 0.00412508 -0.024327 -0.00752716 0.0011701 -0.0354068 0.00205658 -0.0198515 -0.0108137 -0.00504219 -0.00109147 0.00735096 -0.011972 0.00125543 0.0032981 -0.0223958 -0.00412371 -0.0114596 -0.00146735 -0.0120241 0.00685716 -0.0436434 0.000665233 0.0019032 -0.00939987 -0.00929451 -0.0110803 0.00792348 0.0025456 -0.00365558 -0.0301075 -0.0216025 0.00294694 -0.00834691 -0.00643416 -0.0124177 -0.0411686 0.0033498 0.00713752 -0.0171571 -0.00213943 -0.00881478 -0.00760998 0.00832233 -0.017632 0.00734892 -0.000617363 -0.005665 -0.00719174 -0.00752278 -0.0226189 -0.00561702 -0.00593486
internal_weight=5.10735e+06 1.43434e+06 3.67301e+06 259071 1.17527e+06 1.917e+06 74526.5 1.37719e+06 184545 506011 669256 539819 1.75601e+06 287079 837049 540136 94893.9 403217 242525 468927 190251 942869 29159.5 437997 399053 52273.6 218933 46330.7 813136 218557 307000 45366.9 78519 446846 40312.3 266038 171184 16359.4 310553 726604 89651.1 261863 172602 48373.3 479911 74971.5 333225 207064 132038 134001 112332 53193.4 96217.3 85014.6
internal_count=135520 81028 54492 32416 48612 37552 15572 22560 16844 26130 22482 14992 16940 16219 14410 8150 9838 12582 12681 12659 9810 9676 8470 7860 6550 2871 9911 3555 7264 3364 7296 7102 7727 6988 2051 9900 9062 4504 4656 5696 7006 8156 6356 1578 3208 6010 4056 4503 4382 5518 4734 5515 5286 4774
cat_boundaries=0 1
cat_threshold=4
is_linear=0
shrinkage=0.0204134


Tree=2
num_leaves=55
num_cat=1
split_feature=67 67 67 67 67 67 65 53 65 67 67 65 65 48 16 6 16 66 65 6 17 16 64 17 6 48 65 17 17 67 6 53 71 6 67 17 6 6 67 7 68 67 67 53 16 67 48 67 17 6 6 16 10 68
split_gain=510312 134697 81428.5 28508.6 21764.4 8868.26 7716.68 2686.09 2474.14 2007.64 1959.5 1948.99 1163.06 919.702 741.819 642.83 638.642 629.028 593.744 582.079 512.787 500.864 473.295 440.299 436.506 422.727 413.759 410.26 383.525 351.783 350.422 342.176 338.636 319.23 444.094 299.393 292.957 288.431 287.264 281.996 269.659 268.775 248.275 242.192 227.977 199.541 188.519 186.092 183.354 177.383 173.503 172.514 172.64 168.651
threshold=29.635407066052231 17.757757296466977 46.278571428571432 11.808755760368665 24.29508448540707 35.963133640553004 20.82112714275021 33.950549450549453 20.82112714275021 21.370967741935488 39.016666666666673 22.994863013698634 41.066350400479088 30.500000000000004 0.81174490092936691 1302.5000000000002 0.81174490092936691 0 43.220378583726337 1278.5000000000002 -0.60785761079279388 0.81174490092936691 1.0000000180025095e-35 -0.60785761079279388 1590.5000000000002 38.500000000000007 31.28449453551913 -0.60785761079279388 -0.60785761079279388 26.245852534562214 1886.5000000000002 35.752747252747263 44.750000000000007 1214.5000000000002 23.283870967741937 -0.8783796973249266 1182.5000000000002 2038.5000000000002 14.692857142857145 2.5000000000000004 17.500000000000004 53.760368663594477 33.691705069124431 40.84065934065935 0.81174490092936691 54.150614439324123 54.500000000000007 54.457066052227347 1.0000000180025095e-35 1630.5000000000002 1702.5000000000002 0.81174490092936691 6.5000000000000009 3.5000000000000004
decision_type=2 2 2 2 2 2 2 2 2 2 2 2 2 2 2 2 2 1 2 2 2 2 2 2 2 2 2 2 2 2 2 2 2 2 2 2 2 2 2 2 2 2 2 2 2 2 2 2 2 2 2 2 2 2
left_child=1 3 5 6 9 7 22 36 44 13 21 29 19 -3 28 -13 32 23 35 -4 -8 31 39 -15 47 33 -17 -10 -12 51 -25 -7 46 34 -11 -19 42 -30 53 -1 -27 -21 -2 -18 49 -26 -9 -14 -34 -5 -31 52 -6 -29
right_child=2 4 12 8 11 10 20 16 27 25 14 15 24 17 -16 26 43 18 -20 41 -22 -23 -24 30 45 40 -28 38 37 50 -32 -33 48 -35 -36 -37 -38 -39 -40 -41 -42 -43 -44 -45 -46 -47 -48 -49 -50 -51 -52 -53 -54 -55
leaf_value=-0.025348959399451913 -0.0032382454461054645 -0.014319635775336041 0.0058207698255349494 -0.018185979638626063 -0.0064624337927276761 0.00037053120525177392 -0.025832422141942719 -0.00088002450886080731 -0.019384897558944316 -0.012364853600037404 0.0019860958797583961 -0.005480710933076712 0.0068526553132441702 -0.012577716923005368 0.0048886557843365284 -0.0038410214335974865 0.0017841122787791183 -0.010201810571999757 -0.0082721274792305326 0.0066118936516473626 -0.030226406452366589 0.002893706518829029 -0.044833476886647634 -0.010977721557368474 0.0077875889621590901 -0.0060144808944098934 -0.0014919740303468666 -0.022684919390856689 0.0028552020071417731 -0.0048609965767364531 -0.0068612262758420027 0.0015908946766021938 0.00010616865743723493 -0.0090383385739707285 -0.0075556393652227707 -0.012454847087597488 -0.0013728016939987908 0.0041861474171753276 -0.020768719334017596 -0.040030236879593679 -0.008917237599018548 0.0074017933118405536 -0.0012842559470432312 0.00528882694879035 -0.01428681582660764 0.0086248890025479533 0.00050833244564615096 0.0078466956081990648 0.0012921820937277161 -0.016176336149824441 -0.0063480233351199244 -0.005341592445174805 -0.0080678396774130755 -0.025956926535663498
leaf_weight=606.94736671447754 84697.345327556133 44980.137624531984 215291.6460313797 34026.621737271547 51856.206037998199 137181.3727298975 17027.110434383154 127024.94933819771 29393.40208542347 30680.775454521179 136686.2456240654 96593.575954914093 202200.85011148453 12063.24033164978 93291.012082099915 272489.4545173645 72291.468445301056 29950.86899253726 19177.937145471573 339521.60850524902 33893.941928386688 89419.56187915802 13081.752556443214 12479.669656813145 238706.92013549805 26764.074065208435 35304.96745300293 24759.617501616478 210938.81863641739 73185.849181175232 28061.574604034424 316967.7529335022 100313.31625199318 125251.75968599319 10878.411995470524 142637.02464973927 218815.17191410065 100098.82411193848 27697.830186963081 16089.614480398595 26733.43739181757 383103.57867431641 39860.367236614227 9266.7582550048828 14819.773953080177 238114.15571594238 60001.967837810516 129142.36691379547 118459.60360217094 41780.186861038208 59373.466632843018 21751.791745424271 61056.211453676224 9542.4290549755096
leaf_count=72 3582 3538 3980 3562 1934 3542 2212 2681 2636 2605 2424 5286 2628 820 1208 6600 1199 1407 748 2828 5514 1420 3966 1187 1700 773 696 2808 3722 2626 864 4996 1955 4870 621 7655 5228 1116 2540 4432 1042 2868 1239 91 996 1508 1110 1428 2039 2448 1756 784 2800 1230
internal_value=9.15534e-07 -0.0102759 0.00405392 -0.023496 -0.00733558 0.00114727 -0.0335955 -0.000439867 -0.0190173 -0.0105163 0.00236293 -0.00492175 0.00724227 -0.0116346 0.00323264 -0.00402771 0.000534456 -0.01114 -0.0116847 0.00675303 -0.0287605 0.00149727 -0.0418555 -0.00914951 0.00781 -0.00904733 -0.00357161 -0.0213891 0.00288752 -0.00627458 -0.0081299 0.00122228 0.000203161 -0.00955421 -0.0111073 -0.0120642 -0.00182273 0.00328361 -0.0223372 -0.0395063 -0.00746591 0.00703072 -0.00261304 0.0021827 -0.0166241 0.00820583 -0.00043461 0.00724023 0.000748381 -0.0170798 -0.00552731 -0.00700987 -0.00733094 -0.0235997
internal_weight=5.10539e+06 1.44399e+06 3.6614e+06 262719 1.18127e+06 1.91531e+06 80699.4 830731 182020 509659 1.08458e+06 671612 1.74608e+06 289350 541015 404388 487358 244370 191766 937917 50921.1 543569 29778.3 52604.5 808164 220308 307794 91393.3 447724 267224 40541.2 454149 405800 166811 41559.2 172588 343373 311038 61999.9 16696.6 53497.5 722625 124558 81558.2 90626.6 476821 187027 331343 218773 75806.8 132559 134664 112912 34302
internal_count=135520 81028 54492 32416 48612 37552 16196 19124 16220 26130 18428 22482 16940 16219 8470 12582 9075 12681 9810 9676 7726 9958 8470 2871 7264 9911 7296 9214 7262 9900 2051 8538 7785 8096 3226 9062 10049 4838 6578 4504 1815 5696 4821 1290 7006 3208 3791 4056 3994 6010 4382 5518 4734 4038
cat_boundaries=0 1
cat_threshold=4
is_linear=0
shrinkage=0.0204134


Tree=3
num_leaves=55
num_cat=1
split_feature=67 67 67 67 67 67 65 48 68 67 67 65 65 48 15 15 6 66 6 65 15 15 15 6 15 6 48 65 6 15 67 6 67 17 6 75 15 6 67 75 50 6 72 48 67 2 0 67 6 6 65 68 6 15
split_gain=487775 126251 78901.3 26401.5 20572.8 8529.59 7710.3 2370.43 2097.62 1890.54 1888.58 1850.73 1135.89 862.365 766.266 717.941 611.258 591.221 567.388 558.167 482.677 459.753 445.852 437.345 431.066 426.849 398.738 394.531 373.936 370.333 333.291 300.605 417.718 281.044 278.993 271.565 269.876 268.461 263.741 255.047 252.513 243.798 208.217 204.312 195.37 187.198 187.023 182.649 176.712 175.251 167.419 227.751 164.592 163.346
threshold=29.635407066052231 17.757757296466977 46.278571428571432 12.624423963133642 24.29508448540707 35.963133640553004 20.82112714275021 48.500000000000007 5.5000000000000009 39.016666666666673 21.370967741935488 22.994863013698634 41.066350400479088 30.500000000000004 1.0000000180025095e-35 1.0000000180025095e-35 1302.5000000000002 0 1278.5000000000002 43.220378583726337 1.0000000180025095e-35 4.5000000000000009 4.5000000000000009 1926.5000000000002 1.0000000180025095e-35 1590.5000000000002 38.500000000000007 31.28449453551913 1886.5000000000002 4.5000000000000009 26.245852534562214 1214.5000000000002 23.283870967741937 -0.8783796973249266 2038.5000000000002 1.5000000000000002 3.5000000000000004 1214.5000000000002 54.622119815668206 1.0000000180025095e-35 36.017857142857146 1164.5000000000002 61.45000000000001 56.500000000000007 54.150614439324123 2.6165885714285717 99.500000000000014 54.913824884792632 1574.5000000000002 2126.5000000000005 31.28449453551913 17.500000000000004 1702.5000000000002 1.0000000180025095e-35
decision_type=2 2 2 2 2 2 2 2 2 2 2 2 2 2 2 2 2 1 2 2 2 2 2 2 2 2 2 2 2 2 2 2 2 2 2 2 2 2 2 2 2 2 2 2 2 2 8 2 2 2 2 2 2 2
left_child=1 3 5 6 10 7 22 41 46 20 13 30 18 -3 43 -11 50 24 -4 33 -7 -8 42 40 -15 47 31 -18 -26 34 53 32 -12 -19 -17 -25 48 -22 49 -28 -16 -2 -1 -9 -27 -39 -5 -14 -10 -20 51 -13 -32 -6
right_child=2 4 12 8 11 9 21 14 36 15 26 16 25 17 23 29 27 19 38 -21 37 -23 -24 35 28 44 39 -29 -30 -31 52 -33 -34 -35 -36 -37 -38 45 -40 -41 -42 -43 -44 -45 -46 -47 -48 -49 -50 -51 -52 -53 -54 -55
leaf_value=-0.043003650319380103 -0.0027719950028852586 -0.013896578434388417 0.0057275537237935319 -0.021068221162112915 -0.0052129074730272815 0.0028408216575666755 -0.028745329075626401 0.0013961186929388957 -0.01678341619603891 0.0048067940136874987 -0.012013270696627835 -0.0062027034620433814 0.0068481841817345634 -0.0050994512601074508 -0.0012963605934624253 0.0028029357504040157 -0.0037523087986171696 -0.0099247567000517213 0.006307738665232915 -0.008057299012677108 0.00026212156819260384 -0.024834780630753894 -0.036577959761394829 0.0010251475404380996 -0.012629157356442504 0.0076751625421288619 -0.0065289794498867284 -0.0014599378813507978 -0.0085107192598486339 0.001948445529810632 -0.0047454109920589665 -0.0087992492553470459 -0.0073628705317776823 -0.012099999847243886 0.0041137700256502034 -0.00066019836715543244 -0.017421458354535731 0.0012070604376221985 0.0074243976214546197 -0.0099320506316806414 1.5201677013747303e-05 -0.0015125016924401626 -0.037386532105207336 0.00349653024132696 0.0085062905039206427 0.0023267993257492462 -0.015386517622941867 0.007948569458217843 -0.014395206682490756 0.0071488193003455616 -0.0030067750187664413 -0.0036276146670027321 -0.006190893731347711 -0.0071448828743390534
leaf_weight=16382.905379533768 106357.61161452532 45399.126156955957 214339.16328620911 69409.540296375751 21833.070575237274 89226.986658811569 38688.469965815544 67860.483695268631 21836.19265499711 92946.667037010193 30931.612330019474 67484.859020471573 244407.99263858795 10053.196702122688 117563.30034220219 210490.70408654213 273230.17492675781 30156.516275197268 281057.50158691406 19286.379448115826 99601.265390634537 19205.671381860971 10195.928555056453 171811.73217010498 13417.768273174763 237274.27575683594 41987.301197886467 35342.917449951172 29458.377143859863 136485.5382065773 73435.648086071014 126020.88183021545 10934.91680470109 143810.81500011683 99784.035346984863 51862.544839859009 51036.752704679966 273601.61380386353 273544.62701416016 11784.342419266701 127511.33312654495 161047.82570004463 3818.1107638627291 26970.594173192978 236522.15274047852 80537.372978210449 2586.052387714386 85093.077150344849 33166.366110801697 164127.76252746582 11272.052649259567 18206.605244874954 59635.062589645386 113482.07419872284
leaf_count=5158 4402 3538 3980 7090 784 1420 6046 1142 2232 1208 2605 3920 3088 409 2900 3722 6600 1407 2408 748 3090 2424 2424 2661 1422 1700 1331 696 1040 2424 2626 4870 621 7655 1116 944 4218 4348 2024 484 2590 4117 888 368 1508 1100 168 968 1768 1264 512 854 1756 4734
internal_value=1.33124e-06 -0.00999937 0.00398376 -0.0227013 -0.00714974 0.00112486 -0.0318285 -0.000430736 -0.018174 0.00231883 -0.010229 -0.00480457 0.00713454 -0.011309 0.000320264 0.00317442 -0.00393419 -0.0108315 0.00664991 -0.0113571 0.00146835 -0.0274509 -0.0401586 -1.83017e-05 -0.00890721 0.00769741 -0.00880809 -0.00348978 -0.00980122 0.00283475 -0.0061196 -0.00929855 -0.0107999 -0.0117233 0.00322457 0.000634365 -0.0163454 0.00119842 0.00692492 -0.00727586 -0.000613977 -0.0020135 -0.041954 0.00199368 0.00809017 0.00146175 -0.0208655 0.0071325 -0.0153451 0.00661792 -0.00534814 -0.00565589 -0.00539346 -0.00683342
internal_weight=5.10352e+06 1.45349e+06 3.65003e+06 266326 1.18716e+06 1.91366e+06 88291.1 830985 178035 1.08267e+06 513241 673922 1.73637e+06 291582 563580 539707 405537 246183 933069 193254 542967 57894.1 30396.9 468749 52929.3 803297 221659 308573 42876.1 446760 268386 167887 41866.5 173967 310275 223674 106039 453740 718730 53771.6 245075 267405 20201 94831.1 473796 354139 71995.6 329501 55002.6 445185 96963.5 85691.5 133071 135315
internal_count=135520 81028 54492 32416 48612 37552 16940 19124 15476 18428 26130 22482 16940 16219 10605 8470 12582 12681 9676 9810 9958 8470 8470 9095 2871 7264 9911 7296 2462 7262 9900 8096 3226 9062 4838 3605 8218 8538 5696 1815 5490 8519 6046 1510 3208 5448 7258 4056 4000 3672 5286 4774 4382 5518
cat_boundaries=0 1
cat_threshold=4
is_linear=0
shrinkage=0.0204134


Tree=4
num_leaves=55
num_cat=0
split_feature=67 67 67 67 67 53 65 67 68 67 65 68 67 15 15 53 77 68 68 77 48 67 65 15 77 15 65 65 15 77 77 15 77 77 67 67 77 16 71 15 67 67 75 67 72 12 0 77 8 2 15 48 73 67
split_gain=466286 118467 76440.1 26906.4 17639.8 8233.15 7099.55 2937.94 2377.92 2000.93 1109.04 1072.3 1041.99 796.915 693.833 565.245 552.93 541.754 910.142 727.853 530.537 513.515 459.873 424.061 417.282 409.743 403.552 373.517 356.998 328.494 277.937 267.085 266.584 262.367 429.975 257.984 253.581 230.111 223.496 204.63 202.206 199.168 271.539 191.227 191.039 188.74 186.041 184.993 184.769 184.29 182.167 181.439 178.983 178.899
threshold=29.635407066052231 18.553686635944704 46.278571428571432 12.624423963133642 25.388600288600291 34.774725274725277 20.82112714275021 39.016666666666673 5.5000000000000009 21.370967741935488 41.066350400479088 7.5000000000000009 27.732718894009221 1.0000000180025095e-35 1.0000000180025095e-35 32.532967032967044 2021.4996577686518 11.500000000000002 18.500000000000004 2022.6392881587956 37.500000000000007 36.16193036354327 31.28449453551913 4.5000000000000009 2022.3545516769339 4.5000000000000009 42.346063515233183 29.748630136986304 4.5000000000000009 2023.1875427789189 2021.5872689938401 1.0000000180025095e-35 2023.5817932922657 2021.2587268993841 23.283870967741937 53.760368663594477 2020.1793292265575 -0.22252093395631442 44.750000000000007 1.0000000180025095e-35 16.861739514965326 33.691705069124431 2.5000000000000004 54.150614439324123 61.45000000000001 326.50000000000006 56.500000000000007 2022.3983572895279 257.50000000000006 1.6299585714285716 3.5000000000000004 54.500000000000007 10.750000000000004 54.457066052227347
decision_type=2 2 2 2 2 2 2 2 2 2 2 2 2 2 2 2 2 2 2 2 2 2 2 2 2 2 2 2 2 2 2 2 2 2 2 2 2 2 2 2 2 2 2 2 2 2 8 2 2 2 2 2 2 2
left_child=1 3 5 6 9 11 25 13 -5 17 16 -2 27 26 -9 41 -4 47 19 -19 33 38 30 -8 53 44 -7 -6 32 -29 49 -10 -16 34 -11 -18 48 -17 51 -22 -33 42 -13 -26 -1 -41 -38 -3 -20 -14 -40 -15 -32 -12
right_child=2 4 10 8 12 7 23 14 31 20 24 15 22 21 28 37 35 18 36 -21 39 -23 -24 -25 43 -27 -28 29 -30 -31 52 40 -34 -35 -36 -37 46 -39 50 45 -42 -43 -44 -45 -46 -47 -48 -49 -50 -51 -52 -53 -54 -55
leaf_value=-0.041245386196097751 0.0013145969857475558 -0.013285514803539277 0.0056354087429896435 -0.020178323393692611 -0.0056650261632791256 0.001627746789397036 -0.027699259433586892 0.0047341633873815066 -0.01330922120562761 -0.011645951411305542 0.0066439308992717961 -0.002766745552603977 -0.0076219001777879155 -0.00074646442848467923 0.0027580421612058196 -0.0014168298891796794 0.0064078286577122952 -0.010635199010921314 -0.0093280172364577571 -0.0069692234589922488 -0.0052398692469543227 0.0014848611364837499 -0.0011634307806271918 -0.023971580040166557 0.0075636574386830514 -0.035146969847592455 0.0038522627653505307 -0.0053533816288279584 0.0019158464139836411 -0.0026802975368557802 -0.0048625894084685997 -0.016816417142622515 0.0040424145565862461 -0.0085140441281484434 -0.0071521996187131351 0.0071858225554309024 -0.012526128805986102 -0.00012748703394902937 0.0014179737249464142 -0.0078194855762736132 -0.015061491958702216 -0.00076066916151328306 -0.00094042660222285043 0.0083884923222170005 -0.035916518075815501 -0.0042881814618855787 -0.0098278153591370414 -0.011257122776979081 -0.016453222674357476 -0.0045521044539724616 0.00016652420438687606 0.00060965187360031536 -0.0032141458514164936 0.007624086978925298
leaf_weight=16729.219953775406 70676.562189340591 34246.26950570941 213406.6991443634 72918.277755260468 234066.54712498188 77452.382985115051 39323.504514053464 92259.864733219147 18867.023776650429 30885.332923352718 200086.1885638237 151620.33517795801 9585.7954745292664 96684.824481606483 208795.55269193649 100464.55423438549 336098.37539672852 41643.599720060825 25606.683212757111 49419.802921295166 18954.32400482893 333374.59294760227 29713.265806674957 19488.334058761597 235871.89263916016 10392.622255265713 60566.043142318726 38491.103123664856 135692.52245903015 38183.07914352417 32604.66233253479 56597.758700489998 99475.82487487793 129688.64129590988 12507.455975323915 378818.00001525879 62505.571369230747 135435.62001490593 105916.27883970737 88316.672534704208 54931.944841623306 39031.212342381477 43712.705151557922 234963.81771850586 3892.719977170229 6819.2263946533203 13010.339115917683 42472.554494857788 1619.0572128295898 54914.761507749557 89364.621918201447 71515.770496964455 174441.73980712891 127611.60005569458
leaf_count=5158 2333 2634 3980 7258 8272 1261 6046 1162 1208 2443 2628 5267 1680 2095 3540 2149 2828 2847 1014 1576 641 5325 684 2424 1700 2424 795 1783 2332 840 860 4710 1116 5013 676 2868 4072 2570 1858 3665 3764 1626 1047 1508 888 183 660 1852 100 1601 1780 1296 4052 1428
internal_value=1.72196e-06 -0.00973174 0.00391459 -0.0213358 -0.00682352 0.00110287 -0.0306405 0.00194425 -0.017224 -0.00944956 0.0070278 -0.00102971 -0.00443042 0.00118694 0.00312331 -0.00138205 0.00654782 -0.0107097 -0.0101337 -0.00864631 -0.00826231 0.000906247 -0.0035748 -0.0264667 0.00758574 -0.038548 0.00260405 -0.00525984 0.0027885 -0.00402254 -0.00383863 -0.0155711 0.00317257 -0.00897517 -0.0103519 0.00682013 -0.0114515 -0.000676612 0.000375542 -0.00718042 -0.015953 -0.00209208 -0.00235809 0.00797539 -0.0402507 -0.00756667 -0.0120621 -0.0121636 -0.00975544 -0.00500902 0.000845308 -0.000169868 -0.00347387 0.00702576
internal_weight=5.10173e+06 1.46284e+06 3.6389e+06 293141 1.1697e+06 1.91204e+06 89826.4 1.3711e+06 203315 557696 1.72686e+06 540941 612001 834875 536224 470264 928323 270524 193805 91063.4 287172 696856 301260 58811.8 798533 31014.6 138018 310741 443964 76674.2 271547 130397 308271 173081 43392.8 714916 102742 235900 363481 114090 111530 234364 195333 470836 20621.9 95135.9 75515.9 76718.8 27225.7 64500.6 195281 168201 207046 327698
internal_count=135520 81028 54492 33880 47148 37552 16940 22560 16940 27376 16940 14992 19772 14410 8150 12659 9676 14755 10269 4423 12621 12354 8877 8470 7264 8470 2056 10895 6988 2623 8193 9682 4656 8132 3119 5696 5846 4719 7029 4489 8474 7940 6314 3208 6046 3848 4732 4486 1114 3281 3638 3391 4912 4056
is_linear=0
shrinkage=0.0204134


Tree=5
num_leaves=55
num_cat=0
split_feature=67 67 67 67 67 53 65 67 68 67 65 68 67 16 16 53 6 68 68 6 48 67 65 6 65 17 65 17 17 6 6 67 16 6 67 6 75 6 16 71 16 4 6 67 75 67 12 48 67 72 17 0 48 8
split_gain=445792 111181 74043.5 24941.1 16694.4 7912.47 6539.62 2832.67 2213.78 1885.22 1082.53 1028.16 994.352 767.452 671.303 540.777 538.696 508.99 856.549 686.533 500.939 493.779 458.471 407.809 407.764 391.41 389.65 376.539 344.642 312.572 257.788 253.144 249.466 247.313 404.864 238.192 232.148 257.581 220.454 214.633 193.719 191.501 200.55 190.403 259.432 187.114 178.699 176.185 175.588 175.252 175.123 174.655 174.069 173.531
threshold=29.635407066052231 18.553686635944704 46.278571428571432 12.624423963133642 25.388600288600291 34.774725274725277 20.82112714275021 39.016666666666673 5.5000000000000009 21.370967741935488 41.066350400479088 7.5000000000000009 27.502995391705074 0.81174490092936691 0.81174490092936691 32.532967032967044 1278.5000000000002 11.500000000000002 18.500000000000004 1694.5000000000002 37.500000000000007 36.16193036354327 31.28449453551913 1590.5000000000002 29.748630136986304 -0.60785761079279388 42.346063515233183 -0.60785761079279388 -0.60785761079279388 1894.5000000000002 2038.5000000000002 54.622119815668206 0.81174490092936691 1190.5000000000002 23.283870967741937 795.50000000000011 2.5000000000000004 1214.5000000000002 -0.22252093395631442 44.750000000000007 0.81174490092936691 146.50000000000003 2190.5000000000005 33.691705069124431 2.5000000000000004 54.150614439324123 326.50000000000006 21.500000000000004 54.913824884792632 61.45000000000001 1.0000000180025095e-35 56.500000000000007 54.500000000000007 257.50000000000006
decision_type=2 2 2 2 2 2 2 2 2 2 2 2 2 2 2 2 2 2 2 2 2 2 2 2 2 2 2 2 2 2 2 2 2 2 2 2 2 2 2 2 2 2 2 2 2 2 2 2 2 2 2 8 2 2
left_child=1 3 5 6 9 11 27 13 47 17 16 -2 24 21 28 43 -4 -3 19 -19 33 39 36 48 -6 -8 -15 -1 -9 -26 -30 -18 41 34 -11 53 37 -14 -17 52 46 42 -10 44 -13 -25 -22 -5 -12 -29 -41 -37 -7 -20
right_child=2 4 10 8 12 7 25 14 32 20 23 15 22 26 -16 38 31 18 35 -21 40 -23 -24 45 29 -27 -28 49 30 -31 -32 -33 -34 -35 -36 51 -38 -39 -40 50 -42 -43 -44 -45 -46 -47 -48 -49 -50 -51 -52 -53 -54 -55
leaf_value=-0.033787827284800453 0.0012890235526706508 -0.011819188343908158 0.005544336679418207 -0.01482788001649952 -0.0056669489873354354 -0.00073082826240827056 -0.023147532951026534 0.0018794276537068117 -0.017536724604036488 -0.011319681726717106 0.0066399523754078413 -0.0027048738424855436 -0.0052181108198412754 0.0015964577118195117 0.00465431946108609 -0.0013864786699046888 0.0064141588148200167 -0.010343592390079459 -0.0090796542147676979 -0.0067939359320954755 -0.0076185803394787765 0.001456159946325209 -0.0011387196545381347 0.0074530874704106876 -0.0052243547954700393 -0.026702850296292071 0.0037846720812776055 -0.039576942067342344 0.0027073523459161543 -0.0026205261492709586 0.0039720749125667365 0.0072085364808595403 -0.012923641853586359 -0.008291586561984433 -0.0069715424271879238 -0.012168756605687029 -0.0024001965213235926 -0.0036750367556214526 -0.00012487300053578323 0.0001631451559738284 -0.005113991615993187 -0.014851588767314712 -0.014190476576105015 -0.00074472925660063014 -0.00092059932431040072 0.0082715129279926115 -0.0041879400703024334 -0.019737575992244377 0.0077251101142992995 -0.034520432820989828 0.0013904965186734087 -0.009563214159842499 0.00059747727343681519 -0.015950006974380575
leaf_weight=10588.179883271456 70608.207785129547 77336.400161117315 212493.82585573196 3285.6372357904911 210504.71085095406 96737.114561796188 19767.414749711752 135500.42347049713 28333.472405433655 31124.575761318207 241858.43232107162 151919.66618096828 58640.300005912781 77359.417739152908 91930.452792644501 100567.16513848305 440701.48930358887 41940.630244553089 25768.58319568634 49657.68480682373 88790.448788225651 333009.95866787434 29738.2336769104 234499.12101745605 38635.236236095428 39951.783200547099 60391.189355134964 17075.186627425253 208367.39053177834 38256.152740478516 99174.049247741699 270482.11068725586 19031.754837751389 130441.97387766838 12569.1504997015 63022.578124523163 42485.354943275452 195644.58066558838 135448.18696427345 89353.766204237938 19023.855780333281 73923.04434466362 10414.11971282959 39052.720737934113 43742.446170330048 233438.44479370117 6839.8495397567749 70542.434476643801 84074.105415344238 3966.9440856277943 105805.70371031761 13096.654606103897 71483.860710740089 1636.0645523071289
leaf_count=2424 2333 4486 3980 533 7528 2095 2424 2332 2746 2443 3088 5267 3021 1261 1162 2149 3672 2847 1014 1576 3665 5325 684 1700 1783 6046 795 5158 3540 840 1116 2024 1208 5013 676 4072 1172 4744 2570 1780 641 5148 580 1626 1047 1508 183 6725 968 888 1858 660 1296 100
internal_value=2.08774e-06 -0.00947266 0.0038464 -0.0206342 -0.00665282 0.0010813 -0.0295095 0.00190737 -0.0166887 -0.00919746 0.00692205 -0.00100793 -0.00432637 0.00116375 0.0030668 -0.00135248 0.00644676 -0.0104158 -0.00985918 -0.00841984 -0.00804783 0.000888352 -0.00355545 0.00747501 -0.00520211 -0.0255286 0.00255592 -0.037019 0.00273733 -0.00392918 0.00311527 0.00671634 -0.0151005 -0.00873818 -0.0100701 -0.0111321 -0.00379759 -0.004031 -0.000662471 0.000367985 -0.00699889 -0.0154675 -0.0166398 -0.00204628 -0.00230602 0.00786148 -0.0073735 -0.0195204 0.00692001 -0.0386343 0.000828577 -0.0117213 -0.000166377 -0.00949338
internal_weight=5.10003e+06 1.47203e+06 3.628e+06 296880 1.17515e+06 1.91045e+06 91349.5 1.36911e+06 205530 561248 1.71755e+06 541338 613905 834141 534972 470730 923677 272459 195122 91598.3 288790 696390 326508 793870 287396 59719.2 137751 31630.3 443042 76891.4 307541 711184 131702 174136 43693.7 103524 296770 254285 236015 363380 114654 112671 38747.6 234715 195662 467938 95630.3 73828.1 325933 21042.1 195159 76119.2 168221 27404.6
internal_count=135520 81028 54492 33880 47148 37552 16940 22560 16940 27376 16940 14992 19772 14410 8150 12659 9676 14755 10269 4423 12621 12354 9621 7264 10151 8470 2056 8470 6988 2623 4656 5696 9682 8132 3119 5846 8937 7765 4719 7029 4489 8474 3326 7940 6314 3208 3848 7258 4056 6046 3638 4732 3391 1114
is_linear=0
shrinkage=0.0204134


Tree=6
num_leaves=55
num_cat=0
split_feature=67 67 67 67 67 67 65 48 68 67 67 65 67 15 15 6 68 68 6 48 65 15 6 6 65 15 64 15 6 51 51 7 72 6 6 67 15 75 6 6 75 6 51 75 67 67 6 6 67 0 0 8 67 11
split_gain=426243 104393 71710.7 23133 15804.6 7601.14 6026.53 2093.88 2062.43 1776.91 1692.83 1056.36 945.509 690.653 650.323 524.696 478.406 806.477 647.817 473.166 437.294 435.38 401.659 398.436 387.276 361.529 347.834 333.248 297.478 278.894 257.413 255.001 252.426 252.238 233.216 381.388 233.17 232.864 228.234 223.849 221.162 244.958 210.457 187.24 183.034 179.288 172.524 172.286 171.806 167.416 164.051 163.058 160.515 160.338
threshold=29.635407066052231 18.553686635944704 46.278571428571432 12.624423963133642 25.388600288600291 35.963133640553004 20.82112714275021 48.500000000000007 5.5000000000000009 21.370967741935488 39.016666666666673 41.066350400479088 27.502995391705074 1.0000000180025095e-35 1.0000000180025095e-35 1278.5000000000002 11.500000000000002 18.500000000000004 1694.5000000000002 37.500000000000007 31.28449453551913 1.0000000180025095e-35 1902.5000000000002 1590.5000000000002 29.748630136986304 4.5000000000000009 1.0000000180025095e-35 4.5000000000000009 1894.5000000000002 35.866071428571438 36.419642857142868 2.5000000000000004 15.15 2038.5000000000002 1190.5000000000002 23.283870967741937 1.0000000180025095e-35 1.5000000000000002 1164.5000000000002 795.50000000000011 2.5000000000000004 1214.5000000000002 40.491071428571438 1.0000000180025095e-35 54.150614439324123 16.861739514965326 1606.5000000000002 1814.5000000000002 54.457066052227347 99.500000000000014 56.500000000000007 257.50000000000006 54.622119815668206 360.50000000000006
decision_type=2 2 2 2 2 2 2 2 2 2 2 2 2 2 2 2 2 2 2 2 2 2 2 2 2 2 2 2 2 2 2 2 2 2 2 2 2 2 2 2 2 2 2 2 2 2 2 2 2 8 8 2 2 2
left_child=1 3 5 6 9 7 26 38 49 16 21 15 24 42 -12 -4 46 18 -18 34 40 -7 30 48 -6 -8 31 33 -26 -23 -15 -1 -17 -16 35 -11 -10 -24 -2 51 41 -14 -9 -21 -25 -38 -3 -32 -13 -5 -41 -19 -34 -43
right_child=2 4 11 8 12 10 25 13 36 19 14 23 20 22 27 32 17 39 -20 43 -22 29 37 44 28 -27 -28 -29 -30 -31 47 -33 52 -35 -36 -37 45 -39 -40 50 -42 53 -44 -45 -46 -47 -48 -49 -50 -51 -52 -53 -54 -55
leaf_value=-0.020791147275155197 -0.002621232552220569 -0.012560918607145767 0.0054543386893913066 -0.019078134693467735 -0.0055291792800417584 0.0026944536660219441 -0.025753230649934497 0.0015848154188756115 -0.012552068389835499 -0.011004723789679248 0.0045677437594782537 0.0064393489061479701 -0.0050928025825774078 -0.0013558511263858878 0.0026512532847920434 0.0055000410133851209 -0.010061788698271318 -0.0088392882168994626 -0.006623820158431065 -0.006349648750599424 -0.0011145532906810165 0.00032319594797160125 0.00093766343325585452 0.0073434656219254855 -0.0050988820150685453 -0.022360427248344986 -0.038013864003437314 0.0018393452488342503 -0.0025621956175686886 0.0014485139444299032 0.00026731483020655519 -0.034106205614964788 0.0064730972107640613 0.0039027445109940133 -0.0080760912526455075 -0.0067962520178174663 -0.01580514624178142 -0.0005834236336286076 -0.0014052418622888809 -0.011824094112693967 -0.0023471352227132846 -0.0036633961932083705 0.0049010154930727023 -0.0082601888697913153 0.008155370940761509 -0.014169196242434486 -0.010618141011616431 -0.0020897864691082251 0.0074051453802458393 -0.013801636331548158 -0.0093072751381469056 -0.015466430113197696 0.007135153884395797 0.0010847554207458084
leaf_weight=657.60022139549255 106869.9634822607 34813.446644097567 211600.12844228745 72047.546416014433 211337.10256695747 88697.542159795761 40573.020132273436 85670.941728591919 19193.629599809647 31359.545298993587 91956.932055473328 198060.12340164185 58854.560168504715 106709.42561924458 209202.04997849464 75926.928009033203 42232.268400222063 25927.48637342453 49891.022212982178 86703.340910613537 29762.696181297302 127949.01823019981 178582.56084251404 233155.33662414551 38776.564042568207 20042.842692166567 14202.832669056952 135907.60578346252 38327.766731262207 324628.07666289806 114055.87711155415 17383.023143962026 369999.74987792969 98878.574096679688 131181.1950442791 12629.669818282127 57790.894005000591 54806.547794342041 161626.64182186127 63530.489140689373 42558.321057319641 193146.90705108643 8789.2662734985352 28504.029839873314 231945.3250579834 56001.39334654808 43130.066212654114 14566.428598403931 126144.38669013977 2676.3762241601944 13181.384376347065 1652.7973690032959 261602.82536315918 3007.1664123535156
leaf_count=72 4402 2634 3980 7090 7528 1420 6046 1421 1208 2443 1208 2628 3021 2786 3722 704 2847 1014 1576 3239 684 3438 2785 1700 1783 2424 3966 2424 840 5100 2228 4432 3032 1116 5013 676 4710 992 4117 4072 1172 4696 89 1250 1508 3764 1852 304 1428 168 660 100 1960 48
internal_value=2.4292e-06 -0.0092218 0.0037792 -0.0199622 -0.0064871 0.00106012 -0.0284323 -0.000405885 -0.0161747 -0.00895348 0.00219197 0.00681731 -0.00422507 0.000301344 0.0030052 0.00634674 -0.0101318 -0.00959369 -0.00820047 -0.00783999 -0.00347404 0.00138671 -1.95783e-05 0.00736522 -0.00507726 -0.0246338 -0.0355671 0.00268152 -0.00383823 0.00113038 -0.000614665 -0.0336283 0.00661358 0.00305299 -0.00850873 -0.00979758 -0.014648 0.000580462 -0.00188929 -0.0108238 -0.00371001 -0.0039374 0.00189368 -0.00682277 0.00774847 -0.0150009 -0.0114868 2.84805e-07 0.00681527 -0.0188903 -0.0113924 -0.00923987 0.00674738 -0.00359057
internal_weight=5.09841e+06 1.48108e+06 3.61733e+06 300569 1.18051e+06 1.9089e+06 92859.3 831678 207710 564737 1.07722e+06 1.70843e+06 615771 563181 535945 919130 274359 196415 92123.3 290378 327330 541275 468721 789305 288441 60615.9 32243.5 443988 77104.3 452577 235332 18040.6 707530 308081 175170 43989.2 132986 233389 268497 104292 297567 255009 94460.2 115207 465101 113792 77943.5 128622 324205 74723.9 76711.9 27580.3 631603 196154
internal_count=135520 81028 54492 33880 47148 37552 16940 19124 16940 27376 18428 16940 19772 10605 8470 9676 14755 10269 4423 12621 9621 9958 9095 7264 10151 8470 8470 7262 2623 8538 5318 4504 5696 4838 8132 3119 9682 3777 8519 5846 8937 7765 1510 4489 3208 8474 4486 2532 4056 7258 4732 1114 4992 4744
is_linear=0
shrinkage=0.0204134


Tree=7
num_leaves=55
num_cat=0
split_feature=67 67 67 67 67 53 65 67 65 67 65 68 65 15 15 6 53 6 67 67 68 68 6 48 6 65 15 65 15 15 72 6 6 67 6 15 6 71 9 72 15 67 16 9 67 17 6 15 48 67 2 6 15 67
split_gain=407594 98065 69440.4 21503.6 14966.9 7319.43 4677.81 2630.09 2444.15 1675.56 1030.53 948.815 900.97 714.005 628.17 510.936 499.374 462.665 458.612 450.351 449.916 759.666 611.521 447.107 389.166 371.831 330.276 324.195 321.086 249.553 245.895 240.908 220.009 359.429 219.881 212.369 210.472 202.844 201.475 201.417 180.372 178.989 171.048 169.663 168.627 165.725 164.083 190.778 164.024 162.941 205.56 161.971 159.048 156.57
threshold=29.635407066052231 18.553686635944704 46.278571428571432 11.540783410138252 25.388600288600291 34.774725274725277 20.82112714275021 39.016666666666673 20.82112714275021 21.370967741935488 41.066350400479088 7.5000000000000009 23.267123287671236 1.0000000180025095e-35 1.0000000180025095e-35 1278.5000000000002 33.434065934065941 1302.5000000000002 36.16193036354327 14.152934878741332 11.500000000000002 18.500000000000004 1694.5000000000002 37.500000000000007 1590.5000000000002 42.346063515233183 4.5000000000000009 31.28449453551913 4.5000000000000009 4.5000000000000009 15.15 2038.5000000000002 1190.5000000000002 23.283870967741937 1182.5000000000002 4.5000000000000009 795.50000000000011 44.750000000000007 202.50000000000003 62.250000000000007 1.0000000180025095e-35 54.150614439324123 -0.22252093395631442 10.500000000000002 54.913824884792632 -1.0000000180025095e-35 1638.5000000000002 4.5000000000000009 54.500000000000007 28.008017967695391 1.6299585714285716 1606.5000000000002 1.0000000180025095e-35 54.622119815668206
decision_type=2 2 2 2 2 2 2 2 2 2 2 2 2 2 2 2 2 2 2 2 2 2 2 2 2 2 2 2 2 2 2 2 2 2 2 2 2 2 2 2 2 2 2 2 2 2 2 2 2 2 2 2 2 2
left_child=1 3 5 6 9 11 26 13 39 20 15 -2 -6 25 -9 -4 34 49 37 38 51 22 -22 32 44 -7 -1 -19 31 -8 -17 -16 33 -11 -13 -21 -23 48 -10 46 -25 -26 -18 -42 -12 -39 -5 -48 -15 -14 -51 -3 -24 -32
right_child=2 4 10 8 12 7 29 14 19 23 24 16 17 18 28 30 42 27 -20 35 21 36 52 40 41 -27 -28 -29 -30 -31 53 -33 -34 -35 -36 -37 -38 45 -40 -41 43 -43 -44 -45 -46 -47 47 -49 -50 50 -52 -53 -54 -55
leaf_value=-0.035670303681944418 0.001241543778659097 -0.01220233189798001 0.0053654155601068464 -0.015293680434541641 -0.0051449326690966779 0.001527272372984179 -0.025275509349638105 0.0044979340920816976 -0.019383032769695614 -0.010700578566073513 0.0064358524820040701 -0.0025551341742113729 -0.0058112397912847861 -0.00071424850848099809 0.0026085628360252916 0.0054105751779950379 -0.0011873400783328257 -0.0033829641178804832 0.0014020773320713978 -0.018095770801017416 -0.0097893707098281515 -0.0089945477503319705 -0.0036278090823518745 -0.0048401357150649384 0.0072348047350346461 0.0036690618536741374 -0.031218328526329161 -0.0013037972709846464 0.0018085871961743434 -0.022142043609881642 0.0063727872345450383 0.0038344164211183097 -0.007867285581102541 -0.0066261317748152002 -0.0013873547059246902 -0.015573881124479426 -0.011074990492497621 0.00015352603350237093 -0.023297986176398146 -0.012056489750156369 -0.0028135157120133666 0.0080400836539109895 5.4439697861191305e-05 -0.0071859456345610305 0.0075052582832493553 0.0013480414334703216 -0.012908825081080915 -0.01568338366294934 0.00057530868978059794 -0.006791509344058564 -0.0035085084151502345 -0.010327108852430347 -0.0069268596681126577 0.0070283747848467089
leaf_weight=21870.014592327178 70481.416238307953 35102.115011304617 210725.19237995148 45414.336991280317 228219.46761345863 77154.674697637558 33500.247266218066 91292.7082695961 30415.673490971327 31590.297260344028 239415.53957271576 109608.77066963911 37983.538827061653 96792.125687360764 207538.50018310547 75610.247848510742 81470.834503889084 260163.64813613892 332325.15236973763 44068.183722406626 42518.588684409857 27752.694155216217 7120.3750762939453 19177.119455724955 231839.91203308105 60094.435329675674 10983.151762455702 35528.697242736816 135128.47020292282 16299.204753905535 368170.93414306641 98589.266632080078 131906.53165221214 12689.03343462944 173689.78946900368 20965.139195501804 77293.958700954914 89322.749665439129 6922.9004454612732 18749.27589058876 3862.9181385040283 230483.76902770996 106826.50905907154 92710.396947920322 83097.369318008423 105635.29823124409 40946.104032516479 14075.26676940918 71425.75833261013 9610.6977317333221 46094.636813163757 43437.248770713806 42999.517108917236 260170.87434387207
leaf_count=6046 2333 2634 3980 4346 7871 1261 5070 1162 3320 2443 3088 4815 2343 2095 3540 704 1680 6204 5325 4026 2847 1114 176 641 1700 795 2424 696 2332 2032 3032 1116 5013 676 4201 1616 4732 1780 876 1112 100 1508 1963 3748 968 1858 2132 880 1296 1408 1250 1852 1400 1960
internal_value=2.74827e-06 -0.00897884 0.00371297 -0.0193181 -0.00632619 0.00103935 -0.0282043 0.00183615 -0.0160024 -0.0087173 0.00671357 -0.000967509 -0.00412643 0.00111965 0.00295652 0.00624777 -0.00129767 -0.0035294 0.000854104 -0.0183171 -0.00985723 -0.00933688 -0.00798794 -0.00763853 0.00725638 0.00246518 -0.0341882 -0.00313318 0.00263755 -0.0242529 0.00651184 0.00300342 -0.00828651 -0.00953408 -0.00183922 -0.0172844 -0.0105259 0.000352663 -0.0201127 -0.0140133 -0.00665183 0.00763637 -0.000482864 -0.00701124 0.00671153 0.00080078 -0.0143779 -0.0136203 -0.000166698 -0.00477962 -0.00407562 -0.0111661 -0.00645869 0.00664431
internal_weight=5.09686e+06 1.48997e+06 3.60689e+06 304209 1.18576e+06 1.90738e+06 82652.6 1.3653e+06 221557 568161 1.69951e+06 542077 617601 832750 532549 914677 471596 389381 695501 102372 276224 197685 92638.5 291936 784837 137249 32853.2 295692 441256 49799.5 703952 306128 176186 44279.3 283299 65033.3 105047 363176 37338.6 119185 115750 462324 188297 96573.3 322513 194958 100436 55021.4 168218 93688.9 55705.3 78539.4 50119.9 628342
internal_count=135520 81028 54492 33880 47148 37552 15572 22560 18308 27376 16940 14992 19772 14410 8150 9676 12659 11901 12354 9838 14755 10269 4423 12621 7264 2056 8470 6900 6988 7102 5696 4656 8132 3119 9016 5642 5846 7029 4196 8470 4489 3208 3643 3848 4056 3638 7358 3012 3391 5001 2658 4486 1576 4992
is_linear=0
shrinkage=0.0204134


Tree=8
num_leaves=55
num_cat=1
split_feature=67 67 67 67 67 67 65 65 53 67 67 65 67 15 15 6 48 67 15 65 6 1 65 6 65 15 7 15 53 15 6 6 67 6 15 69 65 65 67 53 75 6 6 67 6 75 15 9 15 67 75 67 53 6
split_gain=389800 92163.8 67231.6 19962.4 14177.8 7034.8 4313.24 2280.11 2113.28 1580.58 1572.68 1005.07 873.891 608.35 513.903 497.414 422.621 418.855 405.789 401.908 387.162 411.899 431.056 380.003 353.957 310.427 306.775 291.323 286.894 274.882 274.715 240.329 237.64 236.855 230.715 214.836 227.259 226.48 210.482 209.823 208.111 227.195 207.631 338.876 198.052 233.481 197.816 186.943 177.202 174.982 173.956 164.826 160.484 163.009
threshold=29.635407066052231 18.553686635944704 46.278571428571432 11.540783410138252 25.388600288600291 35.963133640553004 20.82112714275021 20.82112714275021 33.950549450549453 21.370967741935488 39.016666666666673 41.066350400479088 27.502995391705074 1.0000000180025095e-35 1.0000000180025095e-35 1278.5000000000002 37.500000000000007 14.152934878741332 1.0000000180025095e-35 31.28449453551913 1574.5000000000002 0 41.066350400479088 1590.5000000000002 29.748630136986304 4.5000000000000009 2.5000000000000004 4.5000000000000009 35.752747252747263 1.0000000180025095e-35 1894.5000000000002 1182.5000000000002 53.760368663594477 1926.5000000000002 4.5000000000000009 38.500000000000007 43.220378583726337 18.031849315068495 32.90956803053578 40.84065934065935 2.5000000000000004 1214.5000000000002 1190.5000000000002 23.283870967741937 1926.5000000000002 1.5000000000000002 4.5000000000000009 200.50000000000003 1.0000000180025095e-35 54.150614439324123 1.0000000180025095e-35 54.457066052227347 36.818681318681321 1478.5000000000002
decision_type=2 2 2 2 2 2 2 2 2 2 2 2 2 2 2 2 2 2 2 2 2 1 2 2 2 2 2 2 2 2 2 2 2 2 2 2 2 2 2 2 2 2 2 2 2 2 2 2 2 2 2 2 2 2
left_child=1 3 5 6 9 8 26 48 31 20 18 15 24 -12 39 -4 42 47 -7 40 35 29 -23 51 -6 33 -1 -28 -20 -22 -26 38 -17 -15 -8 36 -3 -37 -2 -10 41 -14 43 -11 52 -46 -19 -9 -5 -25 -18 -13 -16 -54
right_child=2 4 11 7 12 10 34 17 14 16 13 23 19 25 44 32 50 46 28 -21 21 22 -24 49 30 -27 27 -29 -30 -31 -32 -33 -34 -35 -36 37 -38 -39 -40 -41 -42 -43 -44 -45 45 -47 -48 -49 -50 -51 -52 -53 53 -55
leaf_value=-0.019010977222752821 -0.0032210837529409392 -0.011386494040432365 0.0052775674039397744 -0.011807796972751194 -0.0052767103152794228 0.0025994501672974863 -0.02439200862134042 -0.018731014653278307 0.0015930055089376229 -0.010406775729713099 0.0044136168599360447 0.0062389685851707167 -0.0048637742485698578 0.0024905719267568935 -0.0013360897604110082 0.0060118159806627708 -0.0060316798937259568 -0.017524640904467221 0.0003064839291236577 -0.0010499965373727937 -0.0040893568913579524 -0.010409038419755797 -0.007628894158060404 0.0071271163879234479 -0.0048714472292865837 0.0017697937734750125 -0.034558188447158453 -0.030366371933087364 0.0014259019807007433 -0.0080784388648499923 -0.0024401826883538136 -0.0012029777893438314 0.0067660865622536899 0.0036546779581956945 -0.021399468250274594 -0.010282757951853164 -0.0079386744253400962 -0.0066474227371982773 -0.0015458295100424636 0.0048834107545752559 -0.00221579319087126 -0.0034216418726677432 -0.007664910564607226 -0.0064609936117783415 0.00095183577507570441 -0.00060961638399274461 -0.015103131026596649 -0.02238829425485089 -0.013948883946511585 0.0079256679317778137 -0.0078638698703006639 0.0071899712986748729 0.00082720047072885503 -0.00060179127927375696
leaf_weight=680.17698383331299 58227.132346153259 76136.62096875906 209868.62284851074 19527.326264023781 212881.64672136307 88357.804677963257 33999.997837468982 30326.161527007818 71760.348932027817 31816.884448051453 91331.031296253204 196118.91021490097 59250.428972005844 187500.42892932892 47670.09355443716 329667.08854675293 87479.7370634377 44570.400043040514 136861.11272549629 29828.08983373642 8890.9226264953613 80960.01270866394 32737.041472434998 230552.24963378906 39035.442375421524 135541.99423217773 21808.868599444628 10970.613635033369 314975.62602388859 38280.637519836426 38478.494697570801 220070.7935333252 370782.87971496582 119192.32726287842 16518.441388428211 21241.317072153091 8971.2367329597473 10838.790362656116 67501.825214266777 9096.2560386657715 42740.02618598938 197181.42939186096 132618.20260596275 12747.261227816343 171452.93957519531 52004.04896736145 21175.283884167671 7476.4601553082466 100745.46078664064 229053.10482788086 28802.987698197365 124738.05392551422 60569.00573527813 73774.288576126099
leaf_count=72 2568 5880 3980 1208 7528 1420 5070 3272 1199 2443 1208 2628 3021 3466 1697 2828 3239 4026 3542 684 232 3532 1156 1700 1783 2424 5994 2404 4996 1384 840 5228 2868 1372 2032 1475 516 580 2253 91 1172 4744 5013 676 2663 944 1616 924 7262 1508 1250 1428 1138 1343
internal_value=3.04491e-06 -0.00874349 0.0036477 -0.0187007 -0.00616991 0.00101896 -0.0271881 -0.0155156 -0.000389842 -0.00848861 0.00211073 0.00661086 -0.00403035 0.0028968 0.000477611 0.00614984 -0.00744322 -0.0177373 0.00133428 -0.00330985 -0.00959174 -0.00894023 -0.00960817 0.00714852 -0.00484655 0.00258349 -0.0328773 -0.0331614 0.00108684 -0.00732567 -0.00366485 -0.0016098 0.00641115 0.00294305 -0.0234163 -0.0104856 -0.0110237 -0.00905604 -0.00232179 0.00196352 -0.00353513 -0.00375497 -0.00807124 -0.00927918 0.000181273 0.00058844 -0.0167462 -0.0194579 -0.0136019 0.00752519 -0.00648591 0.00660882 -0.000318606 4.24817e-05
internal_weight=5.09538e+06 1.49872e+06 3.59667e+06 307799 1.19092e+06 1.90589e+06 83978.1 223821 832127 571522 1.07376e+06 1.69078e+06 619396 533566 486327 910319 293465 103548 540195 329000 278057 160869 113697 780462 290396 442235 33459.7 32779.5 451837 47171.6 77513.9 345800 700450 306693 50518.4 117188 85107.9 32080.1 125729 80856.6 299172 256432 177182 44564.1 405470 223457 65745.7 37802.6 120273 459605 116283 320857 182013 134343
internal_count=135520 81028 54492 33880 47148 37552 15572 18308 19124 27376 18428 16940 19772 8470 9075 9676 12621 9838 9958 9621 14755 6304 4688 7264 10151 7262 8470 8398 8538 1616 2623 10049 5696 4838 7102 8451 6396 2055 4821 1290 8937 7765 8132 3119 7785 3607 5642 4196 8470 3208 4489 4056 4178 2481
cat_boundaries=0 1
cat_threshold=2
is_linear=0
shrinkage=0.0204134


Tree=9
num_leaves=55
num_cat=1
split_feature=67 67 67 67 67 67 65 65 53 67 67 65 67 15 15 6 48 63 65 15 67 65 67 65 15 64 71 53 6 72 6 6 6 1 7 15 48 65 2 75 6 6 67 72 2 15 6 65 6 19 15 12 67 6
split_gain=372818 86656.9 65083 18544.5 13434.2 6764.43 3980.1 2128.59 2025.66 1516.43 1491.57 979.973 831.456 588.24 494.12 484.128 399.623 394.684 415.951 390.874 389.828 383.501 372.712 336.396 299.546 283.966 280.284 275.881 261.87 238.592 229.766 228.92 220.073 241.431 215.605 213.454 204.809 204.261 200.451 198.36 216.187 196.023 319.63 187.768 187.311 184.384 183.868 181.237 179.707 173.949 168.097 162.336 154.444 154.098
threshold=29.635407066052231 18.553686635944704 46.278571428571432 11.540783410138252 25.388600288600291 35.963133640553004 20.82112714275021 20.82112714275021 33.950549450549453 39.016666666666673 21.370967741935488 41.066350400479088 27.502995391705074 1.0000000180025095e-35 1.0000000180025095e-35 1278.5000000000002 37.500000000000007 5.9436815545737902 43.220378583726337 1.0000000180025095e-35 14.152934878741332 31.28449453551913 53.082949308755765 29.748630136986304 4.5000000000000009 1.0000000180025095e-35 43.250000000000007 35.752747252747263 1878.5000000000002 15.15 1182.5000000000002 2038.5000000000002 1590.5000000000002 0 2.5000000000000004 4.5000000000000009 56.500000000000007 23.925645632158098 1.9246557142857144 2.5000000000000004 1214.5000000000002 1190.5000000000002 23.283870967741937 61.45000000000001 2.9458078571428579 4.5000000000000009 1286.5000000000002 24.557817763305639 1582.5000000000002 -0.28519255817492867 1.0000000180025095e-35 326.50000000000006 32.90956803053578 1638.5000000000002
decision_type=2 2 2 2 2 2 2 2 2 2 2 2 2 2 2 2 2 2 2 2 2 2 2 2 2 2 2 2 2 2 2 2 2 1 2 2 2 2 2 2 2 2 2 2 2 2 2 2 2 2 2 2 2 2
left_child=1 3 5 6 10 8 25 43 30 19 17 15 23 -11 36 -4 41 18 32 -7 49 39 48 -6 31 34 44 -21 -25 -17 37 -15 38 -34 -1 -8 -10 52 -3 40 -14 42 -12 53 -16 -22 -24 -19 -13 -9 -18 -52 -2 -5
right_child=2 4 11 7 12 9 35 20 14 13 16 22 21 24 26 29 50 47 -20 27 45 -23 46 28 -26 -27 -28 -29 -30 -31 -32 -33 33 -35 -36 -37 -38 -39 -40 -41 -42 -43 -44 -45 -46 -47 -48 -49 -50 -51 51 -53 -54 -55
leaf_value=-0.018407902971623084 -0.003825875045425062 -0.012083188070186154 0.0051907939092352366 -0.014458968200817249 -0.0051497809070864004 0.0025513666821354716 -0.023548820737980057 -0.022534848267118907 0.0012469723220072321 0.0043380821712741295 -0.010122869412037791 0.0060090203537404401 -0.0047481160016021873 0.0025058987832981597 -0.0011966242744385687 0.0052220657759330024 -0.0045823612041538241 -0.0076240887914018184 -0.006836230086258754 0.00030029575731025981 -0.01697670330609773 -0.0010277790452927925 0.0066301852458030188 -0.0047970104140244501 0.0017359593466161655 -0.033778377554096954 0.00065293634980135738 0.0013982784171450971 -0.0024255880414396701 0.0064426939229704381 -0.0011773883706638606 0.0037027214667971122 -0.0075066216192881726 -0.0097104973278899828 -0.030352480270525815 -0.020689287851016827 0.0034827064012015055 -0.0013000168905666629 -0.010007069927657597 -0.0021670919905256154 -0.003343589691414438 -0.0074687194368422988 -0.0063006584180376165 -0.011422400401969804 0.00014170853778372648 -0.014650476818308729 0.007652920963832281 -0.0028141674662294364 0.0069571756839721865 -0.018301066744676853 -0.0069008556308176178 -0.0036583812503386687 -0.0019442287666570403 -0.012839523122604321
leaf_weight=688.24254465103149 39844.04952943325 25718.003340393305 209030.03339242935 45443.318187743425 213667.85693609715 88187.231158494949 34493.521754473448 4754.1021153330803 56214.384291410446 91027.713767051697 32039.362610161304 151700.45607328415 59452.773831605911 207983.33580541611 75916.347266554832 74952.405746459961 19323.932045936584 20925.525872051716 21261.231871724129 136830.48346102238 45064.759335368872 29850.729819297791 93543.865659713745 37843.863293886185 135364.92454481125 15028.899257622659 227212.12960261106 314644.93593919277 39870.749652862549 622069.55319213867 220261.94701647758 98036.894805908203 26851.348320960999 99943.238129138947 18343.813144400716 16734.62313953042 24524.409136295319 52624.950272262096 81276.657330572605 42807.884749412537 197660.44838523865 133316.4317688942 12804.372424274683 20704.531575083733 102286.56567072868 21381.945274472237 344740.35111999512 3879.2694101333618 186195.65928649902 33505.717210263014 90530.307911515236 6950.9518604278564 33468.472732067108 55195.102830886841
leaf_count=72 1840 3706 3980 4274 7528 1420 5070 600 958 1208 2443 2136 3021 3722 1790 704 641 963 900 3542 4026 684 1396 1751 2424 3966 4174 4996 872 4992 5228 1116 942 4204 4432 2032 332 1739 3944 1172 4744 5013 676 1224 1821 1616 2340 96 1392 3596 3665 183 1242 2972
internal_value=3.32066e-06 -0.00851545 0.00358339 -0.0181085 -0.0060181 0.000998958 -0.0262196 -0.0150475 -0.000381764 0.00207094 -0.00826711 0.00650917 -0.00393678 0.00284389 0.000468041 0.00605297 -0.00725382 -0.00933493 -0.00957421 0.00130835 -0.0171811 -0.00323461 0.00704163 -0.00473137 0.00253568 -0.0316322 0.000177603 0.00106552 -0.00358067 0.00631149 -0.0015751 0.00288938 -0.00982302 -0.00924554 -0.0299268 -0.0226174 0.0019263 -0.00227059 -0.0105068 -0.00345423 -0.00366847 -0.00786265 -0.00903254 -0.0132055 -0.000428458 -0.0162296 0.00743473 -0.00687276 0.00653162 -0.0188308 -0.00632481 -0.0066699 -0.00296711 -0.0135716
internal_weight=5.09397e+06 1.50731e+06 3.58666e+06 311339 1.19597e+06 1.90443e+06 85289.1 226049 832353 1.07208e+06 574821 1.68223e+06 621154 532413 486154 906052 294965 279855 255050 539663 104707 329772 776180 291382 441385 34061 405415 451475 77714.6 697022 346199 306020 233789 126795 19032.1 51228.1 80738.8 125937 106995 299921 257113 178160 44843.7 121343 178203 66446.7 438284 24804.8 337896 38259.8 116805 97481.3 73312.5 100638
internal_count=135520 81028 54492 33880 47148 37552 15572 18308 19124 18428 27376 16940 19772 8470 9075 9676 12621 14755 13696 9958 9838 9621 7264 10151 7262 8470 7785 8538 2623 5696 10049 4838 12796 5146 4504 7102 1290 4821 7650 8937 7765 8132 3119 8470 3611 5642 3736 1059 3528 4196 4489 3848 3082 7246
cat_boundaries=0 1
cat_threshold=2
is_linear=0
shrinkage=0.0204134


Tree=10
num_leaves=55
num_cat=0
split_feature=67 67 67 67 67 53 65 67 65 67 65 68 67 15 15 6 53 65 67 68 68 6 53 67 67 65 15 15 65 6 15 72 6 69 6 65 16 15 6 71 72 6 74 67 75 6 15 15 9 15 19 68 65 15
split_gain=356610 81515.8 62993.6 17238.1 12733.2 6515.67 3674.88 2350.54 1988.31 1408.09 955.258 849.365 792.58 638.971 568.013 471.083 441.305 416.497 410.029 389.985 665.962 533.152 378.534 363.749 363.06 350.192 288.495 284.068 269.43 263.996 235.857 232.241 219.193 219.018 208.052 276.35 200.008 197.63 197.275 186.547 183.211 179.557 179.392 176.769 239.431 175.159 171.978 166.634 164.074 158.135 158.079 157.063 200.423 156.577
threshold=29.635407066052231 18.553686635944704 46.278571428571432 11.540783410138252 25.388600288600291 34.774725274725277 20.82112714275021 39.016666666666673 20.82112714275021 21.370967741935488 41.066350400479088 7.5000000000000009 26.829493087557605 1.0000000180025095e-35 1.0000000180025095e-35 1278.5000000000002 32.532967032967044 31.28449453551913 36.16193036354327 11.500000000000002 18.500000000000004 1694.5000000000002 23.082417582417587 53.082949308755765 14.152934878741332 42.346063515233183 4.5000000000000009 4.5000000000000009 17.97197956433865 1310.5000000000002 1.5000000000000002 15.15 1926.5000000000002 35.500000000000007 1146.5000000000002 20.82112714275021 -0.22252093395631442 4.5000000000000009 795.50000000000011 44.750000000000007 7.3500000000000005 1286.5000000000002 13.500000000000002 33.691705069124431 2.5000000000000004 1582.5000000000002 4.5000000000000009 1.0000000180025095e-35 202.50000000000003 1.0000000180025095e-35 0.21022171450811275 11.500000000000002 24.557817763305639 3.5000000000000004
decision_type=2 2 2 2 2 2 2 2 2 2 2 2 2 2 2 2 2 2 2 2 2 2 2 2 2 2 2 2 2 2 2 2 2 2 2 2 2 2 2 2 2 2 2 2 2 2 2 2 2 2 2 2 2 2
left_child=1 3 5 6 9 11 28 13 40 19 15 -2 30 25 -9 -4 43 29 39 -3 21 -21 34 45 48 -7 32 49 -1 -14 -6 -17 50 -29 35 -11 -18 -8 -22 -15 -5 -25 -30 44 -13 -12 -26 -42 -10 -24 -16 -36 -53 -41
right_child=2 4 10 8 12 7 37 14 24 22 23 16 17 18 26 31 36 -19 -20 20 38 -23 27 41 46 -27 -28 33 42 -31 -32 -33 -34 -35 51 -37 -38 -39 -40 53 47 -43 -44 -45 -46 -47 -48 -49 -50 -51 -52 52 -54 -55
leaf_value=-0.032203412879211094 0.0011823386328772101 -0.010291762875010733 0.0051050943496586459 -0.015018252907391767 -0.0038592164606364525 0.001422192734631966 -0.022743660703444392 0.0042712721486474663 -0.017581364270160691 -0.0064097675581761175 0.0059136861167893911 -0.0024767845642665975 -0.0044578760559210312 -0.00016611246787445351 0.0028772839767854819 0.0051359824025299537 -0.0012869057118771075 -0.0012838691469844116 0.0013249933329143424 -0.0090166740114957997 -0.0082394035361662149 -0.0059335423012305362 -0.004045003790249367 0.0065282786354244372 -0.016450757758938932 0.0035065637065476536 0.0017070088550230705 -0.010367629134435674 -0.033045086925048768 -0.0032328275036928905 -0.0053788552868196159 0.0063426981345140378 0.0035280125245570936 -0.0066805452229976746 -0.0087109848905667069 -0.0098995684434988809 -8.6727955225090295e-05 -0.020009722477136473 -0.010233052988976431 0.0012946588998888045 -0.010719878627701279 0.0075415996577164347 -0.027434642672075137 -0.00059509309800601486 -0.00076758567918588472 0.0068520642203289154 -0.014215029998983114 -0.012893033195412061 -0.021046198945337782 -0.0060794929941048632 0.0016535976460850458 -0.0073514433626477591 -0.0051008305963706809 0.00013280837437451052
leaf_weight=18142.065950676799 70323.899616003036 80217.819305330515 208209.03148984909 14189.359991550446 61784.495144128799 76845.899799346924 34980.682456284761 90385.495676517487 31503.620160281658 13493.392711222172 151006.67777776718 153033.11153310537 98414.129560232162 168219.68849050999 113786.69698190689 74656.177505493164 100904.69618844986 37229.959247350693 331354.28062808514 43354.142257273197 28299.489229202271 50862.66797542572 20721.020019292831 93069.753952026367 45551.276085495949 59682.732069253922 134599.05990171432 10026.291981697083 3123.7113447114825 288031.48309707642 137418.42784392834 619009.91732788086 118555.68125915527 20551.156299352646 25147.725901126862 32014.207511126995 135629.77561247349 16947.720824331045 78887.687268555164 105421.81355667114 17853.809812903404 342709.02423095703 13391.747114412487 39255.616286635399 43973.052969455719 185203.13264465332 21585.147308647633 90351.038130402565 7206.5142376422882 69536.247563242912 71773.566836833954 84368.500172615051 20578.314724445343 89256.151178956032
leaf_count=4838 2333 4486 3980 1036 2048 1261 5070 1162 3320 868 2136 5267 4788 3391 1710 704 2149 896 5325 2847 1114 1576 634 1396 4026 795 2332 427 860 6888 5152 4992 1372 855 1035 2455 2570 2032 4732 1858 1064 2340 2772 1626 1047 1392 1616 6370 876 2537 1574 3182 628 1780
internal_value=3.5755e-06 -0.00829445 0.00352003 -0.0175402 -0.0058706 0.000979331 -0.0252958 0.0017342 -0.0145973 -0.00805252 0.00640851 -0.000910728 -0.00384562 0.0010569 0.00279766 0.00595717 -0.00122206 -0.00334621 0.00080583 -0.00908644 -0.00860606 -0.00735276 -0.00707011 0.00693574 -0.0166473 0.00233348 0.002494 -0.00618974 -0.0304479 -0.00354487 -0.00490766 0.00621287 0.00284227 -0.00789142 -0.00767566 -0.00886584 -0.00059874 -0.0218539 -0.00970721 0.000331779 -0.0128237 0.00732528 -0.028508 -0.00184607 -0.00209532 0.00643072 -0.0157333 -0.0125351 -0.0182297 -0.00561274 0.00240404 -0.00725892 -0.00691047 0.000761994
internal_weight=5.09263e+06 1.51576e+06 3.57686e+06 314827 1.20094e+06 1.903e+06 86585.9 1.35988e+06 228241 578059 1.67386e+06 543120 622878 830781 529101 901875 472796 423676 694252 281622 201404 94216.8 296437 771989 105847 136529 438715 120835 34657.5 386446 199203 693666 304116 30577.4 175602 45507.6 236534 51928.4 107187 362898 122394 435779 16515.5 236262 197006 336210 67136.4 108205 38710.1 90257.3 185560 130095 104947 194678
internal_count=135520 81028 54492 33880 47148 37552 15572 22560 18308 27376 16940 14992 19772 14410 8150 9676 12659 12572 12354 14755 10269 4423 12621 7264 9838 2056 6988 4453 8470 11676 7200 5696 4656 1282 8168 3323 4719 7102 5846 7029 8470 3736 3632 7940 6314 3528 5642 7434 4196 3171 3284 4845 3810 3638
is_linear=0
shrinkage=0.0204134


Tree=11
num_leaves=55
num_cat=1
split_feature=67 67 67 67 67 53 67 67 68 67 68 6 67 15 15 53 67 68 68 6 48 68 66 68 67 15 15 15 7 6 15 6 72 16 68 68 67 6 6 71 67 15 6 0 16 16 2 48 10 15 48 0 15 9
split_gain=341139 76713.4 60962.2 16039.7 12072.3 6260.87 4035.82 2265.15 1485.14 1329.69 814.487 802.259 762.455 615.11 549.088 423.055 394.181 367.418 628.318 504.046 360.36 349.983 337.578 313.726 310.48 295.551 278.33 262.355 257.255 248.506 239.485 212.181 198.739 195.262 188.785 291.516 270.709 188.745 185.85 179.134 178.135 175.543 174.989 166.533 156.976 155.224 153.994 151.508 151.125 150.496 150.409 150.4 150.339 153.457
threshold=29.635407066052231 18.553686635944704 46.278571428571432 12.624423963133642 25.388600288600291 34.774725274725277 9.3825652841781899 39.016666666666673 5.5000000000000009 21.370967741935488 7.5000000000000009 1582.5000000000002 27.502995391705074 1.0000000180025095e-35 1.0000000180025095e-35 33.434065934065941 36.16193036354327 11.500000000000002 18.500000000000004 1694.5000000000002 37.500000000000007 1.0000000180025095e-35 0 4.5000000000000009 54.150614439324123 4.5000000000000009 4.5000000000000009 4.5000000000000009 2.5000000000000004 1894.5000000000002 4.5000000000000009 2038.5000000000002 10.950000000000001 -0.56174490092936669 11.500000000000002 14.500000000000002 23.283870967741937 1182.5000000000002 795.50000000000011 44.750000000000007 54.913824884792632 1.5000000000000002 1214.5000000000002 34.500000000000007 1.0000000180025095e-35 -0.22252093395631442 2.6165885714285717 21.500000000000004 42.500000000000007 3.5000000000000004 54.500000000000007 56.500000000000007 1.0000000180025095e-35 10.500000000000002
decision_type=2 2 2 2 2 2 2 2 2 2 2 2 2 2 2 2 2 2 2 2 2 2 1 2 2 2 2 2 2 2 2 2 2 2 2 2 2 2 2 2 2 2 2 10 2 2 2 2 2 2 2 8 2 2
left_child=1 3 5 6 9 10 28 13 47 17 -2 25 23 22 -9 37 39 -3 19 -19 34 -14 -7 29 44 43 31 -8 -1 -6 -30 -16 -10 -26 -11 -36 -37 -12 -20 50 -27 -34 -23 -4 -13 -17 -18 -5 -45 -41 -15 -40 -22 -54
right_child=2 4 11 8 12 7 27 14 32 20 15 24 21 16 26 45 46 18 38 -21 52 42 -24 -25 33 40 -28 -29 30 -31 -32 -33 41 -35 35 36 -38 -39 51 49 -42 -43 -44 48 -46 -47 -48 -49 -50 -51 -52 -53 53 -55
leaf_value=-0.016900153685816023 0.0011592230371064039 -0.010011671530383461 0.0049925792087919252 -0.011926709107736756 -0.0045476884459795608 0.0034435332685903972 -0.021651612948919922 0.004197703869394046 -0.014496626704428211 -0.0089844426465031137 -0.0023535666524979442 0.0059928209620127588 -0.00097892439746851312 -0.00068649182872089129 0.0024186786517817263 -0.001116028120782107 0.0010609140424423832 -0.0087783010137293047 -0.0080255706850461024 -0.0057882716464837556 -0.0043701952703562655 -0.0041798773176606125 0.001394457185738373 -0.0049174558373421932 0.0063596532987076218 0.0060476068290089835 0.0016742952998355235 -0.018857024707369708 -0.030804288002612649 -0.0022445085589470524 -0.027103090247673496 0.0035748461138813761 -0.011022354019773433 0.0072904785472523567 -0.0053453335146493699 -0.0083761399411715343 -0.006395423044476896 -0.0012745676038400549 -0.010360570115279986 0.0012694536050190852 0.007395798785648419 -0.012785124794637625 -0.0030210550686002461 0.0058844134350572322 0.0067219268999588301 6.5999389257457365e-05 0.0021128152517583222 -0.016319589829681475 0.0035611314832925543 0.00013011020894813019 0.00054848507235917749 -0.0079938257795425238 -0.0023740073988281988 -0.0065019480014026094
leaf_weight=709.37279987335205 70262.789269924164 80773.064210236073 179252.43163824081 3506.34808832407 39410.892029047012 59526.281601428986 43538.897869437933 90095.295523166656 20254.817586064339 28799.570727944374 110321.69050037861 273630.00819396973 29900.648077487946 96884.607525348663 205965.0089058876 81668.316073656082 256046.15248155594 43619.769530147314 28458.919117450714 51072.814777374268 19446.529955983162 71136.639032125473 76765.432736635208 215123.19704329967 127666.47372436523 155765.26695299149 134429.53683233261 21385.542839378119 23003.325111009181 38722.997444152832 11536.090107567608 97507.043685913086 33010.891902327538 360318.63102722168 29269.408801913261 75185.760181128979 46794.319511324167 174351.12202239037 65794.466875463724 105321.41645753384 55604.922187805176 85853.134167581797 230275.33990859985 276057.54484939575 225157.91223144531 106869.83908617496 74985.103351593018 75465.051849156618 12218.16828918457 89247.505554556847 71355.414264321327 13636.402470350266 3917.7656011581421 94465.360531270504
leaf_count=72 2333 4486 2644 533 1783 795 6046 1162 1467 1465 4815 2292 684 2095 3540 1680 4293 2847 1114 1576 641 3517 1261 7528 1016 2048 2332 2424 5994 840 2404 1116 2060 2528 1088 3510 2069 4201 4072 1858 640 6155 5420 3856 1716 1963 1032 6725 200 1780 1296 660 100 3748
internal_value=3.81232e-06 -0.00808023 0.00345761 -0.0169946 -0.00572728 0.000960076 -0.0237567 0.00170103 -0.013888 -0.0078446 -0.00089154 0.0063089 -0.00375681 0.00103615 0.00274634 -0.00119605 0.000789858 -0.00884593 -0.00838084 -0.00716611 -0.00689192 -0.00308566 0.00228988 -0.00451497 0.00668061 0.00576856 0.00244768 -0.020733 -0.0293213 -0.00340651 -0.0295733 0.00279023 -0.0126172 0.00704704 -0.00746671 -0.00717736 -0.00761666 -0.00169276 -0.0094465 0.00032509 0.00640248 -0.0122962 -0.00329463 0.00548189 0.00632203 -0.000446035 0.00129923 -0.0161255 0.00578602 0.000746865 -0.000162702 -0.00995492 -0.00601326 -0.00633773
internal_weight=5.09134e+06 1.52407e+06 3.56727e+06 318263 1.2058e+06 1.9016e+06 100173 1.35813e+06 218090 581234 543474 1.66567e+06 624570 830132 527997 473211 693840 283355 202582 94692.6 297879 331313 136292 293257 986773 678898 437902 64924.4 35248.8 78133.9 34539.4 303472 139119 487985 180049 151249 121980 284673 107890 362809 211370 118864 301412 467528 498788 188538 331031 78971.4 288276 194569 168240 79430.9 117830 98383.1
internal_count=135520 81028 54492 33880 47148 37552 16940 22560 16940 27376 14992 16940 19772 14410 8150 12659 12354 14755 10269 4423 12621 9621 2056 10151 7552 9388 6988 8470 8470 2623 8398 4656 9682 3544 8132 6667 5579 9016 5846 7029 2688 8215 8937 6700 4008 3643 5325 7258 4056 3638 3391 4732 4489 3848
cat_boundaries=0 1
cat_threshold=2
is_linear=0
shrinkage=0.0204134


Tree=12
num_leaves=55
num_cat=1
split_feature=67 67 67 67 67 67 65 53 67 67 67 65 65 15 6 15 6 15 67 53 15 63 65 15 15 65 71 53 64 67 6 6 69 6 69 6 65 67 53 65 65 1 2 15 6 6 6 65 9 19 72 67 2 67
split_gain=326367 72224.7 58987.5 14954.4 11448.8 6023.9 3128.77 1794.55 1747.19 1355.46 1256.18 921.314 732.931 531.448 450.562 443.049 386.596 351.931 348.898 342.621 341.16 340.289 361.088 269.026 265.169 264.475 253.011 249.61 234.589 226.907 208.462 208.447 203.722 203.009 203.535 195.449 254.353 194.295 190.66 186.855 186.701 178.369 177.373 175.152 173.146 172.503 167.861 165.004 152.24 149.632 147.665 146.972 145.521 174.993
threshold=29.635407066052231 18.553686635944704 46.278571428571432 11.540783410138252 25.388600288600291 35.963133640553004 20.82112714275021 33.950549450549453 15.34846390168971 39.016666666666673 21.370967741935488 41.066350400479088 23.267123287671236 1.0000000180025095e-35 1278.5000000000002 1.0000000180025095e-35 1302.5000000000002 1.0000000180025095e-35 53.082949308755765 23.082417582417587 4.5000000000000009 5.9436815545737902 43.220378583726337 4.5000000000000009 4.5000000000000009 31.28449453551913 43.250000000000007 35.752747252747263 1.0000000180025095e-35 54.622119815668206 1182.5000000000002 1926.5000000000002 35.500000000000007 1534.5000000000002 38.500000000000007 1146.5000000000002 20.82112714275021 13.506451612903229 40.84065934065935 23.925645632158098 23.925645632158098 0 2.9458078571428579 1.0000000180025095e-35 1286.5000000000002 2126.5000000000005 1582.5000000000002 24.557817763305639 2.5000000000000004 0.21022171450811275 -9.8999999999999986 16.433168086393895 1.6299585714285716 28.008017967695391
decision_type=2 2 2 2 2 2 2 2 2 2 2 2 2 2 2 2 2 2 2 2 2 2 2 2 2 2 2 2 2 2 2 2 2 2 2 2 2 2 2 2 2 1 2 2 2 2 2 2 2 2 2 2 2 2
left_child=1 3 5 6 10 7 28 30 20 17 21 14 -6 -11 -4 38 52 -7 46 35 37 22 33 31 50 -18 42 -19 -1 45 39 49 -26 34 -3 36 -12 -5 -9 -2 -8 -35 -17 -10 -20 -16 -13 -23 -39 -15 -21 -45 -14 -54
right_child=2 4 11 8 12 9 40 15 43 13 19 18 16 23 29 26 25 27 44 24 -22 47 -24 -25 32 -27 -28 -29 -30 -31 -32 -33 -34 41 -36 -37 -38 48 -40 -41 -42 -43 -44 51 -46 -47 -48 -49 -50 -51 -52 -53 53 -55
leaf_value=-0.026737060958876596 -0.002805175621721172 -0.010347009353039786 0.004928673649812922 -0.018953681558717302 -0.0045805852719827669 0.0024181375788358489 -0.021279256186683373 0.0014724836518033315 -0.010540249629063483 0.0041178341203329753 -0.0060920629387646299 0.0057258305135114637 -0.0056278612620675392 0.0027653598504074478 0.0054119226017700145 -0.0011554028353269203 -0.0029973576303832616 0.00027686872734725528 0.0063282926579752126 -0.0082182926241227555 -0.014074535200049377 -0.0070530330947814234 -0.006300251121133825 0.0016379641337528267 -0.009893439019646226 -0.0011257701989718231 0.00061890753703585711 0.0013220353909631885 -0.030146588086475568 0.0064913413151814949 -0.0011017173399911673 0.0034050719913241026 -0.006356755321487861 -0.0072354995627912123 -0.0081571913134251602 -0.0068898421028679366 -0.0094236461604277674 -0.0075522452867607219 0.004625986297303551 -0.0012137594616338431 -0.018646613875026901 -0.008971246123332343 0.00014637279722396696 -0.013458187839987073 0.0073283818575430012 0.0062644964555214752 0.0066488095656950909 -0.0024896761347255264 -0.016247306624327853 0.0015753267624377077 -0.0050941286608700426 -0.011940070674941598 -0.0052157843548079445 -0.0030698688775968783
leaf_weight=19997.768688127398 73689.098754525185 70913.964928746223 206540.61299276352 12599.608101755381 232037.67548370361 87717.357794046402 36220.478217869997 71429.874712944031 21791.173958420753 90155.806992530823 13613.982410460711 149659.73220443726 24406.78831744194 114582.33744978905 269272.32635498047 76022.671681761742 263321.63551330566 136713.53216719627 92154.10786151886 6829.8557100296021 32176.204711079597 21250.000181823969 21579.099808931351 134854.94605827332 10144.186351776123 35743.263160705566 226927.35660248995 313735.66732442379 15836.517901442945 260825.19732666016 220828.09055161476 117944.89714813232 20736.539219975471 32786.79029083252 23781.292363613844 131406.27399325371 32397.267673075199 868.63615083694458 8991.5498924255371 52778.511521041393 17067.138306498528 110825.68154573441 102303.47225058079 45237.247270017862 338890.39131164551 156992.9630279541 183316.35496520996 3919.7985043525696 52877.152846604586 71558.232179164886 84166.032554507256 66977.160779833794 23989.150107979774 46728.576372623444
leaf_count=4504 3082 5525 3980 1507 7871 1420 5070 1199 1312 1208 868 2136 2896 1892 2408 1790 6204 3542 1396 268 2612 963 900 2424 427 696 4174 4996 3966 2024 5228 1372 855 1166 1525 4845 2455 40 91 1739 2032 4580 1821 3576 2340 1264 1392 96 4959 1574 2903 4302 855 1250
internal_value=4.03334e-06 -0.00787253 0.00339614 -0.0164705 -0.00558798 0.000941186 -0.0235806 -0.000359793 -0.0137448 0.00195656 -0.00764305 0.00621033 -0.00367028 0.00269025 0.00576518 0.000441431 -0.00313436 0.00123522 0.00673094 -0.00671898 -0.0158098 -0.00861311 -0.0088328 0.00239698 -0.00588472 -0.0027737 0.000166763 0.00100483 -0.0282489 0.00601659 -0.00148025 0.00273355 -0.00752032 -0.00906195 -0.00979765 -0.00729185 -0.00843885 -0.0166499 0.0018254 -0.00214113 -0.0204384 -0.00857644 -0.000408612 -0.012226 0.00711467 0.00572601 0.00623408 -0.00634316 -0.0161077 0.00230794 -0.00532917 -0.0125528 -0.004268 -0.00379821
internal_weight=5.09011e+06 1.53223e+06 3.55789e+06 321649 1.21058e+06 1.90023e+06 89121.9 832971 232527 1.06726e+06 584351 1.65765e+06 626227 529096 893631 485675 394189 538167 764021 299294 98521.6 285057 259887 438940 121877 299065 405254 450449 35834.3 687090 347296 304085 30880.7 238308 94695.3 177418 46011.3 66345.4 80421.4 126468 53287.6 143612 178326 134006 431044 426265 332976 25169.8 53745.8 186141 90995.9 112214 95124.5 70717.7
internal_count=135520 81028 54492 33880 47148 37552 15572 19124 18308 18428 27376 16940 19772 8470 9676 9075 11901 9958 7264 12621 9118 14755 13696 7262 4453 6900 7785 8538 8470 5696 10049 4838 1282 12796 7050 8168 3323 6506 1290 4821 7102 5746 3611 9190 3736 3672 3528 1059 4999 3466 3171 7878 5001 2105
cat_boundaries=0 1
cat_threshold=2
is_linear=0
shrinkage=0.0204134


Tree=13
num_leaves=55
num_cat=0
split_feature=67 67 67 67 67 67 65 53 67 68 67 65 67 16 6 16 6 16 68 68 48 6 65 17 68 6 65 71 53 7 46 17 6 72 17 6 19 48 65 6 72 46 68 65 67 2 67 6 67 6 58 0 17 68
split_gain=312301 69145.6 55858.7 13932.2 11362.6 5426.57 3447.92 1555.34 1306.52 1303.61 1187.15 897.377 786.076 513.594 438.112 425.934 340.817 338.901 330.185 584.608 324.447 290.925 289.451 259.491 252.753 260.789 250.357 242.854 239.989 233.359 232.456 232.336 229.292 223.57 208.858 201.452 185.997 184.773 183.914 219.312 182.901 177.413 176.322 276.297 248.361 170.029 159.641 158.585 152.192 146.965 169.435 146.243 144.917 144.351
threshold=30.149692780337947 18.553686635944704 46.278571428571432 12.624423963133642 25.388600288600291 35.963133640553004 20.82112714275021 33.950549450549453 39.016666666666673 5.5000000000000009 21.370967741935488 41.066350400479088 27.732718894009221 0.81174490092936691 1278.5000000000002 0.81174490092936691 1590.5000000000002 0.81174490092936691 11.500000000000002 15.500000000000002 37.500000000000007 1510.5000000000002 31.28449453551913 -0.60785761079279388 18.500000000000004 1310.5000000000002 29.748630136986304 43.250000000000007 35.752747252747263 2.5000000000000004 36.500000000000007 -0.60785761079279388 1894.5000000000002 15.15 -0.60785761079279388 2038.5000000000002 0.88621069759564464 56.500000000000007 23.925645632158098 1302.5000000000002 10.950000000000001 40.500000000000007 11.500000000000002 24.557817763305639 23.283870967741937 2.9458078571428579 54.150614439324123 1246.5000000000002 54.913824884792632 1918.5000000000002 18.500000000000004 52.500000000000007 0.6078576107927941 16.500000000000004
decision_type=2 2 2 2 2 2 2 2 2 2 2 2 2 2 2 2 2 2 2 2 2 2 2 2 2 2 2 2 2 2 2 2 2 2 2 2 2 2 2 2 2 2 2 2 2 2 2 2 2 2 2 8 2 2
left_child=1 3 5 6 10 7 29 38 17 51 18 14 26 23 -4 27 48 28 -3 21 42 -20 24 -10 25 -14 49 45 -7 -1 36 -8 -28 -16 -31 -25 -21 -17 39 -2 -11 -32 -12 44 -44 -9 -18 -42 -13 -6 -51 -5 -29 -22
right_child=2 4 11 9 12 8 31 15 13 40 20 16 22 -15 33 37 46 -19 19 30 53 -23 -24 35 -26 -27 32 52 -30 34 41 -33 -34 -35 -36 -37 -38 -39 -40 -41 47 -43 43 -45 -46 -47 -48 -49 -50 50 -52 -53 -54 -55
leaf_value=-0.015571586879615112 -0.0026137288279031016 -0.0094852362120534505 0.0048462924257881646 -0.015691975752629497 -0.004188348320171619 0.00027127257730777887 -0.017661083568522331 -0.0011308656273754476 0.0016064899459342378 -0.013692140013031123 -0.0085518913326466262 0.0058457388460240681 -0.0044793835683390034 0.0040464216244428574 0.0048580502951977968 0.0011452118699818497 0.0066051173066521774 0.0023730787951945316 -0.0083543850684533946 -0.010415162215919798 -0.0042627514114664316 -0.0054098880911589483 -0.00092312509023276636 0.0023226194329533244 -0.0017130014299221569 -0.0029278397337428605 -0.0043452515421161545 0.00020924809376104774 0.0012963227566037587 -0.025191205573709526 -0.0071028036691570574 -0.020259056646700743 -0.0021381466074811535 0.0060495624897104498 -0.028592000110276777 0.0034507296442478691 -0.0082627839794327616 0.0032764081517793835 -0.00075504882501193922 -0.001239177734815178 -0.012998838022127871 -0.0092484775205003249 -0.0079635153863655949 -0.0050393715179541058 -0.006075514811612435 0.00014340049105705373 0.0073784462337734341 -0.011203494397616533 0.0068776574966732682 -0.0055688361937208759 -0.0029498579795721232 -0.013704249332496504 0.0012766461511299022 -0.0060687647909572024
leaf_weight=729.2873957157135 78352.34276086092 81840.360836446285 205771.79457712173 59038.336594581604 150463.87302100658 136685.89722001553 21892.993003100157 76086.115554094315 134692.05434989929 20615.276376128197 29121.826846003532 232646.51662063599 59040.725906848907 89877.051202774048 73716.963226318359 55999.407989025116 224526.30625915527 87560.040546417236 20500.162463188171 40911.134439229965 22923.621871471405 44234.791107177734 29957.751157283783 206467.98800706863 50767.656276226044 192215.22225189209 39649.683309316635 142401.8447804451 313430.50733149052 11900.90292660147 45614.046465963125 44665.276535212994 38857.365886688232 610226.2566986084 23784.224605828524 96998.776901245117 28650.559056997299 24313.200259447098 118650.56176906824 126446.99522209167 26631.007694393396 24975.724625080824 76003.494801700115 29530.758852958679 47215.490747630596 102292.55061113834 222471.42877197266 94178.118923187256 80440.937885284424 79258.196140289307 11856.726295471191 21547.583495914936 84422.71589922905 95887.201486229897
leaf_count=72 3402 4486 3980 5527 5632 3542 2424 1790 2424 1467 1465 3088 3045 1208 704 958 1700 1420 1484 2377 689 1364 684 3722 1384 4508 1783 2742 4996 2404 2005 6046 840 4992 5994 1116 1628 332 3429 2474 3251 1411 3510 1088 2069 1821 1508 4964 968 2356 284 1731 1432 3800
internal_value=4.23562e-06 -0.00758594 0.0033734 -0.015967 -0.0053884 0.000962573 -0.0221734 -0.000298002 0.00191945 -0.0130878 -0.00744766 0.00611282 -0.00353329 0.00264069 0.00567262 0.000432571 0.00662804 0.00121112 -0.00838765 -0.00794896 -0.00655113 -0.00634307 -0.00283723 0.00235229 -0.00302706 -0.00329253 -0.00425514 0.000163382 0.000985056 -0.0272271 -0.00869039 -0.0194063 -0.0032531 0.00592118 -0.0274625 0.00268327 -0.00952948 0.0017906 -0.00139462 -0.00176512 -0.0119055 -0.00786273 -0.0070935 -0.00681511 -0.00724041 -0.000400149 0.0069901 -0.0115999 0.006111 -0.00458069 -0.00522826 -0.0151616 0.000606552 -0.00572055
internal_weight=5.08894e+06 1.56446e+06 3.52448e+06 324983 1.23948e+06 1.87468e+06 102973 808966 1.06571e+06 222010 587409 1.6498e+06 652067 528036 889715 485516 760085 537676 286727 204886 300682 64735 331981 438159 302024 251256 320086 405203 450116 36414.4 140151 66558.3 78507 683943 35685.1 303467 69561.7 80312.6 323450 204799 141424 70589.8 181872 152750 123219 178379 446998 120809 313087 241579 91114.9 80585.9 226825 118811
internal_count=135520 81772 53748 33880 47892 36808 16940 18380 18428 16940 27376 16940 20516 8470 9676 9075 7264 9958 14755 10269 12621 2848 9621 7262 8937 7553 10895 7785 8538 8470 7421 8470 2623 5696 8398 4838 4005 1290 9305 5876 9682 3416 8132 6667 5579 3611 3208 8215 4056 8272 2640 7258 4174 4489
is_linear=0
shrinkage=0.0204134


Tree=14
num_leaves=55
num_cat=8
split_feature=51 51 51 50 53 53 51 68 51 66 53 1 1 51 6 71 15 66 15 68 1 71 68 71 68 75 71 15 68 48 17 1 53 6 7 72 68 75 53 15 7 19 72 15 19 15 1 6 1 9 75 15 15 12
split_gain=293659 69061.1 47044 13984.2 10968.8 3917.29 2822.18 2600.33 1670.76 1631.89 1270.27 1105.51 872.881 742.564 741.334 701.29 671.62 489.683 447.829 437.472 403.828 392.291 372.55 367.335 355.589 328.941 320.135 277.066 274.328 261.452 250.569 242.477 238.332 222.618 216.682 216.151 215.503 252.786 215.004 209.351 204.791 192.312 190.455 189.906 185.159 184.345 178.996 176.252 173.065 159.251 159.175 161.152 156.311 156.095
threshold=32.383928571428577 17.848214285714288 45.937500000000007 24.946428571428573 11.939560439560442 39.807692307692314 9.008928571428573 21.500000000000004 19.526785714285719 0 34.236263736263744 1 2 28.133928571428573 1582.5000000000002 67.850000000000009 1.0000000180025095e-35 3 1.0000000180025095e-35 14.500000000000002 4 58.850000000000001 19.500000000000004 64.450000000000017 14.500000000000002 2.5000000000000004 44.250000000000007 4.5000000000000009 11.500000000000002 30.500000000000004 1.0000000180025095e-35 5 14.03846153846154 1278.5000000000002 2.5000000000000004 62.250000000000007 1.0000000180025095e-35 1.5000000000000002 41.730769230769234 4.5000000000000009 186.50000000000003 0.29342972903661901 15.850000000000003 4.5000000000000009 0.074116354202380205 4.5000000000000009 6 1422.5000000000002 7 194.50000000000003 2.5000000000000004 4.5000000000000009 1.0000000180025095e-35 160.50000000000003
decision_type=2 2 2 2 2 2 2 2 2 1 2 1 1 2 2 2 2 1 2 2 1 2 2 2 2 2 2 2 2 2 2 1 2 2 2 2 2 2 2 2 2 2 2 2 2 2 1 2 1 2 2 2 2 2
left_child=1 4 5 8 6 10 34 13 12 35 23 -10 53 36 25 17 -7 24 46 39 44 -15 -14 48 -13 33 31 38 -17 -30 42 -20 -21 -4 -1 -6 -5 -38 -18 40 49 -35 -16 -19 47 -36 -12 -9 -2 -11 51 -23 -25 -3
right_child=2 3 14 7 9 16 -8 20 11 19 18 15 22 21 30 28 27 43 26 32 -22 50 -24 52 -26 -27 -28 -29 29 -31 -32 -33 -34 41 45 -37 37 -39 -40 -41 -42 -43 -44 -45 -46 -47 -48 -49 -50 -51 -52 -53 -54 -55
leaf_value=-0.015104948382844879 -0.0010704537556527382 -0.0041058325270949859 0.0049168638621072593 -0.0016742125909964391 -0.011658154069406216 0.0038577004329910952 -0.018876081915527126 -0.0034991356487349911 -0.0043785017300080019 -0.010313139043653547 0.002584441768843166 -0.0040949641819187019 -0.0089961205865722333 -0.0028898311408730149 0.0055070836722911397 -0.007688931465565361 0.0018753863903753214 -0.0091591170216949562 0.0010190670955634855 -0.019006280498160326 -0.0079303597737661342 -0.0017076006102535635 -0.011576202067323795 0.0015304556703193565 -0.0073934112968479949 0.0065195797005189078 0.00094875918261012903 0.0014327082896060572 -0.0084262842722481225 -0.0055992500881758556 0.0059771096950984558 -0.00042260585215524703 -0.010643361094501874 0.0061292705903952492 -0.027564355389972619 -0.009155194110867541 -0.0041660225656389742 -0.0011525657018289668 0.0028612166162286482 -0.012970971887421965 -0.016309642889636055 0.0048999829184146575 0.006765686031033274 -0.0075835459193518374 -0.0061005492821623094 -0.024372012727410273 0.001029848385982444 -0.0053296578515163477 -0.0026820803072144994 -0.01449453220077775 -0.00054550037822331549 -0.0033649174567872784 -0.00032258154170617477 -0.0073717479716805629
leaf_weight=736.58799290657043 106597.0574631691 9407.5753093957901 305481.21563434601 18959.224504709244 63187.241955205798 111995.8175907135 51998.678371191025 37499.272383987904 67410.840292930603 4330.1588237285614 74380.581090688705 17470.449899435043 42768.631596632302 220993.02291464806 55619.200332641602 45769.850248634815 163859.77804493904 101579.09240087867 69219.535333633423 13473.098592177033 25384.608138740063 176466.33113455772 51768.996337398887 22914.53438782692 62231.972825348377 107711.57196140289 425704.06520092487 168090.83285951614 15177.28328359127 136046.81195241213 395342.12366485596 163207.00613367558 1617.8999566435814 168836.31476593018 23977.435648694634 18812.80204051733 170713.87858235836 12451.692046284676 210943.99834489822 31103.499531507492 29237.401311695576 77599.84009552002 522797.67441177368 46854.887832485139 52084.097791075706 11933.832834176719 52846.172561645508 52962.291789054871 37568.052953720093 35668.12130497396 41117.252627134323 28385.778980731964 110022.95398783684 17494.367876172066
leaf_count=72 2355 470 5226 539 5750 1404 7002 1052 2940 277 1218 897 3234 6581 480 2215 2622 4981 1299 1482 1115 4657 2866 366 2763 1181 7962 2818 647 5218 3248 3683 510 1357 6029 1240 6372 580 3003 2372 3089 729 3843 2016 2209 2417 935 1571 1006 2888 917 943 2132 742
internal_value=4.42278e-06 -0.00680688 0.00353551 -0.00499954 -0.0159735 0.0011766 -0.0219392 -0.00328313 -0.0073394 -0.0132943 0.000411161 -0.00681043 -0.00948432 -0.00271307 0.00601568 -0.00719571 0.00241838 -0.00796662 0.000830428 -0.014862 -0.00555424 -0.0022656 -0.0104086 -0.000777106 -0.00666995 0.00548707 0.000616093 0.00212142 -0.00630307 -0.00588332 0.00637372 6.78404e-06 -0.0181145 0.0052855 -0.0262814 -0.0110833 -0.00374675 -0.00396121 0.00243026 -0.0143732 -0.0150019 0.00574232 0.00664472 -0.00866153 -0.00512985 -0.0265079 0.00193908 -0.00457114 -0.00149079 -0.0140436 -0.0017047 -0.00193735 -3.11481e-06 -0.00622857
internal_weight=5.08781e+06 1.73707e+06 3.35074e+06 1.451e+06 286077 1.71735e+06 88646.5 837017 613981 197430 1.06246e+06 492541 121440 669087 1.63339e+06 425130 654890 228136 785357 115430 167930 466962 94537.6 277103 79702.4 659629 658131 542895 196994 151224 973759 232427 15091 551917 36647.9 82000 202125 183166 374804 100339 69235.7 246436 578417 148434 142546 35911.3 127227 90461.6 144165 39998.3 245969 204852 132937 26901.9
internal_count=135520 88653 46867 55525 33128 30803 15520 26536 28989 17608 20956 21677 7312 20589 16064 18737 9847 10657 15097 10618 5947 13098 6100 5859 3660 8493 12944 8443 8080 5865 7571 4982 1992 7312 8518 6990 7491 6952 5625 8626 6254 2086 4323 6997 4832 8446 2153 2623 3361 3165 6517 5600 2498 1212
cat_boundaries=0 1 2 3 4 5 6 7 8
cat_threshold=10 4 12 5 4 2 6 6
is_linear=0
shrinkage=0.0204134


Tree=15
num_leaves=55
num_cat=0
split_feature=67 67 67 67 67 67 65 53 67 67 65 67 53 68 15 6 67 63 65 53 15 65 68 15 65 15 75 65 6 67 22 48 71 6 6 65 68 0 72 68 67 18 6 6 65 6 65 15 6 74 6 15 11 70
split_gain=286147 61428.2 52257.9 12149.2 10249.3 5065.2 2467.02 1806.59 1438.56 1073.01 863.917 729.259 703.134 502.827 501.04 412.407 333.123 297.794 319.548 292.357 288.066 283.243 273.759 263.283 259.689 245.081 244.09 238.528 223.467 220.048 215.885 216.298 246.546 213.126 200.132 199.843 194.283 187.598 195.589 178.492 176.095 174.61 190.034 173.638 227.42 166.864 165.67 162.828 161.194 161.099 155.534 146.848 145.471 145.251
threshold=30.149692780337947 18.553686635944704 46.278571428571432 11.540783410138252 25.388600288600291 37.768970814132111 20.82112714275021 34.236263736263744 15.34846390168971 21.370967741935488 41.066350400479088 27.502995391705074 39.093406593406606 1.0000000180025095e-35 1.0000000180025095e-35 1278.5000000000002 53.082949308755765 5.9436815545737902 43.220378583726337 23.082417582417587 4.5000000000000009 31.28449453551913 14.500000000000002 4.5000000000000009 29.748630136986304 4.5000000000000009 2.5000000000000004 42.346063515233183 1302.5000000000002 54.622119815668206 1.0000000180025095e-35 53.500000000000007 43.250000000000007 1646.5000000000002 1270.5000000000002 17.97197956433865 15.500000000000002 54.500000000000007 7.9500000000000011 3.5000000000000004 21.866359447004612 0.99611390731392835 1606.5000000000002 1146.5000000000002 20.82112714275021 2126.5000000000005 23.925645632158098 1.0000000180025095e-35 1286.5000000000002 13.500000000000002 1582.5000000000002 1.5000000000000002 360.50000000000006 0.22244094488188973
decision_type=2 2 2 2 2 2 2 2 2 2 2 2 2 2 2 2 2 2 2 2 2 2 2 2 2 2 2 2 2 2 2 2 2 2 2 2 2 10 2 2 2 2 2 2 2 2 2 2 2 2 2 2 2 2
left_child=1 3 5 6 9 7 35 22 20 17 15 24 51 -14 27 -4 50 18 37 43 39 26 -2 41 -6 -21 34 -9 -24 45 31 32 -16 -26 -13 -1 -19 38 -3 -5 -27 42 -15 44 -11 -17 -8 -10 -18 -37 -12 -7 -36 -41
right_child=2 4 10 8 11 12 46 14 47 19 16 21 13 23 30 29 48 36 -20 25 -22 -23 28 -25 33 40 -28 -29 -30 -31 -32 -33 -34 -35 52 49 -38 -39 -40 53 -42 -43 -44 -45 -46 -47 -48 -49 -50 -51 -52 -53 -54 -55
