tree
version=v4
num_class=1
num_tree_per_iteration=1
label_index=0
max_feature_idx=74
objective=tweedie
feature_names=block lag_63 lag_70 lag_77 lag_91 lag_182 lag_364 lag_rate_63 lag_rate_70 lag_rate_77 lag_rate_91 lag_rate_182 lag_rate_364 roll_mean_7 roll_mean_14 roll_mean_28 roll_mean_56 roll_mean_91 roll_std_7 roll_std_14 roll_std_28 roll_min_7 roll_min_28 roll_max_7 roll_max_28 delta_7_28 delta_28_91 lag_diff dow day week_of_year month quarter day_of_year is_weekend is_halloween dow_sin dow_cos doy_sin doy_cos month_sin month_cos days_since_epoch year_frac is_us_holiday days_to_nearest_holiday days_since_xmas days_until_thanksgiving days_since_july4 school_in_session days_since_school_start days_until_school_start event_count is_covid_era site_month_block_mean site_dow_mean xblock_b3_total_63 xblock_b3_total_91 xblock_b3_roll_mean_7 xblock_b3_roll_mean_28 holiday_x_block weekend_x_block teacher_pred_total teacher_pred_rate teacher_pred_admitted teacher_residual_roll_7 teacher_residual_roll_14 teacher_residual_roll_28 abc_month_block_mean_total abc_dow_mean_total abc_month_block_admit_rate factor_0_pred factor_1_pred factor_0_momentum factor_1_momentum
feature_infos=[0:3] [0:52] [0:52] [0:52] [0:52] [0:52] [0:52] [0:1] [0:1] [0:1] [0:1] [0:1] [0:1] [4:35.714285714285715] [4.7142857142857144:32.714285714285715] [4.9642857142857144:30.75] [5.5178571428571432:30.375] [5.7032967032967035:29.406593406593405] [0.53452248382496037:13.060299712159313] [1.0271051820261772:10.801912732535792] [1.6471074533748196:9.2555574610794977] [0:32] [0:23] [6:52] [9:52] [-6.5:7.9642857142857117] [-5.8598901098901095:4.2637362637362646] [-26:24] [0:6] [1:31] [1:53] [1:12] [1:4] [1:366] [0:1] none [-0.97492791218182362:0.97492791218182362] [-0.90096886790241903:1] [-0.9999994220246925:0.99998555065071859] [-0.99997919295908233:0.9999907524084426] [-1:1] [-1:1] [364:2737] [2018.996577686516:2025.4928131416839] [0:1] [0:52] [0:365] [0:370] [0:365] [0:1] [0:385] [0:385] [0:1] [0:1] [6.8938053097345131:27.677419354838708] [17.527493606138108:18.848214285714285] [6:46] [6:46] [12.857142857142858:35.571428571428569] [14.178571428571429:30.214285714285715] [0:3] [0:3] [9.2417749656404684:31.823371978968225] [0.22907568766611625:0.38800682352827109] [2.8403948432562149:11.662323421351314] [-9.2439121176303676:10.515149920576988] [-7.6240939803912529:7.7689706930270637] [-7.0757151390352879:5.6252680457939999] [14.666666666666666:43.712698412698415] [30.836743393009378:33.745748299319729] [0.24239536479377907:0.32411243110000343] [-0.2833500937500768:0.32474505932880887] [-0.11480685847281602:0.19971014556388078] [-0.35292827517925884:0.43015443158911132] [-0.25150712606415815:0.21683763158669034]
tree_sizes=1758 1641 1741 1749 1750 1641 1645 1852 1750 1850 1857 1750 1759 1862 1742 1651

Tree=0
num_leaves=16
num_cat=0
split_feature=62 0 62 62 33 41 49 50 28 62 19 10 12 50 3
split_gain=39427.4 12726.4 795.002 397.33 249.514 174.869 161.552 74.6571 65.6886 53.9561 43.4292 25.0283 19.6139 13.4433 11.9792
threshold=17.151432075548332 1.5000000000000002 24.821425995725097 21.075148829462766 140.50000000000003 1.0000000180025095e-35 1.0000000180025095e-35 297.50000000000006 1.0000000180025095e-35 12.549970739571931 3.7092103955211058 0.21320346320346323 0.18065268065268067 14.500000000000002 6.5000000000000009
decision_type=2 2 2 2 2 2 2 2 2 2 2 2 2 2 2
left_child=6 3 5 7 -4 -3 9 -2 -5 11 -11 -1 13 -8 -14
right_child=1 2 4 8 -6 -7 12 -9 -10 10 -12 -13 14 -15 -16
leaf_value=3.0698123469334093 3.0830842431622725 3.0908202182566558 3.0914131265537965 3.0865997400483169 3.0927507410565411 3.0886874235345245 3.0716666933077925 3.0849471213467643 3.0852700423093737 3.0721373575768696 3.0757878615848258 3.071929937521134 3.0689289652808722 3.0683462931056193 3.0708371215891663
leaf_weight=7570.6085471212864 47381.939432561398 31530.883630752563 83303.653138160706 18875.174393892288 170800.81777477264 30097.726913452148 958.17519968748093 10660.079262018204 71472.01166844368 12003.047866940498 1732.3558080196381 5058.6486141681671 3841.718314319849 11000.670500889421 6132.1629590690136
leaf_count=447 992 399 678 225 1306 450 41 215 902 487 96 267 206 601 285
internal_value=3.08776 3.08955 3.09182 3.08472 3.09231 3.08978 3.07056 3.08343 3.08555 3.07165 3.07259 3.07065 3.06926 3.0686 3.07008
internal_weight=512420 464122 315733 148389 254104 61628.6 48297.4 58042 90347.2 26364.7 13735.4 12629.3 21932.7 11958.8 9973.88
internal_count=7597 5167 2833 2334 1984 849 2430 1207 1127 1297 583 714 1133 642 491
is_linear=0
shrinkage=1


Tree=1
num_leaves=14
num_cat=0
split_feature=62 0 62 62 62 41 49 48 43 48 59 48 47
split_gain=37999.1 12225.1 764.073 381.857 229.22 167.987 158.159 103.89 69.9313 54.7305 56.8076 9.7192 9.41528
threshold=17.151432075548332 1.5000000000000002 24.821425995725097 21.075148829462766 28.597572000570924 1.0000000180025095e-35 1.0000000180025095e-35 350.50000000000006 2025.3216974674883 4.5000000000000009 26.553571428571434 56.500000000000007 14.500000000000002
decision_type=2 2 2 2 2 2 2 2 2 2 8 2 2
left_child=6 3 5 7 -4 -3 9 -2 -5 -1 -11 -8 -13
right_child=1 2 4 8 -6 -7 11 -9 -10 10 -12 12 -14
leaf_value=-0.010893765964276806 -0.004441013813368375 0.0030013614628908144 0.0041558160134475873 -0.0022959893346313756 0.0056389362116852698 0.00091086736139298942 -0.015255745653273632 -0.00054731482723940775 0.00021982913766669616 -0.016221070998439117 -0.011007525681052682 -0.015812539329303477 -0.018458195556890346
leaf_weight=978.35745072364807 55128.173359155655 31527.222926855087 201199.90456056595 85698.595180034637 52838.099995136261 30097.404701709747 870.92615699768066 2899.9888501167297 4642.8000316619873 24318.076913237572 982.91996884346008 1179.2260749936104 19789.446517810225
leaf_count=30 1156 399 1636 1080 348 450 31 51 47 1193 74 54 1048
internal_value=-7.4816e-08 0.00175431 0.00397987 -0.0029805 0.00446458 0.001981 -0.0169156 -0.0042469 -0.00216647 -0.0158377 -0.0160237 -0.0182038 -0.018318
internal_weight=512151 464032 315663 148370 254038 61624.6 48119 58028.2 90341.4 26279.4 25301 21839.6 20968.7
internal_count=7597 5167 2833 2334 1984 849 2430 1207 1127 1297 1267 1133 1102
is_linear=0
shrinkage=0.02


Tree=2
num_leaves=15
num_cat=0
split_feature=0 0 54 64 54 47 28 42 48 38 54 63 54 18
split_gain=36563.9 11774.7 663.121 354.487 286.297 174.367 139.468 133.33 53.5719 49.5936 29.6689 25.6011 25.5813 1.32932
threshold=1.0000000180025095e-35 1.5000000000000002 25.42290349768226 7.5341329508831523 22.138133640552997 180.50000000000003 4.5000000000000009 1814.5000000000002 6.5000000000000009 0.97508442350096236 6.9818548387096788 0.31908955695916669 7.402073732718895 2.2360679774997823
decision_type=2 2 2 2 2 2 2 2 2 2 2 2 2 2
left_child=6 3 4 5 -3 -2 8 -4 -1 -5 13 -12 -10 -8
right_child=1 2 7 9 -6 -7 10 -9 12 -11 11 -13 -14 -15
leaf_value=-0.012122076975822618 -0.0028652733656387443 0.0010747282605572514 0.0051312613268467908 -0.0016640861211218202 0.0033146052207793605 -0.0046858912333919362 -0.0158223795976607 0.0040341435877287793 -0.018255341725220819 -0.0039964520605800307 -0.01520130046823746 -0.012897629323784425 -0.016917497839585047 -0.018582610472519755
leaf_weight=856.59172362089157 42019.680812358856 29413.861871480942 107270.17584109306 60114.183732032776 102548.69749808311 42485.618313252926 1004.6225479841232 76456.1044921875 15491.77164247632 3893.9477593898773 10049.633141696453 3218.9397321939468 15840.676117256284 1228.0669213533401
leaf_count=30 725 322 1001 723 964 866 47 562 868 60 419 139 798 73
internal_value=-1.60692e-07 0.00171321 0.00389796 -0.00293065 0.00281562 -0.00378128 -0.0166748 0.00467506 -0.0174443 -0.00180689 -0.0150655 -0.0146541 -0.0175852 -0.0174256
internal_weight=511893 464202 315689 148513 131963 84505.3 47690.3 183726 32189 64008.1 15501.3 13268.6 31332.4 2232.69
internal_count=7597 5223 2849 2374 1286 1591 2374 1563 1696 783 678 558 1666 120
is_linear=0
shrinkage=0.02


Tree=3
num_leaves=15
num_cat=0
split_feature=62 0 62 62 33 39 62 48 42 39 4 33 36 73
split_gain=35286.2 11280.4 713.72 356.325 231.12 164.788 138.456 98.7875 67.4255 55.6434 40.0402 26.6489 26.5479 13.418
threshold=17.151432075548332 1.5000000000000002 24.821425995725097 21.075148829462766 140.50000000000003 -0.048362832084465616 12.617861656839283 350.50000000000006 2674.5000000000005 -0.99465740988130902 7.5000000000000009 100.50000000000001 1.0000000180025095e-35 -0.055965908979960836
decision_type=2 2 2 2 2 2 2 2 2 2 2 2 2 2
left_child=6 3 5 7 -4 -3 11 -2 -5 -8 -11 13 -13 -1
right_child=1 2 4 8 -6 -7 9 -9 -10 10 -12 12 -14 -15
leaf_value=-0.01957449745102266 -0.0042761396312949625 0.002978481114065722 0.0034269068046532307 -0.0022039624875758732 0.0047146430681314815 0.00090597375260239752 -0.010090953340956776 -0.00047930904648472213 0.00026631922595699969 -0.01657881714946037 -0.01405775835761534 -0.015856214828903255 -0.017383693728038125 -0.017431279978285232
leaf_weight=2852.3315965980291 55102.720113158226 29295.67968249321 83260.993648052216 85686.565675973892 170653.12448120117 32320.473367929459 1114.188064455986 2899.9243080615997 4642.7394981384277 4716.5127458572388 7970.7424257397652 11765.614709720016 12321.587536171079 7040.4746233224869
leaf_count=194 1156 372 678 1080 1306 477 35 51 47 222 343 591 662 383
internal_value=-2.55841e-07 0.00168554 0.00382396 -0.0028631 0.00429261 0.001892 -0.0163633 -0.00408677 -0.00207676 -0.0146209 -0.0150089 -0.017066 -0.0166453 -0.0180704
internal_weight=511644 463862 315530 148332 253914 61616.2 47781.5 58002.6 90329.3 13801.4 12687.3 33980 24087.2 9892.81
internal_count=7597 5167 2833 2334 1984 849 2430 1207 1127 600 565 1830 1253 577
is_linear=0
shrinkage=0.02


Tree=4
num_leaves=15
num_cat=0
split_feature=62 0 62 62 33 51 62 48 43 48 72 33 69 73
split_gain=33996.7 10835.8 685.893 342.426 222.195 152.582 135.09 94.9142 64.7671 53.4528 31.3714 26.1767 20.2187 13.2807
threshold=17.151432075548332 1.5000000000000002 24.821425995725097 21.075148829462766 140.50000000000003 140.50000000000003 12.617861656839283 350.50000000000006 2025.3216974674883 6.5000000000000009 -0.046389165325314084 100.50000000000001 32.070332480818422 -0.055965908979960836
decision_type=2 2 2 2 2 2 2 2 2 2 2 2 2 2
left_child=6 3 5 7 -4 -3 11 -2 -5 -8 -11 13 -13 -1
right_child=1 2 4 8 -6 -7 9 -9 -10 10 -12 12 -14 -15
leaf_value=-0.019276747369931103 -0.0041915905947773535 0.0029254000118784668 0.0033588700652235682 -0.002160019548149508 0.0046216400696069155 0.0009280383217819835 -0.0094338621383089297 -0.00046975716460203286 0.00026100452510398163 -0.010472219044844642 -0.014978519283217145 -0.016754204857267672 -0.015150293539006343 -0.017148298654764069
leaf_weight=2838.753928154707 55090.248192310333 28552.122512340546 83248.890302658081 85681.41392993927 170606.17822027206 33060.484066486359 914.79819560050964 2899.9158687591553 4642.7353992462158 793.55096673965454 12056.07226023078 18137.346098303795 5867.0928463339806 7013.9588055312634
leaf_count=194 1156 337 678 1080 1306 512 25 51 47 23 552 965 288 383
internal_value=-3.4351e-07 0.00165213 0.00374825 -0.00280618 0.00420776 0.00185429 -0.016091 -0.00400593 -0.00203534 -0.014368 -0.0147101 -0.0167864 -0.0163695 -0.0177825
internal_weight=511404 463782 315468 148314 253855 61612.6 47621.6 57990.2 90324.1 13764.4 12849.6 33857.2 24004.4 9852.71
internal_count=7597 5167 2833 2334 1984 849 2430 1207 1127 600 575 1830 1253 577
is_linear=0
shrinkage=0.02


Tree=5
num_leaves=14
num_cat=0
split_feature=0 0 54 54 43 49 28 48 48 4 12 51 3
split_gain=32705.4 10436.6 590.781 256.671 167.05 141.533 141.389 130.066 51.5072 32.9762 21.4205 24.2613 13.273
threshold=1.0000000180025095e-35 1.5000000000000002 25.42290349768226 22.138133640552997 2025.3216974674883 1.0000000180025095e-35 1.0000000180025095e-35 96.500000000000014 4.5000000000000009 9.5000000000000018 0.18065268065268067 352.50000000000006 6.5000000000000009
decision_type=2 2 2 2 2 2 2 2 2 2 2 2 2
left_child=5 4 3 -3 6 8 -2 -4 -1 -10 11 -7 -12
right_child=1 2 7 -5 -6 10 -8 -9 9 -11 12 -13 -14
leaf_value=-0.010032225530855707 -0.0014574198895953032 0.0010009707938914826 0.0050227504572471172 0.0031219944945163596 0.00043102774069770944 -0.018091754117928363 -0.0031765206411527949 0.0039429276827717052 -0.015486218413336124 -0.013664626281974027 -0.01741700236145928 -0.014407248593818452 -0.015492481194821208
leaf_weight=972.11336731910706 22878.762521743774 29411.570814847946 78487.455270290375 102507.89986801147 6274.4198150634766 10621.843804880977 119306.36147451401 105094.27238225937 18165.324014022946 6576.6520331799984 3764.68382781744 1093.0227127075195 6018.1055764555931
leaf_count=30 331 322 610 964 63 603 1980 953 925 287 206 39 284
internal_value=-4.23941e-07 0.00161342 0.00367107 0.00264937 -0.00275922 -0.0158575 -0.00290017 0.00440495 -0.0148252 -0.0150085 -0.0170839 -0.0177623 -0.0162522
internal_weight=511172 463961 315501 131919 148460 47211.7 142185 183582 25714.1 24742 21497.7 11714.9 9782.79
internal_count=7597 5223 2849 1286 2374 2374 2311 1563 1242 1212 1132 642 490
is_linear=0
shrinkage=0.02


Tree=6
num_leaves=14
num_cat=0
split_feature=0 0 64 64 39 39 28 55 48 42 18 65 30
split_gain=31504.3 10025 488.259 322.337 301.459 170.999 131.355 116.562 48.6944 43.5365 26.9774 30.0744 20.4122
threshold=1.0000000180025095e-35 1.5000000000000002 8.9685793961096625 7.5341329508831523 -0.79382744783423187 -0.8142754349318998 4.5000000000000009 18.014386189258314 6.5000000000000009 1824.5000000000002 1.7043362064926793 -5.8517701237968351 21.500000000000004
decision_type=2 2 2 2 2 2 2 2 2 2 2 2 2
left_child=6 3 4 5 -3 -2 8 -4 -1 -5 -8 -12 -10
right_child=1 2 7 9 -6 -7 10 -9 12 -11 11 -13 -14
leaf_value=-0.011258160374426564 -0.0017967104555930372 0.0045236360897304932 0.0038305953324352009 -0.00052899726092334285 0.0021925999065227639 -0.003988210215807423 -0.017173597614547037 0.0048577642601017662 -0.017210680866461069 -0.0018800783035421726 -0.011148600899911196 -0.014124303153132073 -0.015966438623281565
leaf_weight=850.25288626551628 18222.372909545898 28116.41934633255 103007.04748058319 11735.516732692719 105907.95288705826 66226.990689277649 1216.6312166452408 78412.317713260651 12538.021856427193 52259.147090911865 1874.9646238088608 12239.248439341784 18344.240711450577
leaf_count=30 307 260 789 153 1233 1284 64 567 735 630 77 537 931
internal_value=-4.98768e-07 0.00158141 0.00359832 -0.00270433 0.00268207 -0.00351584 -0.0155903 0.00427491 -0.016342 -0.00163275 -0.0140235 -0.0137386 -0.0164776
internal_weight=510951 463888 315444 148444 134024 84449.4 47063.4 181419 31732.5 63994.7 15330.8 14114.2 30882.3
internal_count=7597 5223 2849 2374 1493 1591 2374 1356 1696 783 678 614 1666
is_linear=0
shrinkage=0.02


Tree=7
num_leaves=16
num_cat=0
split_feature=0 68 15 33 42 28 68 28 50 45 30 18 73 42 29
split_gain=30344.1 9645.13 379.424 299.589 155.79 127.998 125.53 120.949 41.2373 30.1653 26.6051 32.6121 17.5227 12.3511 9.71753
threshold=1.0000000180025095e-35 38.783410138248854 20.803571428571434 140.50000000000003 2674.5000000000005 4.5000000000000009 40.993033154121868 1.0000000180025095e-35 275.50000000000006 2.5000000000000004 13.500000000000002 2.1930626551751011 0.024037945373162731 1424.5000000000002 14.500000000000002
decision_type=2 2 2 2 2 2 2 2 2 2 2 2 2 2 2
left_child=5 2 4 7 -2 8 -5 -3 13 -10 14 -12 -4 -1 -7
right_child=1 3 12 6 -6 10 -8 -9 9 -11 11 -13 -14 -15 -16
leaf_value=-0.015689012278792009 -0.0027511139337822585 0.0043580827917856797 0.0018112059541406079 0.001523543278596942 0.00046395292260950025 -0.01701119466362444 0.0042595774045051252 0.0025525569049707603 -0.012020815797569334 -0.015380518193125792 -0.015410776905887179 -0.012636655867712123 0.00019397287902964258 -0.016951804540290143 -0.014218946883106412
leaf_weight=7878.2177941650152 146054.13519990444 17772.7809009552 6854.5448951721191 7000.9019775390625 6274.394416809082 1500.8830941915512 183489.32746315002 91921.494002342224 1626.1378227472305 6646.3975913226604 2535.6388050615788 9147.8600816130638 4449.0552978515625 15476.501603603363 2108.8338468074799
leaf_count=568 2355 159 61 63 63 85 1527 951 62 343 133 363 44 723 97
internal_value=-5.65312e-07 0.00155003 -0.00235615 0.00367938 -0.00261853 -0.0153259 0.00415921 0.00284564 -0.0160693 -0.0147378 -0.0137778 -0.0132531 0.00117717 -0.0165336 -0.0154292
internal_weight=510737 463817 163632 300185 152329 46920.5 190490 109694 31627.3 8272.54 15293.2 11683.5 11303.6 23354.7 3609.72
internal_count=7597 5223 2523 2700 2418 2374 1590 1110 1696 405 678 496 105 1291 182
is_linear=0
shrinkage=0.02


Tree=8
num_leaves=15
num_cat=0
split_feature=56 68 16 64 64 47 49 33 48 25 12 12 50 3
split_gain=29224.5 9264.76 336.741 294.568 280.347 190.54 131.972 118.033 49.046 40.0913 31.6182 22.1622 14.7398 13.9175
threshold=1.0000000180025095e-35 38.783410138248854 20.812500000000004 8.9685793961096625 7.5341329508831523 186.50000000000003 1.0000000180025095e-35 138.50000000000003 4.5000000000000009 1.1250000000000002 0.47493734335839605 0.18065268065268067 22.500000000000004 6.5000000000000009
decision_type=10 2 2 2 2 2 2 2 2 2 2 2 2 2
left_child=1 2 4 5 -1 -3 8 -5 -2 -4 -10 12 -8 -13
right_child=6 3 9 7 -6 -7 11 -9 10 -11 -12 13 -14 -15
leaf_value=-0.0032883296400578565 -0.009390880772949103 0.003692226427248555 9.5583792198764591e-05 0.0033489133354817364 -0.0015484261999138807 0.0020842367196897723 -0.014508995913738275 0.0044564615440884419 -0.01441200990148447 0.0025569300217973701 -0.010667688690666498 -0.016589979933796933 -0.017258398052328136 -0.014660010730835782
leaf_weight=88250.871386766434 967.95122814178467 55155.674802780151 7177.3131637573242 56128.697786331177 63988.723356246948 63635.500795602798 1413.2233639359474 125211.63230419159 23411.133134439588 4201.2425804138184 1130.3323956727982 3724.2521310597658 10172.696134656668 5963.0466705113649
leaf_count=1633 30 552 72 440 783 792 63 916 1165 35 47 206 579 284
internal_value=-6.35833e-07 0.00151926 -0.00230922 0.00360645 -0.0025573 0.00283126 -0.0150647 0.00411397 -0.0140651 0.00100758 -0.0142448 -0.0162552 -0.0169376 -0.0154204
internal_weight=510532 463750 163618 300132 152240 118791 46782.6 181340 25509.4 11378.6 24541.5 21273.2 11585.9 9687.3
internal_count=7597 5223 2523 2700 2416 1344 2374 1356 1242 107 1212 1132 642 490
is_linear=0
shrinkage=0.02


Tree=9
num_leaves=16
num_cat=0
split_feature=62 68 62 0 62 62 39 49 13 19 59 11 12 48 17
split_gain=28193.2 8876.88 342.22 322.46 310.386 150.882 150.08 134.438 59.0453 48.8677 38.3186 34.1156 22.0371 13.988 9.27078
threshold=17.151432075548332 38.783410138248854 26.531248043894731 2.5000000000000004 21.075148829462766 28.926501331991982 -0.73865259438682551 1.0000000180025095e-35 21.071428571428573 3.7092103955211058 25.589285714285719 0.12158167036215818 0.18065268065268067 62.500000000000007 7.9285714285714297
decision_type=2 2 2 2 2 2 2 2 2 2 8 2 2 2 2
left_child=7 3 6 4 -2 -4 -3 9 -5 10 -1 -11 13 -9 -14
right_child=1 2 5 8 -6 -7 -8 12 -10 11 -12 -13 14 -15 -16
leaf_value=-0.014314160788903437 -0.0036822710519238762 0.0038986392686906342 0.0037613520266869946 -0.0011138765696485503 -0.0018056099316621714 0.0051467615082698608 0.002218195707976438 -0.013669824395460582 0.0014682239609248712 -0.014628803090169029 -0.010909858071559227 -0.0093454131434264672 -0.015721621376424872 -0.016905848737851115 -0.013975583187426685
leaf_weight=21472.680072650313 57942.862737417221 28788.908535957336 148972.8839468956 5588.9425392150879 90296.143857002258 40120.229315757751 82104.500912427902 928.910888671875 9614.2635879516602 776.40441453456879 1651.2706019282341 1794.7120693922043 6402.835810020566 10615.759357720613 3262.8851116895676
leaf_count=1109 1207 308 1096 62 1127 261 1019 35 87 43 59 86 361 607 130
internal_value=-6.9556e-07 0.00149491 0.00353804 -0.00225498 -0.00253948 0.00405566 0.00265495 -0.014775 0.000517579 -0.013774 -0.0140767 -0.0109991 -0.0159796 -0.0166593 -0.0151493
internal_weight=510334 463429 299987 163442 148239 189093 110893 46905.5 15203.2 25695.1 23124 2571.12 21210.4 11544.7 9665.72
internal_count=7597 5167 2684 2483 2334 1357 1327 2430 149 1297 1168 129 1133 642 491
is_linear=0
shrinkage=0.02


Tree=10
num_leaves=16
num_cat=0
split_feature=62 68 15 54 62 49 69 42 62 19 12 12 51 38 3
split_gain=27147.7 8526.78 337.089 333.372 251.594 130.948 130.784 129.824 47.729 49.8624 29.8215 21.5469 24.0513 20.3116 14.2563
threshold=17.151432075548332 38.783410138248854 20.803571428571434 25.42290349768226 21.075148829462766 1.0000000180025095e-35 33.113922743010257 1814.5000000000002 12.348053838640087 3.7092103955211058 0.10762548262548265 0.18065268065268067 352.50000000000006 -0.75015329512557205 6.5000000000000009
decision_type=2 2 2 2 2 2 2 2 2 2 2 2 2 2 2
left_child=5 2 4 6 -2 8 -3 -5 13 -10 -4 12 -7 -1 -13
right_child=1 3 10 7 -6 11 -8 -9 9 -11 -12 14 -14 -15 -16
leaf_value=-0.010597279366176196 -0.0034443481660653293 0.0023334070772793062 0.0023800151200202325 0.0044502030713060269 -0.0017861451726621134 -0.016710114312591284 0.0041473075689820778 0.0033674078940100585 -0.013228641843226571 -0.0095911680855399473 0.00027902406916247572 -0.01606102266435927 -0.013084825923481281 -0.014931008539214131 -0.01413088016355536
leaf_weight=606.77823400497437 61580.852871894836 97493.895902633667 4508.5230484008789 107044.42707371712 90544.971638202667 10426.177357837558 19063.217297077179 76335.323799133301 13847.098483115435 1888.6194350719452 6794.1521911621094 3700.0395302027464 1078.7310280799866 9291.6063476502895 5938.1473219543695
leaf_count=42 1247 958 38 1001 1131 603 163 562 588 101 67 206 39 566 285
internal_value=-7.5995e-07 0.00146522 -0.00221008 0.00346788 -0.0024577 -0.0145201 0.00263058 0.00399979 -0.0135313 -0.0127997 0.00112022 -0.0157109 -0.0163836 -0.0146783 -0.0148898
internal_weight=510143 463365 163428 299937 152126 46777.2 116557 183380 25634.1 15735.7 11302.7 21143.1 11504.9 9898.38 9638.19
internal_count=7597 5167 2483 2684 2378 2430 1121 1563 1297 689 105 1133 642 608 491
is_linear=0
shrinkage=0.02


Tree=11
num_leaves=15
num_cat=0
split_feature=62 68 62 15 62 62 51 49 62 42 25 10 47 74
split_gain=26138.8 8190.4 323.844 323.795 241.731 144.12 131.266 127.495 46.5382 43.482 30.5007 29.0863 10.7532 18.0067
threshold=17.151432075548332 38.783410138248854 26.531248043894731 20.803571428571434 21.075148829462766 28.926501331991982 104.50000000000001 1.0000000180025095e-35 12.549970739571931 1404.5000000000002 1.1071428571428574 0.21320346320346323 12.500000000000002 -0.009104067527709923
decision_type=2 2 2 2 2 2 2 2 2 2 2 2 2 2
left_child=7 3 6 4 -2 -4 -3 8 11 -10 -5 -1 -9 -14
right_child=1 2 5 10 -6 -7 -8 12 9 -11 -12 -13 13 -15
leaf_value=-0.01510233698625188 -0.0033759731212767742 0.0035386590227812304 0.0036150831928511607 0.0002762375302379752 -0.0017504960347471564 0.0049694035727601369 0.0020641350065319724 -0.01268133925702458 -0.010659073670314108 -0.013239734428639507 0.0024169681992685737 -0.012902671239348398 -0.014795556549327951 -0.01622312384912571
leaf_weight=7305.2224546521902 61571.809583067894 35743.850555419922 148921.19691133499 6980.8850631713867 90541.395943641663 40097.101043224335 75127.132769823074 909.83432686328888 4287.7894104421139 9075.8222260475159 4321.4662055969238 4906.5663266479969 9454.0596333891153 10714.27460360527
leaf_count=447 1247 388 1096 69 1131 261 939 42 244 339 36 267 489 602
internal_value=-8.18559e-07 0.00143611 0.00339908 -0.00216605 -0.00240876 0.00390273 0.00253997 -0.0142683 -0.0132919 -0.0124218 0.00109793 -0.0142315 -0.0154452 -0.0155626
internal_weight=509958 463305 299889 163416 152113 189018 110871 46653.6 25575.4 13363.6 11302.4 12211.8 21078.2 20168.3
internal_count=7597 5167 2684 2483 2378 1357 1327 2430 1297 583 105 714 1133 1091
is_linear=0
shrinkage=0.02


Tree=12
num_leaves=15
num_cat=0
split_feature=62 0 62 62 62 49 51 48 28 48 59 12 51 20
split_gain=25165.1 7871.35 540.664 277.449 190.684 124.034 118.531 88.2472 58.1164 46.1522 48.0878 21.4941 23.972 9.65547
threshold=17.151432075548332 1.5000000000000002 24.821425995725097 21.075148829462766 28.597572000570924 1.0000000180025095e-35 140.50000000000003 350.50000000000006 1.0000000180025095e-35 4.5000000000000009 26.553571428571434 0.18065268065268067 352.50000000000006 3.1914236925211545
decision_type=2 2 2 2 2 2 2 2 2 2 8 2 2 2
left_child=5 3 6 7 -4 9 -3 -2 -5 -1 -11 12 -7 -13
right_child=1 2 4 8 -6 11 -8 -9 -10 10 -12 13 -14 -15
leaf_value=-0.0085267071702897976 -0.0036533305899835722 0.0024584201340720683 0.0033224247593670333 -0.00071017858448837112 0.0046767801780429443 -0.01617671178180121 0.00069751660318821337 -6.6157126442321589e-05 -0.0019604835647211083 -0.013413021518717622 -0.0086245552257872126 -0.014841355881846693 -0.012574313765377629 -0.012974404075064441
leaf_weight=962.6704421043396 55016.185770392418 28528.601031780243 200793.39149856567 18869.460990667343 52670.026926994324 10357.311097875237 33053.251797437668 2899.4797117710114 71416.150844097137 23589.097386091948 967.0903422832489 7063.2217570394278 1073.7193779945374 2521.5067059099674
leaf_count=30 1156 337 1636 225 348 603 512 51 902 1193 74 380 39 111
internal_value=-8.68356e-07 0.00140758 0.00319566 -0.00239333 0.00360411 -0.0140195 0.00151387 -0.00347413 -0.0016995 -0.0130557 -0.0132288 -0.0151822 -0.0158514 -0.0143663
internal_weight=509781 463247 315045 148201 253463 46534.6 61581.9 57915.7 90285.6 25518.9 24556.2 21015.8 11431 9584.73
internal_count=7597 5167 2833 2334 1984 2430 849 1207 1127 1297 1267 1133 642 491
is_linear=0
shrinkage=0.02


Tree=13
num_leaves=16
num_cat=0
split_feature=62 0 62 62 62 49 39 48 28 62 19 12 48 1 59
split_gain=24225.5 7560.73 519.48 266.577 184.431 120.672 118.595 84.7744 55.8186 45.4838 47.7932 20.9753 13.3372 13.118 11.8123
threshold=17.151432075548332 1.5000000000000002 24.821425995725097 21.075148829462766 28.926501331991982 1.0000000180025095e-35 -0.048362832084465616 350.50000000000006 1.0000000180025095e-35 12.348053838640087 3.7092103955211058 0.18065268065268067 62.500000000000007 4.5000000000000009 25.410714285714288
decision_type=2 2 2 2 2 2 2 2 2 2 2 2 2 2 10
left_child=5 3 6 7 -4 9 -3 -2 -5 14 -11 12 -7 -13 -1
right_child=1 2 4 8 -6 11 -8 -9 -10 10 -12 13 -14 -15 -16
leaf_value=-0.014174521852037599 -0.0035808748126669844 0.0024059834066300486 0.0032981377995031265 -0.00069598695643242989 0.0047793935813676917 -0.012691500779391615 0.00064721667677859263 -6.4838539028076004e-05 -0.0019213716920842619 -0.012529064141445879 -0.0089697131543685204 -0.01226459195395071 -0.01582388630569645 -0.014543170527226481 -0.010954228539998381
leaf_weight=9079.1415639221668 55007.096187591553 29266.222477436066 213348.19464540482 18869.342873573303 40073.532829284668 920.30896425247192 32313.296207427979 2899.4795162677765 71412.752826452255 13759.702065706253 1881.2192503213882 1856.2121598124504 10475.01980727911 7703.9550278186798 744.47183704376221
leaf_count=578 1156 372 1723 225 261 35 477 51 902 588 101 90 607 401 30
internal_value=-9.1826e-07 0.0013796 0.0031322 -0.00234569 0.00353263 -0.0137738 0.00148367 -0.00340521 -0.00166559 -0.0128224 -0.0121082 -0.0149224 -0.015584 -0.0141161 -0.0139439
internal_weight=509610 463190 315001 148189 253422 46420 61579.5 57906.6 90282.1 25464.5 15640.9 20955.5 11395.3 9560.17 9823.61
internal_count=7597 5167 2833 2334 1984 2430 849 1207 1127 1297 689 1133 642 491 608
is_linear=0
shrinkage=0.02


Tree=14
num_leaves=15
num_cat=0
split_feature=62 68 54 15 62 62 62 38 39 4 25 33 36 57
split_gain=23319.5 7263.66 308.31 289.68 230.835 214.942 109.994 105.507 50.8088 40.6017 28.7169 25.8607 26.4241 15.207
threshold=17.151432075548332 38.783410138248854 26.049423963133645 20.803571428571434 28.926501331991982 21.075148829462766 12.617861656839283 -0.13398594226331254 -0.99465740988130902 7.5000000000000009 1.1071428571428574 100.50000000000001 1.0000000180025095e-35 18.500000000000004
decision_type=2 2 2 2 2 2 2 2 2 2 2 2 2 10
left_child=6 3 4 5 -3 -2 11 -4 -8 -10 -5 13 -13 -1
right_child=1 2 7 10 -6 -7 8 -9 9 -11 -12 12 -14 -15
leaf_value=-0.013962802649130177 -0.0031822813657375526 0.0025330913314589344 0.0039105161934491007 0.00024963347709608326 0.0048095784708850056 -0.0016492404121927441 -0.0076623852175070062 0.00615214253077694 -0.013910316864443913 -0.011395750512643561 0.0023269542550611319 -0.012993407560386477 -0.014487081581689095 -0.015933913304130538
leaf_weight=3907.244207367301 61545.37145447731 182627.19519901276 87996.89896440506 6980.7686882019043 19776.991540908813 90531.130214929581 1097.5194337368011 9356.4361166954041 4576.59221971035 7781.5327308177948 4320.698543548584 11417.449584171176 11903.538968533278 5625.7665596157312
leaf_count=230 1247 1785 708 69 130 1131 35 61 222 343 36 591 662 347
internal_value=-9.72208e-07 0.00135217 0.00320128 -0.00204035 0.00275585 -0.00226996 -0.0135313 0.00412677 -0.0119651 -0.0123391 0.00104694 -0.0141684 -0.0137626 -0.0151436
internal_weight=509445 463135 299758 163378 202404 152077 46309.6 97353.3 13455.6 12358.1 11301.5 32854 23321 9533.01
internal_count=7597 5167 2684 2483 1915 2378 2430 769 600 565 105 1830 1253 577
is_linear=0
shrinkage=0.02


Tree=15
num_leaves=14
num_cat=0
split_feature=0 0 68 38 42 28 49 18 48 59 12 3 50
split_gain=22410.3 7000.32 407.944 220.518 149.263 119.671 110.469 90.4518 44.256 33.6171 20.4527 14.9672 14.0777
threshold=1.0000000180025095e-35 1.5000000000000002 40.489864951356893 0.074116354202380205 2674.5000000000005 1.0000000180025095e-35 1.0000000180025095e-35 2.8702082220799228 4.5000000000000009 25.589285714285719 0.18065268065268067 6.5000000000000009 22.500000000000004
decision_type=2 2 2 2 2 2 2 2 2 10 2 2 2
left_child=6 4 7 -4 5 -2 8 -3 -1 -10 12 -12 -8
right_child=1 2 3 -5 -6 -7 10 -9 9 -11 11 -13 -14
leaf_value=-0.0079727777425497599 -0.0010682469484614308 0.0035140554291210394 0.0037509735930501189 0.0026344008837131585 0.00075304817363503265 -0.002649932145204923 -0.012751380465956101 0.00031460674998533533 -0.012808521700301109 -0.009895255896110117 -0.014800055826085227 -0.012870756449256371 -0.015384542394606342
leaf_weight=959.51967620849609 22870.233381509781 4102.9847717285156 154368.22537636757 131239.42854595184 6274.9322032928467 119181.45509487391 1388.9395255446434 25299.897110700607 22169.377851307392 1984.3733539879322 3647.1257694065571 5858.9870599061251 9941.076093763113
leaf_count=30 331 32 1251 1276 63 1980 63 290 1145 67 206 284 579
internal_value=-1.0107e-06 0.00132024 0.00300713 0.00323808 -0.00226214 -0.00239552 -0.0133219 0.000762792 -0.0124024 -0.0125742 -0.0144226 -0.0136278 -0.015075
internal_weight=509287 463337 315011 285608 148327 142052 45949.4 29402.9 25113.3 24153.8 20836.1 9506.11 11330
internal_count=7597 5223 2849 2527 2374 2311 2374 322 1242 1212 1132 490 642
is_linear=0
shrinkage=0.02


end of trees

feature_importances:
teacher_pred_total=41
days_since_july4=17
block=16
lag_rate_364=10
school_in_session=10
dow=9
day_of_year=8
days_since_epoch=8
site_month_block_mean=8
abc_month_block_mean_total=8
doy_cos=7
days_until_school_start=6
lag_77=5
days_since_school_start=5
xblock_b3_roll_mean_28=5
teacher_pred_admitted=5
roll_mean_28=4
roll_std_7=4
roll_std_14=4
doy_sin=4
days_until_thanksgiving=4
lag_91=3
delta_7_28=3
year_frac=3
factor_0_momentum=3
lag_rate_91=2
week_of_year=2
dow_sin=2
month_cos=2
abc_dow_mean_total=2
lag_63=1
lag_rate_182=1
roll_mean_7=1
roll_mean_56=1
roll_mean_91=1
roll_std_28=1
day=1
days_to_nearest_holiday=1
site_dow_mean=1
xblock_b3_total_63=1
xblock_b3_total_91=1
teacher_pred_rate=1
teacher_residual_roll_7=1
factor_1_pred=1
factor_1_momentum=1

parameters:
[boosting: gbdt]
[objective: tweedie]
[metric: tweedie]
[tree_learner: serial]
[device_type: cpu]
[data_sample_strategy: bagging]
[data: ]
[valid: ]
[num_iterations: 800]
[learning_rate: 0.02]
[num_leaves: 20]
[num_threads: 12]
[seed: 0]
[deterministic: 0]
[force_col_wise: 0]
[force_row_wise: 0]
[histogram_pool_size: -1]
[max_depth: 4]
[min_data_in_leaf: 40]
[min_sum_hessian_in_leaf: 0.001]
[bagging_fraction: 0.7]
[pos_bagging_fraction: 1]
[neg_bagging_fraction: 1]
[bagging_freq: 0]
[bagging_seed: 3]
[bagging_by_query: 0]
[feature_fraction: 0.6]
[feature_fraction_bynode: 1]
[feature_fraction_seed: 2]
[extra_trees: 0]
[extra_seed: 6]
[early_stopping_round: 0]
[early_stopping_min_delta: 0]
[first_metric_only: 0]
[max_delta_step: 0]
[lambda_l1: 1]
[lambda_l2: 10]
[linear_lambda: 0]
[min_gain_to_split: 0.1]
[drop_rate: 0.1]
[max_drop: 50]
[skip_drop: 0.5]
[xgboost_dart_mode: 0]
[uniform_drop: 0]
[drop_seed: 4]
[top_rate: 0.2]
[other_rate: 0.1]
[min_data_per_group: 100]
[max_cat_threshold: 32]
[cat_l2: 10]
[cat_smooth: 10]
[max_cat_to_onehot: 4]
[top_k: 20]
[monotone_constraints: ]
[monotone_constraints_method: basic]
[monotone_penalty: 0]
[feature_contri: ]
[forcedsplits_filename: ]
[refit_decay_rate: 0.9]
[cegb_tradeoff: 1]
[cegb_penalty_split: 0]
[cegb_penalty_feature_lazy: ]
[cegb_penalty_feature_coupled: ]
[path_smooth: 0]
[interaction_constraints: ]
[verbosity: -1]
[saved_feature_importance_type: 0]
[use_quantized_grad: 0]
[num_grad_quant_bins: 4]
[quant_train_renew_leaf: 0]
[stochastic_rounding: 1]
[linear_tree: 0]
[max_bin: 255]
[max_bin_by_feature: ]
[min_data_in_bin: 3]
[bin_construct_sample_cnt: 200000]
[data_random_seed: 1]
[is_enable_sparse: 1]
[enable_bundle: 1]
[use_missing: 1]
[zero_as_missing: 0]
[feature_pre_filter: 1]
[pre_partition: 0]
[two_round: 0]
[header: 0]
[label_column: ]
[weight_column: ]
[group_column: ]
[ignore_column: ]
[categorical_feature: ]
[forcedbins_filename: ]
[precise_float_parser: 0]
[parser_config_file: ]
[objective_seed: 5]
[num_class: 1]
[is_unbalance: 0]
[scale_pos_weight: 1]
[sigmoid: 1]
[boost_from_average: 1]
[reg_sqrt: 0]
[alpha: 0.9]
[fair_c: 1]
[poisson_max_delta_step: 0.7]
[tweedie_variance_power: 1.5]
[lambdarank_truncation_level: 30]
[lambdarank_norm: 1]
[label_gain: ]
[lambdarank_position_bias_regularization: 0]
[eval_at: ]
[multi_error_top_k: 1]
[auc_mu_weights: ]
[num_machines: 1]
[local_listen_port: 12400]
[time_out: 120]
[machine_list_filename: ]
[machines: ]
[gpu_platform_id: -1]
[gpu_device_id: -1]
[gpu_use_dp: 0]
[num_gpu: 1]

end of parameters

pandas_categorical:[]
