tree
version=v4
num_class=1
num_tree_per_iteration=1
label_index=0
max_feature_idx=77
objective=regression
feature_names=aqi block cdc_ili_rate day day_of_year days_ahead days_since_epoch days_since_july4 days_since_school_start days_since_xmas days_to_nearest_holiday days_until_school_start days_until_thanksgiving delta_28_91 delta_7_28 dow dow_cos dow_sin doy_cos doy_sin event_count holiday_x_block is_covid_era is_halloween is_us_holiday is_weekend lag_diff lag_rate_182 lag_rate_364 lag_rate_63 lag_rate_70 lag_rate_77 lag_rate_91 lag_total_182 lag_total_364 lag_total_63 lag_total_70 lag_total_77 lag_total_91 month month_cos month_sin precip quarter roll_max_14 roll_max_28 roll_max_56 roll_max_7 roll_max_91 roll_mean_14 roll_mean_28 roll_mean_56 roll_mean_7 roll_mean_91 roll_min_14 roll_min_28 roll_min_56 roll_min_7 roll_min_91 roll_std_14 roll_std_28 roll_std_56 roll_std_7 roll_std_91 school_in_session site_dow_mean site_enc site_month_block_mean site_x_dow site_x_month snowfall temp_max temp_min temp_range week_of_year weekend_x_block year year_frac
feature_infos=[5:211] -1:0:1:2:3 [0.48795699999999997:7.7503399999999996] [1:31] [1:366] [31:61] [395:2646] [0:365] [0:385] [0:365] [0:52] [0:385] [0:370] [-12.947802197802197:8.9010989010988979] [-11.892857142857146:10.357142857142854] [0:6] [-0.90096886790241903:1] [-0.97492791218182362:0.97492791218182362] [-0.99997919295908233:0.9999907524084426] [-0.9999994220246925:0.99998555065071859] [0:1] [0:3] [0:1] [0:1] [0:1] [0:1] [-39:51] [0:1] [0:1] [0:1] [0:1] [0:1] [0:1] [0:87] [0:87] [0:87] [0:87] [0:87] [0:87] [1:12] [-1:1] [-1:1] [0:2.5390000000000001] [1:4] [7:87] [9:87] [11:87] [6:87] [12:87] [4.7142857142857144:65.428571428571431] [4.9642857142857144:63.535714285714285] [5.5178571428571432:61.803571428571431] [4:70.571428571428569] [5.7032967032967035:61.098901098901102] [0:56] [0:52] [0:49] [0:63] [0:48] [1.0271051820261772:13.403501264738468] [1.6471074533748196:11.396358371294912] [2.1121171750258032:11.952815785194982] [0.53452248382496037:16.905902040693519] [2.2659555014506254:11.91310623314085] [0:1] [17.502617801047119:43.456806282722511] -1:0:1:2:3 [6.8938053097345131:57.631336405529957] [0:27] [1:48] [0:2.7448818897637794] [-15.1:102.59999999999999] [-35.399999999999999:80.5] [1.7000000000000028:49.5] [1:53] [0:3] [2019:2025] [2019.0821355236139:2025.2436687200548]
tree_sizes=941 1004 1033 996 1007 1026 1036 994 1036 1010 1010 1030 1024 1028 1010 1039 1036 1011 1021 997 1031 1026 1008 1029 1040 1026 1027 1037 1010 1014 1032 1047 1012 1018 1029 1043 1016 1011 1019 1015 1018 1044 1019 1005 1019 1030 1032 1046 1019 1028 1031 1056 1042 1027 994 1052 973 1025 1019 1026 1001 1027 1028 1011 1036

Tree=0
num_leaves=8
num_cat=4
split_feature=66 1 68 1 15 1 6
split_gain=1315.52 324.045 298.331 260.312 47.9154 36.2977 13.7954
threshold=0 1 20.500000000000004 2 4.5000000000000009 3 1768.5000000000002
decision_type=1 1 2 1 2 1 2
left_child=1 6 3 -2 -3 -4 -1
right_child=2 4 5 -5 -6 -7 -8
leaf_value=0.30543946675373612 0.30321659628427666 0.30838733322249523 0.3011401838783993 0.30576802648668794 0.30735151203197286 0.30296081310423378 0.30624289177178232
leaf_weight=66286.400010347366 86525.400000810623 271944.20002448559 22868.400010824203 227153.60000798106 94263.600012183189 70261.200028061867 67684
leaf_count=10876 8950 38340 8950 26850 15360 26850 7024
internal_value=0.306152 0.307511 0.30448 0.305064 0.308121 0.302513 0.305845
internal_weight=906987 500178 406809 313679 366208 93129.6 133970
internal_count=143200 71600 71600 35800 53700 35800 17900
cat_boundaries=0 1 2 3 4
cat_threshold=5 8 8 8
is_linear=0
shrinkage=1


Tree=1
num_leaves=8
num_cat=4
split_feature=66 1 65 1 17 1 65
split_gain=1213.44 298.898 275.19 240.114 44.1968 33.4849 13.2103
threshold=0 1 36.018637308107678 2 -0.60785761079279388 3 27.24485496151901
decision_type=1 1 2 1 2 1 2
left_child=1 6 5 -4 -3 -2 -1
right_child=2 4 3 -5 -6 -7 -8
leaf_value=-0.00074940294289515597 -0.0048132104195456431 0.0011523750552488753 -0.0028188796790638054 -0.00036843048438160004 0.0021471911794685859 -0.0030645446180739108 4.5248069205168822e-05
leaf_weight=57218.200006902218 22868.400010824203 94263.600012183189 86525.400000810623 227153.60000798106 271944.20002448559 70261.200028061867 76752.200003445148
leaf_count=8950 8950 15360 8950 26850 38340 26850 8950
internal_value=-7.22447e-09 0.0013058 -0.0016055 -0.0010445 0.00189109 -0.00349505 -0.00029414
internal_weight=906987 500178 406809 313679 366208 93129.6 133970
internal_count=143200 71600 71600 35800 53700 35800 17900
cat_boundaries=0 1 2 3 4
cat_threshold=5 8 8 8
is_linear=0
shrinkage=0.039586


Tree=2
num_leaves=8
num_cat=1
split_feature=66 65 67 75 6 67 53
split_gain=1119.29 253.844 97.4459 82.6442 39.2913 19.9578 6.70055
threshold=0 36.018637308107678 54.913824884792632 2.5000000000000004 1813.5000000000002 19.601305683563751 31.45604395604396
decision_type=1 2 2 2 2 2 2
left_child=3 5 -3 4 -1 -2 -5
right_child=1 2 -4 6 -6 -7 -8
leaf_value=0.001039454567264308 -0.002617186626457318 -0.00072019234794654954 -0.0027236236572319378 -0.0012838991789283418 0.0017696764263536737 -0.0038116328192392174 -0.00015787315294679013
leaf_weight=233672.6000443399 35481.400016695261 269381.00000974536 44297.999999046326 12143.400002509356 228344 57648.200022190809 26018.200000166893
leaf_count=41728 17900 31384 4416 2097 24752 17900 3023
internal_value=-1.3863e-08 -0.00154197 -0.00100316 0.00125411 0.00140037 -0.00335675 -0.000516325
internal_weight=906987 406809 313679 500178 462017 93129.6 38161.6
internal_count=143200 71600 35800 71600 66480 35800 5120
cat_boundaries=0 1
cat_threshold=5
is_linear=0
shrinkage=0.039586


Tree=3
num_leaves=8
num_cat=4
split_feature=66 1 68 1 1 17 6
split_gain=1032.43 269.953 238.688 181.979 54.5942 40.7341 12.0262
threshold=0 1 11.500000000000002 2 3 -0.60785761079279388 1768.5000000000002
decision_type=1 1 2 1 1 2 2
left_child=1 6 3 -2 -4 -3 -1
right_child=2 5 4 -5 -6 -7 -8
leaf_value=-0.00069502247790146298 -0.002482586685149505 0.0010515128129932774 -0.0037052813864399906 4.0058274754029751e-05 -0.0021443314036940996 0.0020065550351332055 5.5121036501790464e-05
leaf_weight=66286.400010347366 61160.000000715256 94263.600012183189 48233.800010919571 167535.40000680089 129879.40002924204 271944.20002448559 67684
leaf_count=10876 6390 15360 11510 19170 34530 38340 7024
internal_value=-1.54363e-08 0.00120446 -0.00148093 -0.000634725 -0.00256748 0.00176069 -0.000316028
internal_weight=906987 500178 406809 228695 178113 366208 133970
internal_count=143200 71600 71600 25560 46040 53700 17900
cat_boundaries=0 1 2 3 4
cat_threshold=5 8 8 8
is_linear=0
shrinkage=0.039586


Tree=4
num_leaves=8
num_cat=4
split_feature=66 1 65 1 67 1 48
split_gain=952.318 249.004 223.145 197.349 38.3604 27.8312 12.0051
threshold=0 1 36.018637308107678 2 12.629032258064518 3 47.500000000000007
decision_type=1 1 2 1 2 1 2
left_child=1 6 5 -4 -3 -2 -1
right_child=2 4 3 -5 -6 -7 -8
leaf_value=-0.00081075022417959075 -0.0043254448870526643 6.937478663254799e-05 -0.0025257671677271208 -0.00030423131780646275 0.0017922663605982273 -0.0027314106891440956 -2.6694860424443556e-05
leaf_weight=47300.500009149313 22868.400010824203 21515.800010889769 86525.400000810623 227153.60000798106 344692.00002577901 70261.200028061867 86669.900001198053
leaf_count=8128 8950 8950 8950 26850 44750 26850 9772
internal_value=-1.99305e-08 0.00115678 -0.00142232 -0.000917146 0.001691 -0.00312383 -0.000303519
internal_weight=906987 500178 406809 313679 366208 93129.6 133970
internal_count=143200 71600 71600 35800 53700 35800 17900
cat_boundaries=0 1 2 3 4
cat_threshold=5 8 8 8
is_linear=0
shrinkage=0.039586


Tree=5
num_leaves=8
num_cat=3
split_feature=65 65 1 1 1 25 4
split_gain=596.189 488.092 229.681 182.037 25.6745 8.35166 2.64105
threshold=20.87652249395104 36.018637308107678 0 1 2 1.0000000180025095e-35 281.50000000000006
decision_type=2 2 1 1 1 2 2
left_child=4 2 -2 -3 6 -6 -1
right_child=1 3 -4 -5 5 -7 -8
leaf_value=-0.0043964356749628701 -0.00029150523514809404 -0.0024258002220732488 0.0016240591110308681 -0.00029218882923292948 -0.0023719588856050693 -0.003366183398259049 -0.0033876400895088113
leaf_weight=17400.800009042025 133970.40001034737 86525.400000810623 366207.80003666878 227153.60000798106 52490.000020861626 17771.200007200241 5467.6000017821789
leaf_count=6926 17900 8950 53700 26850 19170 7680 2024
internal_value=-2.56538e-08 0.000343305 0.00111101 -0.000880846 -0.00300022 -0.00262331 -0.00415434
internal_weight=906987 813857 500178 313679 93129.6 70261.2 22868.4
internal_count=143200 107400 71600 35800 35800 26850 8950
cat_boundaries=0 1 2 3
cat_threshold=8 8 8
is_linear=0
shrinkage=0.039586


Tree=6
num_leaves=8
num_cat=2
split_feature=68 1 48 68 1 75 4
split_gain=549.933 385.988 140.999 111.937 23.6839 9.32922 2.43566
threshold=20.500000000000004 0 60.500000000000007 4.5000000000000009 1 1.5000000000000002 281.50000000000006
decision_type=2 1 2 2 1 2 2
left_child=1 2 -1 -3 6 -6 -2
right_child=4 3 -4 -5 5 -7 -8
leaf_value=-0.00027998795960125885 -0.0042224553465196012 0.0017799840836294877 -0.0023300590542648524 0.00053555650088583169 -0.0023508626020341578 -0.0037553604799812077 -0.0032536771088849431
leaf_weight=133970.40001034737 17400.800009042025 152427.00000664592 86525.400000810623 440934.40003800392 61822.600024849176 8438.6000032126904 5467.6000017821789
leaf_count=17900 6926 19170 8950 61380 24290 2560 2024
internal_value=-2.8969e-08 0.000329714 -0.00108445 0.000855234 -0.00288149 -0.00251948 -0.00398996
internal_weight=906987 813857 220496 593361 93129.6 70261.2 22868.4
internal_count=143200 107400 26850 80550 35800 26850 8950
cat_boundaries=0 1 2
cat_threshold=8 8
is_linear=0
shrinkage=0.039586


Tree=7
num_leaves=8
num_cat=4
split_feature=66 1 68 1 1 17 6
split_gain=768.945 199.875 186.164 130.598 36.8955 35.256 11.1098
threshold=0 1 11.500000000000002 2 3 -0.60785761079279388 1768.5000000000002
decision_type=1 1 2 1 1 2 2
left_child=1 6 3 -2 -4 -3 -1
right_child=2 5 4 -5 -6 -7 -8
leaf_value=-0.0006331502956196521 -0.0020961595371380864 0.0008583067019388331 -0.0031731209539421859 4.0881791136603139e-05 -0.0018897409436531595 0.0017467938602874927 8.784277179114536e-05
leaf_weight=66286.400010347366 61160.000000715256 94263.600012183189 48233.800010919571 167535.40000680089 129879.40002924204 271944.20002448559 67684
leaf_count=10876 6390 15360 11510 19170 34530 38340 7024
internal_value=-3.12982e-08 0.00103945 -0.00127808 -0.000530755 -0.00223766 0.00151807 -0.000268885
internal_weight=906987 500178 406809 228695 178113 366208 133970
internal_count=143200 71600 71600 25560 46040 53700 17900
cat_boundaries=0 1 2 3 4
cat_threshold=5 8 8 8
is_linear=0
shrinkage=0.039586


Tree=8
num_leaves=8
num_cat=1
split_feature=66 65 75 75 6 67 53
split_gain=709.278 162.651 65.5148 54.3829 34.6015 14.5618 5.7751
threshold=0 36.018637308107678 1.5000000000000002 2.5000000000000004 1813.5000000000002 19.601305683563751 31.45604395604396
decision_type=1 2 2 2 2 2 2
left_child=3 5 -3 4 -1 -2 -5
right_child=1 2 -4 6 -6 -7 -8
leaf_value=0.00077826862506857788 -0.0020485456250838628 -0.00053707647767956197 -0.0020593273421062254 -0.0011504575317420405 0.0014635085185268142 -0.0030686891331876392 -0.00010509302301811297
leaf_weight=233672.6000443399 35481.400016695261 260289.60001072288 53389.39999806881 12143.400002509356 228344 57648.200022190809 26018.200000166893
leaf_count=41728 17900 30680 5120 2097 24752 17900 3023
internal_value=-3.44297e-08 -0.0012275 -0.000796202 0.000998301 0.00111695 -0.00268018 -0.000437861
internal_weight=906987 406809 313679 500178 462017 93129.6 38161.6
internal_count=143200 71600 35800 71600 66480 35800 5120
cat_boundaries=0 1
cat_threshold=5
is_linear=0
shrinkage=0.039586


Tree=9
num_leaves=8
num_cat=4
split_feature=66 1 69 1 17 1 69
split_gain=654.237 180.539 150.03 136.637 32.4923 19.7088 10.8316
threshold=0 1 36.500000000000007 2 -0.60785761079279388 3 24.500000000000004
decision_type=1 1 2 1 2 1 2
left_child=1 6 3 -2 -3 -4 -1
right_child=2 4 5 -5 -6 -7 -8
leaf_value=2.2663948039137123e-05 -0.0021031902352054176 0.0007802920516412512 -0.003585167388463483 -0.00025469021721026899 0.0016332392973967781 -0.0022439126169686973 -0.00069689574886758741
leaf_weight=76752.200003445148 86525.400000810623 94263.600012183189 22868.400010824203 227153.60000798106 271944.20002448559 70261.200028061867 57218.200006902218
leaf_count=8950 8950 15360 8950 26850 38340 26850 8950
internal_value=-3.47601e-08 0.000958783 -0.00117891 -0.000764686 0.00141366 -0.00257409 -0.000284652
internal_weight=906987 500178 406809 313679 366208 93129.6 133970
internal_count=143200 71600 71600 35800 53700 35800 17900
cat_boundaries=0 1 2 3 4
cat_threshold=5 8 8 8
is_linear=0
shrinkage=0.039586


Tree=10
num_leaves=8
num_cat=4
split_feature=66 1 65 1 67 1 48
split_gain=603.473 166.529 138.392 126.035 34.271 18.1815 10.1136
threshold=0 1 36.018637308107678 2 12.629032258064518 3 47.500000000000007
decision_type=1 1 2 1 2 1 2
left_child=1 6 5 -4 -3 -2 -1
right_child=2 4 3 -5 -6 -7 -8
leaf_value=-0.00073894399470285409 -0.0034433423038256325 -0.00017499105176963279 -0.0020199484356420421 -0.00024460872355287869 0.0014534159564776551 -0.0021551049108303791 -1.9303970855613186e-05
leaf_weight=47300.500009149313 22868.400010824203 21515.800010889769 86525.400000810623 227153.60000798106 344692.00002577901 70261.200028061867 86669.900001198053
leaf_count=8128 8950 8950 8950 26850 44750 26850 9772
internal_value=-3.85678e-08 0.000920829 -0.00113225 -0.00073442 0.0013577 -0.00247223 -0.000273385
internal_weight=906987 500178 406809 313679 366208 93129.6 133970
internal_count=143200 71600 71600 35800 53700 35800 17900
cat_boundaries=0 1 2 3 4
cat_threshold=5 8 8 8
is_linear=0
shrinkage=0.039586


Tree=11
num_leaves=8
num_cat=1
split_feature=66 68 6 48 68 17 31
split_gain=556.648 143.919 36.087 31.1098 24.4665 16.3494 15.7615
threshold=0 11.500000000000002 1813.5000000000002 56.500000000000007 20.500000000000004 -0.60785761079279388 0.23493100944081338
decision_type=1 2 2 2 2 2 2
left_child=2 6 5 -4 -3 -1 -2
right_child=1 4 3 -5 -6 -7 -8
leaf_value=2.7914133130178831e-05 -0.00083945346117888175 -0.0014452822124246733 0.00098818669271827971 0.0020590683541002962 -0.0023744024506007718 0.00074527167249696235 -0.00016635998197399705
leaf_weight=68065.200014859438 89694.600003473461 84983.600001275539 192120 54596 93129.60003888607 185397.00003215671 139000.80000404269
leaf_count=12864 10469 10240 23149 3507 35800 32080 15091
internal_value=-4.23028e-08 -0.00108744 0.000884378 0.00122521 -0.00193115 0.000552636 -0.000430362
internal_weight=906987 406809 500178 246716 178113 253462 228695
internal_count=143200 71600 71600 26656 46040 44944 25560
cat_boundaries=0 1
cat_threshold=5
is_linear=0
shrinkage=0.039586


Tree=12
num_leaves=8
num_cat=3
split_feature=65 65 1 1 1 75 67
split_gain=344.427 286.787 152.252 115.245 16.781 8.32306 2.41331
threshold=20.87652249395104 36.018637308107678 0 1 2 1.5000000000000002 22.752380952380957
decision_type=2 2 1 1 1 2 2
left_child=4 2 -2 -3 6 -6 -1
right_child=1 3 -4 -5 5 -7 -8
leaf_value=-0.0028641052478989232 -0.00029250297635249954 -0.0019066986354064968 0.0012670983752015065 -0.00020905955806113381 -0.0018166101710407642 -0.0031426987797376804 -0.0036938613637549165
leaf_weight=13231.600005835295 133970.40001034737 86525.400000810623 366207.80003666878 227153.60000798106 61822.600024849176 8438.6000032126904 9636.8000049889088
leaf_count=5278 17900 8950 53700 26850 24290 2560 3672
internal_value=-4.08742e-08 0.000260916 0.000849387 -0.000677431 -0.00228042 -0.00197584 -0.0032132
internal_weight=906987 813857 500178 313679 93129.6 70261.2 22868.4
internal_count=143200 107400 71600 35800 35800 26850 8950
cat_boundaries=0 1 2 3
cat_threshold=8 8 8
is_linear=0
shrinkage=0.039586


Tree=13
num_leaves=8
num_cat=3
split_feature=65 65 1 1 1 25 67
split_gain=317.705 264.532 140.437 106.303 15.48 6.92465 2.22624
threshold=20.87652249395104 36.018637308107678 0 1 2 1.0000000180025095e-35 22.752380952380957
decision_type=2 2 1 1 1 2 2
left_child=4 2 -2 -3 6 -6 -1
right_child=1 3 -4 -5 5 -7 -8
leaf_value=-0.0027507756500699853 -0.00028092531852699846 -0.0018312336841138201 0.0012169411238545961 -0.00020078425886526342 -0.0016688654963736226 -0.0025736733267956264 -0.0035477227936504909
leaf_weight=13231.600005835295 133970.40001034737 86525.400000810623 366207.80003666878 227153.60000798106 52490.000020861626 17771.200007200241 9636.8000049889088
leaf_count=5278 17900 8950 53700 26850 19170 7680 3672
internal_value=-4.29076e-08 0.000250587 0.000815765 -0.000650618 -0.00219017 -0.00189764 -0.00308607
internal_weight=906987 813857 500178 313679 93129.6 70261.2 22868.4
internal_count=143200 107400 71600 35800 35800 26850 8950
cat_boundaries=0 1 2 3
cat_threshold=8 8 8
is_linear=0
shrinkage=0.039586


Tree=14
num_leaves=8
num_cat=4
split_feature=66 1 68 1 15 1 68
split_gain=436.861 129.539 120.599 89.4559 28.7862 26.553 9.33467
threshold=0 1 11.500000000000002 2 4.5000000000000009 3 13.500000000000002
decision_type=1 1 2 1 2 1 2
left_child=1 6 3 -2 -3 -4 -1
right_child=2 4 5 -5 -6 -7 -8
leaf_value=1.5485619811128774e-05 -0.0016574496899495535 0.0013754362378027628 -0.0011130763034121233 0.00011122145505248442 0.00057262559788037726 -0.0021114436722539332 -0.00065250486421723113
leaf_weight=76752.200003445148 61160.000000715256 271944.20002448559 67075.600019901991 167535.40000680089 94263.600012183189 111037.60002025962 57218.200006902218
leaf_count=8950 6390 38340 23020 19170 15360 23020 8950
internal_value=-4.46012e-08 0.000783457 -0.000963367 -0.000361871 0.00116877 -0.0017357 -0.000269806
internal_weight=906987 500178 406809 228695 366208 178113 133970
internal_count=143200 71600 71600 25560 53700 46040 17900
cat_boundaries=0 1 2 3 4
cat_threshold=5 8 8 3
is_linear=0
shrinkage=0.039586


Tree=15
num_leaves=8
num_cat=1
split_feature=66 68 75 48 65 28 6
split_gain=402.962 111.241 37.654 34.0487 16.8612 11.65 8.29888
threshold=0 11.500000000000002 1.5000000000000002 56.500000000000007 41.215381631648746 0.27055180180180188 1768.5000000000002
decision_type=1 2 2 2 2 2 2
left_child=2 5 3 -1 -3 -2 -4
right_child=1 4 6 -5 -6 -7 -8
leaf_value=0.00073551453449217073 -0.00058413544842224015 -0.0020349736633302586 -0.00040836964757589412 0.0016537570795067929 -0.0012636437234574481 -1.0141254029897024e-05 0.00037450463447689009
leaf_weight=337367.70004507899 134430.90000550449 93129.60003888607 41389.400002807379 77893.099999129772 84983.600001275539 94264.500002011657 43528
leaf_count=55520 15371 35800 6208 5840 10240 10189 4032
internal_value=-4.57778e-08 -0.000925238 0.000752444 0.000907776 -0.001667 -0.000347551 -7.07618e-06
internal_weight=906987 406809 500178 415261 178113 228695 84917.4
internal_count=143200 71600 71600 61360 46040 25560 10240
cat_boundaries=0 1
cat_threshold=5
is_linear=0
shrinkage=0.039586


Tree=16
num_leaves=8
num_cat=0
split_feature=65 65 75 75 67 53 9
split_gain=252.989 206.265 45.1097 34.732 10.4041 8.58528 6.10166
threshold=20.87652249395104 36.018637308107678 1.5000000000000002 1.5000000000000002 19.658448540706608 25.181318681318682 148.50000000000003
decision_type=2 2 2 2 2 2 2
left_child=4 3 -3 -2 6 -6 -1
right_child=1 2 -4 -5 5 -7 -8
leaf_value=-0.00083783574832681522 0.00087184157922967122 -0.0003571635181121037 -0.0016202973472603664 -6.7961343329415403e-06 -0.0027753255492813144 -0.0017893560586211181 -0.0018643272202579408
leaf_weight=15347.400007367134 415260.80004420877 260289.60001072288 53389.39999806881 84917.400002807379 28679.600016787648 26850.600004777312 22252.000009953976
leaf_count=7684 61360 30680 5120 10240 10790 6366 10960
internal_value=-4.43655e-08 0.000223607 -0.00057218 0.000722673 -0.00195442 -0.00229881 -0.00144552
internal_weight=906987 813857 313679 500178 93129.6 55530.2 37599.4
internal_count=143200 107400 35800 71600 35800 17156 18644
is_linear=0
shrinkage=0.039586


Tree=17
num_leaves=8
num_cat=3
split_feature=66 1 1 68 67 53 6
split_gain=342.849 116.583 95.5821 93.5028 31.2571 15.0568 9.00041
threshold=0 1 2 11.500000000000002 12.629032258064518 49.884615384615394 1768.5000000000002
decision_type=1 1 1 2 2 2 2
left_child=1 6 5 -4 -3 -2 -1
right_child=2 4 3 -5 -6 -7 -8
leaf_value=-0.00063301428434409904 -0.0026621204579640977 -0.00040411769714555695 0.0001326077248324442 -0.0012825526319853431 0.0011509876632817156 -0.0015868842597772329 1.5937209466309583e-05
leaf_weight=66286.400010347366 27170.000011235476 21515.800010889769 167535.40000680089 129879.40002924204 344692.00002577901 82223.800000399351 67684
leaf_count=10876 10210 8950 19170 34530 44750 7690 7024
internal_value=-4.46987e-08 0.000694052 -0.000853442 -0.000485381 0.00105959 -0.0018539 -0.000305144
internal_weight=906987 500178 406809 297415 366208 109394 133970
internal_count=143200 71600 71600 53700 53700 17900 17900
cat_boundaries=0 1 2 3
cat_threshold=5 8 8
is_linear=0
shrinkage=0.039586


Tree=18
num_leaves=8
num_cat=3
split_feature=66 1 1 68 67 53 48
split_gain=316.244 107.536 88.1655 86.2468 28.8316 13.8888 8.68716
threshold=0 1 2 11.500000000000002 12.629032258064518 49.884615384615394 47.500000000000007
decision_type=1 1 1 2 2 2 2
left_child=1 6 5 -4 -3 -2 -1
right_child=2 4 3 -5 -6 -7 -8
leaf_value=-0.00072454977072551531 -0.002556759881127 -0.00038812450465091144 0.00012735847851437303 -0.0012317836718019485 0.0011054253934008732 -0.0015240701601584776 -5.75827892775801e-05
leaf_weight=47300.500009149313 27170.000011235476 21515.800010889769 167535.40000680089 129879.40002924204 344692.00002577901 82223.800000399351 86669.900001198053
leaf_count=8128 10210 8950 19170 34530 44750 7690 9772
internal_value=-4.42391e-08 0.000666577 -0.000819661 -0.000466168 0.00101764 -0.00178052 -0.000293066
internal_weight=906987 500178 406809 297415 366208 109394 133970
internal_count=143200 71600 71600 53700 53700 17900 17900
cat_boundaries=0 1 2 3
cat_threshold=5 8 8
is_linear=0
shrinkage=0.039586


Tree=19
num_leaves=8
num_cat=4
split_feature=66 1 68 1 15 1 6
split_gain=291.703 99.1906 81.3655 68.991 23.6209 21.1027 8.31431
threshold=0 1 11.500000000000002 2 4.5000000000000009 3 1768.5000000000002
decision_type=1 1 2 1 2 1 2
left_child=1 6 3 -2 -3 -4 -1
right_child=2 4 5 -5 -6 -7 -8
leaf_value=-0.00059659055823900367 -0.0014309282614513622 0.0011645640192425339 -0.00086664335998333855 0.00012230975014819825 0.0004373484910590528 -0.0017565405153040789 2.7134908134714544e-05
leaf_weight=66286.400010347366 61160.000000715256 271944.20002448559 67075.600019901991 167535.40000680089 94263.600012183189 111037.60002025962 67684
leaf_count=10876 6390 38340 23020 19170 15360 23020 7024
internal_value=-4.37889e-08 0.00064019 -0.000787217 -0.000293155 0.000977358 -0.0014216 -0.000281466
internal_weight=906987 500178 406809 228695 366208 178113 133970
internal_count=143200 71600 71600 25560 53700 46040 17900
cat_boundaries=0 1 2 3 4
cat_threshold=5 8 8 3
is_linear=0
shrinkage=0.039586


Tree=20
num_leaves=8
num_cat=1
split_feature=66 68 6 48 75 68 31
split_gain=269.068 75.0519 30.8345 21.5871 16.4564 13.5901 9.99949
threshold=0 11.500000000000002 1813.5000000000002 56.500000000000007 1.5000000000000002 24.500000000000004 0.23493100944081338
decision_type=1 2 2 2 2 2 2
left_child=2 6 4 -4 -1 -3 -2
right_child=1 5 3 -5 -6 -7 -8
leaf_value=0.00045368840545982928 -0.00060739736689391756 -0.0011852438979102116 0.00073245630551049465 0.0016244944316978871 -0.00039108756725486003 -0.0020296724265294877 -7.1277018214747922e-05
leaf_weight=209812.80004420877 89694.600003473461 140139.80002474785 192120 54596 43649.400002807379 37973.400015413761 139000.80000404269
leaf_count=38512 10469 30688 23149 3507 6432 15352 15091
internal_value=-4.45137e-08 -0.00075606 0.000614848 0.000929889 0.000308202 -0.00136533 -0.000281554
internal_weight=906987 406809 500178 246716 253462 178113 228695
internal_count=143200 71600 71600 26656 44944 46040 25560
cat_boundaries=0 1
cat_threshold=5
is_linear=0
shrinkage=0.039586


Tree=21
num_leaves=8
num_cat=3
split_feature=66 1 1 65 67 53 48
split_gain=248.188 90.2563 75.446 58.5824 26.4046 11.9374 8.02319
threshold=0 1 2 36.018637308107678 12.629032258064518 50.697802197802204 47.500000000000007
decision_type=1 1 1 2 2 2 2
left_child=1 6 5 -4 -3 -2 -1
right_child=2 4 3 -5 -6 -7 -8
leaf_value=-0.00070332427754758124 -0.0022587494139488305 -0.00043315306531841867 -0.0013980540816689094 -9.0147137756793199e-05 0.0009961406566929103 -0.001349203077706139 -6.2351961639388142e-05
leaf_weight=47300.500009149313 31970.400011479855 21515.800010889769 70261.200028061867 227153.60000798106 344692.00002577901 77423.400000154972 86669.900001198053
leaf_count=8128 10678 8950 26850 26850 44750 7222 9772
internal_value=-4.31211e-08 0.00059051 -0.000726133 -0.000399134 0.000912135 -0.00161498 -0.000288657
internal_weight=906987 500178 406809 297415 366208 109394 133970
internal_count=143200 71600 71600 53700 53700 17900 17900
cat_boundaries=0 1 2 3
cat_threshold=5 8 8
is_linear=0
shrinkage=0.039586


Tree=22
num_leaves=8
num_cat=0
split_feature=65 65 75 77 75 72 77
split_gain=163.439 124.304 30.3626 28.3705 7.04253 4.81271 2.24737
threshold=20.87652249395104 36.018637308107678 1.5000000000000002 2022.9650924024643 1.5000000000000002 45.500000000000007 2023.8528405201919
decision_type=2 2 2 2 2 2 2
left_child=4 3 -3 -2 5 -1 -6
right_child=1 2 -4 -5 6 -7 -8
leaf_value=-0.0011686973145446393 0.00027299473819028574 -0.00026164796818250698 -0.0012979427829108187 0.00086932485126568662 -0.0026690264764802352 -0.0018053067575007173 -0.0016059926112238201
leaf_weight=47328.000021010637 253462.20004701614 260289.60001072288 53389.39999806881 246716 10600.800006270409 30736.800011605024 4464
leaf_count=18816 44944 30680 5120 26656 3952 11864 1168
internal_value=-4.27409e-08 0.00017972 -0.00043805 0.000567145 -0.0015709 -0.00141947 -0.00235476
internal_weight=906987 813857 313679 500178 93129.6 78064.8 15064.8
internal_count=143200 107400 35800 71600 35800 30680 5120
is_linear=0
shrinkage=0.039586


Tree=23
num_leaves=8
num_cat=3
split_feature=66 1 1 68 67 53 65
split_gain=211.164 83.1936 68.9123 60.7111 24.3405 10.2148 7.48292
threshold=0 1 2 11.500000000000002 12.629032258064518 50.697802197802204 27.24485496151901
decision_type=1 1 1 2 2 2 2
left_child=1 6 5 -4 -3 -2 -1
right_child=2 4 3 -5 -6 -7 -8
leaf_value=-0.00064202989857453554 -0.0021147961411453627 -0.00043816514488833155 0.00014069711949256741 -0.00099962380515427728 0.00093412351225166841 -0.0012734177869231558 -4.3949074709017444e-05
leaf_weight=57218.200006902218 31970.400011479855 21515.800010889769 167535.40000680089 129879.40002924204 344692.00002577901 77423.400000154972 76752.200003445148
leaf_count=8950 10678 8950 19170 34530 44750 7222 8950
internal_value=-4.29685e-08 0.000544683 -0.000669789 -0.000357272 0.000853469 -0.00151927 -0.000299381
internal_weight=906987 500178 406809 297415 366208 109394 133970
internal_count=143200 71600 71600 53700 53700 17900 17900
cat_boundaries=0 1 2 3
cat_threshold=5 8 8
is_linear=0
shrinkage=0.039586


Tree=24
num_leaves=8
num_cat=1
split_feature=66 68 75 48 67 68 6
split_gain=194.777 56.4362 26.5508 24.4023 24.1785 10.784 5.75499
threshold=0 11.500000000000002 1.5000000000000002 56.500000000000007 54.913824884792632 24.500000000000004 1768.5000000000002
decision_type=1 2 2 2 2 2 2
left_child=2 4 3 -1 -2 -3 -4
right_child=1 5 6 -5 -6 -7 -8
leaf_value=0.00050772582642194639 -7.0286067648690615e-05 -0.0010111938998318443 -0.00044882625676601691 0.0012850769806727472 -0.001257519656842994 -0.0017633940165349301 0.00020311204734804893
leaf_weight=337367.70004507899 197587.40000835061 140139.80002474785 41389.400002807379 77893.099999129772 31107.999999165535 37973.400015413761 43528
leaf_count=55520 22408 30688 6208 5840 3152 15352 4032
internal_value=-4.23803e-08 -0.000643277 0.000523121 0.000653554 -0.000231805 -0.00117161 -0.000114657
internal_weight=906987 406809 500178 415261 228695 178113 84917.4
internal_count=143200 71600 71600 61360 25560 46040 10240
cat_boundaries=0 1
cat_threshold=5
is_linear=0
shrinkage=0.039586


Tree=25
num_leaves=8
num_cat=1
split_feature=66 65 6 75 48 75 75
split_gain=179.663 47.9011 25.6446 24.7527 17.1483 13.0927 6.05347
threshold=0 36.018637308107678 1813.5000000000002 1.5000000000000002 56.500000000000007 1.5000000000000002 1.5000000000000002
decision_type=1 2 2 2 2 2 2
left_child=2 6 5 -3 -4 -1 -2
right_child=1 3 4 -5 -6 -7 -8
leaf_value=0.00035253250209732592 -0.0012657677934215226 -0.00022448525621465644 0.0006137540413636691 -0.0011601600374483579 0.0014088044061520493 -0.00040097381039018448 -0.0021328619651380773
leaf_weight=209812.80004420877 78064.800032615662 260289.60001072288 192120 53389.39999806881 54596 43649.400002807379 15064.800006270409
leaf_count=38512 30680 30680 23149 5120 3507 6432 5120
internal_value=-4.13296e-08 -0.000617814 0.000502414 -0.000383759 0.00078972 0.000222763 -0.00140615
internal_weight=906987 406809 500178 313679 246716 253462 93129.6
internal_count=143200 71600 71600 35800 26656 44944 35800
cat_boundaries=0 1
cat_threshold=5
is_linear=0
shrinkage=0.039586


Tree=26
num_leaves=8
num_cat=3
split_feature=66 1 1 68 67 53 48
split_gain=165.721 74.4055 61.4813 48.4765 22.231 8.30107 6.89505
threshold=0 1 2 11.500000000000002 12.629032258064518 50.697802197802204 47.500000000000007
decision_type=1 1 1 2 2 2 2
left_child=1 6 5 -4 -3 -2 -1
right_child=2 4 3 -5 -6 -7 -8
leaf_value=-0.00070012462777641299 -0.0019325885808741967 -0.00045984169843241331 0.00014679610868212567 -0.00087216681992937088 0.00085162704914411281 -0.0011740996147429482 -0.00010591762376518563
leaf_weight=47300.500009149313 31970.400011479855 21515.800010889769 167535.40000680089 129879.40002924204 344692.00002577901 77423.400000154972 86669.900001198053
leaf_count=8128 10678 8950 19170 34530 44750 7222 9772
internal_value=-4.03943e-08 0.000482526 -0.00059336 -0.000298178 0.000774547 -0.00139573 -0.00031571
internal_weight=906987 500178 406809 297415 366208 109394 133970
internal_count=143200 71600 71600 53700 53700 17900 17900
cat_boundaries=0 1 2 3
cat_threshold=5 8 8
is_linear=0
shrinkage=0.039586


Tree=27
num_leaves=8
num_cat=1
split_feature=1 65 65 69 65 6 15
split_gain=125.687 96.0778 54.151 35.3444 11.871 6.88157 5.24752
threshold=0 20.87652249395104 36.018637308107678 12.500000000000002 20.87652249395104 1768.5000000000002 4.5000000000000009
decision_type=1 2 2 2 2 2 2
left_child=3 6 -3 5 -5 -1 -2
right_child=1 2 -4 4 -6 -7 -8
leaf_value=-0.00044209922216718146 -0.00090272868750475581 0.00074390651818345796 -3.4093737851616639e-05 -0.0019310843775255573 -0.0009599961832726056 0.00030751741427388737 -0.0016899659758050935
leaf_weight=38312.200003445148 52490.000020861626 366207.80003666878 227153.60000798106 22868.400010824203 143743.60000771284 38440 17771.200007200241
leaf_count=5438 19170 53700 26850 8950 17900 3512 7680
internal_value=-3.98583e-08 0.00028216 0.000446071 -0.00076953 -0.00109335 -6.66719e-05 -0.00110197
internal_weight=906987 663623 593361 243364 166612 76752.2 70261.2
internal_count=143200 107400 80550 35800 26850 8950 26850
cat_boundaries=0 1
cat_threshold=8
is_linear=0
shrinkage=0.039586


Tree=28
num_leaves=8
num_cat=3
split_feature=66 1 1 68 67 6 6
split_gain=141.974 62.585 53.0387 42.6496 20.5059 7.93589 5.98402
threshold=0 1 2 11.500000000000002 12.629032258064518 2083.5000000000005 814.50000000000011
decision_type=1 1 1 2 2 2 2
left_child=1 6 5 -4 -3 -2 -1
right_child=2 4 3 -5 -6 -7 -8
leaf_value=-0.0008167151514669736 -0.001534200111130453 -0.0004710837311076999 0.00014233479452248446 -0.0008134282855395184 0.0007884672196790621 -0.00081991674477642593 -0.00015372674495583964
leaf_weight=26620.400001049042 72685.800011634827 21515.800010889769 167535.40000680089 129879.40002924204 344692.00002577901 36708 107350.00000929832
leaf_count=3244 13396 8950 19170 34530 44750 4504 14656
internal_value=-3.95189e-08 0.000446617 -0.000549207 -0.00027504 0.000714439 -0.00129445 -0.000285473
internal_weight=906987 500178 406809 297415 366208 109394 133970
internal_count=143200 71600 71600 53700 53700 17900 17900
cat_boundaries=0 1 2 3
cat_threshold=5 8 8
is_linear=0
shrinkage=0.039586


Tree=29
num_leaves=8
num_cat=3
split_feature=66 1 1 68 15 76 65
split_gain=130.957 57.7284 48.9231 39.3399 19.2587 7.09143 5.63137
threshold=0 1 2 11.500000000000002 4.5000000000000009 2022.5000000000002 27.24485496151901
decision_type=1 1 1 2 2 2 2
left_child=1 6 5 -4 -3 -2 -1
right_child=2 4 3 -5 -6 -7 -8
leaf_value=-0.00057142405236655712 -0.0015505959396814838 0.00085518838826046902 0.00013670051465805748 -0.0007812292974666631 0.00019856521262156239 -0.00091249992133672934 -5.25855110041217e-05
leaf_weight=57218.200006902218 56705.800011634827 271944.20002448559 167535.40000680089 129879.40002924204 94263.600012183189 52688 76752.200003445148
leaf_count=8950 11332 38340 19170 34530 15360 6568 8950
internal_value=-3.88624e-08 0.000428937 -0.000527468 -0.000264153 0.000686158 -0.00124322 -0.000274174
internal_weight=906987 500178 406809 297415 366208 109394 133970
internal_count=143200 71600 71600 53700 53700 17900 17900
cat_boundaries=0 1 2 3
cat_threshold=5 8 8
is_linear=0
shrinkage=0.039586


Tree=30
num_leaves=8
num_cat=1
split_feature=66 68 77 67 53 75 69
split_gain=120.794 36.6797 22.8276 15.8951 13.7767 10.5253 9.34352
threshold=0 11.500000000000002 2022.9650924024643 54.913824884792632 33.906593406593409 1.5000000000000002 40.500000000000007
decision_type=1 2 2 2 2 2 2
left_child=2 3 5 -2 -4 -1 -3
right_child=1 6 4 -5 -6 -7 -8
leaf_value=0.00026446640305103557 -4.3907121437820267e-05 -0.00072243955422416652 0.0003748950850646878 -0.0010065242706578726 0.00096703186994385895 -0.0004111319968842285 -0.0013239522316435064
leaf_weight=209812.80004420877 197587.40000835061 115915.60001561046 118340 31107.999999165535 128376 43649.400002807379 62197.600024551153
leaf_count=38512 22408 22520 16984 3152 9672 6432 23520
internal_value=-3.80022e-08 -0.000506589 0.000411957 -0.000174868 0.000683022 0.000148113 -0.000932525
internal_weight=906987 406809 500178 228695 246716 253462 178113
internal_count=143200 71600 71600 25560 26656 44944 46040
cat_boundaries=0 1
cat_threshold=5
is_linear=0
shrinkage=0.039586


Tree=31
num_leaves=8
num_cat=1
split_feature=1 65 65 68 65 77 64
split_gain=97.3318 72.113 40.1489 26.4299 9.54432 5.6241 4.85019
threshold=0 20.87652249395104 40.01623310048803 6.5000000000000009 20.87652249395104 2022.8418891170434 1.0000000180025095e-35
decision_type=1 2 2 2 2 2 2
left_child=3 6 -3 5 -5 -1 -2
right_child=1 2 -4 4 -6 -7 -8
leaf_value=-0.00040879096782052589 -0.0012979216704855363 0.00058928429963355314 -0.00014256424473224882 -0.0017083674601994171 -0.00083763708521302101 0.00026888489745154195 -0.00063900082336550384
leaf_weight=38312.200003445148 33243.600017130375 432033.00003799796 161328.40000665188 22868.400010824203 143743.60000771284 38440 37017.600010931492
leaf_count=5438 14100 61368 19182 8950 17900 3512 12750
internal_value=-3.69645e-08 0.000248298 0.000390303 -0.000677187 -0.000957204 -6.93941e-05 -0.000950845
internal_weight=906987 663623 593361 243364 166612 76752.2 70261.2
internal_count=143200 107400 80550 35800 26850 8950 26850
cat_boundaries=0 1
cat_threshold=8
is_linear=0
shrinkage=0.039586


Tree=32
num_leaves=8
num_cat=3
split_feature=66 1 1 69 75 69 6
split_gain=104.294 49.9335 40.986 28.0443 20.0221 13.4911 6.83306
threshold=0 1 2 23.500000000000004 1.5000000000000002 24.500000000000004 1849.5000000000002
decision_type=1 1 1 2 2 2 2
left_child=1 4 6 -4 -1 -3 -2
right_child=2 5 3 -5 -6 -7 -8
leaf_value=0.00082336696319379964 -0.001420487793033394 0.00015779357710456022 2.3952425019952992e-05 -0.00081220662939058435 -6.5112129788182002e-05 -0.00052147281214351545 -0.00079344084967078075
leaf_weight=265099.80001419783 57997.800011634827 109588.6000148952 207190.40000686049 90224.400029182434 46755.80000013113 78734.000017791986 51396
leaf_count=30680 11524 17900 24618 29082 5120 17900 6376
internal_value=-3.65445e-08 0.000382786 -0.00047072 -0.00022971 0.000690138 -0.000126195 -0.00112584
internal_weight=906987 500178 406809 297415 311856 188323 109394
internal_count=143200 71600 71600 53700 35800 35800 17900
cat_boundaries=0 1 2 3
cat_threshold=5 6 8
is_linear=0
shrinkage=0.039586


Tree=33
num_leaves=8
num_cat=1
split_feature=66 68 6 67 46 75 6
split_gain=96.2003 30.426 20.634 12.5377 11.4076 8.75522 7.62841
threshold=0 11.500000000000002 1813.5000000000002 54.913824884792632 50.500000000000007 1.5000000000000002 2020.5000000000002
decision_type=1 2 2 2 2 2 2
left_child=2 3 5 -2 -4 -1 -3
right_child=1 6 4 -5 -6 -7 -8
leaf_value=0.00022290555426979271 -3.3655079550350969e-05 -0.0010377603103640051 0.00038069585031501633 -0.00088858473061838826 0.00092154018871427195 -0.00039326897790820353 -0.00050053670600896504
leaf_weight=209812.80004420877 197587.40000835061 112545.20004016161 135122 31107.999999165535 111594 43649.400002807379 65568
leaf_count=38512 22408 33144 18350 3152 8306 6432 12896
internal_value=-3.57568e-08 -0.000452087 0.000367633 -0.000149965 0.000625345 0.000116786 -0.000840017
internal_weight=906987 406809 500178 228695 246716 253462 178113
internal_count=143200 71600 71600 25560 26656 44944 46040
cat_boundaries=0 1
cat_threshold=5
is_linear=0
shrinkage=0.039586


Tree=34
num_leaves=8
num_cat=1
split_feature=66 68 6 67 48 75 68
split_gain=88.7351 28.0649 19.0328 11.5649 11.5639 8.07583 7.30354
threshold=0 11.500000000000002 1813.5000000000002 54.913824884792632 56.500000000000007 1.5000000000000002 25.500000000000004
decision_type=1 2 2 2 2 2 2
left_child=2 3 5 -2 -4 -1 -3
right_child=1 6 4 -5 -6 -7 -8
leaf_value=0.00021408185733304714 -3.2322840062980136e-05 -0.00070572815894973844 0.00045609278705985599 -0.00085341565010989859 0.0011089714702923047 -0.00037770302767920058 -0.0014430404063040371
leaf_weight=209812.80004420877 197587.40000835061 153715.80002990365 192120 31107.999999165535 54596 43649.400002807379 24397.400010257959
leaf_count=38512 22408 35800 23149 3152 3507 6432 10240
internal_value=-3.4663e-08 -0.000434192 0.00035308 -0.00014403 0.000600591 0.000112163 -0.000806766
internal_weight=906987 406809 500178 228695 246716 253462 178113
internal_count=143200 71600 71600 25560 26656 44944 46040
cat_boundaries=0 1
cat_threshold=5
is_linear=0
shrinkage=0.039586


Tree=35
num_leaves=8
num_cat=1
split_feature=1 65 65 69 65 75 6
split_gain=80.8691 54.1076 29.9344 19.3823 7.56465 4.80457 4.57771
threshold=0 20.87652249395104 40.01623310048803 12.500000000000002 20.87652249395104 1.5000000000000002 1768.5000000000002
decision_type=1 2 2 2 2 2 2
left_child=3 5 -3 6 -5 -2 -1
right_child=1 2 -4 4 -6 -7 -8
leaf_value=-0.00040297575710155704 -0.00069131755968492394 0.00052114814267008053 -0.00011078288201518834 -0.0015258017990188888 -0.00075061496021172115 -0.0016982379468593093 0.00020841779773394126
leaf_weight=38312.200003445148 61822.600024849176 432033.00003799796 161328.40000665188 22868.400010824203 143743.60000771284 8438.6000032126904 38440
leaf_count=5438 24290 61368 19182 8950 17900 2560 3512
internal_value=-3.36999e-08 0.000226328 0.000349334 -0.000617266 -0.000857062 -0.000812381 -9.67773e-05
internal_weight=906987 663623 593361 243364 166612 70261.2 76752.2
internal_count=143200 107400 80550 35800 26850 26850 8950
cat_boundaries=0 1
cat_threshold=8
is_linear=0
shrinkage=0.039586


Tree=36
num_leaves=8
num_cat=3
split_feature=66 1 1 68 75 68 76
split_gain=76.571 42.0386 33.5558 23.7841 17.7192 11.5665 5.75416
threshold=0 1 2 11.500000000000002 1.5000000000000002 13.500000000000002 2022.5000000000002
decision_type=1 1 1 2 2 2 2
left_child=1 5 6 -4 -3 -1 -2
right_child=2 4 3 -5 -6 -7 -8
leaf_value=0.00012392767261256248 -0.0012729625399049592 0.00073532874267398626 0.00012641598118122197 -0.00058731698232948441 -0.00010049056366778386 -0.00050502430651394169 -0.0006982191565429903
leaf_weight=109588.6000148952 56705.800011634827 265099.80001419783 167535.40000680089 129879.40002924204 46755.80000013113 78734.000017791986 52688
leaf_count=17900 11332 30680 19170 34530 5120 17900 6568
internal_value=-3.34827e-08 0.000327987 -0.000403337 -0.000185266 0.000609997 -0.000139025 -0.000996105
internal_weight=906987 500178 406809 297415 311856 188323 109394
internal_count=143200 71600 71600 53700 35800 35800 17900
cat_boundaries=0 1 2 3
cat_threshold=5 9 8
is_linear=0
shrinkage=0.039586


Tree=37
num_leaves=8
num_cat=2
split_feature=66 66 6 75 48 67 67
split_gain=70.629 21.9606 17.2481 13.1757 10.5835 7.89 5.8326
threshold=0 1 1768.5000000000002 1.5000000000000002 56.500000000000007 27.111175115207377 19.658448540706608
decision_type=1 1 2 2 2 2 2
left_child=2 3 5 -2 -4 -1 -3
right_child=1 6 4 -5 -6 -7 -8
leaf_value=0.00046756121760627856 -0.00011267101185487364 -0.00054037702988271499 0.0004044022398276277 -0.00079532317142723397 0.0010140359512650922 -5.634375009516503e-05 -0.0011790061397364785
leaf_weight=59955.600033223629 260289.60001072288 37599.40001732111 201844 53389.39999806881 57292 181086.60001379251 55530.20002156496
leaf_count=17770 30680 18644 24409 5120 3687 25734 17156
internal_value=-3.26997e-08 -0.000387372 0.000315003 -0.000228866 0.000539205 7.39777e-05 -0.000921121
internal_weight=906987 406809 500178 313679 259136 241042 93129.6
internal_count=143200 71600 71600 35800 28096 43504 35800
cat_boundaries=0 1 2
cat_threshold=5 2
is_linear=0
shrinkage=0.039586


Tree=38
num_leaves=8
num_cat=3
split_feature=1 66 69 66 67 6 6
split_gain=68.2914 47.5835 19.6502 17.3972 15.9724 5.79742 4.45141
threshold=0 1 23.500000000000004 2 12.629032258064518 2083.5000000000005 814.50000000000011
decision_type=1 1 2 1 2 2 2
left_child=3 4 -3 6 -2 -5 -1
right_child=1 2 -4 5 -6 -7 -8
leaf_value=-0.00072291754234109337 -0.00053622526503356192 4.8361876791609592e-05 -0.0006515596876620418 -0.0011425045390386721 0.00057539038744870762 -0.00053206496861060021 -0.00015109703603011094
leaf_weight=26620.400001049042 21515.800010889769 207190.40000686049 90224.400029182434 72685.800011634827 344692.00002577901 36708 107350.00000929832
leaf_count=3244 8950 24618 29082 13396 44750 4504 14656
internal_value=-3.16008e-08 0.000207983 -0.000163971 -0.000567237 0.000510058 -0.000937619 -0.000264726
internal_weight=906987 663623 297415 243364 366208 109394 133970
internal_count=143200 107400 53700 35800 53700 17900 17900
cat_boundaries=0 1 2 3
cat_threshold=8 5 5
is_linear=0
shrinkage=0.039586


Tree=39
num_leaves=8
num_cat=3
split_feature=1 66 68 66 67 6 6
split_gain=62.992 43.8909 19.729 16.0471 14.733 5.39975 4.10604
threshold=0 1 11.500000000000002 2 12.629032258064518 1948.5000000000002 814.50000000000011
decision_type=1 1 2 1 2 2 2
left_child=3 4 -3 6 -2 -5 -1
right_child=1 2 -4 5 -6 -7 -8
leaf_value=-0.00069430629791021907 -0.00051500388536839024 0.00012639101334574254 -0.00052365614605904664 -0.0011358080709757399 0.00055261332876468949 -0.00057161595985570439 -0.00014511602499247736
leaf_weight=26620.400001049042 21515.800010889769 167535.40000680089 129879.40002924204 63777.800011634827 344692.00002577901 45616 107350.00000929832
leaf_count=3244 8950 19170 34530 12316 44750 5584 14656
internal_value=-3.11359e-08 0.00019975 -0.00015748 -0.000544785 0.000489867 -0.000900506 -0.000254248
internal_weight=906987 663623 297415 243364 366208 109394 133970
internal_count=143200 107400 53700 35800 53700 17900 17900
cat_boundaries=0 1 2 3
cat_threshold=8 5 5
is_linear=0
shrinkage=0.039586


Tree=40
num_leaves=8
num_cat=3
split_feature=1 66 68 66 15 77 77
split_gain=58.1039 40.4848 18.198 14.8019 14.6239 4.99603 3.78748
threshold=0 1 11.500000000000002 2 4.5000000000000009 2023.7049965776866 2020.2313483915129
decision_type=1 1 2 1 2 2 2
left_child=3 4 -3 6 -2 -5 -1
right_child=1 2 -4 5 -6 -7 -8
leaf_value=-0.000666827368594474 0.00061776510167593269 0.00012138786287030801 -0.00050292757852367115 -0.001055059204090384 4.5592286767050651e-05 -0.00048838140935753124 -0.00013937175046205549
leaf_weight=26620.400001049042 271944.20002448559 167535.40000680089 129879.40002924204 72685.800011634827 94263.600012183189 36708 107350.00000929832
leaf_count=3244 38340 19170 34530 13396 15360 4504 14656
internal_value=-3.06251e-08 0.000191842 -0.000151247 -0.000523221 0.000470475 -0.000864862 -0.000244185
internal_weight=906987 663623 297415 243364 366208 109394 133970
internal_count=143200 107400 53700 35800 53700 17900 17900
cat_boundaries=0 1 2 3
cat_threshold=8 5 5
is_linear=0
shrinkage=0.039586


Tree=41
num_leaves=8
num_cat=1
split_feature=1 68 75 68 68 9 6
split_gain=53.5951 35.4619 21.0682 13.1254 5.55713 4.65522 3.60051
threshold=0 20.500000000000004 1.5000000000000002 6.5000000000000009 20.500000000000004 146.50000000000003 1768.5000000000002
decision_type=1 2 2 2 2 2 2
left_child=3 2 -2 6 -5 -3 -1
right_child=1 5 -4 4 -6 -7 -8
leaf_value=-0.00034575127495801116 0.00037340280946551025 -0.00026638207487206304 -0.00033732413225839603 -0.00060860931307850981 -0.001273010110484729 -0.00092272019137439845 0.0001964719969243098
leaf_weight=38312.200003445148 518581.60004654527 28487.200012892485 74779.799998104572 143743.60000771284 22868.400010824203 41774.000015169382 38440
leaf_count=5438 72870 11130 7680 17900 8950 15720 3512
internal_value=-2.99213e-08 0.000184248 0.000283829 -0.000502511 -0.000699843 -0.000656653 -7.41938e-05
internal_weight=906987 663623 593361 243364 166612 70261.2 76752.2
internal_count=143200 107400 80550 35800 26850 26850 8950
cat_boundaries=0 1
cat_threshold=8
is_linear=0
shrinkage=0.039586


Tree=42
num_leaves=8
num_cat=3
split_feature=1 66 68 67 66 6 6
split_gain=49.436 36.2639 15.2479 13.6565 12.8584 4.64749 3.39134
threshold=0 1 11.500000000000002 12.629032258064518 2 1948.5000000000002 814.50000000000011
decision_type=1 1 2 2 1 2 2
left_child=4 3 -3 -2 6 -6 -1
right_child=1 2 -4 -5 5 -7 -8
leaf_value=-0.00062247780477568595 -0.00052679823325879887 0.00010180174099304851 -0.00046967333082350551 0.00050107231562427105 -0.0010193336416616165 -0.00049592598267146723 -0.00012336846923260809
leaf_weight=26620.400001049042 21515.800010889769 167535.40000680089 129879.40002924204 344692.00002577901 63777.800011634827 45616 107350.00000929832
leaf_count=3244 8950 19170 34530 44750 12316 5584 14656
internal_value=-2.95432e-08 0.000176954 -0.000147758 0.000440663 -0.000482621 -0.000801043 -0.000222549
internal_weight=906987 663623 297415 366208 243364 109394 133970
internal_count=143200 107400 53700 53700 35800 17900 17900
cat_boundaries=0 1 2 3
cat_threshold=8 5 5
is_linear=0
shrinkage=0.039586


Tree=43
num_leaves=8
num_cat=3
split_feature=1 66 68 6 66 6 0
split_gain=45.5998 33.4497 14.2521 13.2255 11.8606 4.29871 4.00368
threshold=0 1 12.500000000000002 1813.5000000000002 2 2083.5000000000005 81.500000000000014
decision_type=1 1 2 2 1 2 10
left_child=4 3 -3 -2 6 -6 -1
right_child=1 2 -4 -5 5 -7 -8
leaf_value=-0.00025907846077991725 0.00018633243595211056 5.4186435783324864e-05 -0.00052483618187280272 0.00066213043108962985 -0.00094575561319903728 -0.00042012159973781971 0.0008192980937641207
leaf_weight=128344.00001072884 183879.80003666878 196691.40000501275 100723.40003103018 182328 72685.800011634827 36708 5626.3999996185303
leaf_count=17332 33708 23010 30690 19992 13396 4504 568
internal_value=-2.90355e-08 0.000169949 -0.000141909 0.000423218 -0.000463518 -0.000769336 -0.00021374
internal_weight=906987 663623 297415 366208 243364 109394 133970
internal_count=143200 107400 53700 53700 35800 17900 17900
cat_boundaries=0 1 2 3
cat_threshold=8 5 5
is_linear=0
shrinkage=0.039586


Tree=44
num_leaves=8
num_cat=1
split_feature=66 65 77 53 77 67 72
split_gain=41.8973 14.4237 13.9502 9.16239 8.69866 5.48861 4.97909
threshold=0 36.018637308107678 2022.9650924024643 33.675824175824182 2024.149212867899 22.171428571428574 45.500000000000007
decision_type=1 2 2 2 2 2 2
left_child=2 6 5 -4 -3 -1 -2
right_child=1 4 3 -5 -6 -7 -8
leaf_value=0.00039340826909834532 -0.00049700250582925204 -0.00028826410653034004 0.0001990611615507643 0.00068233709155587755 0.00019726579836537372 -5.867963165510148e-05 -0.0010891923333545301
leaf_weight=53277.600030958652 56347.200024813414 237223.00000879169 116312 130404 76456 200184.60001605749 36782.400014072657
leaf_count=16374 21944 29384 16792 9864 6416 28570 13856
internal_value=-2.79967e-08 -0.000298355 0.000242611 0.000454511 -0.00016992 3.63557e-05 -0.000730946
internal_weight=906987 406809 500178 246716 313679 253462 93129.6
internal_count=143200 71600 71600 26656 35800 44944 35800
cat_boundaries=0 1
cat_threshold=5
is_linear=0
shrinkage=0.039586


Tree=45
num_leaves=8
num_cat=2
split_feature=1 66 69 15 68 48 6
split_gain=41.8803 28.3702 12.9555 12.7539 10.2903 4.58461 2.87834
threshold=0 1 23.500000000000004 4.5000000000000009 6.5000000000000009 37.500000000000007 1768.5000000000002
decision_type=1 1 2 2 2 2 2
left_child=4 3 -3 -2 6 -6 -1
right_child=1 2 -4 -5 5 -7 -8
leaf_value=-0.00030776348046158113 0.00053366798214185746 4.8075461077406761e-05 -0.00052024486770975973 -6.671012677379174e-07 -0.0012467480698159458 -0.00055021631333156227 0.0001770412157974981
leaf_weight=38312.200003445148 271944.20002448559 207190.40000686049 90224.400029182434 94263.600012183189 16427.900007367134 150184.10001116991 38440
leaf_count=5438 38340 24618 29082 15360 6454 20396 3512
internal_value=-2.70075e-08 0.000162871 -0.000124334 0.000396119 -0.00044421 -0.000618935 -6.49624e-05
internal_weight=906987 663623 297415 366208 243364 166612 76752.2
internal_count=143200 107400 53700 53700 35800 26850 8950
cat_boundaries=0 1 2
cat_threshold=8 5
is_linear=0
shrinkage=0.039586


Tree=46
num_leaves=8
num_cat=1
split_feature=66 69 77 53 2 75 75
split_gain=35.8556 12.9343 12.6898 8.20969 6.98761 6.89073 5.50676
threshold=0 23.500000000000004 2022.8418891170434 33.675824175824182 3.329037142857143 1.5000000000000002 1.5000000000000002
decision_type=1 2 2 2 2 2 2
left_child=2 5 4 -4 -1 -2 -3
right_child=1 6 3 -5 -6 -7 -8
leaf_value=0.00010842534222407847 -4.3059606583128984e-05 -0.00050199026004825779 0.00018079235790319676 0.00062715699904528804 -0.00048299268533295972 -0.00055932580613685372 -0.0012269340972574109
leaf_weight=204069.60004147887 237416.4000094831 100938.00003385544 122160 136976 36972.600005537271 48844.199997782707 19610.000006556511
leaf_count=37856 28128 33232 17692 10404 5648 4696 5544
internal_value=-2.64015e-08 -0.000276007 0.000224438 0.000416744 1.77005e-05 -0.000131159 -0.000619972
internal_weight=906987 406809 500178 259136 241042 286261 120548
internal_count=143200 71600 71600 28096 43504 32824 38776
cat_boundaries=0 1
cat_threshold=5
is_linear=0
shrinkage=0.039586


Tree=47
num_leaves=8
num_cat=2
split_feature=1 66 15 69 69 69 0
split_gain=38.4233 24.2243 11.7441 11.3623 8.80711 3.80182 2.68974
threshold=0 1 4.5000000000000009 41.500000000000007 12.500000000000002 36.500000000000007 77.500000000000014
decision_type=1 1 2 2 2 2 10
left_child=4 2 -2 -3 6 -6 -1
right_child=1 3 -4 -5 5 -7 -8
leaf_value=-0.00013068245921863154 0.00050352819543257501 -1.0982826792255495e-05 -9.2177798118725344e-06 -0.00071773237934815272 -0.00051166345425050698 -0.0010612076753121283 0.00090484415914860003
leaf_weight=72602.20000320673 271944.20002448559 256007.60002180934 94263.600012183189 41407.200014233589 143743.60000771284 22868.400010824203 4150.0000002384186
leaf_count=8574 38340 38292 15360 15408 17900 8950 376
internal_value=-2.58217e-08 0.000156004 0.000371537 -0.000109387 -0.000425482 -0.000587125 -7.46281e-05
internal_weight=906987 663623 366208 297415 243364 166612 76752.2
internal_count=143200 107400 53700 53700 35800 26850 8950
cat_boundaries=0 1 2
cat_threshold=8 5
is_linear=0
shrinkage=0.039586


Tree=48
num_leaves=8
num_cat=3
split_feature=1 66 67 68 66 6 6
split_gain=35.4415 22.3445 12.4351 10.9247 8.23725 3.8788 2.66545
threshold=0 1 12.629032258064518 11.500000000000002 2 1849.5000000000002 814.50000000000011
decision_type=1 1 2 2 1 2 2
left_child=4 2 -2 -3 6 -6 -1
right_child=1 3 -4 -5 5 -7 -8
leaf_value=-0.00055503179100872726 -0.00056634938227038143 0.00010618115736702835 0.00041447333254934982 -0.00037754198681733364 -0.00088546222928277479 -0.00041309020192459918 -0.00011254956736856596
leaf_weight=26620.400001049042 21515.800010889769 167535.40000680089 344692.00002577901 129879.40002924204 57997.800011634827 51396 107350.00000929832
leaf_count=3244 8950 19170 44750 34530 11524 6376 14656
internal_value=-2.50672e-08 0.000149828 0.000356829 -0.000105058 -0.00040864 -0.000663502 -0.000200477
internal_weight=906987 663623 366208 297415 243364 109394 133970
internal_count=143200 107400 53700 53700 35800 17900 17900
cat_boundaries=0 1 2 3
cat_threshold=8 5 5
is_linear=0
shrinkage=0.039586


Tree=49
num_leaves=8
num_cat=3
split_feature=1 75 66 66 65 48 0
split_gain=32.6913 20.8095 17.6799 7.73411 4.42336 3.62555 2.46433
threshold=0 1.5000000000000002 1 2 23.382397167580283 37.500000000000007 77.500000000000014
decision_type=1 2 1 1 2 2 10
left_child=3 2 -2 6 -3 -5 -1
right_child=1 4 -4 5 -6 -7 -8
leaf_value=-0.00011729234822161978 0.00042529473665122721 -0.001300365146423922 -1.390480007312688e-05 -0.0011022563175850783 -0.00034448908814831657 -0.00048285123478476473 0.00087389446064009611
leaf_weight=72602.20000320673 319452.00003653765 8438.6000032126904 260952.2000348568 16427.900007367134 74779.799998104572 150184.10001116991 4150.0000002384186
leaf_count=8574 48580 2560 48580 6454 7680 20396 376
internal_value=-2.46646e-08 0.000143897 0.000227838 -0.000392465 -0.000441501 -0.000543928 -6.36293e-05
internal_weight=906987 663623 580404 243364 83218.4 166612 76752.2
internal_count=143200 107400 97160 35800 10240 26850 8950
cat_boundaries=0 1 2 3
cat_threshold=8 5 1
is_linear=0
shrinkage=0.039586


Tree=50
num_leaves=8
num_cat=2
split_feature=1 66 61 69 75 77 50
split_gain=30.8431 23.3398 17.2179 14.6034 10.0438 5.76962 5.55998
threshold=0 1 6.2811819551138806 13.500000000000002 1.5000000000000002 2023.360027378508 33.410714285714299
decision_type=1 1 2 2 2 2 2
left_child=1 4 -3 6 -1 -5 -2
right_child=3 2 -4 5 -6 -7 -8
leaf_value=0.00076654110848243682 0.00042997527034689269 -0.00032194257442467414 0.00021507909340077398 -0.00064441311434399156 -0.00017180671437436903 -0.00023905745101875428 -0.00013554860386730396
leaf_weight=118694.60001328588 41656.600013673306 140970.9000248909 278145.89999523759 134751.00004327297 21042.200001716614 93016 78709.600002616644
leaf_count=15340 10871 28300 25400 36170 2560 16040 8519
internal_value=-2.40298e-08 0.000182173 3.44479e-05 -0.000292497 0.000625194 -0.000478883 6.01803e-05
internal_weight=906987 558854 419117 348133 139737 227767 120366
internal_count=143200 71600 53700 71600 17900 52210 19390
cat_boundaries=0 1 2
cat_threshold=6 4
is_linear=0
shrinkage=0.039586


Tree=51
num_leaves=8
num_cat=1
split_feature=1 75 11 65 48 65 11
split_gain=28.4496 22.5362 12.4414 8.49083 7.13353 3.95242 2.1008
threshold=0 1.5000000000000002 227.50000000000003 20.87652249395104 53.500000000000007 23.382397167580283 314.50000000000006
decision_type=1 2 2 2 2 2 2
left_child=1 2 -1 6 -5 -3 -2
right_child=3 5 -4 4 -6 -7 -8
leaf_value=0.00044446922824220147 -0.0007480718614165402 -0.0012378570363875191 3.071550768935731e-05 -7.8350416210108161e-05 -0.00047354974184866461 -0.00033429432669562342 -0.0016320414212721503
leaf_weight=286696.40002608299 28800.000015318394 8438.6000032126904 188938.80000773072 204198.60004124045 110197.80000215769 74779.799998104572 4936.800000846386
leaf_count=38704 15492 2560 22656 41938 11762 7680 2408
internal_value=-2.31041e-08 0.000174961 0.000280114 -0.000280919 -0.000216876 -0.000425997 -0.000877681
internal_weight=906987 558854 475635 348133 314396 83218.4 33736.8
internal_count=143200 71600 61360 71600 53700 10240 17900
cat_boundaries=0 1
cat_threshold=6
is_linear=0
shrinkage=0.039586


Tree=52
num_leaves=8
num_cat=1
split_feature=1 75 69 69 77 50 69
split_gain=26.2419 20.7876 13.1348 12.0104 5.32711 5.02014 3.8775
threshold=0 1.5000000000000002 13.500000000000002 38.500000000000007 2023.360027378508 33.410714285714299 40.500000000000007
decision_type=1 2 2 2 2 2 2
left_child=1 3 5 -1 -4 -2 -3
right_child=2 6 4 -5 -6 -7 -8
leaf_value=0.00033077546258506851 0.00041605773033146924 -0.00033725540081169959 -0.00060562105228237004 -0.00037175994030429107 -0.00021612171871782584 -0.00012131061769923223 -0.0014252936413518052
leaf_weight=433831.60001695156 41656.600013673306 77727.599999278784 134751.00004327297 41803.600016862154 93016 78709.600002616644 5490.8000020384789
leaf_count=48562 10871 8560 36170 12798 16040 8519 1680
internal_value=-2.31952e-08 0.000168035 -0.0002698 0.000269026 -0.000446566 6.4674e-05 -0.000409138
internal_weight=906987 558854 348133 475635 227767 120366 83218.4
internal_count=143200 71600 71600 61360 52210 19390 10240
cat_boundaries=0 1
cat_threshold=6
is_linear=0
shrinkage=0.039586


Tree=53
num_leaves=8
num_cat=2
split_feature=1 66 67 69 7 6 48
split_gain=24.2054 21.2196 16.2424 12.1155 8.87831 4.91372 4.84524
threshold=0 1 39.408928571428582 13.500000000000002 194.50000000000003 1957.5000000000002 53.500000000000007
decision_type=1 1 2 2 2 2 2
left_child=1 4 -3 6 -1 -5 -2
right_child=3 2 -4 5 -6 -7 -8
leaf_value=0.00029690513049597544 0.00020373566050426914 -0.00023537818912222044 0.00025783341308972834 -0.00058164792335219757 0.00093085691023835104 -0.00020756683796362098 -0.0003832551030139705
leaf_weight=76494.800005227327 91328.200014561415 201655.40002807975 217461.39999204874 134751.00004327297 63242.000009775162 93016 29038.000001728535
leaf_count=9360 16055 35800 17900 36170 8540 16040 3335
internal_value=-2.28573e-08 0.000161382 2.05273e-05 -0.00025912 0.000583803 -0.000428889 6.21143e-05
internal_weight=906987 558854 419117 348133 139737 227767 120366
internal_count=143200 71600 53700 71600 17900 52210 19390
cat_boundaries=0 1 2
cat_threshold=6 4
is_linear=0
shrinkage=0.039586


Tree=54
num_leaves=8
num_cat=3
split_feature=1 77 69 66 66 0 77
split_gain=22.5815 17.0002 11.5594 7.18172 5.84423 3.2307 3.01169
threshold=0 2024.0260095824781 40.500000000000007 1 2 81.500000000000014 2023.7049965776866
decision_type=1 2 2 1 1 10 2
left_child=4 2 -2 -3 5 -1 -6
right_child=1 3 -4 -5 6 -7 -8
leaf_value=-0.00019157640432809924 5.3372647169370655e-05 0.00088451644469020394 -0.00067683483236914569 0.00030474323076165399 -0.00068850802102822495 0.00077711508174722183 -0.00024857392559935967
leaf_weight=128344.00001072884 448334.60005497932 44656 36752.000017732382 133880 72685.800011634827 5626.3999996185303 36708
leaf_count=17332 71292 5352 14700 16056 13396 568 4504
internal_value=-2.18848e-08 0.000119594 -1.95798e-06 0.000449848 -0.000326184 -0.000150851 -0.000540856
internal_weight=906987 663623 485087 178536 243364 133970 109394
internal_count=143200 107400 85992 21408 35800 17900 17900
cat_boundaries=0 1 2 3
cat_threshold=8 4 5
is_linear=0
shrinkage=0.039586


Tree=55
num_leaves=8
num_cat=1
split_feature=1 75 7 65 48 65 71
split_gain=20.9639 19.527 11.0186 7.17635 5.42808 3.1022 2.09222
threshold=0 1.5000000000000002 186.50000000000003 20.87652249395104 53.500000000000007 23.382397167580283 60.150000000000013
decision_type=1 2 2 2 2 2 2
left_child=1 2 -1 6 -5 -3 -2
right_child=3 5 -4 4 -6 -7 -8
leaf_value=6.8575006807501774e-05 -0.00051096994657235815 -0.0011284757552147142 0.0004503173524469123 -6.1431696782379924e-05 -0.00040616781430865927 -0.0003279629077993286 -0.0011386388674025909
leaf_weight=251996.00001123548 18759.20000872016 8438.6000032126904 223639.20002257824 204198.60004124045 110197.80000215769 74779.799998104572 14977.60000744462
leaf_count=30784 10100 2560 30576 41938 11762 7680 7800
internal_value=-2.04433e-08 0.000150189 0.00024807 -0.000241146 -0.000182269 -0.000409209 -0.000789772
internal_weight=906987 558854 475635 348133 314396 83218.4 33736.8
internal_count=143200 71600 61360 71600 53700 10240 17900
cat_boundaries=0 1
cat_threshold=6
is_linear=0
shrinkage=0.039586


Tree=56
num_leaves=8
num_cat=4
split_feature=66 1 6 6 1 69 1
split_gain=20.5093 13.2543 9.38076 8.40282 6.55655 5.61721 2.7722
threshold=0 1 1813.5000000000002 2270.5000000000005 2 11.500000000000002 3
decision_type=1 1 2 2 1 2 1
left_child=1 2 -1 4 -2 -3 -5
right_child=3 5 -4 6 -6 -7 -8
leaf_value=0.0001099461645261777 -0.00060476474826240596 0.00011011168307966495 0.00054417672380029872 0.0003471299559227715 -0.00019675237527840326 -0.00032318401719684948 -8.7118896597495279e-05
leaf_weight=155183.60001432896 84325.800011634827 100267.80001392961 156672 44728 230274.80003604293 88054.800018757582 47480
leaf_count=22472 14892 16412 13328 6016 44676 19388 6016
internal_value=-2.03998e-08 0.000169743 0.000328093 -0.000208746 -0.000306151 -9.2485e-05 0.000123562
internal_weight=906987 500178 311856 406809 314601 188323 92208
internal_count=143200 71600 35800 71600 59568 35800 12032
cat_boundaries=0 1 2 3 4
cat_threshold=5 6 8 5
is_linear=0
shrinkage=0.039586


Tree=57
num_leaves=8
num_cat=1
split_feature=1 75 6 68 18 2 6
split_gain=17.9953 15.528 14.2779 4.56697 2.9488 2.92967 2.085
threshold=0 1.5000000000000002 2200.5000000000005 6.5000000000000009 -0.97111920233974802 1.0834594285714287 1768.5000000000002
decision_type=1 2 2 2 2 2 2
left_child=3 2 -2 6 -3 -5 -1
right_child=1 4 -4 5 -6 -7 -8
leaf_value=-0.00024518090658538809 5.9963822402047201e-05 0.00041054960256772338 0.00050238153970839201 -2.4891079064203422e-05 -0.00046749987419825417 -0.00047958394780446502 0.00016743727310460823
leaf_weight=38312.200003445148 423892.20007139444 6497.2000002264977 156512 26384.400015294552 76721.200001090765 140227.60000324249 38440
leaf_count=5438 77800 768 19360 7236 9472 19614 3512
internal_value=-1.9852e-08 0.00010676 0.00017927 -0.000291183 -0.000398923 -0.000407583 -3.85312e-05
internal_weight=906987 663623 580404 243364 83218.4 166612 76752.2
internal_count=143200 107400 97160 35800 10240 26850 8950
cat_boundaries=0 1
cat_threshold=8
is_linear=0
shrinkage=0.039586


Tree=58
num_leaves=8
num_cat=3
split_feature=66 1 6 69 1 69 72
split_gain=18.6843 11.7885 8.3133 8.27449 6.15267 4.94843 4.25654
threshold=0 1 1813.5000000000002 23.500000000000004 2 11.500000000000002 45.500000000000007
decision_type=1 1 2 2 1 2 2
left_child=1 2 -1 4 -2 -3 -5
right_child=3 5 -4 6 -6 -7 -8
leaf_value=0.00010599250556911513 -0.00038042654008998603 0.00010486544887753091 0.00051477125706324344 -0.00031844366727217232 2.9996634414789307e-05 -0.00030181905390614283 -0.00082931496358609248
leaf_weight=155183.60001432896 79070.200000405312 100267.80001392961 156672 83765.600026339293 207190.40000686049 88054.800018757582 36782.400014072657
leaf_count=22472 8206 16412 13328 24920 24618 19388 13856
internal_value=-1.90877e-08 0.000162015 0.000311353 -0.000199242 -8.3387e-05 -8.52886e-05 -0.000474356
internal_weight=906987 500178 311856 406809 286261 188323 120548
internal_count=143200 71600 35800 71600 32824 35800 38776
cat_boundaries=0 1 2 3
cat_threshold=5 6 8
is_linear=0
shrinkage=0.039586


Tree=59
num_leaves=8
num_cat=3
split_feature=66 1 75 69 1 69 7
split_gain=17.2344 10.8737 8.79183 7.63241 5.67528 4.56443 3.97483
threshold=0 1 1.5000000000000002 23.500000000000004 2 11.500000000000002 96.500000000000014
decision_type=1 1 2 2 1 2 2
left_child=1 2 -1 4 -2 -3 -5
right_child=3 5 -4 6 -6 -7 -8
leaf_value=0.00038730788600174672 -0.00036536995335192658 0.00010071447190780612 -0.00020142863049923526 -0.000892731590009542 2.8809276770859318e-05 -0.00028987201891865358 -0.00033735484476592512
leaf_weight=265099.80001419783 79070.200000405312 100267.80001392961 46755.80000013113 25653.60000705719 207190.40000686049 88054.800018757582 94894.400033354759
leaf_count=30680 8206 16412 5120 9312 24618 19388 29464
internal_value=-1.8753e-08 0.000155602 0.000299028 -0.000191355 -8.00868e-05 -8.19126e-05 -0.00045558
internal_weight=906987 500178 311856 406809 286261 188323 120548
internal_count=143200 71600 35800 71600 32824 35800 38776
cat_boundaries=0 1 2 3
cat_threshold=5 6 8
is_linear=0
shrinkage=0.039586


Tree=60
num_leaves=8
num_cat=3
split_feature=66 1 75 6 69 69 1
split_gain=15.8971 10.0299 8.10958 7.33383 5.36409 4.21023 2.2706
threshold=0 1 1.5000000000000002 2270.5000000000005 22.500000000000004 11.500000000000002 2
decision_type=1 1 2 2 2 2 1
left_child=1 2 -1 4 -2 -3 -5
right_child=3 5 -4 6 -6 -7 -8
leaf_value=0.00037197622270046516 -0.00015025696545464495 9.6727818522240761e-05 -0.00019345585543227632 0.00032900150492523405 -0.00048935779109317474 -0.00027839786709402641 -6.4007765660848836e-05
leaf_weight=265099.80001419783 199080.60000646114 100267.80001392961 46755.80000013113 44728 115520.00004121661 88054.800018757582 47480
leaf_count=30680 24904 16412 5120 6016 34664 19388 6016
internal_value=-1.85512e-08 0.000149442 0.000287191 -0.000183782 -0.00027478 -7.86703e-05 0.000126669
internal_weight=906987 500178 311856 406809 314601 188323 92208
internal_count=143200 71600 35800 71600 59568 35800 12032
cat_boundaries=0 1 2 3
cat_threshold=5 6 5
is_linear=0
shrinkage=0.039586


Tree=61
num_leaves=8
num_cat=1
split_feature=66 76 69 22 45 75 73
split_gain=14.6634 8.23253 6.66848 6.0702 5.42829 3.73316 3.71007
threshold=0 2022.5000000000002 23.500000000000004 1.0000000180025095e-35 46.500000000000007 1.5000000000000002 12.500000000000007
decision_type=1 2 2 2 2 2 2
left_child=1 3 5 -1 -3 -2 -4
right_child=2 4 6 -5 -6 -7 -8
leaf_value=-5.5721441076159677e-05 -7.6565749326386991e-06 0.00011586995031427418 -4.9949278252763277e-05 0.00085313518764752456 0.00048981289937669948 -0.00038765227459427738 -0.00055259555133467238
leaf_weight=244551 237416.4000094831 118169 30966.600005567074 12079.200047016144 125379 48844.199997782707 89581.400034844875
leaf_count=29744 28128 16741 8196 15584 9531 4696 30580
internal_value=-1.77942e-08 0.000143526 -0.000176506 -1.29248e-05 0.000308384 -7.25011e-05 -0.000423483
internal_weight=906987 500178 406809 256630 243548 286261 120548
internal_count=143200 71600 71600 45328 26272 32824 38776
cat_boundaries=0 1
cat_threshold=5
is_linear=0
shrinkage=0.039586


Tree=62
num_leaves=8
num_cat=2
split_feature=1 66 67 8 68 50 6
split_gain=13.8959 15.5699 13.4225 7.93861 7.74471 3.89014 3.75038
threshold=0 1 39.408928571428582 146.50000000000003 7.5000000000000009 33.410714285714299 1957.5000000000002
decision_type=1 1 2 2 2 2 2
left_child=1 3 -3 -1 5 -2 -6
right_child=4 2 -4 -5 6 -7 -8
leaf_value=0.00012657353739390777 0.00035042463315085776 -0.00023101059747714748 0.0002173471021327102 0.00073312246598256818 -0.00047460478931917919 -0.00010913241350587637 -0.00014202751901451561
leaf_weight=57361.200002789497 43894.800014257431 201655.40002807975 217461.39999204874 82375.600012212992 130176.60004240274 84273.800002902746 89788
leaf_count=7056 11406 35800 17900 10844 35396 9054 15744
internal_value=-1.69895e-08 0.000122277 1.62238e-06 0.000484118 -0.00019633 4.82639e-05 -0.000338856
internal_weight=906987 558854 419117 139737 348133 128169 219965
internal_count=143200 71600 53700 17900 71600 20460 51140
cat_boundaries=0 1 2
cat_threshold=6 4
is_linear=0
shrinkage=0.039586


Tree=63
num_leaves=8
num_cat=2
split_feature=1 75 66 69 6 73 18
split_gain=12.8175 15.5762 14.1617 7.04901 3.57786 3.50388 2.70343
threshold=0 1.5000000000000002 1 13.500000000000002 1948.5000000000002 48.400000000000013 -0.97111920233974802
decision_type=1 2 1 2 2 2 2
left_child=1 2 -1 5 -5 -2 -3
right_child=3 6 -4 4 -6 -7 -8
leaf_value=0.0005794057222646428 4.8829103505229496e-05 0.00039288657193499899 8.0280429242879072e-05 -0.0004498905407728378 -0.0001313322353254719 0.0060290869712031434 -0.00044783785110014314
leaf_weight=118694.60001328588 120218.20001628995 6497.2000002264977 356940.60002052784 133499.00004327297 94268 148 76721.200001090765
leaf_count=15340 19374 768 46020 35954 16256 16 9472
internal_value=-1.61991e-08 0.000117437 0.000204856 -0.000188558 -0.000318053 5.64688e-05 -0.000382177
internal_weight=906987 558854 475635 348133 227767 120366 83218.4
internal_count=143200 71600 61360 71600 52210 19390 10240
cat_boundaries=0 1 2
cat_threshold=6 4
is_linear=0
shrinkage=0.039586


Tree=64
num_leaves=8
num_cat=3
split_feature=66 1 25 67 75 1 69
split_gain=12.0484 8.25813 11.0525 9.72787 5.98625 5.96018 2.13708
threshold=0 1 1.0000000180025095e-35 21.963287250384028 1.5000000000000002 2 23.500000000000004
decision_type=1 1 2 2 2 1 2
left_child=1 2 -1 -3 5 -2 -6
right_child=4 3 -4 -5 6 -7 -8
leaf_value=0.00050808697705541784 0.00014736247932825019 0.00032458430300642149 -0.00019283977961493271 -0.00014919988710773878 -0.00035736854161061649 -0.00020715093713601903 -0.00084663616198781412
leaf_weight=143259.80000257492 110199.20000553131 100421.20003044605 46755.80000013113 209741.40001386404 48844.199997782707 228155.20003780723 19610.000006556511
leaf_count=12780 12780 25410 5120 28290 4696 48580 5544
internal_value=-1.37433e-08 0.000130103 0.000335597 4.20002e-06 -0.000159993 -9.16901e-05 -0.000497588
internal_weight=906987 500178 190016 310163 406809 338354 68454.2
internal_count=143200 71600 17900 53700 71600 61360 10240
cat_boundaries=0 1 2 3
cat_threshold=5 4 4
is_linear=0
shrinkage=0.039586


end of trees

feature_importances:
block=89
site_enc=60
days_since_epoch=42
site_x_dow=39
site_dow_mean=36
weekend_x_block=36
site_x_month=29
site_month_block_mean=28
roll_max_91=18
year_frac=13
roll_mean_91=11
dow=8
dow_sin=5
aqi=4
days_since_july4=3
is_weekend=3
roll_mean_28=3
temp_min=3
year=3
cdc_ili_rate=2
day_of_year=2
days_since_xmas=2
days_until_school_start=2
doy_cos=2
lag_rate_77=2
temp_range=2
days_since_school_start=1
is_covid_era=1
lag_rate_364=1
roll_max_28=1
roll_max_56=1
roll_std_56=1
school_in_session=1
temp_max=1

parameters:
[boosting: gbdt]
[objective: regression]
[metric: l2]
[tree_learner: serial]
[device_type: cpu]
[data_sample_strategy: bagging]
[data: ]
[valid: ]
[num_iterations: 1485]
[learning_rate: 0.039586]
[num_leaves: 113]
[num_threads: 12]
[seed: 0]
[deterministic: 0]
[force_col_wise: 0]
[force_row_wise: 0]
[histogram_pool_size: -1]
[max_depth: 3]
[min_data_in_leaf: 20]
[min_sum_hessian_in_leaf: 3]
[bagging_fraction: 0.75318]
[pos_bagging_fraction: 1]
[neg_bagging_fraction: 1]
[bagging_freq: 0]
[bagging_seed: 3]
[bagging_by_query: 0]
[feature_fraction: 0.733096]
[feature_fraction_bynode: 1]
[feature_fraction_seed: 2]
[extra_trees: 0]
[extra_seed: 6]
[early_stopping_round: 0]
[early_stopping_min_delta: 0]
[first_metric_only: 0]
[max_delta_step: 0]
[lambda_l1: 0]
[lambda_l2: 5.72702]
[linear_lambda: 0]
[min_gain_to_split: 0]
[drop_rate: 0.1]
[max_drop: 50]
[skip_drop: 0.5]
[xgboost_dart_mode: 0]
[uniform_drop: 0]
[drop_seed: 4]
[top_rate: 0.2]
[other_rate: 0.1]
[min_data_per_group: 100]
[max_cat_threshold: 32]
[cat_l2: 10]
[cat_smooth: 10]
[max_cat_to_onehot: 4]
[top_k: 20]
[monotone_constraints: ]
[monotone_constraints_method: basic]
[monotone_penalty: 0]
[feature_contri: ]
[forcedsplits_filename: ]
[refit_decay_rate: 0.9]
[cegb_tradeoff: 1]
[cegb_penalty_split: 0]
[cegb_penalty_feature_lazy: ]
[cegb_penalty_feature_coupled: ]
[path_smooth: 0]
[interaction_constraints: ]
[verbosity: -1]
[saved_feature_importance_type: 0]
[use_quantized_grad: 0]
[num_grad_quant_bins: 4]
[quant_train_renew_leaf: 0]
[stochastic_rounding: 1]
[linear_tree: 0]
[max_bin: 255]
[max_bin_by_feature: ]
[min_data_in_bin: 3]
[bin_construct_sample_cnt: 200000]
[data_random_seed: 1]
[is_enable_sparse: 1]
[enable_bundle: 1]
[use_missing: 1]
[zero_as_missing: 0]
[feature_pre_filter: 1]
[pre_partition: 0]
[two_round: 0]
[header: 0]
[label_column: ]
[weight_column: ]
[group_column: ]
[ignore_column: ]
[categorical_feature: 1,66]
[forcedbins_filename: ]
[precise_float_parser: 0]
[parser_config_file: ]
[objective_seed: 5]
[num_class: 1]
[is_unbalance: 0]
[scale_pos_weight: 1]
[sigmoid: 1]
[boost_from_average: 1]
[reg_sqrt: 0]
[alpha: 0.9]
[fair_c: 1]
[poisson_max_delta_step: 0.7]
[tweedie_variance_power: 1.5]
[lambdarank_truncation_level: 30]
[lambdarank_norm: 1]
[label_gain: ]
[lambdarank_position_bias_regularization: 0]
[eval_at: ]
[multi_error_top_k: 1]
[auc_mu_weights: ]
[num_machines: 1]
[local_listen_port: 12400]
[time_out: 120]
[machine_list_filename: ]
[machines: ]
[gpu_platform_id: -1]
[gpu_device_id: -1]
[gpu_use_dp: 0]
[num_gpu: 1]

end of parameters

pandas_categorical:[]
